tree
version=v3
num_class=1
num_tree_per_iteration=1
label_index=0
max_feature_idx=15
objective=binary sigmoid:1
feature_names=idade cs_raca cs_sexo prior_tb hiv diabetes other_dishx drug_yn alcohol_yn tobacco_yn benef_gov n_sub_abuse educ_cat_12+_years educ_cat_5-9_years educ_cat_9-12_years educ_cat_under_5
feature_infos=[18:100] [0:1] [0:1] [0:1] [0:1] [0:1] [0:1] [0:1] [0:1] [0:1] [0:1] [0:3] [0:1] [0:1] [0:1] [0:1]
tree_sizes=3139 3554 3538 3550 3541 3578 3559 3550 3559 3514 3536 3549 3547 3526 3483 3474 3441 3451 3433 3410 3426 3431 3453 3448 3438 3432 3440

Tree=0
num_leaves=31
num_cat=0
split_feature=3 4 11 11 13 4 0 11 1 0 1 1 7 2 1 2 13 0 6 4 7 7 7 6 6 7 0 0 1 13
split_gain=7859.52 4319.96 2799.99 935.897 929.236 494.24 469.307 455.699 392.405 298.033 272.932 234.276 228.648 227.69 204.266 184.21 121.835 98.6578 87.3859 85.6998 73.6642 72.598 72.4033 68.6744 68.2825 60.4713 70.3221 52.456 49.8904 49.825
threshold=1.0000000180025095e-35 1.0000000180025095e-35 1.0000000180025095e-35 1.0000000180025095e-35 1.0000000180025095e-35 1.0000000180025095e-35 66.500000000000014 1.5000000000000002 1.0000000180025095e-35 69.500000000000014 1.0000000180025095e-35 1.0000000180025095e-35 1.0000000180025095e-35 1.0000000180025095e-35 1.0000000180025095e-35 1.0000000180025095e-35 1.0000000180025095e-35 80.500000000000014 1.0000000180025095e-35 1.0000000180025095e-35 1.0000000180025095e-35 1.0000000180025095e-35 1.0000000180025095e-35 1.0000000180025095e-35 1.0000000180025095e-35 1.0000000180025095e-35 67.500000000000014 73.500000000000014 1.0000000180025095e-35 1.0000000180025095e-35
decision_type=2 2 2 2 2 2 2 2 2 2 2 2 2 2 2 2 2 2 2 2 2 2 2 2 2 2 2 2 2 2
left_child=1 2 4 5 9 16 8 14 18 10 23 22 19 -10 27 -12 -2 28 -6 -5 29 -9 -3 -1 -17 26 -16 -4 -8 -13
right_child=3 11 7 12 6 -7 17 21 13 -11 15 20 -14 -15 25 24 -18 -19 -20 -21 -22 -23 -24 -25 -26 -27 -28 -29 -30 -31
leaf_value=-0.26470234493369293 0.049626446292959731 0.061080283499158554 -0.090840423761131522 0.21339323573714475 -0.19619966050588311 0.28954796465642674 -0.073072250286578821 0.068605071165906792 -0.1378940684589208 -0.035867562081554165 -0.21561365855602505 0.16828854818339217 0.34867689995920664 -0.049751942388980508 0.0019071933105144006 -0.14181578077198861 0.12931857898025692 0.14156452163399688 -0.038470792163907967 0.34689050221289425 0.32794229645197392 0.14472905019571791 0.23698991821018517 -0.13207857538553666 -0.024682637753711777 0.097844094431698503 0.12838041437527922 0.15281243154138063 0.032830925101699965 0.23886464120951753
leaf_weight=4053.25 2861.25 1281.25 2204 3035.75 3633.75 1452 549.5 1996.5 3684.25 1205.75 3904.75 1475 2671.75 9285.25 5433.5 5931.25 4353.75 611.75 346.25 504.75 560 2590.5 252 384.75 484.5 825.5 426.75 82.5 1475 2310.5
leaf_count=16213 11445 5125 8816 12143 14535 5808 2198 7986 14737 4823 15619 5900 10687 37141 21734 23725 17415 2447 1385 2019 2240 10362 1008 1539 1938 3302 1707 330 5900 9242
internal_value=0.000121659 -0.052219 -0.0813119 0.193553 -0.125552 0.129853 -0.0817626 0.0346778 -0.100077 -0.179275 -0.190991 0.190814 0.282422 -0.0747905 -0.00464609 -0.164238 0.0977151 0.0359884 -0.182478 0.232425 0.226388 0.111596 0.0899922 -0.253205 -0.13297 0.0218254 0.0111171 -0.0820491 0.00408615 0.211365
internal_weight=0 54988 49109.2 14879.2 35550 8667 19585.8 13559.2 16949.5 15964.2 14758.5 5878.75 6212.25 12969.5 8972.25 10320.5 7215 2636.25 3980 3540.5 4345.5 4587 1533.25 4438 6415.75 6685.75 5860.25 2286.5 2024.5 3785.5
internal_count=279469 219952 196437 59517 142200 34668 78343 54237 67798 63857 59034 23515 24849 51878 35889 41282 28860 10545 15920 14162 17382 18348 6133 17752 25663 26743 23441 9146 8098 15142
is_linear=0
shrinkage=1


Tree=1
num_leaves=31
num_cat=0
split_feature=3 4 11 11 0 1 13 4 7 4 1 0 2 1 2 12 0 2 1 0 1 6 11 13 11 12 1 13 6 6
split_gain=3910.22 2141.01 1385.09 488.108 473.663 379.125 257.195 254.713 237.765 130.811 119.506 117.519 112.255 98.8214 97.8427 92.2483 87.2485 69.6739 67.8648 65.3715 57.2173 50.7951 49.1558 47.6117 46.7364 46.1794 44.9838 42.927 39.6029 39.1063
threshold=1.0000000180025095e-35 1.0000000180025095e-35 1.0000000180025095e-35 1.0000000180025095e-35 63.500000000000007 1.0000000180025095e-35 1.0000000180025095e-35 1.0000000180025095e-35 1.0000000180025095e-35 1.0000000180025095e-35 1.0000000180025095e-35 77.500000000000014 1.0000000180025095e-35 1.0000000180025095e-35 1.0000000180025095e-35 1.0000000180025095e-35 42.500000000000007 1.0000000180025095e-35 1.0000000180025095e-35 63.500000000000007 1.0000000180025095e-35 1.0000000180025095e-35 1.5000000000000002 1.0000000180025095e-35 1.5000000000000002 1.0000000180025095e-35 1.0000000180025095e-35 1.0000000180025095e-35 1.0000000180025095e-35 1.0000000180025095e-35
decision_type=2 2 2 2 2 2 2 2 2 2 2 2 2 2 2 2 2 2 2 2 2 2 2 2 2 2 2 2 2 2
left_child=1 2 4 7 5 14 15 18 13 16 -3 20 28 24 -1 17 -5 -7 -2 27 -6 25 -12 -20 -4 -16 -10 -15 -8 -14
right_child=3 10 8 9 11 6 12 -9 26 -11 22 -13 29 19 21 -17 -18 -19 23 -21 -22 -23 -24 -25 -26 -27 -28 -29 -30 -31
leaf_value=-0.20309223920924141 0.014035251560368995 0.063162140804885483 -0.073052462480713981 0.21420404387744629 -0.088758861620899451 -0.14558480052311357 -0.111207609614403 0.20748906059977817 0.032753770224691857 0.29271514173224111 0.14882660917916729 0.068399856532812151 -0.042125084791432378 -0.023847919131601652 -0.13393694236603695 -0.20916636304801375 0.13288300450758453 -0.090033455987275954 0.048930278036314508 0.095950163915370076 -0.0085749342334104674 -0.023688843638770888 0.24660318010368149 0.10587782432017727 0.033182327141289061 -0.2503849861373359 0.10821740477159907 0.026069782450809389 -0.009193546545757875 0.036001653813117269
leaf_weight=2928.1125640422106 1599.1288727372885 1528.5502660572529 1960.1495625972748 2909.6455657184124 1146.0777644068003 3176.1920918673277 3123.6276262402534 1421.9870781898499 956.99550318717957 1167.8001851588488 3759.9725753366947 1420.3601197004318 8354.8286962509155 2516.3944553434849 4272.756532266736 934.59787341952324 2006.0329247117043 5640.6666051894426 2138.6830055713654 836.79576493799686 2659.5387050956488 349.6929894387722 527.69622299075127 3457.2754907011986 460.20826801657677 330.1823902130127 2764.8437447547913 4039.2456946372986 384.66849690675735 619.36663690209389
leaf_count=11868 6413 6133 7858 11892 4608 12853 12554 5808 3844 4814 15223 5695 33440 10068 17315 3770 8143 22669 8560 3355 10657 1402 2159 13887 1843 1344 11108 16161 1546 2479
internal_value=0 -0.0368817 -0.0573578 0.137399 -0.0886115 -0.10308 -0.0830396 0.0914679 0.0242495 0.20246 0.135184 -0.00523873 -0.0545209 -0.000238545 -0.159619 -0.119545 0.181018 -0.110045 0.0685383 0.0169879 -0.0327227 -0.133916 0.16086 0.0841134 -0.0528529 -0.14229 0.0888135 0.00690878 -0.100022 -0.0367331
internal_weight=0 54691.5 48875.3 14700.6 35340.7 30114.7 22233.9 8617.07 13534.6 6083.48 5816.22 5225.98 12482.5 9812.79 7880.74 9751.46 4915.68 8816.86 7195.09 7392.44 3805.62 4952.63 4287.67 5595.96 2420.36 4602.94 3721.84 6555.64 3508.3 8974.2
internal_count=279469 219952 196437 59517 142200 121240 89311 34668 54237 24849 23515 20960 50019 39285 31929 39292 20035 35522 28860 29584 15265 20061 17382 22447 9701 18659 14952 26229 14100 35919
is_linear=0
shrinkage=0.3


Tree=2
num_leaves=31
num_cat=0
split_feature=3 4 11 7 13 4 11 0 6 1 1 11 13 1 15 2 0 0 13 6 0 11 1 10 2 0 0 6 0 5
split_gain=1978.78 1073.61 692.21 316.062 286.386 153.163 146.232 144.416 118.283 101.678 85.7861 81.9924 72.6422 69.0046 66.3864 58.0005 50.2669 48.3139 48.2604 45.4321 41.5487 41.1859 38.1233 36.1378 34.6184 32.2767 32.2854 31.846 34.9172 30.0694
threshold=1.0000000180025095e-35 1.0000000180025095e-35 1.0000000180025095e-35 1.0000000180025095e-35 1.0000000180025095e-35 1.0000000180025095e-35 1.5000000000000002 62.500000000000007 1.0000000180025095e-35 1.0000000180025095e-35 1.0000000180025095e-35 1.5000000000000002 1.0000000180025095e-35 1.0000000180025095e-35 1.0000000180025095e-35 1.0000000180025095e-35 43.500000000000007 70.500000000000014 1.0000000180025095e-35 1.0000000180025095e-35 86.500000000000014 1.5000000000000002 1.0000000180025095e-35 1.0000000180025095e-35 1.0000000180025095e-35 77.500000000000014 35.500000000000007 1.0000000180025095e-35 26.500000000000004 1.0000000180025095e-35
decision_type=2 2 2 2 2 2 2 2 2 2 2 2 2 2 2 2 2 2 2 2 2 2 2 2 2 2 2 2 2 2
left_child=1 2 4 5 8 11 18 10 9 23 27 13 22 -2 17 -12 19 -11 -4 -15 -9 -14 -3 -1 -5 26 -20 28 -6 -17
right_child=3 12 6 24 7 -7 -8 20 -10 14 15 -13 21 16 -16 29 -18 -19 25 -21 -22 -23 -24 -25 -26 -27 -28 -29 -30 -31
leaf_value=-0.14476812637543704 0.0088137284382424786 -0.0027142740201810778 -0.032437082290715825 0.26918826830213649 -0.049040872205259295 0.15886711295889466 0.060867316903259125 0.0084709385049605221 -0.014785244833451824 -0.10619190491674856 -0.071884082392853071 0.16766771594335331 0.11206114399274149 0.082859963485596475 -0.049769890008262097 -0.021512735870483374 0.042042995090950649 0.07292102290304292 0.043607965799400746 0.19591875501940123 0.14534287099115945 0.20983397033785947 0.081213349460460466 0.062955606151391216 0.17939020641203793 0.1818808835002528 -0.0065869913525374866 0.0023293488455449936 -0.11812301170399182 -0.095631452684245291
leaf_weight=4131.8717030733824 2065.4249492883682 695.66563901305199 3539.9723963886499 479.86527200043201 901.29210169613361 1822.3429698050022 4546.6055386662483 3254.2642738521099 1555.6900554895401 6454.7916156351566 3420.4239545464516 647.07684499025345 2937.2641893923283 3889.2410899400711 3200.2333960682154 8337.2362901866436 3132.8300153762102 138.4450336098671 1694.7461973577738 348.55582122504711 212.64773011207581 446.72499871253967 1624.766145914793 76.776355057954788 1983.3410366028547 99.535548210144043 3609.5214159786701 301.21806544065475 2444.3751820772886 523.55433717370033
leaf_count=17263 8353 2801 14205 2092 3717 7827 18348 13075 6309 26410 13880 2682 12112 15814 13001 33415 12727 554 6803 1427 860 1896 6706 320 8595 402 14479 1213 10085 2098
internal_value=0 -0.0261677 -0.0406636 0.0990654 -0.0629425 0.078827 0.01706 -0.0386213 -0.0932623 -0.101981 -0.0506987 0.0643612 0.0969346 0.057277 -0.0852227 -0.0387013 0.0708575 -0.102431 -0.00520968 0.092159 0.0168662 0.124968 0.0560518 -0.140979 0.196884 0.0126267 0.00945061 -0.0911012 -0.0995129 -0.0258922
internal_weight=0 54147.6 48443.2 14368.7 34952.8 11905.5 13490.4 19395 15557.8 14002.1 15928.1 10083.1 5704.42 9436.05 9793.47 12281.2 7370.63 6593.24 8943.78 4237.8 3466.91 3383.99 2320.43 4208.65 2463.21 5403.8 5304.27 3646.89 3345.67 8860.79
internal_count=279469 219952 196437 59517 142200 48830 54237 78343 63857 57548 64408 41003 23515 38321 39965 49393 29968 26964 35889 17241 13935 14008 9507 17583 10687 21684 21282 15015 13802 35513
is_linear=0
shrinkage=0.3


Tree=3
num_leaves=31
num_cat=0
split_feature=3 4 11 7 2 0 10 4 7 0 12 6 2 0 1 1 1 6 6 8 1 1 14 0 4 7 1 0 14 11
split_gain=1003.99 539.07 346.311 183.619 181.11 113.3 87.9375 85.3769 80.6077 74.117 70.3851 73.8462 61.5488 58.3553 58.7247 49.488 46.8683 42.2257 36.9419 35.6449 34.4737 33.5794 33.0415 36.1114 32.6274 30.735 29.4919 28.4456 27.6499 26.8951
threshold=1.0000000180025095e-35 1.0000000180025095e-35 1.0000000180025095e-35 1.0000000180025095e-35 1.0000000180025095e-35 74.500000000000014 1.0000000180025095e-35 1.0000000180025095e-35 1.0000000180025095e-35 56.500000000000007 1.0000000180025095e-35 1.0000000180025095e-35 1.0000000180025095e-35 64.500000000000014 1.0000000180025095e-35 1.0000000180025095e-35 1.0000000180025095e-35 1.0000000180025095e-35 1.0000000180025095e-35 1.0000000180025095e-35 1.0000000180025095e-35 1.0000000180025095e-35 1.0000000180025095e-35 29.500000000000004 1.0000000180025095e-35 1.0000000180025095e-35 1.0000000180025095e-35 46.500000000000007 1.0000000180025095e-35 1.0000000180025095e-35
decision_type=2 2 2 2 2 2 2 2 2 2 2 2 2 2 2 2 2 2 2 2 2 2 2 2 2 2 2 2 2 2
left_child=1 2 4 7 6 10 9 12 13 17 11 15 19 14 -4 -6 25 21 20 -2 27 -1 23 -17 -5 -3 -9 -14 -10 -18
right_child=3 16 8 24 5 -7 -8 26 28 -11 -12 -13 18 -15 -16 22 29 -19 -20 -21 -22 -23 -24 -25 -26 -27 -28 -29 -30 -31
leaf_value=-0.13318406294223248 -0.0082686871522262579 0.005771307342964555 -0.054016335693568743 0.1280650731021527 -0.063638440455317399 0.058533058823034265 0.041411302869600257 0.046671041032699784 0.064369299449561324 -0.038161515285413082 -0.12137546183650419 0.029455855029089949 0.04231602735008954 0.064740945251006043 0.0035731368914841757 0.0053033057503362666 0.070284393086267674 -0.028750315954154892 0.11425445214161779 0.11534246382151125 0.062245337277092923 -0.089153372845861764 -0.053385806811674118 -0.031387787099099833 0.20998713696707352 0.12253884678838424 0.13918081054346867 -0.045420701877374341 0.0030658183638992268 0.12334414980430786
leaf_weight=2195.4003652632236 2163.6429645270109 1269.2067601233721 2096.6422264128923 1724.6478672921658 4531.0220890045166 1250.9374708980322 554.30986374616623 404.0571525990963 2805.0376137197018 2734.8354623168707 804.84868076443672 1674.4726755172014 890.37701752781868 1045.8389855623245 6641.8437833040953 3521.8851281404495 2850.6223322451115 783.26426215469837 948.66029527783394 232.5169693082571 5219.7950722873211 5376.3105150312185 3460.8618006259203 7675.5484619438648 586.28644146025181 241.4745520055294 1334.4619716405869 530.87488946318626 866.7790440171957 1231.0833116620779
leaf_count=9518 8793 5125 8450 7892 19128 5039 2292 1819 11429 11166 3442 6714 3617 4228 26607 14161 12022 3211 3961 987 21486 22395 14235 30899 2795 1008 6008 2159 3523 5360
internal_value=0 -0.0185706 -0.0288366 0.0715594 -0.0447328 -0.0292542 -0.0752 0.0563252 0.0119948 -0.0810287 -0.0343222 -0.030964 0.0456435 -0.00222929 -0.0102444 -0.0362363 0.0695796 -0.0950604 0.0588772 0.00372621 0.0509667 -0.10192 -0.027766 -0.0198475 0.148849 0.024436 0.11768 0.00954406 0.0498978 0.0862877
internal_weight=0 53612.2 48019.8 14035.3 34563.7 22919.6 11644.1 11724.4 13456.1 11089.8 21668.6 20863.8 9985.87 9784.32 8738.49 19189.3 5592.39 8354.98 7589.71 2396.16 6641.05 7571.71 14658.3 11197.4 2310.93 1510.68 1738.52 1421.25 3671.82 4081.71
internal_count=279469 219952 196437 59517 142200 93618 48582 48830 54237 46290 88579 85137 41003 39285 35057 78423 23515 35124 31223 9780 27262 31913 59295 45060 10687 6133 7827 5776 14952 17382
is_linear=0
shrinkage=0.3


Tree=4
num_leaves=31
num_cat=0
split_feature=3 4 11 11 12 6 2 4 11 0 0 13 6 10 5 14 0 12 0 13 0 0 0 14 12 0 13 0 1 13
split_gain=508.406 270.386 173.064 121.414 108.058 89.9142 69.7585 61.6188 52.3317 42.4192 39.4139 37.1643 35.2447 32.2327 31.1309 28.0507 27.455 25.8162 23.6188 23.5683 23.5521 26.5599 23.0173 22.9134 26.1517 22.022 20.4747 19.3954 19.1182 18.6801
threshold=1.0000000180025095e-35 1.0000000180025095e-35 1.0000000180025095e-35 1.5000000000000002 1.0000000180025095e-35 1.0000000180025095e-35 1.0000000180025095e-35 1.0000000180025095e-35 1.5000000000000002 41.500000000000007 84.500000000000014 1.0000000180025095e-35 1.0000000180025095e-35 1.0000000180025095e-35 1.0000000180025095e-35 1.0000000180025095e-35 73.500000000000014 1.0000000180025095e-35 78.500000000000014 1.0000000180025095e-35 74.500000000000014 42.500000000000007 79.500000000000014 1.0000000180025095e-35 1.0000000180025095e-35 23.500000000000004 1.0000000180025095e-35 34.500000000000007 1.0000000180025095e-35 1.0000000180025095e-35
decision_type=2 2 2 2 2 2 2 2 2 2 2 2 2 2 2 2 2 2 2 2 2 2 2 2 2 2 2 2 2 2
left_child=1 2 4 7 5 6 13 9 17 12 14 -3 23 16 15 25 19 20 -11 -1 21 -4 -7 24 -2 -8 -10 -16 -9 -30
right_child=3 11 8 -5 -6 22 10 28 26 18 -12 -13 -14 -15 27 -17 -18 -19 -20 -21 -22 -23 -24 -25 -26 -27 -28 -29 29 -31
leaf_value=-0.080849725295180197 0.05619467726080557 0.020360395714264869 0.011971190987761258 0.11578907872407887 -0.10348441898093842 0.011850316827331182 0.01338965463076487 0.035864255822727356 0.0091427348739436289 0.0037858566784755043 0.10638456770108179 0.070506776405571014 0.12137993325353455 0.021617908756625989 0.051627123015681037 -0.041889514791903622 0.003698522993250704 -0.12701382706472999 0.11205881239172316 -0.04828860226570459 0.090981148670486581 -0.021524420987742463 0.10736044679268325 0.0033774326614946018 -0.094098718205441245 -0.019740450173079183 0.050776280228644659 -0.077908476841431124 0.062092362034030374 0.13608618321653074
leaf_weight=3798.6221609264612 3499.2798563092947 2261.040749207139 4128.4752728193998 2220.8811723142862 1791.6180166751146 3087.6178684979677 2133.5187668800354 426.83139418065548 1723.594811052084 4279.9094753414392 208.86736069619656 3230.5995258539915 530.79005554318428 469.13170020282269 113.08362957835197 4506.7819310426712 583.49471454322338 153.05708281695843 189.34808295965195 4226.8295539319515 234.88353686034679 4402.5489442199469 245.11832386255264 1168.2809593677521 107.39692954719067 11753.226739749312 2774.1896818429232 1299.5146232098341 485.45235086977482 835.62969851493835
leaf_count=16553 14657 9507 16608 10582 7908 12467 8660 1980 7012 17617 856 14008 2370 1931 469 18983 2350 617 773 17761 966 17698 993 4802 436 47917 11336 5352 2316 3984
internal_value=0 -0.0131728 -0.0204398 0.0515615 -0.0317629 -0.0278 -0.0331469 0.0391826 0.00843807 0.0299058 -0.0232535 0.0498603 0.0480438 -0.0549594 -0.0246206 -0.0213246 -0.0591323 -0.00486715 0.00837303 -0.0637005 -0.00273441 -0.00531467 0.018875 0.0398916 0.0517194 -0.0146504 0.0348219 -0.0675387 0.091062 0.108896
internal_weight=0 53125.8 47634.2 13743.8 34217.4 32425.8 29093.1 11522.9 13416.7 9775.01 20015 5491.64 5305.75 9078.08 19806.1 18393.5 8608.95 8918.96 4469.26 8025.45 8765.91 8531.02 3332.74 4774.96 3606.68 13886.7 4497.78 1412.6 1747.91 1321.08
internal_count=279469 219952 196437 59517 142200 134292 120832 48935 54237 40655 82237 23515 22265 38595 81381 75560 36664 35889 18390 34314 35272 34306 13460 19895 15093 56577 18348 5821 8280 6300
is_linear=0
shrinkage=0.3


Tree=5
num_leaves=31
num_cat=0
split_feature=3 1 4 11 7 0 6 6 9 0 12 4 1 8 0 13 0 12 15 0 14 14 2 7 0 12 0 15 14 4
split_gain=256.303 137.13 112.126 84.6155 70.579 75.1278 39.6601 35.5654 44.3962 34.6293 33.8586 29.9144 32.5679 27.4617 26.6839 24.474 22.4559 29.4918 20.9002 19.4533 38.1763 18.7747 18.5415 16.4192 15.3558 14.9738 14.8125 14.2472 14.0348 13.8391
threshold=1.0000000180025095e-35 1.0000000180025095e-35 1.0000000180025095e-35 1.0000000180025095e-35 1.0000000180025095e-35 59.500000000000007 1.0000000180025095e-35 1.0000000180025095e-35 1.0000000180025095e-35 41.500000000000007 1.0000000180025095e-35 1.0000000180025095e-35 1.0000000180025095e-35 1.0000000180025095e-35 82.500000000000014 1.0000000180025095e-35 41.500000000000007 1.0000000180025095e-35 1.0000000180025095e-35 29.500000000000004 1.0000000180025095e-35 1.0000000180025095e-35 1.0000000180025095e-35 1.0000000180025095e-35 59.500000000000007 1.0000000180025095e-35 61.500000000000007 1.0000000180025095e-35 1.0000000180025095e-35 1.0000000180025095e-35
decision_type=2 2 2 2 2 2 2 2 2 2 2 2 2 2 2 2 2 2 2 2 2 2 2 2 2 2 2 2 2 2
left_child=1 7 4 6 5 10 9 8 16 21 13 12 -5 19 18 -11 17 28 -7 20 -3 25 -6 -4 -18 -2 -10 -26 -1 -9
right_child=3 2 23 11 22 14 -8 29 26 15 -12 -13 -14 -15 -16 -17 24 -19 -20 -21 -22 -23 -24 -25 27 -27 -28 -29 -30 -31
leaf_value=-0.015455655855745837 0.044105893051102858 0.0083695127469090632 0.040668039360761223 0.0067756300244510813 0.10914480835311002 0.025005109247734143 0.081020694505130553 -0.0071200407411272752 -0.0051415054431275583 -0.047197495005821578 -0.074520629379187298 0.11650155378848583 0.069981354549117927 0.0068560599809748563 0.087748643137380525 0.0078660401628134931 -0.077478512446666675 -0.10075475532797612 -0.01881344394234211 -0.02596378333662773 -0.035169175411384743 -0.0045576669377288982 0.031958867137751659 0.10063705761235864 -0.027274377861839054 -0.064858719334116924 0.082444764277518748 -0.092007632382064053 -0.048312337385316574 0.072291733435970687
leaf_weight=2998.9411631524563 3096.4174487292767 5084.2283970415592 3460.6126116812229 933.71075743436813 317.69723607599735 4221.3362015038729 811.18557424843311 1780.7832183986902 1299.4410205483437 1177.5407822132111 871.64248171448708 900.59329691529274 3425.1847562938929 4509.5428488403559 492.18347826600075 1896.4923579543829 2896.2826793342829 563.10767048597336 1275.7292133718729 13234.946384891868 2816.6860688328743 1149.7454432696104 2366.7943979203701 466.26853105425835 1355.3833253383636 117.82114006578922 200.60788238048553 395.22533847391605 1918.5723263919353 222.1449039876461
leaf_count=12773 13178 20655 15142 4247 1313 17076 3459 7221 5311 4841 3885 4814 15788 18088 2028 7939 12550 2642 5182 54514 11975 4767 9795 2240 5641 484 814 1658 8524 925
internal_value=0 -0.00932216 -0.000292888 0.0369909 -0.00565822 -0.00951915 0.0180323 -0.035235 -0.0415951 0.0111628 -0.0163734 0.0667263 0.0564422 -0.0143971 0.0208277 -0.0132266 -0.0487294 -0.0357217 0.0148359 -0.0189317 -0.00715209 0.028343 0.0410935 0.0477886 -0.0640709 0.0401117 0.00657178 -0.0418889 -0.0282747 0.00168752
internal_weight=0 52748.2 39117.7 13508.7 35190.8 32506.3 8249.2 13630.5 11627.6 7438.02 26517 5259.49 4358.9 25645.4 5989.25 3074.03 10127.5 5480.62 5497.07 21135.9 7900.91 4363.98 2684.49 3926.88 4646.89 3214.24 1500.05 1750.61 4917.51 2002.93
internal_count=279469 219952 161893 59517 144511 133403 34668 58059 49913 31209 109117 24849 20035 105232 24286 12780 43788 23939 22258 87144 32630 18429 11108 17382 19849 13662 6125 7299 21297 8146
is_linear=0
shrinkage=0.3


Tree=6
num_leaves=31
num_cat=0
split_feature=4 3 1 11 7 0 11 6 2 2 13 2 13 2 0 0 1 1 6 8 9 7 10 7 5 0 9 6 0 9
split_gain=131.945 90.8845 64.407 41.8634 41.1807 39.4303 33.7523 28.2496 27.8569 25.6188 25.0299 21.3546 18.7572 18.6836 18.0523 16.6101 14.5349 13.9069 13.2758 33.2167 17.1987 13.2086 12.7852 12.7803 12.5117 16.397 12.3164 12.1602 22.99 12.6269
threshold=1.0000000180025095e-35 1.0000000180025095e-35 1.0000000180025095e-35 1.5000000000000002 1.0000000180025095e-35 70.500000000000014 1.0000000180025095e-35 1.0000000180025095e-35 1.0000000180025095e-35 1.0000000180025095e-35 1.0000000180025095e-35 1.0000000180025095e-35 1.0000000180025095e-35 1.0000000180025095e-35 33.500000000000007 29.500000000000004 1.0000000180025095e-35 1.0000000180025095e-35 1.0000000180025095e-35 1.0000000180025095e-35 1.0000000180025095e-35 1.0000000180025095e-35 1.0000000180025095e-35 1.0000000180025095e-35 1.0000000180025095e-35 33.500000000000007 1.0000000180025095e-35 1.0000000180025095e-35 60.500000000000007 1.0000000180025095e-35
decision_type=2 2 2 2 2 2 2 2 2 2 2 2 2 2 2 2 2 2 2 2 2 2 2 2 2 2 2 2 2 2
left_child=1 2 8 5 7 9 13 10 21 12 -2 -6 22 -3 -8 -12 -17 -16 24 20 -20 -1 -4 -14 26 -26 -11 29 -29 -10
right_child=4 6 3 -5 11 -7 14 -9 27 18 15 -13 23 -15 17 16 -18 -19 19 -21 -22 -23 -24 -25 25 -27 -28 28 -30 -31
leaf_value=-0.054492432432331379 -0.003448574898028689 -0.017871101874753839 -0.043788031439210395 0.0277673256362031 0.15644104858807392 0.030090415657540902 0.067852590664809573 0.083238362387279927 -0.029882284821526862 -0.0071561993170767444 0.080829027367593329 0.064858144908830725 -0.012768869131110141 0.016459351491356938 -0.013037940230882065 -0.01196826142163324 0.039863244858288502 0.037760812400896793 0.017173205363228101 0.10529972579810055 -0.053191656960447295 0.050406331894172152 0.02641268960708687 0.12239035570458258 0.079873564276985429 -0.047324264704983382 0.029004469952503942 -0.020002173671956169 0.070064462828183752 0.0050785410582379108
leaf_weight=3541.0550952255726 2256.7423954159021 1994.007178619504 3721.2132449299097 3377.5584544539452 315.58626021444798 2342.3827423751354 1441.3334870040417 740.55760143697262 6078.111768886447 16851.117436558008 643.63191190361977 836.54988442361355 4212.5933152288198 5015.0962097793818 621.49522599577904 647.21193431317806 1966.2168069779873 2208.9032899588346 1420.1665759533644 328.70884491503239 400.87321805953979 111.43332378566265 249.12015201151371 63.919262081384659 99.376688227057457 1110.0796019881964 892.62371946871281 812.28328531980515 371.82338827848434 1097.6809018552303
leaf_count=15895 9820 8133 16312 13949 1705 9518 7086 3418 26330 68729 2937 4338 17512 20727 2765 2744 9175 10184 5719 1317 1607 453 1034 267 405 4565 3577 3282 1503 4463
internal_value=0 -0.00468204 -0.0104769 -0.00398292 0.0378243 -0.00736667 0.0195035 0.0282232 -0.0294357 -0.0103561 0.0208341 0.089944 -0.0245344 0.00669274 0.0405234 0.0376591 0.0270272 0.0266065 -0.00481532 0.017527 0.00168349 -0.0512921 -0.0393833 -0.0107487 -0.00734947 -0.0368729 -0.00533709 -0.0198865 0.00827981 -0.0245343
internal_weight=0 58363 47082.1 35069.7 7406.5 31692.2 11280.8 6254.36 12012.4 29349.8 5513.8 1152.14 8246.85 7009.1 4271.73 3257.06 2613.43 2830.4 21102.9 2149.75 1821.04 3652.49 3970.33 4276.51 18953.2 1209.46 17743.7 8359.9 1184.11 7175.79
internal_count=279469 245332 196437 144511 34137 130562 48895 28094 51926 121044 24676 6043 35125 28860 20035 14856 11919 12949 85919 8643 7326 16348 17346 17779 77276 4970 72306 35578 4785 30793
is_linear=0
shrinkage=0.3


Tree=7
num_leaves=31
num_cat=0
split_feature=13 4 12 6 9 11 1 5 11 3 3 4 10 9 0 11 0 10 2 5 7 9 6 0 1 0 1 0 0 0
split_gain=70.7671 48.5902 43.5608 34.4544 37.0894 30.0253 21.6854 17.6564 16.3415 15.268 14.6513 14.6053 11.4424 11.3171 13.9458 12.2594 11.1939 12.1362 11.006 10.4292 10.3511 9.8637 11.7625 9.95647 10.2376 9.39371 9.35858 10.2905 9.32839 8.75238
threshold=1.0000000180025095e-35 1.0000000180025095e-35 1.0000000180025095e-35 1.0000000180025095e-35 1.0000000180025095e-35 2.5000000000000004 1.0000000180025095e-35 1.0000000180025095e-35 1.5000000000000002 1.0000000180025095e-35 1.0000000180025095e-35 1.0000000180025095e-35 1.0000000180025095e-35 1.0000000180025095e-35 76.500000000000014 1.5000000000000002 64.500000000000014 1.0000000180025095e-35 1.0000000180025095e-35 1.0000000180025095e-35 1.0000000180025095e-35 1.0000000180025095e-35 1.0000000180025095e-35 28.500000000000004 1.0000000180025095e-35 57.500000000000007 1.0000000180025095e-35 25.500000000000004 69.500000000000014 78.500000000000014
decision_type=2 2 2 2 2 2 2 2 2 2 2 2 2 2 2 2 2 2 2 2 2 2 2 2 2 2 2 2 2 2
left_child=2 3 5 4 10 6 -1 8 21 -7 26 18 -10 19 15 -15 17 -6 20 -5 -8 22 23 -3 -25 -23 27 -2 -28 -4
right_child=1 7 29 13 16 9 11 -9 12 -11 -12 -13 -14 14 -16 -17 -18 -19 -20 -21 -22 25 -24 24 -26 -27 28 -29 -30 -31
leaf_value=-0.024651963835903058 0.010789319578314209 0.068114798750072772 -0.052964127804517216 0.044629732567535989 0.027933783977246541 0.0241479111258871 -0.022044501195558387 -0.073993576913412198 0.097148168570423646 0.12246457631414039 0.011197947973047177 0.020965169948979477 -0.091297730332719026 -0.029925895468965867 0.17530518622541749 0.028547398389134039 0.083067802748752972 -0.042915200699388541 -0.0021680697466362822 -0.0018879843457434531 0.061730423741478781 -0.0659883992991388 0.087894349530511215 -0.010024788154549175 0.034300106759490523 0.17442291900256787 -0.0056768085886436601 -0.025829293073853482 0.021396272161226991 0.10006206295514376
leaf_weight=6376.6741064935923 849.28689511120319 542.90850089490414 2306.8053756207228 2874.1784270703793 3348.2638929635286 446.45241685211658 4469.6657789051533 122.14179134368896 569.30972817540169 208.56947898864746 4951.9420298933983 1850.5796429663897 30.555563986301422 642.47596856951714 41.900369003415108 648.34767019748688 306.4640956223011 232.72407099604607 11343.068880602717 510.86817826330662 136.80307108163834 137.14543126523495 370.0928849875927 623.40128646790981 1893.0869019776583 16.373869746923447 14549.27581602335 3698.2170394361019 1243.3299696147442 34.136320129036903
leaf_count=27899 3635 2558 10588 12044 14400 1905 19294 582 3150 1152 21139 8464 169 2641 181 2788 1283 987 47245 2087 632 656 1832 2648 8994 77 59243 15997 5061 138
internal_value=0 0.00841616 -0.0116116 0.00460326 0.000757423 -0.00792354 -0.00964061 0.0384386 0.0417217 0.0554535 -0.0034358 -0.00426298 0.0875492 0.0283898 0.00497276 -0.000556257 0.0280388 0.0233294 -0.00719013 0.0376093 -0.0195566 0.0340492 0.0373796 0.0312688 0.0233196 -0.0403469 -0.00699848 -0.0189904 -0.00354538 -0.0507327
internal_weight=0 38202.3 27172.8 33897.3 29179.5 24831.8 24176.8 4305.02 4182.87 655.022 25292.1 17800.1 599.865 4717.77 1332.72 1290.82 3887.45 3580.99 15949.5 3385.05 4606.47 3583.01 3429.49 3059.4 2516.49 153.519 20340.1 4547.5 15792.6 2340.94
internal_count=279469 162152 117317 141486 121745 106591 103534 20666 20084 3057 105075 75635 3319 19741 5610 5429 16670 15387 67171 14131 19926 16765 16032 14200 11642 733 83936 19632 64304 10726
is_linear=0
shrinkage=0.3


Tree=8
num_leaves=31
num_cat=0
split_feature=3 0 13 8 11 12 0 6 0 0 0 7 9 13 10 4 2 0 14 0 8 2 5 0 1 9 9 0 2 0
split_gain=50.1124 30.8391 26.7773 18.1772 17.4202 14.988 14.028 13.9959 13.2105 12.8367 15.7738 12.9786 12.6001 10.8495 10.8254 9.66137 9.67421 11.0775 23.5634 10.5707 9.50887 10.5327 10.4114 8.63778 8.76168 8.29486 8.09516 8.71524 7.78683 8.73961
threshold=1.0000000180025095e-35 46.500000000000007 1.0000000180025095e-35 1.0000000180025095e-35 2.5000000000000004 1.0000000180025095e-35 74.500000000000014 1.0000000180025095e-35 81.500000000000014 58.500000000000007 36.500000000000007 1.0000000180025095e-35 1.0000000180025095e-35 1.0000000180025095e-35 1.0000000180025095e-35 1.0000000180025095e-35 1.0000000180025095e-35 38.500000000000007 1.0000000180025095e-35 20.500000000000004 1.0000000180025095e-35 1.0000000180025095e-35 1.0000000180025095e-35 26.500000000000004 1.0000000180025095e-35 1.0000000180025095e-35 1.0000000180025095e-35 33.500000000000007 1.0000000180025095e-35 86.500000000000014
decision_type=2 2 2 2 2 2 2 2 2 2 2 2 2 2 2 2 2 2 2 2 2 2 2 2 2 2 2 2 2 2
left_child=2 3 5 7 9 8 13 23 14 10 -4 20 28 -3 15 16 -1 18 -18 -20 22 -22 -12 -2 -25 -9 27 -5 -11 -30
right_child=1 6 4 26 -6 -7 -8 25 -10 12 11 -13 -14 -15 -16 -17 17 -19 19 -21 21 -23 -24 24 -26 -27 -28 -29 29 -31
leaf_value=-0.025382856905346755 0.031615098853352244 -0.028803192287951102 0.0051388753723869392 0.065712228247338647 0.047724792443641965 -0.036502248456389073 0.055087480612967886 0.074761308465508103 0.055550750099619919 -0.009159823185235727 -0.013819777517868741 0.036927489505513993 0.04901017743984927 0.0033409623077812422 0.025755580337642324 0.0083278128295774592 0.030712667769333322 -0.018435863996633117 -0.046469412865083048 -0.0054652758395615023 0.061273960631814284 -0.0030648245516378182 -0.04770868635908395 -0.018413209079817635 0.014310664372166524 -0.011075810169850145 0.075091044677976157 0.017786236403455755 0.013069208117884161 0.096492551319326589
leaf_weight=4889.0427536815405 1796.1828056126833 1537.1485351026058 11878.220923706889 570.12678948044777 722.90325671434402 2048.3948235362768 332.5843915194273 566.45246118307114 276.62210516631603 1651.8824521005154 7493.5245706290007 498.78634136915207 766.98977990448475 2453.3320755064487 715.36916130781174 1920.4314482212067 1607.5290790051222 6189.2665332853794 670.51279470324516 3624.4274494796991 252.69703567028046 2441.9727397859097 915.59017337858677 960.09154371917248 3160.2418627738953 123.39269562065601 776.70743541419506 851.54464142024517 3301.8270658403635 117.02691726386547
leaf_count=21952 7853 6567 49627 2893 3206 9633 1394 2828 1122 6776 31479 2196 3181 10729 2970 8272 6631 25772 2868 15361 1050 9994 3864 4141 14106 622 4236 4148 13483 515
internal_value=0 0.0166435 -0.0041006 0.026832 0.00171839 -0.0120677 -0.00410752 0.0189689 -0.00955167 0.000584018 -0.00254597 -0.0104134 0.0131736 -0.00904109 -0.0104697 -0.0118408 -0.0141217 -0.0095685 -0.000270281 -0.0118667 -0.01254 0.00296865 -0.0175096 0.0142539 0.00668557 0.0594076 0.0504617 0.0370058 0.00775302 0.0159248
internal_weight=0 13127.8 51983 8804.74 30041.4 21941.6 4323.07 6606.36 19893.2 29318.5 23480.8 11602.6 5837.73 3990.48 19616.6 18901.2 16980.8 12091.7 5902.47 4294.94 11103.8 2694.67 8409.11 5916.52 4120.33 689.845 2198.38 1421.67 5070.74 3418.85
internal_count=279469 59517 219952 40827 125371 94581 18690 29550 84948 122165 98210 48583 23955 17296 83826 80856 72584 50632 24860 18229 46387 11044 35343 26100 18247 3450 11277 7041 20774 13998
is_linear=0
shrinkage=0.3


Tree=9
num_leaves=31
num_cat=0
split_feature=4 1 11 6 2 3 2 0 5 3 0 10 0 0 0 0 0 8 0 0 7 9 11 0 2 10 0 11 5 11
split_gain=28.9654 24.4872 16.6182 15.931 13.1084 12.4401 10.735 10.4117 10.2962 10.0989 10.642 10.0391 9.55825 9.4012 8.99369 8.89829 8.6493 8.52368 9.41724 8.462 9.66688 10.2753 9.65443 8.36442 8.18528 9.86622 7.99993 9.22747 7.94836 7.45817
threshold=1.0000000180025095e-35 1.0000000180025095e-35 1.0000000180025095e-35 1.0000000180025095e-35 1.0000000180025095e-35 1.0000000180025095e-35 1.0000000180025095e-35 20.500000000000004 1.0000000180025095e-35 1.0000000180025095e-35 82.500000000000014 1.0000000180025095e-35 28.500000000000004 78.500000000000014 19.500000000000004 20.500000000000004 42.500000000000007 1.0000000180025095e-35 74.500000000000014 52.500000000000007 1.0000000180025095e-35 1.0000000180025095e-35 1.5000000000000002 25.500000000000004 1.0000000180025095e-35 1.0000000180025095e-35 81.500000000000014 1.0000000180025095e-35 1.0000000180025095e-35 2.5000000000000004
decision_type=2 2 2 2 2 2 2 2 2 2 2 2 2 2 2 2 2 2 2 2 2 2 2 2 2 2 2 2 2 2
left_child=1 6 3 4 28 8 11 -4 17 29 -11 15 14 -6 -8 -1 -7 18 -2 20 21 -17 -22 -5 25 -19 -14 -28 -3 -9
right_child=5 2 7 23 13 16 12 9 -10 10 -12 -13 26 -15 -16 19 -18 24 -20 -21 22 -23 -24 -25 -26 -27 27 -29 -30 -31
leaf_value=0.025860847808446965 0.0057989431025563037 -0.017948006717253741 0.055562734402576898 0.067642913002333702 -0.0015240459634587838 0.052459034164054834 -0.040560844882904838 0.0014958001523037181 -0.063430039640726799 0.022659923193638822 0.3922354344985462 0.050461479120305755 -0.014488064035962157 0.042214604137587965 0.014929881128071101 -0.041439597862918037 0.0097187166353196099 0.11298828329062868 0.21195533485000337 -0.01280923841623609 0.14494514390670235 -0.11645754485102094 -0.026539907558388563 0.013111183446181219 0.024901233120319482 -0.18487273622015821 0.025675680863469646 0.24335236823536641 0.013401332126693513 0.033265226134800707
leaf_weight=252.00961931049824 4071.781887665391 7362.1832689642906 441.43239648640156 278.75861014425755 18588.491411566734 1309.5722549557686 298.24182304739952 8885.9668350666761 164.50460423529148 3125.600848197937 7.0280510783195487 149.60283529758453 7463.4747101515532 453.05723761022091 2216.3539988696575 2129.8113844096661 631.68769463896751 170.58504186570644 20.040334075689316 1296.6181823909283 47.46277704834938 178.06416171789169 78.277971878647804 2755.7406211644411 800.04349611699581 10.63223412632942 162.18298594653606 19.650313675403595 807.74623277783394 718.85378764569759
leaf_count=1188 17998 31835 1915 1167 76580 7272 1306 36121 722 15330 33 624 32083 1899 9648 10093 3350 846 88 5591 209 737 356 11341 3809 52 667 84 3444 3081
internal_value=0 -0.00216822 0.00137676 -0.00249715 -0.00479635 0.0180382 -0.0129395 0.0102675 0.0104353 0.00869774 0.0234891 -0.0258325 -0.00769616 -0.000483368 0.00834844 -0.0286986 0.0385513 0.0128305 0.00680863 -0.0323846 -0.0428142 -0.0472276 0.0381898 0.0181206 0.0379416 0.0955124 -0.0129733 0.0491995 -0.0148486 0.00387352
internal_weight=0 57716.6 43424.9 30246 27211.5 7178.85 14291.8 13178.9 5237.59 12737.4 3132.63 4131.85 10159.9 19041.5 2514.6 3982.24 1941.26 5073.08 4091.82 3730.23 2433.62 2307.88 125.741 3034.5 981.261 181.217 7645.31 181.833 8169.93 9604.82
internal_count=279469 245332 182746 126266 113758 34137 62586 56480 23515 54565 15363 18798 43788 78479 10954 18174 10622 22793 18086 16986 11395 10830 565 12508 4707 898 32834 751 35279 39202
is_linear=0
shrinkage=0.3


Tree=10
num_leaves=31
num_cat=0
split_feature=6 9 9 0 1 7 0 0 10 10 0 14 0 0 12 8 14 5 0 3 0 15 0 10 0 0 3 2 11 11
split_gain=20.0236 20.3666 18.2627 14.381 12.8751 11.854 12.8165 11.5403 13.9171 11.2878 17.2999 9.75131 12.0295 11.8623 10.8157 9.38425 9.03061 8.97249 8.39431 8.33424 10.2891 8.08009 7.37863 7.22602 9.87423 7.15886 8.67792 8.54388 7.0954 6.75137
threshold=1.0000000180025095e-35 1.0000000180025095e-35 1.0000000180025095e-35 58.500000000000007 1.0000000180025095e-35 1.0000000180025095e-35 29.500000000000004 41.500000000000007 1.0000000180025095e-35 1.0000000180025095e-35 55.500000000000007 1.0000000180025095e-35 37.500000000000007 45.500000000000007 1.0000000180025095e-35 1.0000000180025095e-35 1.0000000180025095e-35 1.0000000180025095e-35 42.500000000000007 1.0000000180025095e-35 46.500000000000007 1.0000000180025095e-35 39.500000000000007 1.0000000180025095e-35 48.500000000000007 50.500000000000007 1.0000000180025095e-35 1.0000000180025095e-35 1.0000000180025095e-35 1.5000000000000002
decision_type=2 2 2 2 2 2 2 2 2 2 2 2 2 2 2 2 2 2 2 2 2 2 2 2 2 2 2 2 2 2
left_child=1 4 17 5 7 6 -4 -1 15 -3 -11 13 -13 14 -6 -9 -5 29 -16 20 -7 25 -14 -8 -25 26 27 -15 -29 -2
right_child=2 9 3 16 11 19 23 8 -10 10 -12 12 22 21 18 -17 -18 -19 -20 -21 -22 -23 -24 24 -26 -27 -28 28 -30 -31
leaf_value=-0.0043010226394222164 0.029335647719986202 0.016279209424180235 0.028637713157922105 0.01736088530327912 0.0076583611995020319 -0.033463774166807604 -0.047086727033763001 -0.020033187978877997 0.076028325879930178 -0.063227061195455 0.065367615855096081 -0.019270366002783618 0.047570107502824158 -0.065695576446815368 -0.037405311382274625 -0.055096669849621728 0.12626510195088034 -0.0052448200727166364 0.093912338046121549 0.11161521970255622 0.17172546425467827 -0.020704298862278807 -0.00061581096897048322 -0.053925395442012046 0.29995284782198572 0.0030966341223196405 0.019716225531403227 -0.029373850086323049 0.020572866846445503 -0.0067834538866575426
leaf_weight=6466.3393735289574 5080.6051213890314 6574.429346203804 263.99560861289501 482.12478542327881 16592.635604828596 142.05543912947178 1290.3566702008247 4451.6707170903683 124.5225995182991 371.08350883424282 126.16579115390778 5232.6014882922173 319.42062065005302 394.61911264061928 701.8024155497551 812.31330816447735 79.882759615778923 968.9543379843235 46.727865472435951 89.547121748328209 26.023668110370636 2714.7578515857458 2734.1913629174232 15.784675762057306 12.892590716481207 6384.9403549581766 452.19819889962673 894.21434533596039 358.64655020833015 512.76519410312176
leaf_count=29009 21836 29232 1137 2034 70574 642 5512 19726 523 1623 535 22729 1391 1716 3298 3398 331 4008 216 543 117 11308 11712 66 54 26494 2000 3707 1466 2532
internal_value=0 -0.00206116 0.0132144 -0.00916313 -0.00424652 -0.021988 -0.0317003 -0.0128455 -0.0230991 0.0129829 -0.0305991 -0.00147844 -0.0105383 0.00115194 0.00606704 -0.025444 0.0328403 0.0214074 -0.0292077 0.0376904 -0.00169435 -0.00645862 0.00442464 -0.0437765 0.10517 -0.00190054 -0.0170965 -0.0272009 -0.015076 0.0260245
internal_weight=0 55753.3 8964.99 2402.66 48681.6 1840.66 1583.03 11854.8 5388.51 7071.68 497.249 36826.8 8286.21 28540.5 17341.2 5263.98 562.008 6562.32 748.53 257.626 168.079 11199.4 3053.61 1319.03 28.6773 8484.62 2099.68 1647.48 1252.86 5593.37
internal_count=279469 240657 38812 10436 209267 8071 6769 52656 23647 31390 2158 156611 35832 120779 74088 23124 2365 28376 3514 1302 759 46691 13103 5632 120 35383 8889 6889 5173 24368
is_linear=0
shrinkage=0.3


Tree=11
num_leaves=31
num_cat=0
split_feature=4 0 0 15 2 2 7 0 5 10 13 9 8 0 0 15 3 0 0 5 5 6 0 0 1 1 14 9 9 2
split_gain=13.9234 9.26506 9.82475 15.226 10.0639 9.67174 22.5012 8.93662 7.84953 7.36744 7.82529 7.4553 7.12182 7.04632 6.91898 8.53089 7.12162 15.3498 7.11349 8.14085 6.63133 6.57834 6.3745 7.26758 6.75251 6.33731 6.30029 6.20219 5.9343 5.63493
threshold=1.0000000180025095e-35 74.500000000000014 23.500000000000004 1.0000000180025095e-35 1.0000000180025095e-35 1.0000000180025095e-35 1.0000000180025095e-35 48.500000000000007 1.0000000180025095e-35 1.0000000180025095e-35 1.0000000180025095e-35 1.0000000180025095e-35 1.0000000180025095e-35 40.500000000000007 63.500000000000007 1.0000000180025095e-35 1.0000000180025095e-35 62.500000000000007 54.500000000000007 1.0000000180025095e-35 1.0000000180025095e-35 1.0000000180025095e-35 50.500000000000007 66.500000000000014 1.0000000180025095e-35 1.0000000180025095e-35 1.0000000180025095e-35 1.0000000180025095e-35 1.0000000180025095e-35 1.0000000180025095e-35
decision_type=2 2 2 2 2 2 2 2 2 2 2 2 2 2 2 2 2 2 2 2 2 2 2 2 2 2 2 2 2 2
left_child=1 2 3 9 -5 6 8 -8 22 10 -1 -11 21 -10 16 28 20 18 -18 -20 -7 -2 24 -24 -4 -17 -3 -23 -16 -14
right_child=12 26 5 4 -6 14 7 -9 13 11 -12 -13 29 -15 15 25 17 -19 19 -21 -22 27 23 -25 -26 -27 -28 -29 -30 -31
leaf_value=-0.009711462072781318 0.003910309506141363 0.011254834934874891 -0.037690234320111135 0.13936609356989652 0.036017213375591536 -0.0037455530311514599 0.06424147329253857 -0.068056658948801127 0.058685188221761581 0.081529997262664702 0.010734366080576454 -0.068911310766001571 0.067985888627303953 -0.0016860044594543256 0.013788202587556149 -0.061410166383265512 0.01099183462021835 -0.12946221019460444 -0.028845392279681324 0.057636916314022228 -0.022339293323243553 0.049460391226744387 0.0021984904956259348 -0.031166919692630211 -0.016424349716474919 0.00024290784380401716 0.061799820182638507 -0.02844029820978625 0.053473913397593859 0.021805828480913076
leaf_weight=2885.8154702633619 4950.5705176889896 2336.2215932458639 1811.2691773027182 105.48603332042694 432.42546528577805 22940.368121996522 453.29102897644043 51.1363615244627 201.12640070915222 187.15144625306129 4047.9215561896563 35.226741045713425 295.51407238841057 1290.0242896676064 2116.7782762497663 202.48004107177258 5924.2262987941504 74.729625016450882 771.41253007948399 112.21191935241222 1866.7470313757658 535.64660278707743 2451.5056439191103 772.74305772781372 5207.0188193023205 579.4889794588089 245.24464218318462 111.05273105204105 403.80234268307686 1217.7520074099302
leaf_count=12920 22765 9712 8606 469 1824 95353 2193 239 887 778 17011 150 1705 5512 8657 866 26739 315 3294 475 7876 2713 10559 3169 22661 2365 1001 553 1701 6401
internal_value=0 -0.0015079 -0.00233345 0.00760762 0.0562842 -0.00395289 -0.0112121 0.0508297 -0.0138793 0.0039487 0.00222483 0.0576987 0.0125642 0.00645686 -0.00141406 0.0116534 -0.00277588 0.00576227 0.00724663 -0.017863 -0.00514474 0.0076275 -0.0168399 -0.00579807 -0.0219126 -0.0157213 0.0160567 0.0360831 0.0201459 0.030824
internal_weight=0 57505.9 54924.4 7694.03 537.911 47230.4 12238.1 504.427 11733.7 7156.12 6933.74 222.378 7110.54 1491.15 34992.2 3302.55 31689.7 6882.58 6807.85 883.624 24807.1 5597.27 10242.5 3224.25 7018.29 781.969 2581.47 646.699 2520.58 1513.27
internal_count=279469 245332 234619 33152 2293 201467 53826 2432 51394 30859 29931 928 34137 6399 147641 13589 134052 30823 30508 3769 103229 26031 44995 13728 31267 3231 10713 3266 10358 8106
is_linear=0
shrinkage=0.3


Tree=12
num_leaves=31
num_cat=0
split_feature=12 4 6 9 9 5 8 7 10 0 14 13 0 0 0 2 0 2 0 3 2 2 0 11 5 10 10 3 10 13
split_gain=9.59195 8.44231 6.00494 7.65922 7.46908 11.6637 11.3841 17.2564 6.945 6.45171 8.60269 6.44107 6.95435 6.99474 5.46689 5.74216 5.10465 5.0985 8.37592 5.07859 5.35574 5.01267 6.92147 4.93828 4.91833 7.02396 4.77253 4.74049 4.70876 4.68213
threshold=1.0000000180025095e-35 1.0000000180025095e-35 1.0000000180025095e-35 1.0000000180025095e-35 1.0000000180025095e-35 1.0000000180025095e-35 1.0000000180025095e-35 1.0000000180025095e-35 1.0000000180025095e-35 44.500000000000007 1.0000000180025095e-35 1.0000000180025095e-35 51.500000000000007 38.500000000000007 22.500000000000004 1.0000000180025095e-35 20.500000000000004 1.0000000180025095e-35 70.500000000000014 1.0000000180025095e-35 1.0000000180025095e-35 1.0000000180025095e-35 18.500000000000004 1.5000000000000002 1.0000000180025095e-35 1.0000000180025095e-35 1.0000000180025095e-35 1.0000000180025095e-35 1.0000000180025095e-35 1.0000000180025095e-35
decision_type=2 2 2 2 2 2 2 2 2 2 2 2 2 2 2 2 2 2 2 2 2 2 2 2 2 2 2 2 2 2
left_child=1 2 3 8 6 11 14 -8 9 10 29 12 13 23 15 -4 -2 -7 -19 24 -21 -12 -23 -6 25 -3 -13 -25 -26 -1
right_child=16 19 4 -5 5 17 7 -9 -10 -11 21 26 -14 -15 -16 -17 -18 18 -20 20 -22 22 -24 27 28 -27 -28 -29 -30 -31
leaf_value=0.014233802469851273 -0.079392997479266397 0.0094224420553787516 0.1063145851937653 0.0080673687549692452 -0.069784222556997608 -0.012593277730367858 0.070982852797857834 -0.0071329539424480571 0.019096050404186125 -0.0085740488635970349 -0.020454203410296436 -0.0047495588014193164 -0.00067194939455752362 -0.10070470129174443 0.0036491335131513822 0.016526065684430966 -0.015804188662447607 0.067017745512743254 0.3125351757480857 0.049979671124351852 0.014020320556577847 -0.060761160483443759 -0.0015433364054681686 -0.019543199963061357 -0.056742889917937828 -0.058509839878303688 0.11429374908501382 0.11505210120203038 0.20523644576266034 0.00069230970811959606
leaf_weight=2735.481675773859 120.00274127721786 4663.1625149399042 95.926962658762932 6228.0574622750282 111.95923390984535 61.74352040886879 659.84368841350079 414.33392098546028 1218.9888936430216 15973.249429613352 2466.3209710121155 1162.1769127845764 279.96534000337124 210.04189611971378 4146.1197795271873 193.22276864945889 2135.4427677839994 132.25903375446796 13.811732366681097 519.0153873488307 1322.9067281186581 184.73560845851898 4623.52577906847 83.283694893121719 152.83403868973255 141.13066808879375 31.121300786733627 32.836161971092224 6.4346598088741294 14369.480054035783
leaf_count=11611 593 21231 410 27039 467 257 2798 1944 5053 67256 11587 4955 1161 883 17248 837 10133 559 60 3028 7410 810 19857 339 665 643 136 181 28 60290
internal_value=0 0.00072792 -0.000496418 -0.00174386 0.00731983 -0.00781575 0.0131417 0.0408519 -0.00321372 -0.00388766 -0.000817185 -0.0151544 -0.0376042 -0.0612045 0.00643059 0.0463139 -0.0191875 0.0596821 0.0902327 0.0106998 0.0241529 -0.00945855 -0.00381851 -0.024828 0.00570744 0.00742687 -0.0016449 0.0185174 -0.0461586 0.00285791
internal_weight=0 62234 55428.5 47799.8 7628.65 2119.2 5509.45 1074.18 41571.8 40352.8 24379.5 1911.38 718.086 438.121 4435.27 289.15 2255.45 207.814 146.071 6805.48 1841.92 7274.58 4808.26 228.079 4963.56 4804.29 1193.3 116.12 159.269 17105
internal_count=279469 268743 235738 203503 32235 8998 23237 4742 176464 171411 104155 8122 3031 1870 18495 1247 10726 876 619 33005 10438 32254 20667 987 22567 21874 5091 520 693 71901
is_linear=0
shrinkage=0.3


Tree=13
num_leaves=31
num_cat=0
split_feature=11 10 1 0 0 3 0 0 6 0 0 14 0 15 0 6 10 0 0 0 15 0 11 10 0 15 9 2 10 8
split_gain=6.44202 6.10632 5.6356 5.49644 5.34453 4.72533 11.0954 5.79668 5.77938 4.7579 6.72823 4.35688 4.32942 9.17113 7.66778 5.28745 4.34454 4.24695 4.326 5.53437 7.22529 6.13024 4.53319 8.03357 5.34721 6.67899 5.68992 5.96497 4.96743 4.29933
threshold=2.5000000000000004 1.0000000180025095e-35 1.0000000180025095e-35 78.500000000000014 30.500000000000004 1.0000000180025095e-35 56.500000000000007 66.500000000000014 1.0000000180025095e-35 69.500000000000014 72.500000000000014 1.0000000180025095e-35 56.500000000000007 1.0000000180025095e-35 41.500000000000007 1.0000000180025095e-35 1.0000000180025095e-35 55.500000000000007 44.500000000000007 41.500000000000007 1.0000000180025095e-35 24.500000000000004 1.0000000180025095e-35 1.0000000180025095e-35 42.500000000000007 1.0000000180025095e-35 1.0000000180025095e-35 1.0000000180025095e-35 1.0000000180025095e-35 1.0000000180025095e-35
decision_type=2 2 2 2 2 2 2 2 2 2 2 2 2 2 2 2 2 2 2 2 2 2 2 2 2 2 2 2 2 2
left_child=2 4 12 5 -2 17 8 11 -7 -9 -11 -8 14 15 -1 -14 -15 18 19 20 -4 -22 23 -21 28 -26 -27 -28 -24 -23
right_child=1 -3 3 -5 -6 6 7 9 -10 10 -12 -13 13 16 -16 -17 -18 -19 -20 22 21 29 24 -25 25 26 27 -29 -30 -31
leaf_value=-0.0027290103566011167 -0.00025642869147506666 -0.056617055875167889 -0.003933265812164858 0.022705834987962976 0.036057547767013455 0.0078811054252716974 -0.02353977099153887 0.050115577460382622 0.031702009400884551 -0.068230843772402086 0.022930367468755247 -0.083685742851030309 0.0040125933800143196 -0.030690699951912481 -0.018738717036116331 0.033715801246659842 0.075873083128224453 0.0056206560760590999 -0.0088474493870628595 0.019896380657186838 0.045886644301227686 -0.0027668006385176483 0.040308186197785874 0.15131968078026034 -0.0062406144016421417 -0.039880374881892666 0.051980248970174218 -0.25766464655091453 -0.16313282452986302 0.030777263279465374
leaf_weight=7977.1429460197687 573.88279628008604 92.178445115685463 17776.440792039037 1043.9736075252295 1000.9713867753744 6891.8626462444663 804.4530274271965 165.80378928780556 1057.2833507731557 120.3145147562027 184.76333227753639 125.27374297380447 2201.6761132776737 727.31157639622688 4064.1661531329155 714.36960916221142 36.143494352698326 7315.7446173876524 7197.7660479545593 1384.8062760978937 442.51447524130344 1266.897973716259 230.68378332257271 43.165507212281227 375.75766596198082 59.661661833524704 7.0621423572301856 27.028378114104271 11.332478374242781 472.00402699410915
leaf_count=35804 2821 443 75587 4438 5118 31531 3452 702 5602 512 781 530 9403 3135 18021 2942 148 30125 30240 5900 1828 5328 959 179 1568 245 29 110 47 1941
internal_value=0 0.0184319 -0.000463513 0.001181 0.0228246 0.000692071 0.00671142 -0.0179089 0.0110494 0.00921013 -0.0130212 -0.031644 -0.00538054 0.00362565 -0.00813258 0.0112893 -0.0256458 -0.000845162 -0.00245984 -0.000379209 -0.00193369 0.014361 0.0141214 0.0238691 -0.00544141 -0.0241133 -0.0957471 -0.193519 0.030782 0.00633833
internal_weight=0 1667.03 62725.4 47004.6 1574.85 45960.6 9349.75 1400.61 7949.15 470.882 305.078 929.727 15720.8 3679.5 12041.3 2916.05 763.455 36610.9 29295.1 22097.4 19957.9 2181.42 2139.5 1427.97 711.526 469.51 93.7522 34.0905 242.016 1738.9
internal_count=279469 8382 271087 201634 7939 197196 43110 5977 37133 1995 1293 3982 69453 15628 53825 12345 3283 154086 123961 93721 84684 9097 9037 6079 2958 1952 384 139 1006 7269
is_linear=0
shrinkage=0.3


Tree=14
num_leaves=31
num_cat=0
split_feature=0 3 15 5 0 11 6 1 2 0 5 13 8 0 0 0 0 3 5 3 0 0 4 6 2 0 0 0 4 0
split_gain=4.63022 4.8802 4.79724 5.86872 5.27639 4.94994 7.48056 6.46541 4.17787 4.05239 5.07185 3.92941 5.26873 4.78886 5.16175 5.18509 6.52948 10.9282 4.81924 8.51562 6.49331 4.749 5.26684 4.22669 9.44621 6.46517 4.86468 4.55151 3.97209 3.81191
threshold=23.500000000000004 1.0000000180025095e-35 1.0000000180025095e-35 1.0000000180025095e-35 22.500000000000004 1.5000000000000002 1.0000000180025095e-35 1.0000000180025095e-35 1.0000000180025095e-35 85.500000000000014 1.0000000180025095e-35 1.0000000180025095e-35 1.0000000180025095e-35 30.500000000000004 35.500000000000007 34.500000000000007 33.500000000000007 1.0000000180025095e-35 1.0000000180025095e-35 1.0000000180025095e-35 27.500000000000004 41.500000000000007 1.0000000180025095e-35 1.0000000180025095e-35 1.0000000180025095e-35 49.500000000000007 43.500000000000007 61.500000000000007 1.0000000180025095e-35 42.500000000000007
decision_type=2 2 2 2 2 2 2 2 2 2 2 2 2 2 2 2 2 2 2 2 2 2 2 2 2 2 2 2 2 2
left_child=1 2 4 5 -1 6 -4 -7 -8 11 -11 -2 28 18 15 16 17 -15 -14 20 -20 -16 23 29 26 -26 -25 -28 -13 -23
right_child=9 -3 3 -5 -6 7 8 -9 -10 10 -12 12 13 14 21 -17 -18 -19 19 -21 -22 22 -24 24 25 -27 27 -29 -30 -31
leaf_value=-0.002848222917570233 -0.0041981433119113679 0.023790378184149068 0.028181413166521417 0.35783316717576286 0.018896390959480133 -0.29144033947716075 0.30757457900107421 -0.010312780060516318 0.097083799423606482 0.015839453937998554 0.11504308708681912 -0.0024766565765408474 -0.0083734331340910052 0.0091728036616074253 -0.0085945650696105224 0.074501093463024415 -0.026776628484670186 0.10133198240695837 -0.20640574586764263 -0.47374198937081563 0.19071529719889971 0.049619781552823351 0.046322311817723262 -0.12977778601461326 -0.022049870779307285 0.040920632219906633 0.19584578996214549 -0.00010644748989975847 0.009122157417637668 0.0017026318062172995
leaf_weight=5123.9343823045492 22830.614482291043 1271.5127313658595 359.01742605865002 4.9560657143592826 1249.1761923283339 8.6545621603727323 12.826914235949515 49.320732086896896 25.079975321888924 394.5255683362484 52.561887368559837 22573.898883596063 966.63213477283716 386.86792860925198 1272.1767740622163 198.81245886534452 197.70052912086248 165.27268620580435 8.7726904600858706 5.5201977938413611 6.4156362265348426 157.51340648531914 373.87484588474035 5.8276758491992942 229.36280690133572 407.35216894745827 52.667989313602448 13.378226622939108 3011.7896026670933 2907.2762225270271
leaf_count=22107 100184 5900 1480 21 5374 36 54 218 104 1713 227 94640 4511 1662 5854 919 917 938 37 31 27 677 2036 26 988 1741 228 58 14532 12229
internal_value=0 0.00672478 0.00354912 0.0331413 0.00141388 0.0296039 0.0415639 -0.0522796 0.16831 -0.000945356 0.0275023 -0.0011734 0.000922963 0.00799916 0.0110133 0.0314278 0.0200073 0.0367589 -0.0114412 -0.154638 -0.0386595 0.00743981 0.0123584 0.00899315 0.0298745 0.0182369 0.13297 0.156154 -0.00111132 0.00416531
internal_weight=0 8104.48 6832.97 459.856 6373.11 454.9 396.924 57.9753 37.9069 56218.8 447.087 55771.7 32941.1 7355.42 6368.08 948.654 749.841 552.141 987.341 20.7085 15.1883 5419.43 4147.25 3773.38 708.589 636.715 71.8739 66.0462 25585.7 3064.79
internal_count=279469 35294 29394 1913 27481 1892 1638 254 158 244175 1940 242235 142051 32879 28273 4436 3517 2600 4606 95 64 23837 17983 15947 3041 2729 312 286 109172 12906
is_linear=0
shrinkage=0.3


Tree=15
num_leaves=31
num_cat=0
split_feature=12 0 2 1 0 0 0 11 2 0 0 4 10 0 15 2 0 0 10 6 3 0 0 4 13 0 9 0 13 9
split_gain=3.837 4.36809 3.97608 4.98371 3.32951 3.28103 2.74912 2.81487 3.0215 3.36013 3.29132 3.00875 8.00454 2.76648 4.55593 2.76645 3.57131 3.97457 5.54133 3.35211 4.06411 4.45197 4.89794 4.80035 2.95752 4.28525 3.48067 2.93333 3.56864 2.86318
threshold=1.0000000180025095e-35 35.500000000000007 1.0000000180025095e-35 1.0000000180025095e-35 37.500000000000007 78.500000000000014 23.500000000000004 2.5000000000000004 1.0000000180025095e-35 27.500000000000004 30.500000000000004 1.0000000180025095e-35 1.0000000180025095e-35 58.500000000000007 1.0000000180025095e-35 1.0000000180025095e-35 65.500000000000014 66.500000000000014 1.0000000180025095e-35 1.0000000180025095e-35 1.0000000180025095e-35 79.500000000000014 86.500000000000014 1.0000000180025095e-35 1.0000000180025095e-35 59.500000000000007 1.0000000180025095e-35 79.500000000000014 1.0000000180025095e-35 1.0000000180025095e-35
decision_type=2 2 2 2 2 2 2 2 2 2 2 2 2 2 2 2 2 2 2 2 2 2 2 2 2 2 2 2 2 2
left_child=6 -2 -3 -4 -5 -6 -1 13 9 -9 -10 -11 -13 -8 15 24 -17 18 -18 20 -19 23 -23 -22 25 26 -15 28 -21 -29
right_child=1 2 3 4 5 -7 7 8 10 11 -12 12 -14 14 -16 16 17 19 -20 27 21 22 -24 -25 -26 -27 -28 29 -30 -31
leaf_value=0.0057390839725201936 -0.025423320590077049 -0.020404840627365497 -0.010847357696864721 0.14233677181672577 0.027602950976844638 0.22255433666421268 -0.0017461415456584731 0.15549291714069052 -0.017774708558350717 0.0047547673898530231 0.016989201032651217 0.12693880977867375 -0.25757614215128988 0.076430274978890961 -0.0075878265345437007 0.0026396291217793549 0.043246763557698097 0.0034289218201198897 0.25383478322109382 0.074385176129672326 0.015135166257676486 0.16583146736891935 -0.026007017403465196 0.2531464414977217 -0.0058332275827237892 0.011959912155817589 0.31818822381961903 0.056819665706286424 0.01049320139954279 0.19233282714769045
leaf_weight=7776.4096406027675 1119.8747982531786 457.52446699142456 320.46285010874271 27.024177595973015 304.54536993801594 7.9730288684368125 42048.342981025577 23.025850296020508 337.92815405130386 111.45699715614319 892.34758890420198 50.666547775268555 5.3909452781081191 32.777562618255615 2499.4072829335928 2664.8297822624445 257.99486035108566 1863.7315063923597 11.75829631090164 97.735598593950272 237.6527159512043 44.026630476117134 16.454713895916939 7.879266068339347 2114.4967559427023 395.91068837046623 6.4074851870536795 117.54912060499191 403.49124458432198 15.934450238943098
leaf_count=33694 5534 2203 1476 124 1356 33 182793 129 1647 563 4539 381 31 146 10437 11099 1069 7718 49 402 1004 194 74 42 8740 1675 26 523 1688 80
internal_value=0 -0.0121818 0.0010876 0.0159864 0.0413124 0.0325766 0.000463829 -0.000292247 0.0128848 0.0480385 0.00744036 0.0332683 0.0899607 -0.00064659 0.00363911 0.00702456 0.0106776 0.0176452 0.0524261 0.0142997 0.00869004 0.0407322 0.113639 0.0227731 -0.00119835 0.0213264 0.115962 0.0334764 0.0229517 0.0729964
internal_weight=0 2237.4 1117.53 660.005 339.543 312.518 62033.6 54257.2 1420.82 190.54 1230.28 167.514 56.0575 52836.4 10788 8288.63 5739.04 3074.21 269.753 2804.46 2169.74 306.013 60.4813 245.532 2549.59 435.096 39.185 634.71 501.227 133.484
internal_count=279469 10726 5192 2989 1513 1389 268743 235049 7290 1104 6186 975 412 227759 44966 34529 23942 12843 1118 11725 9032 1314 268 1046 10587 1847 172 2693 2090 603
is_linear=0
shrinkage=0.3


Tree=16
num_leaves=31
num_cat=0
split_feature=1 0 8 6 11 13 5 0 0 3 0 10 13 0 0 0 5 0 0 0 0 15 5 2 0 0 0 15 11 11
split_gain=2.39332 2.98838 2.69549 3.11353 7.08814 4.69228 7.17283 6.93246 4.88807 5.08223 3.63692 2.9947 2.91707 4.70206 4.17403 5.28277 6.00428 3.53115 2.79655 2.57204 2.61017 4.02028 2.56678 2.52638 2.46309 3.61685 2.38616 3.33291 3.31419 6.30064
threshold=1.0000000180025095e-35 89.500000000000014 1.0000000180025095e-35 1.0000000180025095e-35 1.5000000000000002 1.0000000180025095e-35 1.0000000180025095e-35 54.500000000000007 38.500000000000007 1.0000000180025095e-35 21.500000000000004 1.0000000180025095e-35 1.0000000180025095e-35 21.500000000000004 58.500000000000007 36.500000000000007 1.0000000180025095e-35 59.500000000000007 62.500000000000007 24.500000000000004 27.500000000000004 1.0000000180025095e-35 1.0000000180025095e-35 1.0000000180025095e-35 56.500000000000007 51.500000000000007 26.500000000000004 1.0000000180025095e-35 1.5000000000000002 2.5000000000000004
decision_type=2 2 2 2 2 2 2 2 2 2 2 2 2 2 2 2 2 2 2 2 2 2 2 2 2 2 2 2 2 2
left_child=1 26 -2 19 5 6 11 10 -8 24 -7 -5 14 -14 15 -6 -17 -16 -19 -4 21 22 -21 -9 25 -10 27 -1 -29 -30
right_child=2 -3 3 4 12 7 8 23 9 -11 -12 -13 13 -15 17 16 -18 18 -20 20 -22 -23 -24 -25 -26 -27 -28 28 29 -31
leaf_value=0.0017665924270888146 -5.665213791000999e-05 0.070868818626874816 0.021404796533463367 0.10085974288787922 0.013573574253946414 0.24271725184031545 0.21594515636683748 0.24346077943642022 -0.10911360100030026 0.14759162987725041 -0.0088061686766671213 -0.14436964156976431 -0.12851525715530424 0.018745034301297907 0.28614768849805094 -0.070679882197327765 0.10934435647935073 -0.086380719507315032 0.081480309007287394 -0.029356864892763505 0.0028237326257097182 0.049284002509708283 -0.21330185553481096 0.074325793644286806 -0.038913387116115729 -0.40597749201859001 -0.0051818120141218409 0.062808919867041124 -0.18449858085425644 0.15581737654761063
leaf_weight=2974.5487160235643 38356.020838223398 48.941327378153801 627.94320961833 211.55132652819157 170.36445003002882 5.2768639028072348 5.82372161746025 8.7334496378898603 10.518824771046644 7.11302426457405 265.21405911445618 4.5787879526615134 20.061590865254402 715.6998578608036 5.7466068565845481 208.96819046884775 18.119883805513382 12.191613882780073 33.412285402417183 369.17302919924259 6936.7623569220304 62.71847577393055 6.9560278803110114 88.409743994474411 13.229403972625731 5.6926335841417304 12884.784404434264 140.12512320280075 13.820951148867609 7.5823982879519454
leaf_count=13385 164174 206 2838 953 820 25 26 39 43 33 1229 20 97 3434 25 949 82 51 146 1687 30659 282 30 387 54 23 57067 609 59 37
internal_value=0 -0.00314943 0.00107852 0.00551501 0.0167491 0.0425661 0.0735366 0.0207887 -0.039318 -0.0799862 -0.00389933 0.0956645 0.00310259 0.0147298 -0.0159589 -0.0263581 -0.0563153 0.064531 0.0366048 0.00297344 0.00140423 -0.0210335 -0.0327587 0.0895315 -0.13497 -0.213357 -0.00337554 0.00404564 0.0460144 -0.0639375
internal_weight=0 16069.8 48170.3 9814.26 1810.71 626.142 258.508 367.634 42.3776 36.5539 270.491 216.13 1184.56 735.761 448.803 397.453 227.088 51.3505 45.6039 8003.55 7375.61 438.848 376.129 97.1432 29.4409 16.2115 16020.9 3136.08 161.528 21.4033
internal_count=279469 71363 208106 43932 8436 2832 1152 1680 179 153 1254 973 5604 3531 2073 1851 1031 222 197 35496 32658 1999 1717 426 120 66 71157 14090 705 96
is_linear=0
shrinkage=0.3


Tree=17
num_leaves=31
num_cat=0
split_feature=13 4 5 0 0 10 6 11 0 3 0 0 0 11 6 0 5 0 11 1 14 0 2 6 0 8 0 10 11 0
split_gain=2.07535 2.94676 2.89652 3.12317 3.49192 2.71253 3.60901 3.14688 2.75064 3.1476 3.63142 4.20588 4.98464 5.50487 2.84903 2.69912 5.75319 5.61209 4.41986 2.95098 3.18147 6.73564 2.78517 2.74215 2.54981 2.50857 5.65032 2.50084 4.2689 6.56491
threshold=1.0000000180025095e-35 1.0000000180025095e-35 1.0000000180025095e-35 60.500000000000007 62.500000000000007 1.0000000180025095e-35 1.0000000180025095e-35 2.5000000000000004 28.500000000000004 1.0000000180025095e-35 25.500000000000004 18.500000000000004 19.500000000000004 1.5000000000000002 1.0000000180025095e-35 74.500000000000014 1.0000000180025095e-35 72.500000000000014 1.5000000000000002 1.0000000180025095e-35 1.0000000180025095e-35 84.500000000000014 1.0000000180025095e-35 1.0000000180025095e-35 71.500000000000014 1.0000000180025095e-35 24.500000000000004 1.0000000180025095e-35 1.0000000180025095e-35 51.500000000000007
decision_type=2 2 2 2 2 2 2 2 2 2 2 2 2 2 2 2 2 2 2 2 2 2 2 2 2 2 2 2 2 2
left_child=15 -2 5 -4 -5 7 -7 8 9 25 11 -11 -13 -14 -12 17 -17 27 -19 20 21 -18 -21 -24 -6 -3 -27 -1 -29 -30
right_child=1 2 3 4 24 6 -8 -9 -10 10 14 12 13 -15 -16 16 19 18 -20 22 -22 -23 23 -25 -26 26 -28 28 29 -31
leaf_value=-0.0026962373277526169 0.00052643569146067128 0.0080749316691769799 -0.01431609742421054 -0.36304109679269131 0.0082925854407437157 -0.017441351629231248 -0.19643288545353735 0.053853330094666772 0.0063519667008643194 0.31278524463570995 0.13897414552627563 -0.30262668810712506 -0.0045685192571502282 0.23660186378710457 -0.035477366666473859 0.0036834087338119322 0.1234881570218847 -0.053875856808946236 0.18892295609593709 -0.027399600902287359 0.21818465954930791 -0.25581737449556646 0.032731039391616423 0.17641780700782617 -0.24169083868146429 0.17468638368671643 -0.016760493036881513 0.029431510831464627 -0.043051706333160022 0.053053629827765389
leaf_weight=24595.276926524937 33489.804527297616 423.13096344470978 104.27821937203407 4.879842177033427 11.10780553519726 103.62051330506802 11.237820014357565 153.97366084158421 3061.3149568364024 4.2941014245152465 61.369069583714008 4.3942334577441207 67.533029712736607 9.7475527450442296 9.7661774009466154 780.74008397758007 28.651182934641838 244.53952603042126 6.9392090588808051 37.209693416953087 20.279091730713844 4.9399834126234046 37.152437165379524 17.624090239405632 5.4858200103044501 26.883103385567665 28.672758534550667 555.46456219255924 216.38579136878252 90.818645805120468
leaf_count=108825 141486 2007 486 21 50 508 59 1083 15164 26 368 27 410 71 69 3207 118 1009 30 152 83 20 152 74 25 143 149 2316 949 382
internal_value=0 0.00145498 0.00905494 -0.0357705 -0.139956 0.0104763 -0.034954 0.0118312 0.0100811 0.0280369 0.0648825 0.0233931 0.00817817 0.0258508 0.115024 -0.00200658 0.0139008 -0.0025799 -0.0471762 0.0685924 0.124353 0.0677067 0.035937 0.0789616 -0.0743514 0.0159442 0.0758793 -0.00213937 0.0137372 -0.0146401
internal_weight=0 37581.5 4091.69 125.752 21.4735 3965.94 114.858 3851.08 3697.11 635.791 157.104 85.9689 81.6748 77.2806 71.1352 26636 926.597 25709.4 251.479 145.856 53.8703 33.5912 91.9862 54.7765 16.5936 478.687 55.5559 25457.9 862.669 307.204
internal_count=279469 162152 20666 582 96 20084 567 19517 18434 3270 971 534 508 481 437 117317 3806 113511 1039 599 221 138 378 226 75 2299 292 112472 3647 1331
is_linear=0
shrinkage=0.3


Tree=18
num_leaves=31
num_cat=0
split_feature=3 5 0 10 0 0 0 0 11 0 0 8 0 0 11 1 0 0 0 10 0 7 13 11 0 1 7 2 15 10
split_gain=1.70196 6.70007 7.48808 4.40551 5.65013 5.32472 3.43828 3.19906 5.74836 5.23828 3.12035 6.80938 3.94478 3.84732 3.71065 3.70602 3.52536 3.44702 3.85587 3.19267 3.0511 3.25377 3.05239 3.00166 3.45222 4.23006 4.86131 3.1332 4.10327 4.20952
threshold=1.0000000180025095e-35 1.0000000180025095e-35 51.500000000000007 1.0000000180025095e-35 82.500000000000014 71.500000000000014 53.500000000000007 44.500000000000007 2.5000000000000004 51.500000000000007 41.500000000000007 1.0000000180025095e-35 55.500000000000007 60.500000000000007 1.5000000000000002 1.0000000180025095e-35 62.500000000000007 59.500000000000007 56.500000000000007 1.0000000180025095e-35 28.500000000000004 1.0000000180025095e-35 1.0000000180025095e-35 1.5000000000000002 48.500000000000007 1.0000000180025095e-35 1.0000000180025095e-35 1.0000000180025095e-35 1.0000000180025095e-35 1.0000000180025095e-35
decision_type=2 2 2 2 2 2 2 2 2 2 2 2 2 2 2 2 2 2 2 2 2 2 2 2 2 2 2 2 2 2
left_child=6 2 23 -4 5 -5 7 -1 -9 -10 11 19 -12 14 15 -14 -15 18 -17 -3 -13 -22 -23 -2 27 -26 -27 28 29 -25
right_child=1 10 3 4 -6 -7 -8 8 9 -11 12 20 13 16 -16 17 -18 -19 -20 -21 21 22 -24 24 25 26 -28 -29 -30 -31
leaf_value=-0.00077222135516717401 0.0029971866464355958 0.11439879997914404 -0.015265161579182318 0.028581443080760483 -0.26723212992185474 0.20238892873325601 0.0034110456279173832 -0.0085349413586607529 0.031398464363828392 0.20907192505535738 -0.0039463755098532666 -0.20159506701524751 0.15832201227613871 -0.069666414563595347 0.25172445767721691 0.13535352033228665 0.035940078705694052 0.16092197130611324 -0.04009039102191328 -0.14528370958845474 -0.061531204340215119 -0.068616380793082396 0.25867339091559138 0.042764666586557629 0.17130545821921697 0.10303034019376826 -0.052708826595241232 0.0078354610979585303 0.13921834133789907 -0.12596308270472967
leaf_weight=30047.874004468322 7869.1950365453959 112.47801002860069 2539.3455877229571 83.73028464615345 4.9298466742038718 19.571690991520882 13256.224869273603 7952.3435672968626 117.55231603235006 17.107778169214725 309.09591563791037 8.1173294931650144 30.297097772359848 33.89839880168438 11.095071628689764 14.888098567724226 176.96419812738895 15.479934066534041 46.447009235620499 4.4287661463022223 22.727294653654099 4.0765217989683133 6.9146983399987221 155.28334547579288 27.63801733404398 40.403668850660324 32.587324626743793 1179.6652349680662 36.464831113815308 14.555014282464979
leaf_count=129610 35813 504 10951 372 23 85 55629 34085 548 80 1345 42 124 142 57 64 748 66 194 20 113 27 41 1080 137 200 191 6850 243 85
internal_value=0 0.00311524 0.00134675 -0.0127387 0.0465373 0.0615112 -0.000750929 -0.00219769 -0.00749413 0.0539708 0.0297531 0.0673921 0.0203904 0.04325 0.0865746 0.0694677 0.0189627 0.0344222 0.00249576 0.104561 -0.036474 0.00327697 0.137285 0.00533276 0.0176959 0.0713483 0.0334995 0.0138005 0.0479092 0.0283048
internal_weight=0 12800.3 12003.4 2647.58 108.232 103.302 51391.1 38134.9 8087 134.66 796.908 158.743 638.166 329.07 118.207 107.112 210.863 76.815 61.3351 116.907 41.8358 33.7185 10.9912 9355.79 1486.6 100.629 72.991 1385.97 206.303 169.838
internal_count=279469 59517 56030 11431 480 457 219952 164323 34713 628 3487 747 2740 1395 505 448 890 324 258 524 223 181 68 44599 8786 528 391 8258 1408 1165
is_linear=0
shrinkage=0.3


Tree=19
num_leaves=31
num_cat=0
split_feature=12 0 7 1 2 0 1 9 0 0 6 0 0 0 5 0 0 0 0 0 0 0 9 4 0 0 0 3 4 3
split_gain=1.39967 2.86679 3.79565 4.276 2.50393 3.74826 2.76691 2.76123 4.80942 4.20317 3.27373 4.78771 2.92621 4.14516 2.65719 5.92064 4.36025 2.56608 2.29009 4.00623 5.54649 2.63143 2.36336 2.01729 2.7568 3.43887 2.84879 1.92818 1.83023 1.7995
threshold=1.0000000180025095e-35 29.500000000000004 1.0000000180025095e-35 1.0000000180025095e-35 1.0000000180025095e-35 30.500000000000004 1.0000000180025095e-35 1.0000000180025095e-35 37.500000000000007 59.500000000000007 1.0000000180025095e-35 53.500000000000007 63.500000000000007 66.500000000000014 1.0000000180025095e-35 67.500000000000014 61.500000000000007 31.500000000000004 60.500000000000007 68.500000000000014 71.500000000000014 76.500000000000014 1.0000000180025095e-35 1.0000000180025095e-35 56.500000000000007 50.500000000000007 36.500000000000007 1.0000000180025095e-35 1.0000000180025095e-35 1.0000000180025095e-35
decision_type=2 2 2 2 2 2 2 2 2 2 2 2 2 2 2 2 2 2 2 2 2 2 2 2 2 2 2 2 2 2
left_child=-1 2 28 -4 14 -6 7 12 -9 10 11 -10 17 -14 18 16 -16 -7 22 -20 -21 -22 29 -19 25 26 -25 -15 -2 -3
right_child=1 4 3 -5 5 6 -8 8 9 -11 -12 -13 13 27 15 -17 -18 23 19 20 21 -23 -24 24 -26 -27 -28 -29 -30 -31
leaf_value=0.00028756299225837746 -0.014069588280713682 -0.0015260810956584702 -0.29759983783753535 -0.01132351614612097 0.1164772257292174 0.11092482124316147 0.024143740327578586 -0.33902806041335531 0.0017127650218796591 -0.15897349356786242 -0.10780560683993941 0.35838987691950491 0.18035801172138552 0.029880187190588669 0.042967194204077207 0.32655328581169701 -0.25878250098760275 -0.0082729059951841457 -0.13320374108817296 0.20037511670360852 -0.17239373457336549 0.030261756880334757 -0.1063961022311681 -0.1739270708908873 0.13268047179905437 -0.28162808017721386 -0.012487290415224095 -0.16011136373678278 -0.064269096702350093 -0.057738262044728983
leaf_weight=61939.788018859923 658.57639156281948 426.66018921136856 9.4687464088201523 9.3157059252262115 29.331930130720139 13.5282946228981 419.69362314045429 5.6493856310844413 10.120174393057821 16.797577023506165 8.922523096203804 5.0908544659614572 17.169086903333664 51.022899299860001 45.472162365913391 6.1352122426033011 4.7610858082771292 191.95724675059319 40.085932001471519 9.5698535591363889 11.558972865343096 11.507388666272162 23.149095058441162 14.160418525338171 5.4024871438741675 7.4284316003322592 32.223743990063667 5.3076272904872885 72.568371027708054 58.25240483880043
leaf_count=268743 3381 2225 41 40 137 69 1877 24 43 69 38 21 79 218 217 26 22 974 181 41 49 47 102 58 22 30 132 22 301 240
internal_value=0 -0.00737759 -0.022473 -0.155628 0.000318416 0.0111383 0.00729751 -0.0110773 -0.0795552 -0.0437423 0.0364615 0.121086 -0.00164575 0.0513111 -0.0138409 0.0483462 0.0143675 -0.0163503 -0.0198766 -0.0696692 0.008368 -0.0712926 -0.0127494 -0.0232054 -0.0716121 -0.092122 -0.0617725 0.0119786 -0.019052 -0.00827883
internal_weight=0 2220.89 749.929 18.7845 1470.96 833.806 804.474 384.781 46.5805 40.9311 24.1336 15.211 338.2 73.4996 637.152 56.3685 50.2332 264.701 580.784 72.7221 32.6362 23.0664 508.062 251.172 59.2151 53.8126 46.3842 56.3305 731.145 484.913
internal_count=279469 10726 3763 81 6963 3813 3676 1799 195 171 102 64 1604 319 3150 265 239 1285 2885 318 137 96 2567 1216 242 220 190 240 3682 2465
is_linear=0
shrinkage=0.3


Tree=20
num_leaves=31
num_cat=0
split_feature=0 0 6 3 14 5 15 3 2 0 2 0 5 11 0 6 5 15 0 13 1 0 1 0 0 2 2 0 15 0
split_gain=1.34664 2.49681 3.63428 3.52359 2.11641 2.03227 3.79219 1.91404 1.2974 1.90404 1.2781 4.53815 4.09314 1.80507 1.78157 2.10722 1.45738 1.6932 1.4452 2.74301 1.92563 1.36663 1.21831 4.05575 3.61546 2.79407 2.46932 1.55784 3.92339 2.89874
threshold=87.500000000000014 88.500000000000014 1.0000000180025095e-35 1.0000000180025095e-35 1.0000000180025095e-35 1.0000000180025095e-35 1.0000000180025095e-35 1.0000000180025095e-35 1.0000000180025095e-35 91.500000000000014 1.0000000180025095e-35 95.500000000000014 1.0000000180025095e-35 1.0000000180025095e-35 95.500000000000014 1.0000000180025095e-35 1.0000000180025095e-35 1.0000000180025095e-35 89.500000000000014 1.0000000180025095e-35 1.0000000180025095e-35 97.500000000000014 1.0000000180025095e-35 86.500000000000014 85.500000000000014 1.0000000180025095e-35 1.0000000180025095e-35 28.500000000000004 1.0000000180025095e-35 27.500000000000004
decision_type=2 2 2 2 2 2 2 2 2 2 2 2 2 2 2 2 2 2 2 2 2 2 2 2 2 2 2 2 2 2
left_child=22 2 5 4 10 6 7 -2 -5 -10 14 12 13 18 15 16 17 -3 19 -12 -20 -13 23 24 27 -25 -26 28 -1 -30
right_child=1 3 -4 8 -6 -7 -8 -9 9 -11 11 21 -14 -15 -16 -17 -18 -19 20 -21 -22 -23 -24 25 26 -27 -28 -29 29 -31
leaf_value=0.00060317990041151945 0.020250945093359621 0.046840274214386343 -0.044998075656666026 -0.18352156434957351 0.12460543953749205 0.2961759073599145 0.27991675886525214 0.22687506083314954 -0.14143074220310872 0.092501001761681009 -0.21411390061424265 -0.22545449891367469 0.31881559929329095 0.18251292204637395 0.095037641245126536 -0.13581194108018199 -0.15850723108610046 -0.10439880760615683 0.13793322629522528 0.028349034293279018 0.01441285068978505 -0.040527716496262571 0.00067919891519581789 -0.25133292851837563 0.21821472755960333 -0.043001037855045887 0.034973355451943321 -0.0040389180116036502 0.030156680833649193 0.14099118839237482
leaf_weight=3680.6110757365823 28.135225027799606 29.361011803150177 17.013563394546509 10.417683869600296 15.661846622824667 5.0842457711696616 8.0258880108594877 4.7104141712188712 7.2851564288139343 5.4921313524246216 5.8789361119270334 6.5734564214944822 5.0606200397014609 7.3466802686452857 9.9806647598743421 15.782790154218672 5.0843728929758063 8.6177394241094571 16.467698320746422 14.698381811380386 36.615000933408737 7.9419898837804794 47928.942688316107 9.5420840382575989 10.777421981096269 14.749830886721611 17.152592837810516 12015.921774446964 184.13770212233067 24.006169974803925
leaf_count=16610 124 124 77 44 66 23 33 21 32 24 24 30 25 36 42 69 22 35 71 69 169 37 207273 39 44 64 72 53260 804 106
internal_value=0 0.0211066 0.0734528 0.00527965 0.0190941 0.117305 0.0950545 0.049883 -0.104945 -0.0408786 0.00933956 0.0308947 0.0570642 0.0407121 -0.022161 -0.0420387 -0.00767045 0.0125227 0.0265693 -0.0409226 0.0527322 -0.124274 -7.67173e-05 -0.00234723 -0.00216047 -0.124836 0.105681 -0.00234985 0.00286922 0.0429397
internal_weight=0 271.235 62.9693 208.266 185.071 45.9558 40.8715 32.8456 23.195 12.7773 169.409 100.583 86.0673 81.0067 68.8266 58.8459 43.0631 37.9788 73.66 20.5773 53.0827 14.5154 63885.8 15956.9 15932.6 24.2919 27.93 15904.7 3888.75 208.144
internal_count=279469 1197 278 919 819 201 178 145 100 56 753 461 394 369 292 250 181 159 333 93 240 67 278272 70999 70896 103 116 70780 17520 910
is_linear=0
shrinkage=0.3


Tree=21
num_leaves=31
num_cat=0
split_feature=4 0 0 6 2 0 10 0 0 1 0 0 9 0 0 15 0 0 0 0 0 0 13 6 1 8 7 11 1 13
split_gain=1.04255 3.14134 3.46895 2.7439 4.36756 10.6482 5.46649 8.44819 4.0464 4.88313 4.01415 3.70555 6.12484 3.73944 3.96155 3.62504 4.42617 3.54317 3.17671 7.10849 2.90518 2.85735 2.56 3.84878 6.14974 2.76104 2.22855 3.94311 3.06335 2.22661
threshold=1.0000000180025095e-35 64.500000000000014 63.500000000000007 1.0000000180025095e-35 1.0000000180025095e-35 19.500000000000004 1.0000000180025095e-35 36.500000000000007 48.500000000000007 1.0000000180025095e-35 21.500000000000004 51.500000000000007 1.0000000180025095e-35 47.500000000000007 46.500000000000007 1.0000000180025095e-35 45.500000000000007 56.500000000000007 25.500000000000004 29.500000000000004 23.500000000000004 49.500000000000007 1.0000000180025095e-35 1.0000000180025095e-35 1.0000000180025095e-35 1.0000000180025095e-35 1.0000000180025095e-35 1.0000000180025095e-35 1.0000000180025095e-35 1.0000000180025095e-35
decision_type=2 2 2 2 2 2 2 2 2 2 2 2 2 2 2 2 2 2 2 2 2 2 2 2 2 2 2 2 2 2
left_child=-1 2 3 10 8 -6 11 -8 9 15 -2 13 -13 14 18 16 20 -14 -7 -20 -5 -10 23 25 -25 -3 27 28 -15 -12
right_child=1 22 -4 4 5 6 7 -9 21 -11 29 12 17 26 -16 -17 -18 -19 19 -21 -22 -23 -24 24 -26 -27 -28 -29 -30 -31
leaf_value=-0.00041114930454988886 0.043648196988297423 0.1662432318923534 -0.11342030524272273 0.19440175576730262 -0.39275749515378733 0.093059209583356672 -0.5318358525608109 -0.014032493530267363 -0.22339051136302482 0.095613039734980018 -0.0079326866133455701 0.0047515624181335156 -0.27635339948211485 0.32532797596425328 -0.1277896359521398 0.19427543238250541 0.28691996740314907 -0.030534135370891086 -0.084819565710671327 0.024741150691379461 -0.076531706519097228 -0.0011189074341537014 0.015722041932277074 0.1843609218527337 -0.26434131444896247 -0.045459481223973731 0.20204207803990606 -0.021671395014365231 0.080100425610763332 0.0041080762987336589
leaf_weight=57160.753760546446 188.04923076927662 38.740088388323784 23.140500701963902 3.8635854125022879 5.9980152994394293 45.555017054080963 4.2379131466150275 8.5712971389293653 5.9714269787073126 157.54580724239349 2366.991624943912 54.63606995344162 13.723251342773439 6.5675706565380105 17.47453173995018 7.2498783990740767 3.6505703330039969 8.5744475126266462 61.592991814017296 395.75081074237823 45.628359563648701 40.566327951848507 91.120594903826714 5.0224838405847549 6.0732333511114103 6.4705721884965888 12.988994672894476 24.314140871167183 15.184084817767143 3322.3235915675759
leaf_count=245332 915 167 109 22 32 251 20 42 31 944 10744 271 69 30 92 38 19 44 328 2146 249 206 444 22 30 30 80 123 78 16561
internal_value=0 0.0034708 0.00253696 0.00293058 0.0179834 0.00518236 0.00874923 -0.185347 0.0506626 0.06781 0.000524005 0.0125371 -0.0493239 0.0207507 0.0126319 -0.00471969 -0.0318673 -0.181825 0.0175112 0.00998601 -0.0553813 -0.0296394 0.0467979 0.097088 -0.0612359 0.135944 0.0922917 0.0613458 0.154143 -0.000901382
internal_weight=0 6987.58 6840.15 6817.01 939.645 675.169 669.171 12.8092 264.476 217.938 5877.36 656.362 76.9338 579.428 520.373 60.3924 53.1425 22.2977 502.899 457.344 49.4919 46.5378 147.427 56.3064 11.0957 45.2107 59.0548 46.0658 21.7517 5689.32
internal_count=279469 34137 33444 33335 5115 3606 3574 62 1509 1272 28220 3512 384 3128 2817 328 290 113 2725 2474 271 237 693 249 52 197 311 231 108 27305
is_linear=0
shrinkage=0.3


Tree=22
num_leaves=31
num_cat=0
split_feature=3 5 0 0 0 8 9 0 0 0 0 7 0 0 0 0 6 6 1 6 15 7 14 0 0 4 1 14 2 0
split_gain=0.856632 3.39902 3.76968 2.30512 2.68318 1.9805 2.89978 4.09237 2.48061 3.55528 5.92583 6.14338 4.76143 4.45415 4.14583 3.33102 3.07871 2.79724 2.63021 2.62508 3.24197 3.68157 2.57968 2.46265 2.40672 2.38402 2.17659 2.14335 2.60267 2.09747
threshold=1.0000000180025095e-35 1.0000000180025095e-35 54.500000000000007 73.500000000000014 90.500000000000014 1.0000000180025095e-35 1.0000000180025095e-35 25.500000000000004 30.500000000000004 43.500000000000007 45.500000000000007 1.0000000180025095e-35 38.500000000000007 32.500000000000007 40.500000000000007 41.500000000000007 1.0000000180025095e-35 1.0000000180025095e-35 1.0000000180025095e-35 1.0000000180025095e-35 1.0000000180025095e-35 1.0000000180025095e-35 1.0000000180025095e-35 29.500000000000004 31.500000000000004 1.0000000180025095e-35 1.0000000180025095e-35 1.0000000180025095e-35 1.0000000180025095e-35 26.500000000000004
decision_type=2 2 2 2 2 2 2 2 2 2 2 2 2 2 2 2 2 2 2 2 2 2 2 2 2 2 2 2 2 2
left_child=-1 2 5 -4 -5 29 7 -7 23 12 16 -12 13 22 -14 -16 -11 26 -19 20 25 -22 -10 -8 -24 -15 -13 28 -21 -2
right_child=1 -3 3 4 -6 6 8 -9 9 10 11 17 14 19 15 -17 -18 18 -20 27 21 -23 24 -25 -26 -27 -28 -29 -30 -31
leaf_value=-0.00052837902560732913 0.0094971947735903953 0.021269907449333745 -0.01489416481555019 0.018200534243285438 -0.11981528475828013 0.051101768372190812 0.0089826561398865402 -0.0012540771491948281 0.13032121183409456 -0.035898577734517607 0.063964809646447657 0.026010626780183153 0.15336342927742755 -0.062107742593669496 -0.019996251409860995 0.098334435515662635 -0.19169755401243985 -0.13311855269445655 0.20356018640765519 0.22229915199291331 -0.085258391292756197 0.15406932487440303 -0.15610097697002517 -0.085864298714646292 0.12745915185418186 0.040391352347060899 -0.10177258809687134 0.22022028512718031 -0.0058740055913502776 -0.0020935376792014593
leaf_weight=51359.504652433097 1894.3006239756942 790.54498345404863 1764.6716453656554 311.98862517625093 13.214498475193976 147.23659814894199 174.15484227985144 1537.0198187306523 45.411298044025898 44.09089932590723 153.54558639228344 16.459247194230556 61.80385759472847 88.156269535422325 34.945195160806179 55.279277697205544 15.403039179742334 2.965996153652668 7.0574580952525121 5.5597173571586636 8.4904963225126284 18.152900651097298 6.1519417315721494 28.697428144514561 4.7924350723624229 26.580437496304512 44.251251481473446 7.2212845012545577 23.585946448147297 5441.3448969870806
leaf_count=219952 8661 3487 7536 1352 56 809 1078 7778 298 245 756 97 378 506 204 318 84 21 48 37 44 123 38 175 31 209 264 44 141 24699
internal_value=0 0.00221698 0.000959969 -0.010617 0.0125923 0.00340567 0.0105953 0.00332284 0.0246297 0.0334308 0.00793706 0.0302651 0.0521665 0.0253204 0.0935058 0.0525033 -0.0762351 -0.0428883 0.103935 0.00201973 -0.0164708 0.0778024 0.0988112 -0.0044353 -0.0319328 -0.0383623 -0.0671292 0.0739036 0.0376514 0.000899564
internal_weight=0 12773.1 11982.5 2089.87 325.203 9892.66 2557.01 1684.26 872.757 669.905 283.773 224.28 386.131 234.103 152.028 90.2245 59.4939 70.734 10.0235 177.747 141.38 26.6434 56.3557 202.852 10.9444 114.737 60.7105 36.3669 29.1457 7335.65
internal_count=279469 59517 56030 8944 1408 47086 13726 8587 5139 3886 1515 1186 2371 1471 900 522 329 430 69 1104 882 167 367 1253 69 715 361 222 178 33360
is_linear=0
shrinkage=0.3


Tree=23
num_leaves=31
num_cat=0
split_feature=0 8 0 9 0 2 1 5 3 11 10 2 6 1 15 2 2 13 5 0 0 13 5 11 0 0 0 0 0 0
split_gain=0.873145 1.28524 1.26002 2.66151 1.69335 2.78004 1.36338 1.28663 1.45481 1.58907 2.01762 1.28584 0.898352 1.87752 4.00274 2.11285 2.03682 1.42599 1.10827 0.8983 1.34224 0.816942 1.99796 3.72504 4.4615 3.42267 3.53339 3.09379 3.04645 3.86926
threshold=87.500000000000014 1.0000000180025095e-35 89.500000000000014 1.0000000180025095e-35 90.500000000000014 1.0000000180025095e-35 1.0000000180025095e-35 1.0000000180025095e-35 1.0000000180025095e-35 1.0000000180025095e-35 1.0000000180025095e-35 1.0000000180025095e-35 1.0000000180025095e-35 1.0000000180025095e-35 1.0000000180025095e-35 1.0000000180025095e-35 1.0000000180025095e-35 1.0000000180025095e-35 1.0000000180025095e-35 94.500000000000014 96.500000000000014 1.0000000180025095e-35 1.0000000180025095e-35 1.0000000180025095e-35 36.500000000000007 30.500000000000004 33.500000000000007 49.500000000000007 36.500000000000007 32.500000000000007
decision_type=2 2 2 2 2 2 2 2 2 2 2 2 2 2 2 2 2 2 2 2 2 2 2 2 2 2 2 2 2 2
left_child=21 2 3 12 5 -4 -7 8 9 10 19 -10 13 14 16 -15 -2 -17 -14 -6 -21 -1 27 24 25 -24 -27 28 29 -23
right_child=1 -3 4 -5 7 6 -8 -9 11 -11 -12 -13 18 15 -16 17 -18 -19 -20 20 -22 22 23 -25 -26 26 -28 -29 -30 -31
leaf_value=-0.0013228620133603779 -0.089173359265312238 0.13411529635746547 -0.16027295211708056 0.2487511790162861 0.033237969953412647 0.152137367969647 -0.035910471575927423 0.11495427926345046 -0.19051642515245087 -0.15459087835025781 0.21186974100602543 -0.0031107915272458285 0.0089231339161470642 0.14648895115485619 -0.26610111412472115 0.13299135120276745 0.10873690320654912 -0.017389265570898295 -0.15084389899390285 -0.10771466905934135 0.029360605866564436 -0.0002594609083900872 -0.009632766218016316 0.011474659031634303 -0.017733159781571216 0.14636847131416789 0.021412054118931156 0.0058292372606742384 -0.0047854001878580854 0.01145623695536729
leaf_weight=26507.427636735141 7.391791015863423 8.1880848854780179 14.884768292307852 5.1493922770023337 62.28831821680069 4.821525126695632 12.378336369991304 10.050879895687101 6.1714920103549957 4.7053956389427176 4.88026338815689 7.0697570592164976 21.520134419202808 22.320637300610542 4.9034713208675376 7.7890638411045101 12.757790192961693 20.910653248429298 4.7746174335479727 11.831756219267847 14.079996123909948 12156.396145939827 81.820649519562721 728.22881989181042 1859.3937785178423 36.669929295778275 45.808776885271072 10305.431037537754 8916.9701179936528 3206.234300352633
leaf_count=116943 30 41 63 26 275 22 58 47 25 24 22 30 95 95 20 34 55 101 21 51 62 52858 343 3140 7844 154 195 43356 39168 14271
internal_value=0 0.0170827 0.0134067 0.0383005 -0.00406839 -0.065346 0.0168038 0.0121697 0.00286495 0.0155017 0.0241003 -0.090457 0.0277143 0.044237 -0.0230202 0.077263 0.0361343 0.0234238 -0.0200875 0.0137107 -0.0332303 -4.92384e-05 0.000854973 -0.00692488 -0.013546 0.0338408 0.0769675 0.00147401 -0.000374553 0.00218565
internal_weight=0 268.868 260.68 107.518 153.162 32.0846 17.1999 121.078 111.027 97.7857 93.0803 13.2412 102.368 76.0734 25.0531 51.0204 20.1496 28.6997 26.2948 88.2001 25.9118 63844.4 37337 2751.92 2023.69 164.299 82.4787 34585 24279.6 15362.6
internal_count=279469 1197 1156 477 679 143 80 536 489 434 410 55 451 335 105 230 85 135 116 388 113 278272 161329 11676 8536 692 349 149653 106297 67129
is_linear=0
shrinkage=0.3


Tree=24
num_leaves=31
num_cat=0
split_feature=6 9 0 0 11 0 4 0 0 15 0 0 7 13 5 7 2 0 0 0 0 0 14 4 0 0 0 0 8 0
split_gain=0.605579 4.2305 4.35959 3.95051 3.51708 3.48543 3.37551 4.56533 5.25244 7.47756 4.04208 3.57539 3.50568 3.74701 3.25116 3.51229 5.4019 5.90801 4.8811 4.60092 3.84033 3.83348 3.80046 4.34076 3.39985 3.13922 4.95832 3.18577 3.05857 3.04883
threshold=1.0000000180025095e-35 1.0000000180025095e-35 76.500000000000014 77.500000000000014 1.5000000000000002 29.500000000000004 1.0000000180025095e-35 45.500000000000007 34.500000000000007 1.0000000180025095e-35 50.500000000000007 44.500000000000007 1.0000000180025095e-35 1.0000000180025095e-35 1.0000000180025095e-35 1.0000000180025095e-35 1.0000000180025095e-35 36.500000000000007 64.500000000000014 75.500000000000014 29.500000000000004 63.500000000000007 1.0000000180025095e-35 1.0000000180025095e-35 19.500000000000004 68.500000000000014 75.500000000000014 73.500000000000014 1.0000000180025095e-35 41.500000000000007
decision_type=2 2 2 2 2 2 2 2 2 2 2 2 2 2 2 2 2 2 2 2 2 2 2 2 2 2 2 2 2 2
left_child=-1 14 4 -4 5 -3 10 8 9 -8 11 -6 -13 -14 15 18 17 20 21 -20 24 -2 23 -19 -17 -16 27 28 -27 -25
right_child=1 2 3 -5 6 -7 7 -9 -10 -11 -12 12 13 -15 25 16 -18 22 19 -21 -22 -23 -24 29 -26 26 -28 -29 -30 -31
leaf_value=-0.00035106698488311606 0.016786975267787062 0.016776523680685943 0.2717617827022164 0.041992896968655567 -0.0057263943922307679 -0.029247906956259423 -0.045969956447366657 -0.035300680242637099 0.14248733396040725 0.34040323934663924 0.019980049310088736 -0.070982988954979884 -0.11207429648257658 0.16895473509313227 -0.019090146653564424 0.22613075178778339 -0.015674715672360992 -0.015914269272235371 -0.022208171350119276 0.01965122295870764 0.12888647296811201 0.085674148863604013 0.14903464514801379 -0.35921501864016669 0.010554044748327631 0.047966543053299469 -0.030008426057938908 0.14680209222450255 -0.18011312211836189 -0.081955701582563295
leaf_weight=55272.307299353182 3334.9527906030416 174.51269726455212 7.8088955432176581 48.954321503639221 469.2663695961237 978.02175216376781 36.80798451602459 44.088362656533718 54.652639307081699 5.1372242942452422 372.19817741215229 154.36856196820736 6.6918117851018915 11.798398956656456 742.78648380935192 7.2063156813383094 911.9321845471859 29.069254830479622 597.57665818184614 390.91219216585159 59.560415461659431 74.324362546205521 7.4847881719470015 7.0023399889469129 76.25882238894701 87.789417326450348 93.947974383831024 29.848350033164024 5.631023868918418 7.2809617444872856
leaf_count=240657 14422 740 35 239 2121 4090 231 255 341 31 1612 649 31 61 3110 39 4426 145 2451 1661 348 304 41 50 430 355 397 122 24 51
internal_value=0 0.00232474 -0.00853385 0.0736021 -0.0105543 -0.0222791 0.0011453 0.0446926 0.0812024 0.00135096 -0.00489468 -0.019313 -0.0561969 0.0672472 0.0062967 0.00910678 -0.00600701 0.0394699 0.0129071 -0.00565427 0.0706932 0.0182888 -0.0483736 -0.082456 0.0291668 -0.00981309 0.0219104 0.0614797 0.0342188 -0.217881
internal_weight=0 8827.87 2364.31 56.7632 2307.54 1152.53 1155.01 140.686 96.5978 41.9452 1014.32 642.125 172.859 18.4902 6463.56 5503.56 1105.8 193.863 4397.77 988.489 143.026 3409.28 50.8373 43.3526 83.4651 960.003 217.217 123.269 93.4204 14.2833
internal_count=279469 38812 10436 274 10162 4830 5332 858 603 262 4474 2862 741 92 28376 24368 5530 1104 18838 4112 817 14726 287 246 469 4008 898 501 379 101
is_linear=0
shrinkage=0.3


Tree=25
num_leaves=31
num_cat=0
split_feature=2 7 5 0 6 10 1 5 0 0 0 0 15 0 0 14 6 8 0 1 0 6 0 8 0 4 0 14 9 9
split_gain=0.634156 13.9384 6.39604 4.02868 5.69552 3.63394 6.68946 3.55114 3.51854 3.05782 5.53255 3.46104 3.03417 4.15095 2.99644 2.92727 4.9866 4.5255 3.05537 3.88988 3.87278 2.88769 2.72636 2.60047 2.57022 2.84777 2.48379 2.40543 2.30144 2.19522
threshold=1.0000000180025095e-35 1.0000000180025095e-35 1.0000000180025095e-35 24.500000000000004 1.0000000180025095e-35 1.0000000180025095e-35 1.0000000180025095e-35 1.0000000180025095e-35 29.500000000000004 34.500000000000007 43.500000000000007 32.500000000000007 1.0000000180025095e-35 52.500000000000007 19.500000000000004 1.0000000180025095e-35 1.0000000180025095e-35 1.0000000180025095e-35 32.500000000000007 1.0000000180025095e-35 39.500000000000007 1.0000000180025095e-35 26.500000000000004 1.0000000180025095e-35 22.500000000000004 1.0000000180025095e-35 43.500000000000007 1.0000000180025095e-35 1.0000000180025095e-35 1.0000000180025095e-35
decision_type=2 2 2 2 2 2 2 2 2 2 2 2 2 2 2 2 2 2 2 2 2 2 2 2 2 2 2 2 2 2
left_child=1 3 5 4 24 14 23 -5 22 11 28 -10 13 21 27 -9 17 18 19 -17 -20 -4 -8 -7 -1 29 -22 -3 -11 -26
right_child=-2 2 12 7 -6 6 8 15 9 10 -12 -13 -14 -15 -16 16 -18 -19 20 -21 26 -23 -24 -25 25 -27 -28 -29 -30 -31
leaf_value=-0.0030023545479384468 0.00058723493898078555 0.1985318339689128 -0.0049135511124204006 -0.007329158909222323 0.059264343628055993 0.32984243023264465 -0.039050228945609146 0.0012011848717306433 -0.10265928326037523 -0.055543397823549702 -0.20208107614290485 -0.41656671132343054 0.074086487715204985 -0.42516131855852657 0.043597876523815977 0.16320436125798893 -0.031043570646164372 -0.12766915338236215 0.16735456953451538 -0.14375924657542041 -0.043932796703979503 -0.25896579651687696 0.18531001644153397 0.040313103478418578 0.010399098576479079 0.089915910767130056 0.068097873876090481 -0.0039754646370856062 0.20606999333447298 0.10713349832217552
leaf_weight=1613.4678958058357 47057.7628294155 20.0062476284802 11.536353379488 12015.609299808741 178.1797690987587 5.7625051438808423 16.153305202722553 1348.8455924987793 7.3024252057075483 5.6352803111076373 12.003461509943007 5.5741700083017349 6.6566317155957213 4.2041934728622428 711.42856018617749 5.219385191798211 82.748774617910385 11.751886665821074 33.141274720430374 12.893744394183159 19.972350597381592 6.1857746466994277 6.9812767952680579 5.4160697907209396 638.03556075692177 47.151319146156311 164.56847849488258 7.1713178008794776 6.5370238497853279 21.835988566279411
leaf_count=7330 202787 105 59 53453 777 26 79 5765 37 29 57 27 35 21 4037 25 349 49 151 57 93 30 34 25 2917 224 735 33 33 90
internal_value=0 -0.00154908 0.0361646 -0.00350203 0.00757584 0.0410864 -0.023559 -0.00552324 -0.0631425 -0.120458 -0.0575614 -0.238547 -0.103309 -0.157165 0.0473326 0.00739958 0.0327123 0.0540242 0.0630797 -0.0553062 0.0729305 -0.0935886 0.0286545 0.189564 0.00360691 0.0186897 0.0559731 0.145096 0.0849537 0.0136002
internal_weight=0 17032 838.555 16193.4 2498.67 809.972 71.3655 13694.8 60.1869 37.0524 24.1758 12.8766 28.583 21.9263 738.606 1679.14 330.296 247.547 235.795 18.1131 217.682 17.7221 23.1346 11.1786 2320.49 707.023 184.541 27.1776 12.1723 659.872
internal_count=279469 76682 4667 72015 11338 4522 347 60677 296 183 119 64 145 110 4175 7224 1459 1110 1061 82 979 89 113 51 10561 3231 828 138 62 3007
is_linear=0
shrinkage=0.3


Tree=26
num_leaves=31
num_cat=0
split_feature=0 9 0 8 6 2 14 8 6 0 12 4 1 0 0 15 15 0 1 0 0 3 0 0 14 2 0 5 0 0
split_gain=0.651633 2.55104 4.27636 4.20487 2.48655 3.18278 2.11194 2.09079 4.99353 4.64102 4.63082 2.99879 3.41575 5.49717 5.40987 2.90021 2.79761 2.55272 2.47868 2.31176 4.40538 2.84627 3.87788 2.21709 2.12625 2.07894 2.85614 2.03182 1.9924 1.94957
threshold=58.500000000000007 1.0000000180025095e-35 59.500000000000007 1.0000000180025095e-35 1.0000000180025095e-35 1.0000000180025095e-35 1.0000000180025095e-35 1.0000000180025095e-35 1.0000000180025095e-35 66.500000000000014 1.0000000180025095e-35 1.0000000180025095e-35 1.0000000180025095e-35 61.500000000000007 77.500000000000014 1.0000000180025095e-35 1.0000000180025095e-35 68.500000000000014 1.0000000180025095e-35 71.500000000000014 72.500000000000014 1.0000000180025095e-35 75.500000000000014 70.500000000000014 1.0000000180025095e-35 1.0000000180025095e-35 65.500000000000014 1.0000000180025095e-35 72.500000000000014 61.500000000000007
decision_type=2 2 2 2 2 2 2 2 2 2 2 2 2 2 2 2 2 2 2 2 2 2 2 2 2 2 2 2 2 2
left_child=-1 7 3 4 6 -6 -3 24 10 16 11 12 13 -9 15 17 -10 -15 -11 25 -21 -22 -23 -20 -2 26 -14 -19 -25 -4
right_child=1 2 29 -5 5 -7 -8 8 9 18 -12 -13 19 14 -16 -17 -18 27 23 20 21 22 -24 28 -26 -27 -28 -29 -30 -31
leaf_value=-0.00042064208897071322 -2.598012956858134e-05 0.022131917713931446 -0.01454571553229723 0.11568764842829511 0.083029906904859244 -0.13676604067888107 0.16550960636446566 0.010397787954466444 0.048527408576557948 -0.13031786446431465 0.17656185364803073 0.062546706019069948 -0.032070858002151849 -0.051568773934157798 0.15997843979766826 -0.19297576402892289 0.16861632999040205 -0.21382936430006635 -0.07053422413841795 0.18681616434710727 -0.026158884961674438 0.26681626720063467 -0.034895910017455296 0.23864395645691697 0.014159393369296003 -0.020006678145436777 -0.19160256513937005 -0.0017220075074698225 0.02455931076637383 0.013706536563549363
leaf_weight=52945.296596992761 7508.1588530093431 46.758506819605827 273.42362131923437 69.252700999379158 9.0630055516958254 17.148945584893227 11.525143980979918 58.214140862226486 72.744669735431671 15.991179734468458 10.4111201018095 33.892024219036102 28.779140129685402 55.742467701435089 6.6924661397933951 32.654978886246681 22.972809046506882 18.961522385478023 18.642828695476055 13.019128248095511 70.042400777339935 7.6971328109502775 7.6390538662672043 4.8566269874572781 1088.9090853482485 454.75724662840366 15.561569347977636 5.1736086905002585 20.124484054744244 1121.3653946742415
leaf_count=232881 31261 193 1147 302 37 71 47 244 313 68 43 165 118 229 28 138 97 77 84 54 300 34 36 21 4600 1862 64 21 96 4838
internal_value=0 0.00210554 0.0134024 0.0608863 0.0159711 -0.0607697 0.0504838 0.0002779 -0.0128911 0.0364254 -0.0222418 -0.0248008 -0.0286209 -0.0651698 -0.102067 -0.117652 0.0773495 -0.086858 -0.0292819 -0.017767 0.0242597 -0.000528032 0.116531 0.0077547 0.00177075 -0.0260526 -0.0880592 -0.168362 0.0661799 0.00816818
internal_weight=0 11120.2 1548.54 153.748 84.4956 26.212 58.2837 9571.64 974.571 155.333 819.238 808.827 774.935 177.439 119.225 112.533 95.7175 79.8776 59.6151 597.496 98.3977 85.3786 15.3362 43.6239 8597.07 499.098 44.3407 24.1351 24.9811 1394.79
internal_count=279469 46588 6635 650 348 108 240 39953 4092 679 3413 3370 3205 737 493 465 410 327 269 2468 424 370 70 201 35861 2044 182 98 117 5985
is_linear=0
shrinkage=0.3


end of trees

feature_importances:
idade=286
cs_raca=57
cs_sexo=54
other_dishx=50
n_sub_abuse=49
hiv=36
diabetes=35
educ_cat_5-9_years=35
prior_tb=32
benef_gov=32
drug_yn=30
tobacco_yn=30
educ_cat_under_5=24
alcohol_yn=22
educ_cat_9-12_years=22
educ_cat_12+_years=16

parameters:
[boosting: gbdt]
[objective: binary]
[metric: auc]
[tree_learner: serial]
[device_type: cpu]
[data: ]
[valid: ]
[num_iterations: 1000]
[learning_rate: 0.3]
[num_leaves: 31]
[num_threads: -1]
[deterministic: 0]
[force_col_wise: 0]
[force_row_wise: 0]
[histogram_pool_size: -1]
[max_depth: 12]
[min_data_in_leaf: 20]
[min_sum_hessian_in_leaf: 0.001]
[bagging_fraction: 1]
[pos_bagging_fraction: 1]
[neg_bagging_fraction: 1]
[bagging_freq: 0]
[bagging_seed: 400]
[feature_fraction: 1]
[feature_fraction_bynode: 1]
[feature_fraction_seed: 30056]
[extra_trees: 0]
[extra_seed: 12879]
[early_stopping_round: 10]
[first_metric_only: 0]
[max_delta_step: 0]
[lambda_l1: 0]
[lambda_l2: 0]
[linear_lambda: 0]
[min_gain_to_split: 0]
[drop_rate: 0.1]
[max_drop: 50]
[skip_drop: 0.5]
[xgboost_dart_mode: 0]
[uniform_drop: 0]
[drop_seed: 17869]
[top_rate: 0.2]
[other_rate: 0.1]
[min_data_per_group: 100]
[max_cat_threshold: 32]
[cat_l2: 10]
[cat_smooth: 10]
[max_cat_to_onehot: 4]
[top_k: 20]
[monotone_constraints: ]
[monotone_constraints_method: basic]
[monotone_penalty: 0]
[feature_contri: ]
[forcedsplits_filename: ]
[refit_decay_rate: 0.9]
[cegb_tradeoff: 1]
[cegb_penalty_split: 0]
[cegb_penalty_feature_lazy: ]
[cegb_penalty_feature_coupled: ]
[path_smooth: 0]
[interaction_constraints: ]
[verbosity: -1]
[saved_feature_importance_type: 0]
[linear_tree: 0]
[max_bin: 255]
[max_bin_by_feature: ]
[min_data_in_bin: 3]
[bin_construct_sample_cnt: 200000]
[data_random_seed: 175]
[is_enable_sparse: 1]
[enable_bundle: 1]
[use_missing: 1]
[zero_as_missing: 0]
[feature_pre_filter: 1]
[pre_partition: 0]
[two_round: 0]
[header: 0]
[label_column: ]
[weight_column: ]
[group_column: ]
[ignore_column: ]
[categorical_feature: ]
[forcedbins_filename: ]
[precise_float_parser: 0]
[objective_seed: 16083]
[num_class: 1]
[is_unbalance: 0]
[scale_pos_weight: 1]
[sigmoid: 1]
[boost_from_average: 1]
[reg_sqrt: 0]
[alpha: 0.9]
[fair_c: 1]
[poisson_max_delta_step: 0.7]
[tweedie_variance_power: 1.5]
[lambdarank_truncation_level: 30]
[lambdarank_norm: 1]
[label_gain: ]
[eval_at: ]
[multi_error_top_k: 1]
[auc_mu_weights: ]
[num_machines: 1]
[local_listen_port: 12400]
[time_out: 120]
[machine_list_filename: ]
[machines: ]
[gpu_platform_id: -1]
[gpu_device_id: -1]
[gpu_use_dp: 0]
[num_gpu: 1]

end of parameters

pandas_categorical:[]
