tree
version=v3
num_class=1
num_tree_per_iteration=1
label_index=0
max_feature_idx=15
objective=binary sigmoid:1
feature_names=idade cs_raca cs_sexo prior_tb hiv diabetes other_dishx drug_yn alcohol_yn tobacco_yn benef_gov n_sub_abuse educ_cat_12+_years educ_cat_5-9_years educ_cat_9-12_years educ_cat_under_5
feature_infos=[18:100] [0:1] [0:1] [0:1] [0:1] [0:1] [0:1] [0:1] [0:1] [0:1] [0:1] [0:3] [0:1] [0:1] [0:1] [0:1]
tree_sizes=3533 3534 3564 3524 3547 3539 3540 3523 3546 3532 3535 3501 3475 3470 3500 3465 3510 3434

Tree=0
num_leaves=31
num_cat=0
split_feature=3 4 11 0 11 13 4 7 1 2 7 2 1 0 0 1 1 13 11 10 4 7 6 2 1 1 7 6 1 6
split_gain=5016.28 3478.96 2511.84 957.261 857.143 659.167 510.351 451.235 287.472 245.157 226.209 218.737 217.819 170.162 161.584 137.569 135.862 129.139 104.446 80.114 78.1414 68.7917 68.5097 64.3441 63.5498 61.2085 60.9356 57.9799 56.3276 49.8542
threshold=1.0000000180025095e-35 1.0000000180025095e-35 1.0000000180025095e-35 66.500000000000014 1.0000000180025095e-35 1.0000000180025095e-35 1.0000000180025095e-35 1.0000000180025095e-35 1.0000000180025095e-35 1.0000000180025095e-35 1.0000000180025095e-35 1.0000000180025095e-35 1.0000000180025095e-35 78.500000000000014 70.500000000000014 1.0000000180025095e-35 1.0000000180025095e-35 1.0000000180025095e-35 1.5000000000000002 1.0000000180025095e-35 1.0000000180025095e-35 1.0000000180025095e-35 1.0000000180025095e-35 1.0000000180025095e-35 1.0000000180025095e-35 1.0000000180025095e-35 1.0000000180025095e-35 1.0000000180025095e-35 1.0000000180025095e-35 1.0000000180025095e-35
decision_type=2 2 2 2 2 2 2 2 2 2 2 2 2 2 2 2 2 2 2 2 2 2 2 2 2 2 2 2 2 2
left_child=1 2 3 5 6 9 17 14 29 19 20 -10 26 25 15 18 -11 23 -4 22 -6 -14 -1 -2 -9 -5 -3 -18 -19 -7
right_child=4 12 7 13 10 8 -8 24 11 16 -12 -13 21 -15 -16 -17 27 28 -20 -21 -22 -23 -24 -25 -26 -27 -28 -29 -30 -31
leaf_value=-0.2745422263634329 -0.064416358438458179 0.059588801317434929 -0.10705164260359809 -0.089998956354427687 0.19865930381673119 -0.18945730987637921 0.29385016095533262 0.0721512088741426 -0.14281165857667505 -0.22835056296875766 0.35179595269041214 -0.044654713798677061 0.22166415268394846 0.1291389450239927 0.19221484328146976 0.023764784590470215 -0.14326647843371948 0.02895006777997117 0.07604008857155857 -0.069737610097605707 0.34421239225013223 0.34706957650236009 -0.14508371634454376 0.048920262870119212 0.17244878130206709 0.014898201137444037 0.24381911557017044 -0.016593839177937043 0.12868730826363306 -0.056094731189545277
leaf_weight=3701.9938216209412 659.24889975786209 999.24833232164383 1452.497575879097 718.99880003929138 2263.7462219595909 2800.7453257441521 1123.2481253743172 758.99873328208923 2857.745230615139 1923.9967889785767 2099.9964952468872 7168.9880354404449 3039.9949264526367 1029.4982818365097 417.49930322170258 5537.2407587170601 4464.9925482273102 635.24893981218338 347.49942004680634 205.49965703487396 388.99935078620911 452.24924522638321 408.49931824207306 1425.9976201057434 2265.9962182044983 1648.4972487688065 192.74967831373215 350.74941462278366 2576.9956991672516 277.24953728914261
leaf_count=14808 2637 3997 5810 2876 9055 11203 4493 3036 11431 7696 8400 28676 12160 4118 1670 22149 17860 2541 1390 822 1556 1809 1634 5704 9064 6594 771 1403 10308 1109
internal_value=0.00256481 -0.0439493 -0.0737697 -0.121797 0.181659 -0.142763 0.110171 0.049009 -0.097249 -0.196713 0.278236 -0.0726307 0.200109 0.0273179 0.0106738 0.000343858 -0.160963 0.0712245 -0.0717048 -0.252538 0.220003 0.237904 -0.261677 0.013089 0.147283 -0.0169586 0.0893794 -0.13404 0.108963 -0.177445
internal_weight=0 43021.4 38337.2 27557.5 11173.5 24160.5 6420.74 10779.7 13104.7 11055.7 4752.74 10026.7 4684.24 3396.99 7754.74 7337.24 6739.74 5297.49 1800 4315.99 2652.75 3492.24 4110.49 2085.25 3024.99 2367.5 1192 4815.74 3212.24 3077.99
internal_count=216780 172086 153349 110230 44694 96642 25683 43119 52419 44223 19011 40107 18737 13588 31019 29349 26959 21190 7200 17264 10611 13969 16442 8341 12100 9470 4768 19263 12849 12312
is_linear=0
shrinkage=1


Tree=1
num_leaves=31
num_cat=0
split_feature=4 11 3 3 0 2 11 13 3 1 1 12 1 7 1 6 13 13 6 1 10 7 13 13 0 6 12 0 0 7
split_gain=2496.97 2037.75 909.332 624.068 494.719 370.14 237.277 205.921 176.781 115.489 111.322 99.1645 93.1289 79.6773 78.0619 78.0255 63.9862 63.71 63.4048 57.5267 50.486 49.3961 47.9185 46.3517 44.4236 43.9008 41.7122 39.3144 38.8477 45.1013
threshold=1.0000000180025095e-35 1.0000000180025095e-35 1.0000000180025095e-35 1.0000000180025095e-35 70.500000000000014 1.0000000180025095e-35 1.5000000000000002 1.0000000180025095e-35 1.0000000180025095e-35 1.0000000180025095e-35 1.0000000180025095e-35 1.0000000180025095e-35 1.0000000180025095e-35 1.0000000180025095e-35 1.0000000180025095e-35 1.0000000180025095e-35 1.0000000180025095e-35 1.0000000180025095e-35 1.0000000180025095e-35 1.0000000180025095e-35 1.0000000180025095e-35 1.0000000180025095e-35 1.0000000180025095e-35 1.0000000180025095e-35 44.500000000000007 1.0000000180025095e-35 1.0000000180025095e-35 23.500000000000004 66.500000000000014 1.0000000180025095e-35
decision_type=2 2 2 2 2 2 2 2 2 2 2 2 2 2 2 2 2 2 2 2 2 2 2 2 2 2 2 2 2 2
left_child=1 2 4 6 5 9 14 11 10 -1 -2 15 -9 -5 -3 19 -6 26 20 -7 23 -10 -12 -11 -19 27 -4 -14 29 -16
right_child=8 3 17 13 16 7 -8 12 21 18 22 -13 25 -15 28 -17 -18 24 -20 -21 -22 -23 -24 -25 -26 -27 -28 -29 -30 -31
leaf_value=-0.20685735993674031 0.06102334528943569 -0.053432260327348359 0.018192475095336808 0.13882176219667075 -0.023369721383561325 -0.16145851623248242 0.094380112460612856 -0.10042605924820153 0.21878675208435985 -0.17674136292004586 0.12281739307599071 -0.22510995770920811 0.013273273808392123 0.22795153600969587 0.00025905231028322534 0.016128919048229266 0.077270166967207593 0.10331247304031047 -0.043640159433568242 -0.093789866083959186 -0.022475621813380763 0.32591439244248405 0.19555127208542866 -0.11865671096064628 0.031015030410004807 0.050024872462587688 -0.15913405839850006 -0.046972935813329932 0.11068736984720333 0.084502217875483718
leaf_weight=2431.3076070100069 1188.2770181894302 1802.112695723772 1956.5680233240128 2241.5610289573669 893.12662601470947 1539.1832046657801 3681.949208304286 2190.4620713144541 1477.0485681295395 2480.7868488729 1326.2851910144091 653.25429053604603 1175.66381059587 1511.2573519349098 4222.4036980271339 463.76195810735226 1564.6589752733707 1937.665045440197 688.53462351858616 4260.1564535498619 307.31629578769207 525.08556693792343 2115.5755382329226 2465.1631166785955 1263.812217310071 568.98889772593975 127.14571702480316 5707.0087041705847 384.69454848766327 661.56926652789116
leaf_count=9851 4768 7230 7832 9055 3580 6235 14783 8833 6049 10107 5382 2635 4705 6234 16892 1861 6272 7777 2767 17126 1233 2166 8587 9909 5072 2277 509 22839 1548 2666
internal_value=0 -0.0241893 -0.0657305 0.0693846 -0.087715 -0.100374 0.0326234 -0.0743808 0.172399 -0.151778 0.140192 -0.113882 -0.0460465 0.174714 0.000464979 -0.102281 0.040699 0.0481995 -0.12924 -0.11175 -0.14046 0.246882 0.167524 -0.147791 0.0747724 -0.0300613 0.00737222 -0.036682 0.0189002 0.0116704
internal_weight=0 47180.1 32674.6 14505.5 27389.4 24931.6 10752.7 16558.5 6632.27 8373.11 4630.14 6916.36 9642.12 3752.82 7070.78 6263.1 2457.79 5285.19 5941.8 5799.34 5253.27 2002.13 3441.86 4945.95 3201.48 7451.66 2083.71 6882.67 5268.67 4883.97
internal_count=216780 189828 131420 58408 110230 100378 43119 66511 26952 33867 18737 27857 38654 15289 28336 25222 9852 21190 24016 23361 21249 8215 13969 20016 12849 29821 8341 27544 21106 19558
is_linear=0
shrinkage=0.3


Tree=2
num_leaves=31
num_cat=0
split_feature=4 11 3 3 0 2 7 7 1 13 0 0 1 1 3 13 1 12 7 1 6 2 10 15 13 6 12 6 1 0
split_gain=1276.71 1018.77 454.008 327.351 299.471 191.276 143.552 124.803 98.4938 92.2438 72.734 70.194 62.2324 57.169 53.1734 51.7864 50.1038 48.5157 47.8952 45.6801 36.6549 34.7111 33.3944 33.1903 29.8273 29.4299 29.0393 28.6577 28.4252 26.6087
threshold=1.0000000180025095e-35 1.0000000180025095e-35 1.0000000180025095e-35 1.0000000180025095e-35 63.500000000000007 1.0000000180025095e-35 1.0000000180025095e-35 1.0000000180025095e-35 1.0000000180025095e-35 1.0000000180025095e-35 64.500000000000014 85.500000000000014 1.0000000180025095e-35 1.0000000180025095e-35 1.0000000180025095e-35 1.0000000180025095e-35 1.0000000180025095e-35 1.0000000180025095e-35 1.0000000180025095e-35 1.0000000180025095e-35 1.0000000180025095e-35 1.0000000180025095e-35 1.0000000180025095e-35 1.0000000180025095e-35 1.0000000180025095e-35 1.0000000180025095e-35 1.0000000180025095e-35 1.0000000180025095e-35 1.0000000180025095e-35 25.500000000000004
decision_type=2 2 2 2 2 2 2 2 2 2 2 2 2 2 2 2 2 2 2 2 2 2 2 2 2 2 2 2 2 2
left_child=1 2 4 6 5 12 10 8 24 17 15 16 -1 -4 -10 -3 20 25 -5 29 -6 -15 26 -18 -2 28 27 -14 -7 -11
right_child=7 3 13 18 11 9 -8 -9 14 19 -12 -13 22 21 -16 -17 23 -19 -20 -21 -22 -23 -24 -25 -26 -27 -28 -29 -30 -31
leaf_value=-0.15792178721885938 -0.015383246243910315 -0.041070921858262645 -0.025160219803379843 0.099345230206284746 -0.082395831087204427 -0.1182381977850889 0.078870772107915307 0.2176440702987191 0.10871531318769975 -0.01549009105788806 0.084762036437477734 0.14418564587752136 -0.10544170930621559 0.0054845361528676872 0.18628145604039228 0.01217158755040367 0.040709280855319545 -0.16566334585998091 0.16979899769850965 -0.025368570878867701 0.04141788223856737 0.067340581524886742 -0.0041386189990227501 -0.037264768995414907 0.07554109845140379 0.0040597145135834985 -0.18465442121299255 -0.030073410436443907 -0.06859069299847266 -0.096604525843800582
leaf_weight=2162.9005803912878 583.36391614377499 2709.8324593007565 1152.0309256315231 2200.497507750988 880.85302047431469 1401.3387862890959 2982.4851693212986 1095.4120471179485 2927.0598742365837 480.05315768718719 839.49112710356712 329.08991122245789 4204.9909338653088 1123.1554023623466 1092.2156772911549 4180.7638526707888 2071.1246231347322 595.44222038984299 1434.5455268919468 6921.1417117267847 284.76824289560318 2990.2554074078798 322.77695269882679 644.10064740478992 732.34749749302864 388.10728666186333 369.36421203613281 509.01542747020721 4001.7656539678574 1505.2380359023809
leaf_count=9067 2376 10865 4619 9055 3571 5821 12100 4746 12160 1960 3395 1327 17381 4521 4678 16759 8324 2481 6234 27730 1148 12050 1297 2591 2992 1557 1547 2054 16233 6141
internal_value=0 -0.0171742 -0.0466935 0.0493582 -0.0623703 -0.0759102 0.0229617 0.12541 0.106471 -0.0566054 0.00139044 0.0111588 -0.114915 0.0339079 0.129793 -0.00876684 -0.000121723 -0.0841196 0.127149 -0.0368754 -0.0521474 0.050451 -0.0977091 0.0222124 0.0352268 -0.0757355 -0.103651 -0.0973035 -0.0814672 -0.0769907
internal_weight=0 46685.1 32337.5 14347.6 27072.1 22862.1 10712.6 6430.4 5334.99 15293.1 7730.09 4209.94 7569.05 5265.44 4019.28 6890.6 3880.85 6386.65 3635.04 8906.43 1165.62 4113.41 5406.15 2715.23 1315.71 5791.21 5083.37 4714.01 5403.1 1985.29
internal_count=216780 189828 131420 58408 110230 93269 43119 26952 22206 61923 31019 16961 31346 21190 16838 27624 15634 26092 15289 35831 4719 16571 22279 10915 5368 23611 20982 19435 22054 8101
is_linear=0
shrinkage=0.3


Tree=3
num_leaves=31
num_cat=0
split_feature=3 4 11 13 7 0 4 11 2 1 13 6 0 8 1 15 1 0 0 0 2 0 0 0 6 0 1 1 6 10
split_gain=657.149 421.518 311.037 162.01 151.335 103.773 90.7774 85.0687 64.598 53.9662 49.819 42.9172 47.1031 39.1775 39.0435 38.1135 31.4683 30.5151 29.9104 29.054 28.411 27.3471 26.3191 27.7996 24.11 23.3813 22.5597 21.1917 20.4815 18.806
threshold=1.0000000180025095e-35 1.0000000180025095e-35 1.0000000180025095e-35 1.0000000180025095e-35 1.0000000180025095e-35 64.500000000000014 1.0000000180025095e-35 1.5000000000000002 1.0000000180025095e-35 1.0000000180025095e-35 1.0000000180025095e-35 1.0000000180025095e-35 24.500000000000004 1.0000000180025095e-35 1.0000000180025095e-35 1.0000000180025095e-35 1.0000000180025095e-35 41.500000000000007 78.500000000000014 80.500000000000014 1.0000000180025095e-35 59.500000000000007 76.500000000000014 33.500000000000007 1.0000000180025095e-35 21.500000000000004 1.0000000180025095e-35 1.0000000180025095e-35 1.0000000180025095e-35 1.0000000180025095e-35
decision_type=2 2 2 2 2 2 2 2 2 2 2 2 2 2 2 2 2 2 2 2 2 2 2 2 2 2 2 2 2 2
left_child=1 2 3 8 6 11 9 14 24 -2 27 12 -5 17 22 21 -14 -11 -19 -7 -6 29 23 -4 26 -16 -1 -3 -12 -10
right_child=4 10 7 5 20 19 -8 -9 15 13 28 -13 16 -15 25 -17 -18 18 -20 -21 -22 -23 -24 -25 -26 -27 -28 -29 -30 -31
leaf_value=-0.14022594848406508 -0.011477216209088158 -0.01828150771818892 0.013871542315784491 -0.0027820465002307932 0.22258612189526564 0.016042618905433383 0.12223993446609595 0.053461814548917137 -0.079607685953665158 0.059475800217164747 0.086943442087074538 0.023292985108467258 -0.082425701749145402 0.095204058625603216 0.097735659851621817 -0.023239610714176177 -0.040366960085675148 0.00062376692698884342 0.16425638902381587 0.096741409179254903 0.12756764705204485 -0.0054777989545047581 0.20898507479297376 -0.070082522527325372 -0.039743653042723488 0.0054324822801688809 -0.091629380625162959 0.053259698109967842 0.16632876484540043 0.080990933972297716
leaf_weight=1273.0911941230297 1582.8938968628645 527.57236997783184 493.4562251418829 2408.5860140770674 351.79398542642593 1948.2836817502975 1349.5511085242033 3632.218298599124 4187.2155425548553 2475.0994898974895 2296.1211438179016 1049.4642011076212 2074.6497703492641 1377.247985124588 259.86096213757992 2486.2808292508125 7013.414744451642 1864.7299252003431 106.26616206765175 505.75934652984142 1452.7691159546375 540.9513368755579 37.047901228070259 1264.8916981369257 539.09718933701515 4986.1953798681498 2647.8952639400959 1268.9762129187584 335.1992572247982 66.667862668633461
leaf_count=5575 6423 2135 1985 9781 1652 7844 6049 14783 17420 10062 9778 4240 8710 5776 1052 10189 28369 7554 430 2065 6748 2209 150 5095 2205 20054 11348 5382 1442 275
internal_value=0 -0.0167651 -0.0271235 -0.0444045 0.0669844 -0.0237455 0.0506805 0.0161716 -0.0707977 0.0376411 0.0707624 -0.0347813 -0.0400826 0.0509924 -0.00306389 -0.0533817 -0.0499683 0.0372971 0.00944601 0.032674 0.146091 -0.0690114 -0.0412496 -0.046522 -0.0992293 0.0100047 -0.107408 0.032251 0.0970562 -0.0770907
internal_weight=0 41842.9 37415 26741.4 10560.4 15000.2 8755.79 10673.7 11741.2 7406.24 4427.87 12546.1 11496.7 5823.34 7041.45 7281.12 9088.06 4446.1 1971 2454.04 1804.56 4794.83 1795.4 1758.35 4460.08 5246.06 3920.99 1796.55 2631.32 4253.88
internal_count=216780 172086 153349 110230 44694 61009 36294 43119 49221 30245 18737 51100 46860 23822 28336 30093 37079 18046 7984 9909 8400 19904 7230 7080 19128 21106 16923 7517 11220 17695
is_linear=0
shrinkage=0.3


Tree=4
num_leaves=31
num_cat=0
split_feature=4 11 12 6 2 3 3 7 7 1 0 1 0 0 0 0 12 2 13 1 1 10 14 5 0 0 11 1 2 3
split_gain=344.56 255.568 125.303 110.987 98.7234 88.9866 81.3879 65.8698 47.8536 44.2308 45.2943 42.8579 35.2367 31.8859 29.9587 27.5325 25.7544 25.532 25.3601 22.9393 21.8714 21.0456 20.2828 24.1703 22.9169 20.0729 19.4655 18.6106 18.2556 17.631
threshold=1.0000000180025095e-35 1.0000000180025095e-35 1.0000000180025095e-35 1.0000000180025095e-35 1.0000000180025095e-35 1.0000000180025095e-35 1.0000000180025095e-35 1.0000000180025095e-35 1.0000000180025095e-35 1.0000000180025095e-35 78.500000000000014 1.0000000180025095e-35 64.500000000000014 47.500000000000007 41.500000000000007 52.500000000000007 1.0000000180025095e-35 1.0000000180025095e-35 1.0000000180025095e-35 1.0000000180025095e-35 1.0000000180025095e-35 1.0000000180025095e-35 1.0000000180025095e-35 1.0000000180025095e-35 27.500000000000004 79.500000000000014 1.5000000000000002 1.0000000180025095e-35 1.0000000180025095e-35 1.0000000180025095e-35
decision_type=2 2 2 2 2 2 2 2 2 2 2 2 2 2 2 2 2 2 2 2 2 2 2 2 2 2 2 2 2 2
left_child=1 2 3 4 15 8 9 11 12 -6 22 -2 16 19 -8 21 20 -10 -13 -7 -3 27 23 -11 -25 -16 -15 -1 -5 -20
right_child=7 5 -4 28 6 13 14 -9 17 10 -12 18 -14 26 25 -17 -18 -19 29 -21 -22 -23 -24 24 -26 -27 -28 -29 -30 -31
leaf_value=-0.098653100309964548 0.0064810722181216128 -0.036436928605661965 -0.10844622437099261 0.0065028512597597289 -0.051608062116066028 0.027068414246182955 0.051372792667943423 0.13876185019832574 0.11924706001275009 -0.006045381845110674 0.094181311928212552 0.038930096199299234 0.057364513008696293 -0.0071073529614836704 -0.013243968737713097 -0.026054170657342321 -0.15066717046778785 0.03358731349107888 0.073353305656801787 0.10044240863811953 0.003758502133658438 0.0084971025819945405 -0.040270242523036369 0.24730265555223063 -0.078489225160777581 0.17693376694709828 0.081472982023145901 -0.058558879975599734 0.053373839090218735 0.1322290298006657
leaf_weight=1402.377368375659 1292.0805970579386 1593.9657050222158 1496.3641593754292 1261.8274557441473 3697.5930536687374 478.82921463251114 2032.5653449892998 975.82085901498795 356.54729411005974 8241.6830935776234 338.24917361140251 1469.5457678437233 829.85386103391647 673.54532364010811 1317.4717109203339 2380.7578726708889 112.14478139579296 2573.8192849308252 1688.9205679744482 1925.6714865863323 5169.8623919785023 335.97693262994289 2642.0821379870176 20.090773418545723 592.60041409730911 51.918125942349434 333.98288734257221 4053.8447926938534 1836.1584279835224 627.97924338281155
leaf_count=6252 5368 6456 6614 5134 15633 2163 8290 4746 1471 33245 1386 6434 3395 2875 5316 9927 452 10629 7429 8770 20716 1370 10943 81 2392 213 1481 17232 7392 2975
internal_value=0 -0.00878099 -0.0237072 -0.0195093 -0.025657 0.0249019 -0.0137623 0.0673756 0.0113785 -0.0229673 -0.0140188 0.053659 -0.00103047 0.067058 0.0282649 -0.0532135 -0.0080781 0.0440098 0.0697579 0.0858308 -0.00571396 -0.0643767 -0.0172023 -0.010319 -0.0678062 -0.0060337 0.0222559 -0.068864 0.034283 0.0893112
internal_weight=0 45749.8 31701.6 30205.2 27107.2 14048.2 18934.3 6054.35 10636.2 15532.3 11834.7 5078.53 7705.83 3412.03 3401.96 8172.96 6875.97 2930.37 3786.45 2404.5 6763.83 5792.2 11496.5 8854.37 612.691 1369.39 1007.53 5456.22 3097.99 2316.9
internal_count=216780 189828 131420 124806 112280 58408 77499 26952 43119 63680 48047 22206 31019 15289 13819 34781 27624 12100 16838 10933 27172 24854 46661 35718 2473 5529 4356 23484 12526 10404
is_linear=0
shrinkage=0.3


Tree=5
num_leaves=31
num_cat=0
split_feature=3 13 11 11 12 4 0 4 4 0 1 14 2 7 0 11 1 5 0 0 0 6 2 0 0 6 6 4 6 0
split_gain=190.753 120.658 72.6403 59.1469 54.2499 52.0232 44.2609 39.0016 36.2045 29.1184 26.2435 23.5361 21.5989 23.2491 21.4915 21.3578 21.0579 19.3676 19.2493 18.964 18.4322 17.0676 16.188 14.0552 16.3852 13.2831 12.6288 12.3047 12.209 14.9337
threshold=1.0000000180025095e-35 1.0000000180025095e-35 1.5000000000000002 1.5000000000000002 1.0000000180025095e-35 1.0000000180025095e-35 77.500000000000014 1.0000000180025095e-35 1.0000000180025095e-35 47.500000000000007 1.0000000180025095e-35 1.0000000180025095e-35 1.0000000180025095e-35 1.0000000180025095e-35 78.500000000000014 1.5000000000000002 1.0000000180025095e-35 1.0000000180025095e-35 82.500000000000014 60.500000000000007 29.500000000000004 1.0000000180025095e-35 1.0000000180025095e-35 20.500000000000004 51.500000000000007 1.0000000180025095e-35 1.0000000180025095e-35 1.0000000180025095e-35 1.0000000180025095e-35 31.500000000000004
decision_type=2 2 2 2 2 2 2 2 2 2 2 2 2 2 2 2 2 2 2 2 2 2 2 2 2 2 2 2 2 2
left_child=1 4 5 7 8 6 12 9 10 11 25 -2 13 23 16 18 21 19 22 20 -14 -11 -12 -3 -25 -1 -17 -4 29 -9
right_child=3 2 27 -5 -6 -7 -8 28 -10 14 15 -13 17 -15 -16 26 -18 -19 -20 -21 -22 -23 -24 24 -26 -27 -28 -29 -30 -31
leaf_value=-0.05612785000448136 0.043345804252756935 0.038044905756167445 0.04503871020479655 0.089192852994586527 -0.079490688214906569 0.042853574704017232 0.062188863746355016 0.11755559843977151 0.020564303863845411 -0.095120687805176726 -0.044485472278412271 -0.0065267053727033038 0.012418454603309037 0.13626032963355866 0.10317199721578087 0.040787176783308988 -9.1210952769199761e-06 -0.043343630901226129 0.095439571755985608 0.029834285109705882 -0.01342920709965861 0.043380010493643713 -0.017202875513194188 -0.047498628074316658 -0.0097593864730906258 -0.0048343671656949352 -0.0380763733034244 0.1087755880050713 0.14021993778420874 0.039964905286084533
leaf_weight=3223.1095985323191 3683.519023373723 264.55524536967278 2224.8189509809017 1632.5981606841087 1668.8138837963343 2196.7361415922642 822.34331360459328 309.96950970590115 1573.7948150038719 419.86626347899437 2834.7422078847885 1107.7512592077255 3842.0807771682739 77.788730397820473 146.00338120758533 765.14521513879299 1777.4636930078268 986.10504652559757 119.70246398448944 1694.8086015582085 7019.3459606170654 98.949284940958023 6323.7875519692898 2724.1355128437281 1670.2296614199877 528.94640830159187 240.09246517717838 310.67075726389885 212.20782376825809 797.98447079956532
leaf_count=14128 15584 1114 9173 8056 7543 9726 3407 1516 6738 1703 12336 4582 15562 325 607 3162 7292 4010 486 6858 28484 404 25974 11530 6889 2163 984 1494 1066 3884
internal_value=0 -0.00899108 0.0048468 0.036867 -0.0280792 -0.00086766 -0.00589578 0.0268799 -0.0225827 0.0182257 -0.0274208 0.0318152 -0.00895879 -0.0263957 -0.00843404 -0.019585 -0.0155302 -0.00285988 -0.0240852 0.000319511 -0.00428595 -0.0687056 -0.0256474 -0.0291115 -0.0331545 -0.0488967 0.0219513 0.0528483 0.0742983 0.0616723
internal_weight=0 41111.8 23833.6 10186.3 17278.1 21298.1 19101.4 8553.71 15609.3 7233.55 14035.5 4791.27 18279 4736.71 2442.28 10283.5 2296.28 13542.3 9278.23 12556.2 10861.4 518.816 9158.53 4658.92 4394.37 3752.06 1005.24 2535.49 1320.16 1107.95
internal_count=216780 172086 98572 44694 73514 87905 78179 36638 65971 30172 59233 20166 74772 19858 10006 42942 9399 54914 38796 50904 44046 2107 38310 19533 18419 16291 4146 10667 6466 5400
is_linear=0
shrinkage=0.3


Tree=6
num_leaves=31
num_cat=0
split_feature=11 6 1 4 1 13 11 4 12 4 3 0 0 15 0 2 10 0 0 3 0 0 13 0 0 3 2 8 6 7
split_gain=113.395 74.9843 60.2144 58.0141 33.5368 31.2963 27.0488 25.43 23.3587 22.0683 18.5335 18.5234 18.87 17.6675 24.6296 17.4483 16.4018 17.5988 16.3345 13.4642 12.6976 12.5303 12.4213 12.0529 11.3278 10.416 10.346 10.2061 15.7196 10.0298
threshold=1.0000000180025095e-35 1.0000000180025095e-35 1.0000000180025095e-35 1.0000000180025095e-35 1.0000000180025095e-35 1.0000000180025095e-35 2.5000000000000004 1.0000000180025095e-35 1.0000000180025095e-35 1.0000000180025095e-35 1.0000000180025095e-35 39.500000000000007 71.500000000000014 1.0000000180025095e-35 31.500000000000004 1.0000000180025095e-35 1.0000000180025095e-35 41.500000000000007 68.500000000000014 1.0000000180025095e-35 79.500000000000014 70.500000000000014 1.0000000180025095e-35 29.500000000000004 61.500000000000007 1.0000000180025095e-35 1.0000000180025095e-35 1.0000000180025095e-35 1.0000000180025095e-35 1.0000000180025095e-35
decision_type=2 2 2 2 2 2 2 2 2 2 2 2 2 2 2 2 2 2 2 2 2 2 2 2 2 2 2 2 2 2
left_child=1 2 8 4 20 13 11 10 16 21 18 19 22 24 -15 -5 17 26 23 -6 -2 25 -13 -7 -4 -3 -1 28 -24 -30
right_child=3 9 5 15 6 7 -8 -9 -10 -11 -12 12 -14 14 -16 -17 -18 -19 -20 -21 -22 -23 27 -25 -26 -27 -28 -29 29 -31
leaf_value=-0.043641496491543051 -0.013612802993855946 0.0066926756289632204 -0.032113029537025814 0.12097795024460734 0.022621022582833682 0.0035806190196575856 0.07262439405917151 0.038452541452657849 -0.090475008839384016 0.10567233509871732 0.022506790149224975 -0.017820637145234863 0.078697719867886248 0.049967595615894332 -0.014879910846592669 0.053999931525452641 0.065722733188419133 -0.050115938989643637 0.028445428452355113 0.060562445601260902 0.19300202575939085 0.061273176525250862 0.012522489310230445 -0.019326244071947597 0.023623014801555233 0.058532250010842189 -0.009763780891121952 0.023209517951610897 -0.10159794794902209 0.071449788852620197
leaf_weight=1167.5018105953932 3280.5471253395081 2206.5340600162745 5940.8890863358974 458.7021826505661 3207.8007022291422 3145.1087491512299 893.85945905745029 1574.4619333148003 666.83579753339291 328.98149316012859 2270.1911904364824 1843.9657156169415 304.14010344445705 658.8156430721283 2637.0687764137983 1477.8197813779116 151.9651947170496 3251.6868010908365 1025.5003569722176 1141.2621162831783 26.989745154976845 655.16523185372353 549.92787958681583 6032.4222265779972 347.37297880649567 414.34113994240761 2659.2954542636871 2340.2272833138704 218.73730319738388 34.962153628468513
leaf_count=5393 13707 8990 25798 2334 13106 12769 4068 7391 3152 1517 9379 7609 1295 2778 11057 7237 646 13951 4198 5500 115 2671 2282 24645 1430 1685 11351 9685 886 155
internal_value=0 -0.00938411 -0.0140705 0.0212305 0.0144267 -0.00649162 0.0227006 0.00252604 -0.0367496 0.0316026 -0.00200887 0.018072 0.00615108 -0.019709 -0.00191752 0.069865 -0.0317947 -0.0338883 -0.00746365 0.0325774 -0.0119268 0.0241645 0.00172744 -0.0114761 -0.0290341 0.0148881 -0.0200994 0.013193 -0.015976 -0.0777504
internal_weight=0 35134.1 31529.1 15778.9 13842.4 23631.8 10534.9 14047.7 7897.29 3605.02 12473.2 9641.02 5291.96 9584.15 3295.88 1936.52 7230.45 7078.48 10203 4349.06 3307.54 3276.04 4987.82 9177.53 6288.26 2620.88 3826.8 3143.85 803.627 253.699
internal_count=216780 148801 133938 67979 58408 99445 44586 58382 34493 14863 50991 40518 21912 41063 13835 9571 31341 30695 41612 18606 13822 13346 20617 37414 27228 10675 16744 13008 3323 1041
is_linear=0
shrinkage=0.3


Tree=7
num_leaves=31
num_cat=0
split_feature=3 13 11 4 10 6 0 12 8 4 5 0 2 8 2 0 11 0 0 0 1 5 10 0 0 6 15 10 0 0
split_gain=62.7664 39.1035 24.2883 24.015 18.3302 17.2096 15.2394 15.003 13.6843 12.5238 12.2492 12.1093 11.6041 10.4846 10.1736 10.041 9.22738 8.91223 8.70902 8.38647 8.33949 8.28223 8.22513 8.17315 9.7323 8.16917 8.11781 8.0208 7.9891 7.95397
threshold=1.0000000180025095e-35 1.0000000180025095e-35 1.0000000180025095e-35 1.0000000180025095e-35 1.0000000180025095e-35 1.0000000180025095e-35 47.500000000000007 1.0000000180025095e-35 1.0000000180025095e-35 1.0000000180025095e-35 1.0000000180025095e-35 65.500000000000014 1.0000000180025095e-35 1.0000000180025095e-35 1.0000000180025095e-35 40.500000000000007 2.5000000000000004 21.500000000000004 28.500000000000004 60.500000000000007 1.0000000180025095e-35 1.0000000180025095e-35 1.0000000180025095e-35 57.500000000000007 41.500000000000007 1.0000000180025095e-35 1.0000000180025095e-35 1.0000000180025095e-35 54.500000000000007 20.500000000000004
decision_type=2 2 2 2 2 2 2 2 2 2 2 2 2 2 2 2 2 2 2 2 2 2 2 2 2 2 2 2 2 2
left_child=1 4 5 6 7 10 13 9 18 12 14 27 29 -2 -3 -9 17 -4 -5 -16 -20 -7 23 24 -12 -22 -13 -8 -19 -1
right_child=3 2 16 8 -6 21 11 15 -10 -11 22 26 -14 -15 19 -17 -18 28 20 -21 25 -23 -24 -25 -26 -27 -28 -29 -30 -31
leaf_value=0.013965127571894475 0.016492623459549258 -0.017788732315821051 0.063084407475038504 0.094297366971578631 0.034905693617337384 0.034619220605382223 -0.0181309801015315 -0.065098271455783507 0.10096236040860961 0.010865569651095305 -0.00506170937515213 0.050662372302599075 -0.012376714724000325 0.046175866652443727 -0.0030586441046302408 -0.016243117562877673 0.053387220716001473 0.0056714731111433027 -0.021948522698257589 0.0216562295264234 0.029641382727482825 -0.019560874877509273 0.087801693259680458 -0.013217857543036639 -0.091968800845382961 0.12560414345696308 -0.026388062446913097 0.081364743690633443 0.030870127610690599 -0.036086636098580212
leaf_weight=311.25488829612732 4233.6124212890863 3753.8561747819185 318.3481722921133 203.4141980856657 611.49719481170177 1406.5041415840387 2004.0746224671602 956.27912572026253 433.88892602920532 1509.6611666530371 162.0027063190937 505.63381625711918 9531.4781137257814 1433.6039004772902 8462.8447190374136 626.76697717607021 586.42137122154236 4788.1233129799366 243.01577679812908 1446.9482134580612 575.95761953294277 309.87124183773994 44.88960388302803 450.73853793740273 408.1384067684412 92.68729442358017 162.651052698493 75.674327805638313 1483.1108377724886 3487.3834294676781
leaf_count=1457 18095 16206 1334 1088 2524 5790 8395 4592 2449 6523 684 2101 39842 6897 34937 2859 2605 19933 1168 5936 2976 1263 184 1866 1727 534 669 322 6107 15717
internal_value=0 -0.00513802 0.0027628 0.0214302 -0.0160942 -0.00359164 0.0151115 -0.0179932 0.0557586 -0.0150316 -0.00690442 -0.00322196 -0.0179646 0.0240014 -0.00448824 -0.0457553 0.0173258 0.0141166 0.0381693 0.000550023 0.0256458 0.0248376 -0.037881 -0.0434075 -0.0672746 0.0429437 0.0319094 -0.0145107 0.0116308 -0.0319855
internal_weight=0 40656.1 23621.8 9964.21 17034.3 16445.8 8415.25 16422.8 1548.96 14839.8 14729.4 2748.03 13330.1 5667.22 13663.6 1583.05 7176 6589.58 1115.07 9909.79 911.661 1716.38 1065.77 1020.88 570.141 668.645 668.285 2079.75 6271.23 3798.64
internal_count=216780 172086 98572 44694 73514 68593 36479 70990 8215 63539 61540 11487 57016 24992 57079 7451 29979 27374 5766 40873 4678 7053 4461 4277 2411 3510 2770 8717 26040 17174
is_linear=0
shrinkage=0.3


Tree=8
num_leaves=31
num_cat=0
split_feature=1 7 2 0 4 2 6 9 0 8 9 0 3 0 0 9 10 8 10 13 15 0 11 0 0 13 8 10 6 0
split_gain=43.3893 40.8298 28.3162 25.5895 26.4075 18.693 17.3576 21.2229 13.6993 14.2089 12.9296 14.608 12.0301 11.7097 12.0269 10.0325 9.94247 9.6189 8.57261 7.993 8.81893 7.66835 7.32362 7.15205 6.83958 6.83691 7.73848 5.9684 5.70059 7.96635
threshold=1.0000000180025095e-35 1.0000000180025095e-35 1.0000000180025095e-35 77.500000000000014 1.0000000180025095e-35 1.0000000180025095e-35 1.0000000180025095e-35 1.0000000180025095e-35 42.500000000000007 1.0000000180025095e-35 1.0000000180025095e-35 58.500000000000007 1.0000000180025095e-35 58.500000000000007 41.500000000000007 1.0000000180025095e-35 1.0000000180025095e-35 1.0000000180025095e-35 1.0000000180025095e-35 1.0000000180025095e-35 1.0000000180025095e-35 36.500000000000007 2.5000000000000004 70.500000000000014 87.500000000000014 1.0000000180025095e-35 1.0000000180025095e-35 1.0000000180025095e-35 1.0000000180025095e-35 84.500000000000014
decision_type=2 2 2 2 2 2 2 2 2 2 2 2 2 2 2 2 2 2 2 2 2 2 2 2 2 2 2 2 2 2
left_child=6 3 18 4 5 25 7 8 19 16 -8 -12 13 14 -7 28 24 23 -3 20 -1 -22 -4 -6 -10 27 -27 -2 29 -5
right_child=1 2 22 15 17 12 10 -9 9 -11 11 -13 -14 -15 -16 -17 -18 -19 -20 -21 21 -23 -24 -25 -26 26 -28 -29 -30 -31
leaf_value=-0.034496767641537425 -0.027734819718205538 0.10942049327513496 0.014726291584695335 0.0054418128811908372 0.016644579131803464 0.0019360886261742022 0.026542062987526479 0.013160728107895489 -0.034982143148141541 -0.080902394095498847 -0.061064653603133519 0.050564824027857107 0.016496137571722854 0.015823147592566308 -0.015837481835751434 0.14698096984423201 0.077031608281273242 0.059288392405792825 -0.027000672854913286 -0.0034782456271432601 0.044000638505706999 -0.048123175854955756 0.046927544104992412 0.1967159958100812 0.078237997206872231 -0.010472552948424368 0.036901316674680322 0.020114771931556859 0.084050995832902958 0.072885028970281499
leaf_weight=2154.4473530650139 3392.0465671122074 504.52085433900356 2150.4399012327194 486.25431217253208 2921.7976580709219 8990.8718714416027 1373.4131573438644 1505.2064439803362 3301.9964931458235 601.68492023646832 368.84007133543491 147.77701754868031 4233.0439119786024 2974.3754890263081 5536.4364960640669 86.028995841741562 75.107650741934776 609.06063903868198 45.167894586920738 2635.2230308204889 259.85973919928074 118.36024226248264 902.40127973258495 19.986834853887558 48.728953510522842 3946.4253008365631 336.81310467422009 252.04078121483326 204.64028315246105 233.22891618311405
leaf_count=10011 15183 2646 10103 2026 13694 36767 5839 6448 14448 2502 1561 612 17977 12084 22547 380 315 3000 226 11311 1142 516 4383 94 200 16478 1400 1021 865 1001
internal_value=0 0.00515189 0.0355308 0.00195401 0.000523365 -0.00240346 -0.0151801 -0.0198615 -0.0252669 -0.0383836 0.0113239 -0.0291333 0.00214481 -0.00132628 -0.00483752 0.0489924 -0.0309159 0.0249727 0.0982108 -0.0150447 -0.0270795 0.0151714 0.0242448 0.017868 -0.0333356 -0.0148737 -0.0067473 -0.0244253 0.0398705 0.0273043
internal_weight=0 37825.6 3602.53 34223.1 33212.9 29662.1 12590.6 10700.6 9195.41 4027.52 1890.03 516.617 21734.7 17501.7 14527.3 1010.15 3425.83 3550.85 549.689 5167.89 2532.67 378.22 3052.84 2941.78 3350.73 7927.33 4283.24 3644.09 924.124 719.483
internal_count=216780 161875 17358 144517 140245 123457 54905 46893 40445 17465 8012 2173 89375 71398 59314 4272 14963 16788 2872 22980 11669 1658 14486 13788 14648 34082 17878 16204 3892 3027
is_linear=0
shrinkage=0.3


Tree=9
num_leaves=31
num_cat=0
split_feature=8 12 4 0 0 4 6 11 11 5 0 1 14 10 2 3 0 10 6 0 0 0 0 14 2 5 0 0 0 7
split_gain=24.3078 16.9284 13.6088 13.7847 15.8088 11.8224 11.4068 33.1746 17.3505 13.5004 11.9485 12.7649 10.2987 8.98241 8.59839 8.44857 11.884 8.34309 8.31054 10.6696 8.01573 7.81629 7.7217 7.66741 7.36732 8.02127 15.0269 15.698 7.90755 9.38723
threshold=1.0000000180025095e-35 1.0000000180025095e-35 1.0000000180025095e-35 75.500000000000014 26.500000000000004 1.0000000180025095e-35 1.0000000180025095e-35 1.5000000000000002 1.5000000000000002 1.0000000180025095e-35 43.500000000000007 1.0000000180025095e-35 1.0000000180025095e-35 1.0000000180025095e-35 1.0000000180025095e-35 1.0000000180025095e-35 58.500000000000007 1.0000000180025095e-35 1.0000000180025095e-35 21.500000000000004 36.500000000000007 84.500000000000014 48.500000000000007 1.0000000180025095e-35 1.0000000180025095e-35 1.0000000180025095e-35 35.500000000000007 39.500000000000007 52.500000000000007 1.0000000180025095e-35
decision_type=2 2 2 2 2 2 2 2 2 2 2 2 2 2 2 2 2 2 2 2 2 2 2 2 2 2 2 2 2 2
left_child=1 2 3 4 12 6 8 9 10 -8 23 17 -1 24 -7 16 20 -12 19 -4 -9 -3 -15 -2 28 -26 -27 -28 29 -6
right_child=5 21 18 -5 13 14 7 15 -10 -11 11 -13 -14 22 -16 -17 -18 -19 -20 -21 -22 -23 -24 -25 25 26 27 -29 -30 -31
leaf_value=0.014253910525864185 0.01722228687470672 -0.034902265151101779 0.095135177437987453 0.022352825566366197 -0.028891394812174991 0.092337943079040988 0.11775252594642339 0.012232551750579536 0.022675906132225958 -0.021317033309493753 -0.07081599542254409 -0.010764098299710293 -0.0082262810363131333 -0.0050643494123915229 0.028620242025656377 0.047533439607614199 0.074170257289354474 0.22527461196543627 0.051685008843844811 0.0064105316348412548 -0.054317583778736078 0.21689022725542059 0.051793092929719328 -0.031232138331244025 -0.0047334568217453502 0.084425252978326162 -0.17148585914942691 -0.028114634059209862 -0.0052034440282657628 0.048126347955099458
leaf_weight=5164.6000788956881 1729.1854531913996 1618.5868161022663 126.23615150153637 1706.0274665355682 4174.7499070465565 237.02032917737961 420.52839541435242 269.8961967676878 2837.8742872625589 73.857903942465782 478.21857570111752 1800.2888310104609 2844.1411770135164 470.08236853778362 973.38589711487293 285.79387149214745 120.80529856681824 8.7210523039102537 470.8606349080801 3621.0471533834934 410.83338904380798 11.172359913587568 396.11879627406597 354.10562382638454 15375.273761734366 100.90041303634644 72.386963680386543 1361.520391151309 2551.9002403914928 147.45988155901432
leaf_count=21561 7196 7773 597 7154 18606 1334 1744 1128 12628 304 1980 7397 12539 1939 5016 1434 504 36 2434 16756 1683 45 1612 1461 63963 425 305 5678 10828 720
internal_value=0 -0.00322704 -0.00196199 -0.00393593 -0.00530918 0.0133006 0.0094729 0.0325437 0.00441056 0.0969765 -0.00744953 -0.0224199 0.00627053 -0.00907135 0.0410974 0.00324738 -0.0125432 -0.065513 0.0141197 0.00939943 -0.0279317 -0.0331762 0.0209369 0.00898629 -0.0101642 -0.00679782 -0.027478 -0.0353523 -0.0184455 -0.0262638
internal_weight=0 40213.1 38583.3 34365.2 32659.1 10000.5 8790.11 1581.72 7208.39 494.386 4370.52 2287.23 8008.74 24650.4 1210.41 1087.33 801.535 486.94 4218.14 3747.28 680.73 1629.76 866.201 2083.29 23784.2 16910.1 1534.81 1433.91 6874.11 4322.21
internal_count=216780 172935 165117 145330 138176 43845 37495 6797 30698 2048 18070 9413 34100 104076 6350 4749 3315 2016 19787 17353 2811 7818 3551 8657 100525 70371 6408 5983 30154 19326
is_linear=0
shrinkage=0.3


Tree=10
num_leaves=31
num_cat=0
split_feature=1 7 2 0 3 0 12 0 6 15 6 0 9 0 12 7 0 11 0 5 15 13 7 12 8 5 13 11 0 10
split_gain=18.1293 13.4987 12.4021 8.35608 8.564 8.91165 6.91681 6.48083 8.54342 9.05872 6.09194 7.54762 7.13573 5.75443 5.68186 6.1443 5.30508 5.17917 5.09657 10.5238 6.82849 5.67702 5.08715 6.18496 6.36628 4.93459 4.87759 9.07442 7.33605 6.05186
threshold=1.0000000180025095e-35 1.0000000180025095e-35 1.0000000180025095e-35 82.500000000000014 1.0000000180025095e-35 55.500000000000007 1.0000000180025095e-35 35.500000000000007 1.0000000180025095e-35 1.0000000180025095e-35 1.0000000180025095e-35 53.500000000000007 1.0000000180025095e-35 31.500000000000004 1.0000000180025095e-35 1.0000000180025095e-35 20.500000000000004 1.5000000000000002 23.500000000000004 1.0000000180025095e-35 1.0000000180025095e-35 1.0000000180025095e-35 1.0000000180025095e-35 1.0000000180025095e-35 1.0000000180025095e-35 1.0000000180025095e-35 1.0000000180025095e-35 1.5000000000000002 30.500000000000004 1.0000000180025095e-35
decision_type=2 2 2 2 2 2 2 2 2 2 2 2 2 2 2 2 2 2 2 2 2 2 2 2 2 2 2 2 2 2
left_child=10 3 16 4 5 18 7 8 9 26 12 -12 13 14 -1 -16 -3 -7 19 20 21 -2 -14 24 -24 -19 27 29 -28 -6
right_child=1 2 -4 -5 6 17 -8 -9 -10 -11 11 -13 22 -15 15 -17 -18 25 -20 -21 -22 -23 23 -25 -26 -27 28 -29 -30 -31
leaf_value=-0.0015041910216667118 -0.01392598732825491 0.18203786689739754 0.013643778032184653 0.041823534144646339 -0.011604828979187109 0.0066272570870013377 -0.071555128165089216 0.0041359497348243297 0.081757317668934154 0.068433016616288492 -0.010899473426447899 0.02739417922623727 0.019022493550424666 -0.021254913742632744 -0.041771924009909416 -0.42201155920979494 0.056138487169167826 0.031067651938391467 -0.0063593480363388155 0.18574088898822536 0.054923274307112205 0.011717119518373682 -0.050200614275454469 -0.26497549861411179 0.017968404988573661 0.14016282816418246 0.0060754688806200731 -0.30213529822969826 0.051683585153470955 0.17484205130206709
leaf_weight=2872.2932816147804 1322.1949390023947 32.120596371591091 3009.3736761510372 456.6085482686758 575.87297350168228 5761.3916306495667 90.462177067995071 3793.8001210540533 209.41080610454082 286.78659823536873 1056.9670548141003 824.64613032341003 992.72519281506538 5975.7207062095404 262.37621328234673 3.8813011050224295 484.16748228669167 292.17407229542732 17598.333110377192 29.145084798336029 227.56477983295918 1884.3707406520844 229.00478620827198 8.9609815031290037 267.11248674988747 42.77831269800663 972.96240378916264 9.4963023364543897 471.09542392194271 16.106486111879349
leaf_count=12685 5841 169 14486 2005 2442 23796 385 16581 1008 1265 4604 3408 4113 26364 1380 16 2703 1221 74436 123 946 7692 1037 39 1259 179 4338 46 2144 69
internal_value=0 0.0033432 0.0210136 0.00151303 0.000964971 -0.00136535 0.0108135 0.0119896 0.0237121 0.0185004 -0.00984886 0.00588331 -0.0126383 -0.0157919 -0.00539051 -0.0473148 0.0639713 0.00873562 -0.0042891 0.00623068 0.0047072 0.00114344 0.00655164 -0.0179597 -0.013498 0.0450007 0.0114997 -0.0111991 0.0209542 -0.00653201
internal_weight=0 37566.2 3525.66 34040.6 33583.9 27158 6425.99 6335.53 2541.73 2332.32 12493.7 1881.61 10612.1 9114.27 3138.55 266.258 516.288 6096.34 21061.6 3463.28 3434.13 3206.57 1497.8 505.078 496.117 334.952 2045.53 601.476 1444.06 591.979
internal_count=216780 161875 17358 144517 142512 114234 28278 27893 11312 10304 54905 8012 46893 40445 14081 1396 2872 25196 89038 14602 14479 13533 6448 2335 2296 1400 9039 2557 6482 2511
is_linear=0
shrinkage=0.3


Tree=11
num_leaves=31
num_cat=0
split_feature=13 4 10 0 11 3 5 7 0 1 3 0 6 0 8 0 0 7 11 5 0 0 9 2 0 0 2 0 0 0
split_gain=12.1835 12.7236 9.82508 8.7408 6.49025 5.91228 5.28279 5.17545 5.10552 5.24446 5.02367 7.47792 6.23036 4.45486 4.90887 5.93084 6.61426 8.33924 4.53927 3.81862 3.78393 5.50277 4.55879 3.67628 8.29958 3.55615 3.41968 7.29828 11.8672 6.44155
threshold=1.0000000180025095e-35 1.0000000180025095e-35 1.0000000180025095e-35 36.500000000000007 2.5000000000000004 1.0000000180025095e-35 1.0000000180025095e-35 1.0000000180025095e-35 82.500000000000014 1.0000000180025095e-35 1.0000000180025095e-35 18.500000000000004 1.0000000180025095e-35 57.500000000000007 1.0000000180025095e-35 42.500000000000007 48.500000000000007 1.0000000180025095e-35 1.5000000000000002 1.0000000180025095e-35 32.500000000000007 31.500000000000004 1.0000000180025095e-35 1.0000000180025095e-35 32.500000000000007 20.500000000000004 1.0000000180025095e-35 94.500000000000014 86.500000000000014 67.500000000000014
decision_type=2 2 2 2 2 2 2 2 2 2 2 2 2 2 2 2 2 2 2 2 2 2 2 2 2 2 2 2 2 2
left_child=4 10 6 23 8 -6 7 -3 9 -1 13 -12 -13 14 15 25 18 19 -17 -18 21 -9 -23 24 -4 -2 29 28 -28 -15
right_child=1 2 3 -5 5 -7 -8 20 -10 -11 11 12 -14 26 -16 16 17 -19 -20 -21 -22 22 -24 -25 -26 -27 27 -29 -30 -31
leaf_value=-0.014772651125096455 0.015406572187728795 0.021299169573107971 0.057448593532432229 0.00082944221550342262 0.0070618705550135781 0.079203407603315387 -0.046912908325085094 0.039482633823017178 0.038749342650848805 -0.0038773031990454888 0.1228284177767537 0.0048462612552869263 0.035649165371690189 0.016695405928219317 0.0073261407930411858 -0.031759947150967908 -0.0018778065067647713 0.15247102078844513 0.11154401092800785 -0.035759205998236954 0.077236612984857858 0.0023018255689302189 -0.29598501386415138 -0.28093379070268854 -0.37670078403850643 -0.0032565102968354367 0.010920634445822702 -0.22416240116610348 0.12036994649810158 -0.022848992149382071
leaf_weight=5502.5241407006979 1042.0919028073549 2648.6077519059181 11.622657254338266 53.958977341651917 341.99110841751099 145.84219473600388 91.070234306156635 156.31996446102858 222.9844002276659 14333.670406989753 52.518247351050377 4344.6825419962406 684.02198338508606 701.92589589953423 3478.3292061239481 1575.6351793557405 1988.4789302647114 29.897274568676949 20.147904485464096 352.44564378261566 283.46204441785812 10.157340928912163 8.4454235285520554 18.936224818229675 6.0133248418569556 7771.2019185274839 3193.1154622584581 11.623468965291975 91.719690009951591 785.7322693914175
leaf_count=24921 4272 12683 62 273 1528 885 452 968 932 62177 235 19156 3185 2939 14331 6627 8285 126 86 1502 1727 61 53 99 31 32292 13162 53 421 3256
internal_value=0 0.00396017 0.0215464 -0.075914 -0.00556071 0.0286292 0.0243053 0.0263928 -0.0063922 -0.00689965 0.00174631 0.0102123 0.00903618 -0.000298031 -0.00266589 -0.00538544 -0.0150187 -0.00496819 -0.0299506 -0.00697893 0.0558248 0.021127 -0.133117 -0.189142 -0.0905829 -0.00104977 0.00774884 0.013137 0.0139767 -0.00419065
internal_weight=0 29412.2 3288.59 90.5312 20547 487.833 3198.06 3106.99 20059.2 19836.2 26123.6 5081.22 5028.7 21042.3 16258.2 12779.9 3966.6 2370.82 1595.78 2340.92 458.385 174.923 18.6028 36.5722 17.636 8813.29 4784.12 3296.46 3284.84 1487.66
internal_count=216780 126337 16409 465 90443 2413 15944 15492 88030 87098 109928 22576 22341 87352 67521 53190 16626 9913 6713 9787 2809 1082 114 192 93 36564 19831 13636 13583 6195
is_linear=0
shrinkage=0.3


Tree=12
num_leaves=31
num_cat=0
split_feature=3 0 0 4 1 14 7 10 2 0 0 0 11 4 0 0 2 11 12 11 0 8 0 9 6 10 8 0 0 4
split_gain=6.69865 9.35851 6.58721 7.0737 6.30597 5.27983 4.87114 6.74392 10.053 4.6452 5.84266 4.599 4.39308 4.27907 5.32703 4.64505 4.26285 4.1998 3.90105 3.7063 3.53557 3.48393 3.47688 3.22594 8.52519 10.2189 8.25221 8.58189 7.58334 5.80027
threshold=1.0000000180025095e-35 24.500000000000004 57.500000000000007 1.0000000180025095e-35 1.0000000180025095e-35 1.0000000180025095e-35 1.0000000180025095e-35 1.0000000180025095e-35 1.0000000180025095e-35 43.500000000000007 39.500000000000007 35.500000000000007 1.5000000000000002 1.0000000180025095e-35 56.500000000000007 69.500000000000014 1.0000000180025095e-35 1.5000000000000002 1.0000000180025095e-35 1.5000000000000002 21.500000000000004 1.0000000180025095e-35 54.500000000000007 1.0000000180025095e-35 1.0000000180025095e-35 1.0000000180025095e-35 1.0000000180025095e-35 23.500000000000004 19.500000000000004 1.0000000180025095e-35
decision_type=2 2 2 2 2 2 2 2 2 2 2 2 2 2 2 2 2 2 2 2 2 2 2 2 2 2 2 2 2 2
left_child=2 -2 4 12 11 6 23 8 20 10 17 -1 -4 16 18 -16 19 -9 -15 -3 -8 -11 -10 -6 -25 26 27 28 -26 -28
right_child=1 13 3 -5 5 -7 7 9 22 21 -12 -13 -14 14 15 -17 -18 -19 -20 -21 -22 -23 -24 24 25 -27 29 -29 -30 -31
leaf_value=-0.0038393472086328648 0.031672795800115186 -0.01710652057119753 0.0025913633214027505 0.052978667771994552 0.0011850121190894844 -0.0089613307982160852 0.20156049578780019 0.055883845055805147 0.0095887811511563455 0.27810143752257249 -0.40527539961114928 -0.018336651716131171 0.033701796766582241 0.025711253755152937 -0.090730185169649397 0.16315762354290286 0.004574835831277952 -0.1237671980632241 -0.096173449258696656 0.038632028587332265 0.069028826715367766 -0.029021008422011656 0.11584133281050712 0.0015406900949292866 -0.20896152898279427 0.25637644131873927 -0.024641501334042741 -0.10258565634111284 0.19337625565262154 0.14288412965803488
leaf_weight=4008.0825042575598 1220.7214855924249 1472.9331020414829 7336.4182956665754 278.56968358159065 14655.380423858762 5941.014101088047 20.037155203521252 15.912570193409918 1492.435981631279 5.3316129148006413 5.2860953807830802 3871.8226630985737 432.59451881051064 1255.7155790477991 59.912281259894371 7.2728939205408087 5566.4489130824804 44.359684243798256 24.086706906557083 115.80888372659683 188.94863145053387 8.8290230929851532 28.241966053843498 1248.857530400157 5.6418236047029522 10.075046241283415 262.33649054169655 244.60759302973747 16.685359880328178 20.020170018076897
leaf_count=17977 5607 6149 30594 1272 61655 25866 104 70 6690 25 25 17227 1830 7140 319 39 24653 202 116 671 972 41 129 5116 23 41 1060 997 68 102
internal_value=0 0.00710968 -0.0016667 0.00600786 -0.0035911 -0.0011922 0.00133374 0.0161088 0.0200408 -0.0692036 -0.10286 -0.0109627 0.00432366 0.00358297 0.0190947 -0.0632465 0.000662842 -0.0763373 0.0234173 -0.0130435 0.0817357 0.0866135 0.0115621 -0.000290064 -0.0122453 -0.0430244 -0.048516 -0.0863342 0.0917101 -0.0127633
internal_weight=0 9722.9 40141.5 8047.58 32093.9 24214 18273 1809.38 1729.66 79.719 65.5583 7879.91 7769.01 8502.18 1346.99 67.1852 7155.19 60.2723 1279.8 1588.74 208.986 14.1606 1520.68 16463.6 1808.22 559.366 549.291 266.935 22.3272 282.357
internal_count=216780 44694 172086 33696 138390 103186 77320 8258 7895 363 297 35204 32424 39087 7614 358 31473 272 7256 6820 1076 66 6819 69062 7407 2291 2250 1088 91 1162
is_linear=0
shrinkage=0.3


Tree=13
num_leaves=31
num_cat=0
split_feature=6 9 11 9 0 5 0 0 5 3 0 10 0 0 11 0 1 0 3 0 8 7 14 0 0 10 11 0 0 0
split_gain=4.77544 30.4536 12.6594 9.62376 9.48375 7.52226 7.13967 5.42843 4.86311 6.13069 4.69961 7.14397 6.15872 6.07705 7.00783 5.75513 4.98241 4.49497 4.44445 9.98597 4.43729 11.617 6.98209 5.77691 4.38725 4.32466 4.74688 4.74163 6.17154 4.65293
threshold=1.0000000180025095e-35 1.0000000180025095e-35 1.5000000000000002 1.0000000180025095e-35 76.500000000000014 1.0000000180025095e-35 77.500000000000014 76.500000000000014 1.0000000180025095e-35 1.0000000180025095e-35 57.500000000000007 1.0000000180025095e-35 59.500000000000007 21.500000000000004 1.5000000000000002 63.500000000000007 1.0000000180025095e-35 59.500000000000007 1.0000000180025095e-35 28.500000000000004 1.0000000180025095e-35 1.0000000180025095e-35 1.0000000180025095e-35 29.500000000000004 63.500000000000007 1.0000000180025095e-35 1.5000000000000002 22.500000000000004 39.500000000000007 70.500000000000014
decision_type=2 2 2 2 2 2 2 2 2 2 2 2 2 2 2 2 2 2 2 2 2 2 2 2 2 2 2 2 2 2
left_child=3 5 4 25 8 20 7 10 -3 -10 11 13 -12 14 -5 -14 -16 -11 -4 -20 -2 -22 23 -23 -7 -1 27 -27 -29 -30
right_child=1 2 18 6 -6 24 -8 -9 9 17 12 -13 15 -15 16 -17 -18 -19 19 -21 21 22 -24 -25 -26 26 -28 28 29 -31
leaf_value=-0.0034200715493102312 0.019372119990223927 -0.065586877474670596 -0.012884258658629471 0.11643525184318414 0.093669690101202782 -0.026201850160932176 0.10767058499061771 -0.18484108137322955 0.032794870286583171 -0.021653057522193115 0.082267367318398968 -0.038099459016582564 -0.015783551781727585 0.0061535041494454662 -0.063718964678543002 0.04156227221159408 0.045046843930419522 -0.41785030782093208 0.2037037496878227 0.011811704059462384 0.073449502166746658 -0.041114108077824209 -0.081301864731218421 0.048987588797992997 0.021781253158693507 0.074500985900589234 -0.12540165789060712 -0.016584353155374047 0.046842901358954629 -0.0233759098810459
leaf_weight=36306.591176100075 3391.2106987982988 766.87532512843609 693.50509156286716 97.420004636049271 38.963722422719002 465.28165702521801 67.220948308706284 12.931118980050085 84.971688523888588 5.3636365979909879 166.48461548984051 307.41400594264269 270.79891592264175 4074.0031401440501 49.897663503885269 376.4726544842124 157.7121541723609 4.9608270674943924 27.890517324209213 195.42881340533495 498.72217619419098 89.712585784494877 70.464053392410278 223.82412865757942 271.61051034927368 121.34061661362648 20.977568939328194 401.71065904200077 422.76989464461803 106.2808628231287
leaf_count=157620 14630 3197 2941 404 181 1946 318 57 347 24 704 1359 1132 18421 219 1602 746 21 157 1014 2196 454 342 1140 1114 501 102 1687 1760 444
internal_value=0 0.00741021 -0.0258505 -0.00113041 -0.0511018 0.0194774 0.0104907 0.00930581 -0.0576444 0.00627112 0.00976225 0.00610809 0.0308067 0.00921151 0.0500545 0.0175705 0.0189057 -0.212023 -0.00103133 0.0357772 0.0243039 0.0432505 0.0040294 0.0232067 -0.0085158 -0.00286531 0.0159043 0.0187218 0.01145 0.0327367
internal_weight=0 6828.79 1817.96 42960 901.135 5010.83 5580.36 5513.13 862.171 95.2962 5500.2 4686.45 813.756 4379.03 305.03 647.272 207.61 10.3245 916.824 223.319 4273.93 882.723 384.001 313.537 736.892 37379.7 1073.08 1052.1 930.761 529.051
internal_count=216780 29704 7882 187076 3770 21822 24962 24644 3589 392 24587 21149 3438 19790 1369 2734 965 45 4112 1171 18762 4132 1936 1594 3060 162114 4494 4392 3891 2204
is_linear=0
shrinkage=0.3


Tree=14
num_leaves=31
num_cat=0
split_feature=4 2 0 15 2 11 0 0 12 7 0 0 14 1 5 0 0 7 11 6 9 0 0 11 6 0 8 3 15 0
split_gain=4.47733 5.84148 7.47222 5.78264 5.21868 6.33077 6.66822 6.12209 5.83974 4.22197 5.76058 5.2912 4.59652 5.58919 5.34403 4.17918 4.39084 5.92759 4.42118 4.06636 5.79859 3.96696 5.03826 3.89924 3.87667 3.8556 5.46944 3.82693 3.72652 4.07956
threshold=1.0000000180025095e-35 1.0000000180025095e-35 20.500000000000004 1.0000000180025095e-35 1.0000000180025095e-35 2.5000000000000004 46.500000000000007 64.500000000000014 1.0000000180025095e-35 1.0000000180025095e-35 40.500000000000007 37.500000000000007 1.0000000180025095e-35 1.0000000180025095e-35 1.0000000180025095e-35 19.500000000000004 23.500000000000004 1.0000000180025095e-35 1.0000000180025095e-35 1.0000000180025095e-35 1.0000000180025095e-35 85.500000000000014 95.500000000000014 1.5000000000000002 1.0000000180025095e-35 30.500000000000004 1.0000000180025095e-35 1.0000000180025095e-35 1.0000000180025095e-35 21.500000000000004
decision_type=2 2 2 2 2 2 2 2 2 2 2 2 2 2 2 2 2 2 2 2 2 2 2 2 2 2 2 2 2 2
left_child=1 2 3 24 5 6 8 -6 -2 11 25 12 13 -4 -14 -3 17 18 -17 -13 -21 -18 -23 -8 -1 26 -11 -25 29 -20
right_child=4 15 9 -5 7 -7 23 -9 -10 10 -12 19 14 -15 -16 16 21 -19 28 20 -22 22 -24 27 -26 -27 -28 -29 -30 -31
leaf_value=0.010597454639108349 0.034113094546132677 -0.017819584180204427 -0.034818550486450051 0.13911212285365218 0.00080472305434018169 0.12690275287555949 -0.025600613229695687 0.0818057629922498 -0.11694526105481662 0.049413072109414979 -0.044129483035161753 -0.00073838136849543965 -0.034625373050347345 -0.0024656654908879901 0.08016925576992058 0.01337615569568186 0.00018929642804902359 -0.01598503974632173 0.078946588320621056 -0.010033963545903067 -0.061379630013775659 0.053122296842647618 -0.12808122815981265 0.037966714685507073 0.10283433916837785 0.074296664931971027 -0.055889751355383432 0.36278758968918828 0.14390335264100906 0.0087369237277325727
leaf_weight=681.39669840037823 1072.1729455143213 1019.0638670474291 645.28152106702328 36.136054009199142 3955.7746438458562 51.310359381139278 310.34670598804951 85.798486724495888 23.538462817668915 118.70203246176243 97.701863512396812 5062.8194442391396 1450.8503934890032 1882.8515530973673 37.43977127969265 2357.7712005972862 28136.60690048337 558.68057981133461 132.58033892512321 1087.1533060222864 242.01805600523949 203.23808823525906 14.816664978861807 12.661348462104799 43.636486202478409 150.87929704785347 70.911370433866978 4.3984357342123976 34.254710897803307 169.9769628494978
leaf_count=3090 5350 4313 3123 162 19169 376 1447 411 99 590 491 22313 6836 8211 175 9865 118874 2528 558 4488 1007 936 64 68 193 784 375 32 145 707
internal_value=0 -0.000966584 -0.00674641 0.0219864 0.00809777 0.0233753 0.0196426 0.00252429 0.030868 -0.00876276 0.0200836 -0.00997719 -0.0185102 -0.0107234 -0.0317376 0.00108972 0.00169937 0.0121381 0.0179691 -0.00461542 -0.0193831 0.000501678 0.0408096 -0.0179247 0.0161488 0.038509 0.0100321 0.121714 0.0501206 0.0395027
internal_weight=0 44234.8 11607.8 761.169 5516 1474.43 1423.12 4041.57 1095.71 10846.6 438.195 10408.4 4016.42 2528.13 1488.29 32627 31607.9 3253.26 2694.58 6391.99 1329.17 28354.7 218.055 327.406 725.033 340.493 189.613 17.0598 336.812 302.557
internal_count=216780 189828 51838 3445 26952 7372 6996 19580 5449 48393 2240 46153 18345 11334 7011 137990 133677 13803 11275 27808 5495 119874 1000 1547 3283 1749 965 100 1410 1265
is_linear=0
shrinkage=0.3


Tree=15
num_leaves=31
num_cat=0
split_feature=12 0 3 0 0 0 0 13 0 7 6 8 4 15 0 0 10 9 2 0 8 0 10 4 14 1 2 0 0 0
split_gain=3.46305 4.05086 2.93142 4.40451 4.90274 4.6977 4.35296 3.92989 6.1994 5.43214 4.73141 3.8773 3.83808 3.74394 5.04944 3.61982 4.3793 3.58918 3.89523 3.38308 5.83452 3.68431 3.28893 4.25739 3.48599 3.19957 3.14597 4.41508 3.09703 2.94999
threshold=1.0000000180025095e-35 40.500000000000007 1.0000000180025095e-35 26.500000000000004 30.500000000000004 51.500000000000007 66.500000000000014 1.0000000180025095e-35 33.500000000000007 1.0000000180025095e-35 1.0000000180025095e-35 1.0000000180025095e-35 1.0000000180025095e-35 1.0000000180025095e-35 67.500000000000014 32.500000000000007 1.0000000180025095e-35 1.0000000180025095e-35 1.0000000180025095e-35 71.500000000000014 1.0000000180025095e-35 73.500000000000014 1.0000000180025095e-35 1.0000000180025095e-35 1.0000000180025095e-35 1.0000000180025095e-35 1.0000000180025095e-35 70.500000000000014 80.500000000000014 24.500000000000004
decision_type=2 2 2 2 2 2 2 2 2 2 2 2 2 2 2 2 2 2 2 2 2 2 2 2 2 2 2 2 2 2
left_child=2 -2 -1 12 -5 7 -7 9 10 15 11 -9 -4 19 -15 16 -6 18 -14 -8 21 -21 -11 24 -24 -16 27 -27 -29 -20
right_child=1 -3 3 4 5 6 13 8 -10 22 -12 -13 17 14 25 -17 -18 -19 29 20 -22 -23 23 -25 -26 26 -28 28 -30 -31
leaf_value=-0.00066068813243472843 -0.025486909671497204 0.0042762610557470276 0.014642805558118928 -0.016954828358468135 -0.041190578037685124 -0.014053615240349071 0.061655106264513725 0.021520810360195892 0.011151341852417914 0.04529138956036715 0.12722895879964485 0.088576263877256547 0.11380661123517498 -0.20809233113885894 -0.091718496239881958 -0.0025854470498845061 -0.31925744693176372 0.16947729320637342 -0.040864438825885009 -0.075960258357986102 0.14783208983484955 0.013647906786341773 0.22256792276462262 -0.39071581394305777 -0.1665864942205334 -0.082117085812824342 -0.02159835530214527 0.20133044743527057 -0.043669255204921292 0.074625899188971834
leaf_weight=38503.133497357368 1002.7402864098549 698.07079260796309 1508.2974791377783 1038.0373089313507 155.72058318555355 1641.6747436076403 178.35079415887594 330.87886124104261 2337.8828864842653 261.21631310880184 59.87986283749342 101.3880660533905 46.597936153411865 12.435922890901564 32.063506275415421 1290.8526927381754 5.269905373454093 24.568829283118248 49.691217124462128 52.555206418037415 24.55436147749424 192.74977141618729 3.6313717961311323 3.5552357062697402 4.8234586417675018 10.242795050144194 69.429387018084526 21.585829332470897 5.9163614809513083 33.208055973052979
leaf_count=164543 5042 3246 6830 4976 689 7049 752 1536 11165 1572 345 557 301 51 133 5624 24 175 291 217 117 833 21 24 27 42 294 88 25 191
internal_value=0 -0.0132711 0.000503667 0.00522422 0.00224825 0.0051811 -0.00606211 0.0107139 0.0175936 -0.000572523 0.0481966 0.0372486 0.0192499 0.0158079 -0.0249337 -0.00787558 -0.0502929 0.0643529 0.0444081 0.0295948 0.00840603 -0.00555014 0.0382337 -0.115269 0.000556346 -0.00857499 0.0162992 0.0860091 0.148625 0.00539905
internal_weight=0 1700.81 48000.2 9497.06 7834.7 6796.66 2241.56 4555.1 2830.03 1725.07 492.147 432.267 1662.36 599.884 151.674 1451.84 160.99 154.066 129.497 448.21 269.859 245.305 273.226 12.0101 8.45483 139.238 107.174 37.745 27.5022 82.8993
internal_count=216780 8288 208492 43949 36161 31185 9601 21584 13603 7981 2438 2093 7788 2552 633 6337 713 958 783 1919 1167 1050 1644 72 48 582 449 155 113 482
is_linear=0
shrinkage=0.3


Tree=16
num_leaves=31
num_cat=0
split_feature=6 9 11 0 9 0 0 5 0 15 0 0 5 0 13 0 10 0 1 7 8 0 0 11 0 2 4 0 8 0
split_gain=2.60984 13.3908 4.94398 4.85143 3.6239 3.69164 3.35877 3.40417 2.92969 8.17626 6.34172 4.74627 7.45519 4.36118 4.13397 4.13034 3.99519 4.52578 4.33127 6.18161 3.85586 3.55913 3.51397 3.29125 5.04606 4.12729 3.62645 3.27385 3.16428 2.90201
threshold=1.0000000180025095e-35 1.0000000180025095e-35 1.5000000000000002 76.500000000000014 1.0000000180025095e-35 82.500000000000014 93.500000000000014 1.0000000180025095e-35 45.500000000000007 1.0000000180025095e-35 48.500000000000007 30.500000000000004 1.0000000180025095e-35 39.500000000000007 1.0000000180025095e-35 41.500000000000007 1.0000000180025095e-35 60.500000000000007 1.0000000180025095e-35 1.0000000180025095e-35 1.0000000180025095e-35 18.500000000000004 36.500000000000007 1.5000000000000002 38.500000000000007 1.0000000180025095e-35 1.0000000180025095e-35 40.500000000000007 1.0000000180025095e-35 18.500000000000004
decision_type=2 2 2 2 2 2 2 2 2 2 2 2 2 2 2 2 2 2 2 2 2 2 2 2 2 2 2 2 2 2
left_child=4 6 3 -3 8 -6 7 -2 9 13 -10 12 28 14 21 27 18 -18 19 20 -12 -1 29 -24 25 -25 -27 -15 -11 -16
right_child=1 2 -4 -5 5 -7 -8 -9 10 11 16 -13 -14 15 22 -17 17 -19 -20 -21 -22 -23 23 24 -26 26 -28 -29 -30 -31
leaf_value=-0.043521878298513665 0.016506002395379544 -0.037002152825642252 -0.0010358279682039335 0.072841387138214239 0.0057722255529516096 0.116164334841491 0.22935732816168175 -0.0056201034276697178 -0.020882799666988992 0.02298127859586967 -0.01103145713110399 0.0065721213473624307 0.26983019568228994 0.0063887007710184823 0.029839351905560481 0.00031712250211041523 0.064723269063923838 -0.0015790489468345068 -0.00022952963726725515 0.10757807237847722 -0.043866990436419659 -0.008269454878722696 -0.01700527689415738 0.25596855186020784 0.23094089030606268 0.0046926954791066009 -0.30423549419845003 0.037250802413468793 0.073225874487725731 0.00085225311424569925
leaf_weight=268.68649427592754 4243.1245039999485 861.16864475607872 912.03327956050634 37.775243148207664 5526.1936855912209 27.398901730775833 6.4806631058454505 734.0796882212162 2027.1402149870992 764.00597032904625 2503.0817224085331 1667.3105035573244 11.859098240733145 622.3508855253458 321.65244346112013 2351.5791180878878 166.09826569259167 209.5580615401268 8317.7501847893 37.353735186159611 369.36195845901966 6335.6872289180756 1312.5119626522064 4.4645410925149944 12.280943945050238 15.583390086889269 4.3813801258802405 615.09284230321646 132.34932740777731 9244.1970671713352
leaf_count=1223 18739 3589 4112 181 24822 140 29 3054 8834 3276 11093 7256 50 2733 1347 10329 692 865 34946 165 1551 28935 5693 29 65 75 27 2707 587 39636
internal_value=0 0.00549543 -0.0165978 -0.0323863 -0.000832955 0.00631685 0.0135237 0.0132427 -0.00189708 0.000119522 -0.00540111 0.0160771 0.0335264 -0.00182752 -0.00377927 0.00769972 -0.00269638 0.0277368 -0.00371463 -0.0136769 -0.0152537 -0.00970363 -0.000194614 -0.0145273 0.0740695 -0.00479183 -0.0631033 0.0217292 0.0304 0.00182695
internal_weight=0 6794.66 1810.98 898.944 42867.9 5553.59 4983.68 4977.2 37314.3 23684 13630.3 2575.52 908.214 21108.5 17519.4 3589.02 11603.2 375.656 11227.5 2909.8 2872.44 6604.37 10915.1 1349.22 36.7103 24.4293 19.9648 1237.44 896.355 9565.85
internal_count=216780 29704 7882 3770 187076 24962 21822 21793 162114 103968 58146 11169 3913 92799 77030 15769 49312 1557 47755 12809 12644 30158 46872 5889 196 131 102 5440 3863 40983
is_linear=0
shrinkage=0.3


Tree=17
num_leaves=31
num_cat=0
split_feature=4 2 0 0 15 0 10 0 0 11 0 5 0 0 0 0 0 0 0 1 14 5 0 11 0 0 0 8 0 13
split_gain=1.85426 2.48787 3.9379 2.54282 4.9975 3.59219 4.75005 5.07152 3.5995 3.73544 2.94703 2.93685 3.89093 4.47692 4.65078 3.29073 3.33274 3.23244 2.82256 4.83663 4.07773 2.78489 5.13875 5.14016 2.7195 2.81144 2.63504 7.2925 2.89805 2.86559
threshold=1.0000000180025095e-35 1.0000000180025095e-35 19.500000000000004 66.500000000000014 1.0000000180025095e-35 42.500000000000007 1.0000000180025095e-35 51.500000000000007 44.500000000000007 1.5000000000000002 19.500000000000004 1.0000000180025095e-35 69.500000000000014 79.500000000000014 76.500000000000014 82.500000000000014 80.500000000000014 68.500000000000014 47.500000000000007 1.0000000180025095e-35 1.0000000180025095e-35 1.0000000180025095e-35 55.500000000000007 1.5000000000000002 79.500000000000014 68.500000000000014 52.500000000000007 1.0000000180025095e-35 53.500000000000007 1.0000000180025095e-35
decision_type=2 2 2 2 2 2 2 2 2 2 2 2 2 2 2 2 2 2 2 2 2 2 2 2 2 2 2 2 2 2
left_child=1 2 -1 5 -5 10 21 8 9 -8 -3 15 17 14 -14 16 24 -13 19 -10 -20 -7 -23 -24 25 -6 27 -9 29 -28
right_child=-2 3 -4 4 11 6 7 26 18 -11 -12 12 13 -15 -16 -17 -18 -19 20 -21 -22 22 23 -25 -26 -27 28 -29 -30 -31
leaf_value=0.021832542148004268 0.005228926603255764 -0.013111177346338659 -0.0055713991906130656 0.015935305481012501 0.016768691453295084 -0.0034002878616603209 0.15095715323960532 0.018521313157077623 -0.29281167217538157 -0.10209980878684226 0.0035369094768604569 0.0034825913233115639 0.063405471858614199 -0.061339479605149641 0.26485304442848312 0.03601261402683277 -0.11763438612267758 -0.21598235985588182 -0.034406152942991847 -0.044962838087437729 0.1697668256690445 -0.034084724117475006 -0.0055999533544883583 0.094244908565242078 0.081914674341316399 -0.03973838286234152 -0.251329950975408 0.46458924623394371 0.065325580753369528 0.052923385467271149
leaf_weight=492.9630386531353 5483.2453332990408 1015.1137123852968 11063.098558209836 2274.1173979640007 100.7356021553278 10143.127704188228 19.87625560164452 8.5534821003675443 9.0758105963468534 7.1342037320137015 16707.650534316897 21.795055061578751 43.241443529725075 17.700587630271912 13.545402988791464 79.705128103494644 35.892808273434639 8.3556919842958468 48.173276722431183 32.323821112513542 10.772316306829451 772.87474113702774 591.1885322034359 50.358200564980507 21.295618504285812 371.42906574904919 5.3525750786066038 5.3689425438642493 154.27295896410942 5.8103269785642624
leaf_count=2234 26952 4313 49604 9606 413 42493 82 35 38 32 71355 90 178 75 55 344 149 34 201 135 45 3302 2475 218 88 1526 22 23 639 24
internal_value=0 -0.00062058 -0.00440239 0.000721033 0.00906192 -0.000121262 -0.0041614 0.0326868 -0.0130931 0.0841179 0.00258335 -0.0128394 0.0335897 0.070395 0.111457 -0.0208161 -0.0293728 -0.0573378 -0.03926 -0.0992974 0.00290649 -0.00513927 -0.0176099 0.00223737 -0.0229529 -0.0276827 0.0651934 0.19054 0.0546448 -0.0929651
internal_weight=0 44130.9 11556.1 32574.8 2987.81 29587 11864.3 306.714 127.356 27.0105 17722.8 713.696 104.638 74.4874 56.7868 609.058 529.353 30.1507 100.345 41.3996 58.9456 11557.5 1414.42 641.547 493.46 472.165 179.358 13.9224 165.436 11.1629
internal_count=216780 189828 51838 137990 12558 125432 49764 1276 533 114 75668 2952 432 308 233 2520 2176 124 419 173 246 48488 5995 2693 2027 1939 743 58 685 46
is_linear=0
shrinkage=0.3


end of trees

feature_importances:
idade=177
cs_raca=43
n_sub_abuse=37
other_dishx=34
cs_sexo=32
hiv=29
drug_yn=28
prior_tb=26
educ_cat_5-9_years=25
benef_gov=24
alcohol_yn=19
diabetes=17
educ_cat_12+_years=16
tobacco_yn=12
educ_cat_under_5=12
educ_cat_9-12_years=9

parameters:
[boosting: gbdt]
[objective: binary]
[metric: auc]
[tree_learner: serial]
[device_type: cpu]
[data: ]
[valid: ]
[num_iterations: 1000]
[learning_rate: 0.3]
[num_leaves: 31]
[num_threads: -1]
[deterministic: 0]
[force_col_wise: 0]
[force_row_wise: 0]
[histogram_pool_size: -1]
[max_depth: 12]
[min_data_in_leaf: 20]
[min_sum_hessian_in_leaf: 0.001]
[bagging_fraction: 1]
[pos_bagging_fraction: 1]
[neg_bagging_fraction: 1]
[bagging_freq: 0]
[bagging_seed: 400]
[feature_fraction: 1]
[feature_fraction_bynode: 1]
[feature_fraction_seed: 30056]
[extra_trees: 0]
[extra_seed: 12879]
[early_stopping_round: 10]
[first_metric_only: 0]
[max_delta_step: 0]
[lambda_l1: 0]
[lambda_l2: 0]
[linear_lambda: 0]
[min_gain_to_split: 0]
[drop_rate: 0.1]
[max_drop: 50]
[skip_drop: 0.5]
[xgboost_dart_mode: 0]
[uniform_drop: 0]
[drop_seed: 17869]
[top_rate: 0.2]
[other_rate: 0.1]
[min_data_per_group: 100]
[max_cat_threshold: 32]
[cat_l2: 10]
[cat_smooth: 10]
[max_cat_to_onehot: 4]
[top_k: 20]
[monotone_constraints: ]
[monotone_constraints_method: basic]
[monotone_penalty: 0]
[feature_contri: ]
[forcedsplits_filename: ]
[refit_decay_rate: 0.9]
[cegb_tradeoff: 1]
[cegb_penalty_split: 0]
[cegb_penalty_feature_lazy: ]
[cegb_penalty_feature_coupled: ]
[path_smooth: 0]
[interaction_constraints: ]
[verbosity: -1]
[saved_feature_importance_type: 0]
[linear_tree: 0]
[max_bin: 255]
[max_bin_by_feature: ]
[min_data_in_bin: 3]
[bin_construct_sample_cnt: 200000]
[data_random_seed: 175]
[is_enable_sparse: 1]
[enable_bundle: 1]
[use_missing: 1]
[zero_as_missing: 0]
[feature_pre_filter: 1]
[pre_partition: 0]
[two_round: 0]
[header: 0]
[label_column: ]
[weight_column: ]
[group_column: ]
[ignore_column: ]
[categorical_feature: ]
[forcedbins_filename: ]
[precise_float_parser: 0]
[objective_seed: 16083]
[num_class: 1]
[is_unbalance: 0]
[scale_pos_weight: 1]
[sigmoid: 1]
[boost_from_average: 1]
[reg_sqrt: 0]
[alpha: 0.9]
[fair_c: 1]
[poisson_max_delta_step: 0.7]
[tweedie_variance_power: 1.5]
[lambdarank_truncation_level: 30]
[lambdarank_norm: 1]
[label_gain: ]
[eval_at: ]
[multi_error_top_k: 1]
[auc_mu_weights: ]
[num_machines: 1]
[local_listen_port: 12400]
[time_out: 120]
[machine_list_filename: ]
[machines: ]
[gpu_platform_id: -1]
[gpu_device_id: -1]
[gpu_use_dp: 0]
[num_gpu: 1]

end of parameters

pandas_categorical:[]
