tree
version=v3
num_class=1
num_tree_per_iteration=1
label_index=0
max_feature_idx=17
objective=binary sigmoid:1
feature_names=idade cs_raca cs_sexo prior_tb hiv diabetes other_dishx drug_yn alcohol_yn tobacco_yn benef_gov n_of_morb n_sub_abuse vulnerability_mix educ_cat_12+_years educ_cat_5-9_years educ_cat_9-12_years educ_cat_under_5
feature_infos=[18:100] [0:1] [0:1] none [0:1] [0:1] [0:1] [0:1] [0:1] [0:1] [0:1] [0:3] [0:3] [0:5] [0:1] [0:1] [0:1] [0:1]
tree_sizes=3503 3481 3542 3502 3528 3517 3521 3495 3520 3495 3446 3441 3468 3504 3449 3440 3397 3469 3384 3471 3426 3400 3383 3435 3466 3454 3439 3391 3417 3410 3430 3466 3388 3426 3448 3415 3380 3457 3402 3471 3395 3399 3414 3417 3403 3429 3387 3446 3451 3405 3470 3456 3378 3464 3421 3452 3445 3386 3463 3431 3471 3459 3373 3421 3457 3429 3449 3467 3425 3442 3441 3444 3396 3423 3463 3417 3453 3407 3429 3393 3440 3414 3389 3391 3408 3397 3441 3429 3468 3420 3448 3407 3451 3426 3403 3414 3438 3407 3436 3443 3422 3465 3435 3429 3467 3417 3454 3411 3458 3416 3457 3451 3468 3490 3469 3457 3440 3446 3441 3438 3471 3467 3463 3442 3445 3393 3444 3420 3401 3454 3408 3440 3429 3433 3407 3452 3426 3428 3422 3442 3407 3445 3424 3407 3398 3422 3412 3403 3434 3430 3426 3380 3418 3423 3439 3444 3449 3414 3473 3410 3434 3467 3486 3447 3478 3456 3457 3450 3459 3440 3480 3428 3449 3471 3452 3454 3451 3456 3391 3473 3474 3438 3463 3465 3416 3460 3442 3460 3487 3410 3461 3416 3395 3418 3472 3464 3418 3455 3484 3430 3427 3404 3473 3425 3458 3438 3438 3458 3427 3428 3470 3389 3449 3453 3488 3454 3443 3460 3435 3485 3479 3479 3476 3395 3426 3464 3433 3457 3406 3447 3425 3441 3417 3405 3458 3494 3433 3473 3428 3435 3470 3451 3485 3434 3477 3413 3444 3451 3449 3474 3434 3404 3439 3442 3480 3448 3439 3426 3413 3432 3454 3445 3458 3447 3427 3408 3460 3458 3392 3412 3457 3444 3419 3451 3428 3449 3429 3419 3401 3493 3398 3486 3411 3403 3441 3456 3452 3409 3410 3417 3373 3479 3468 3391 3454 3451 3422 3471 3454 3424 3457 3415 3462 3465 3423 3431 3418 3473 3472 3429 3461 3439 3441 3413 3484 3467 3477 3416 3408 3465 3461 3444 3450 3423 3371 3405 3446 3411 3492 3428 3416 3434 3490 3450 3420 3411 3448 3429 3468 3455 3443 3499 3423 3478 3467 3398 3462 3504 3487 3464 3476 3428 3443 3431 3465 3471 3457 3454 3418 3484 3475 3447 3464 3419 3447 3462 3412 3514 3426 3431 3471 3474 3463 3428 3420 3421 3417 3408 3446 3531 3447 3483 3419 3471 3464 3498 3421 3472 3532 3472 3477 3501 3464 3435 3463 3479 3508 3465 3434 3462 3442 3453 3442 3457 3470 3448 3471 3453 3434 3491 3439 3432 3478 3436 3417 3408 3476 3408 3472 3451 3410 3418 3461 3485 3394 3441 3444 3468 3414 3439 3431 3434 3405 3502 3461 3477 3491 3413 3472 3403 3421 3460 3453 3425 3459 3441 3464 3420 3462 3410 3435 3452 3451 3486 3424 3409 3422 3403 3455 3464 3510 3474 3444 3452 3405 3473 3467 3479 3429 3461 3426 3448 3516 3471 3487 3493 3467 3479 3419 3529 3457 3460 3469 3408 3414 3435 3495 3471 3479 3471 3398 3436 3425 3412 3479 3494 3455 3411 3471 3445 3454 3465 3477 3490 3482 3443 3445 3436 3490 3491 3452 3497 3504 3443 3439 3476 3478 3442 3455 3511 3489 3439 3421 3457 3443 3479 3481 3473 3453 3439 3505 3467 3525 3458 3505 3491 3505 3412 3421 3487 3441 3471 3450 3480 3433 3490 3498 3431 3530 3420 3413 3480 3423 3460 3438 3426 3497 3421 3441 3488 3429 3448 3467 3421 3415 3411 3461 3479 3503 3431 3488 3429 3409 3445 3412 3421 3449 3477 3479 3424 3448 3483 3447 3478 3428 3487 3505 3451 3461 3487 3484 3469 3412 3427 3467 3498 3461 3470 3508 3436 3415 3424 3462 3424 3428 3418 3532 3489 3471 3505 3458 3455 3463 3513 3497 3447 3444 3433 3481 3407 3460 3452 3430 3449 3429 3460 3445 3466 3497 3461 3431 3486 3481 3469 3491 3456 3426 3404 3495 3506 3499 3437 3488 3433 3444 3463 3482 3466 3415 3489 3422 3461 3465 3489 3485 3409 3487 3481 3429 3440 3457 3497 3473 3466 3452 3471 3498 3479 3478 3452 3447 3491 3483 3472 3450 3477 3416 3446 3475 3487 3465 3460 3476 3480 3501 3449 3507 3456 3520 3430 3407 3435 3473 3461 3468 3498 3451 3516 3410 3482 3430 3451 3444 3484 3450 3505 3516 3453 3417 3435 3446 3445 3458 3422 3459 3509 3497 3477 3453 3490 3528 3481 3454 3445 3484 3517 3473 3466 3445 3456 3496 3485 3427 3524 3453 3475 3448 3455 3459 3457 3494 3429 3479 3444 3475 3418 3516 3476 3497 3430 3444 3475 3484 3447 3416 3455 3470 3424 3472 3461 3470 3488 3455 3486 3474 3439 3438 3445 3445 3429 3487 3433 3472 3427 3453 3459 3481 3418 3478 3460 3435 3486 3426 3431 3464 3454 3452 3450 3484 3418 3442 3493 3455 3422 3503 3474 3445 3496 3441 3466 3478 3507 3442 3470 3484 3428 3469 3474 3511 3500 3499 3440 3450 3481 3513 3467 3487 3461 3493 3440 3482 3507 3486 3467 3435 3436 3490 3489 3425 3472 3500 3475 3474 3493 3446 3469 3478 3494 3464 3429 3461 3459 3507 3449 3435 3420 3432 3475 3441 3435 3434 3444 3530 3428 3462 3429 3459 3473 3468 3476 3521 3441 3497 3492 3441 3454 3445 3476 3462 3450 3465 3472 3422 3486 3464 3467 3451 3441 3483 3440 3500 3427 3451 3456 3503 3467 3475 3437 3413 3466 3497 3432 3470 3460 3533 3502 3418 3455 3459 3444 3509 3499 3491 3424 3501 3416 3474 3490 3486 3433 3490 3473 3491 3430 3475 3475 3439 3420 3489 3440 3472 3497 3467 3431 3498 3449 3465 3481 3489 3442 3494 3492 3519 3421 3452 3480 3455 3458 3416 3402 3463 3499 3446 3469 3479 3466 3451 3487 3441 3483 3482 3495 3463 3448 3453 3501 3516 3447 3459 3469 3457 3487 3453 3479 3488 3411 3412 3476 3446 3504 3470 3491 3487 3482 3442 3464 3457 3461 3456 3481 3464 3481 3448 3529 3472 3465 3458 3499 3451 3447 3467 3483 3446 3507 3453 3472 3466 3432 3455 3468

Tree=0
num_leaves=31
num_cat=0
split_feature=4 12 1 0 7 2 0 1 1 2 6 13 0 1 6 0 12 6 0 0 13 6 12 6 10 7 13 0 8 0
split_gain=3727.29 2543.52 766.823 508.705 477.171 448.019 284.143 198.418 158.137 133.434 110.905 100.879 94.6095 89.1039 88.4222 86.345 85.1439 77.2763 63.7617 55.343 53.8041 51.1191 50.4984 48.0206 45.8764 40.4892 39.2831 38.5266 37.9367 37.6008
threshold=1.0000000180025095e-35 1.0000000180025095e-35 1.0000000180025095e-35 70.500000000000014 1.0000000180025095e-35 1.0000000180025095e-35 62.500000000000007 1.0000000180025095e-35 1.0000000180025095e-35 1.0000000180025095e-35 1.0000000180025095e-35 4.5000000000000009 82.500000000000014 1.0000000180025095e-35 1.0000000180025095e-35 63.500000000000007 1.5000000000000002 1.0000000180025095e-35 85.500000000000014 58.500000000000007 3.5000000000000004 1.0000000180025095e-35 1.0000000180025095e-35 1.0000000180025095e-35 1.0000000180025095e-35 1.0000000180025095e-35 3.5000000000000004 28.500000000000004 1.0000000180025095e-35 74.500000000000014
decision_type=2 2 2 2 2 2 2 2 2 2 2 2 2 2 2 2 2 2 2 2 2 2 2 2 2 2 2 2 2 2
left_child=1 2 6 5 8 14 9 25 16 23 11 -7 -5 -6 19 28 29 20 21 24 27 -8 -9 -1 26 -2 -4 -11 -10 -3
right_child=7 4 3 12 13 10 18 22 15 17 -12 -13 -14 -15 -16 -17 -18 -19 -20 -21 -22 -23 -24 -25 -26 -27 -28 -29 -30 -31
leaf_value=-0.24074976156479491 0.11926515573874662 -0.05299832058617935 -0.13960457947048824 0.072502328170208255 0.10311770664736764 -0.027255745729411751 -0.077151404708680621 0.25066767001074303 0.025597167425265938 -0.10160052683631857 0.067724137851747829 -0.19450319280684319 0.23386426349994074 0.21446157824693349 -0.023990395771772602 0.17443257488320002 0.10433551077389967 0.0046767865782920918 0.19880777269099775 -0.050263143140482358 -0.27555406538744714 0.057578041880024189 0.32304962377361546 -0.1014715190819004 -0.029426871799901701 0.25395559935726558 -0.24107942596014104 -0.1649486786728217 0.080175600435601416 0.18442053947451179
leaf_weight=2294.9839952588081 1164.2418808192015 1687.9882283210754 4645.4676034748554 1464.9897834658623 862.99398165941238 12842.410439699888 1109.4922626316547 2767.7306984215975 1554.7391575723886 1354.7405523210764 1098.7423375993967 332.99767774343491 420.9970640540123 2582.7319885641336 807.24437044560909 741.49482896924019 430.74699606001377 305.99786603450775 102.24928693473339 697.74513407051563 292.74795843660831 328.49770912528038 1263.4911886751652 246.7482792288065 316.99778932332993 242.74830712378025 370.74741448462009 2385.4833641350269 4361.9695805311203 62.24956588447094
leaf_count=9180 4657 6752 18582 5860 3452 51370 4438 11071 6219 5419 4395 1332 1684 10331 3229 2966 1723 1224 409 2791 1171 1314 5054 987 1268 971 1483 9542 17448 249
internal_value=0.00528055 -0.0238639 -0.0691188 -0.040759 0.0918777 -0.0540944 -0.146572 0.2395 0.0549624 -0.172645 -0.0238464 -0.0314828 0.108522 0.186575 -0.117235 0.0779281 -0.0151483 -0.14067 -0.0300971 -0.129715 -0.151698 -0.0463735 0.273354 -0.227229 -0.14011 0.142503 -0.147105 -0.142003 0.065834 -0.0445542
internal_weight=0 43704.2 31419.3 22998.3 12284.9 21112.4 8420.94 5438.21 8839.19 6880.7 14274.2 13175.4 1885.99 3445.73 6838.2 6658.2 2180.98 4338.97 1540.24 6030.96 4032.97 1437.99 4031.22 2541.73 5333.21 1406.99 5016.22 3740.22 5916.71 1750.24
internal_count=196571 174818 125678 91994 49140 84450 33684 21753 35357 27523 57097 52702 7544 13783 27353 26633 8724 17356 6161 24124 16132 5752 16125 10167 21333 5628 20065 14961 23667 7001
is_linear=0
shrinkage=1


Tree=1
num_leaves=31
num_cat=0
split_feature=4 12 1 0 12 2 0 1 1 2 0 6 17 13 6 12 6 7 0 0 8 0 13 0 6 13 0 6 0 0
split_gain=1861.18 1253.34 382.23 256.64 242.988 218.197 147.016 103.762 88.9126 78.3633 75.3026 61.7929 58.2362 55.5926 52.9495 47.4741 46.4384 40.8995 40.7233 34.472 31.5634 31.4292 29.3878 28.0715 26.282 26.1694 25.0848 24.9412 24.4805 23.1503
threshold=1.0000000180025095e-35 1.0000000180025095e-35 1.0000000180025095e-35 65.500000000000014 1.5000000000000002 1.0000000180025095e-35 71.500000000000014 1.0000000180025095e-35 1.0000000180025095e-35 1.0000000180025095e-35 79.500000000000014 1.0000000180025095e-35 1.0000000180025095e-35 4.5000000000000009 1.0000000180025095e-35 2.5000000000000004 1.0000000180025095e-35 1.0000000180025095e-35 36.500000000000007 68.500000000000014 1.0000000180025095e-35 32.500000000000007 3.5000000000000004 80.500000000000014 1.0000000180025095e-35 3.5000000000000004 87.500000000000014 1.0000000180025095e-35 63.500000000000007 21.500000000000004
decision_type=2 2 2 2 2 2 2 2 2 2 2 2 2 2 2 2 2 2 2 2 2 2 2 2 2 2 2 2 2 2
left_child=1 2 6 5 8 16 9 27 18 24 12 22 -5 14 21 28 25 19 -3 29 -9 -7 -11 -20 -1 -4 -8 -2 -6 -10
right_child=7 4 3 10 15 13 26 20 17 11 -12 -13 -14 -15 -16 -17 -18 -19 23 -21 -22 -23 -24 -25 -26 -27 -28 -29 -30 -31
leaf_value=-0.17035689546330945 0.079573636939827816 0.036955553895818366 -0.09308166865038181 0.053691239234308179 0.094998211778471869 -0.0081296258569917585 0.00067429911353950728 0.17774745159896277 0.13785053466153099 -0.10005323236869836 0.1423063732665909 0.017137833073856971 -0.060693284081495769 -0.13788394677552696 0.048910377473854572 0.17819548773348562 -0.018123171671292553 0.11435857100778468 -0.05901478207164141 0.13163511359275931 0.24298688331651314 -0.038533240313989726 -0.19484218403040432 0.28595826187180434 -0.078417121083144234 -0.17389007957938393 0.19262875721946429 0.19034086991670221 0.19767699680798254 0.028992665191751203
leaf_weight=2471.5020699054003 1182.5605400651693 665.60280799865723 5369.3461090624332 1638.167858093977 3008.4420620203018 5610.9580285549164 707.02230234444141 3105.6975211203098 182.58996789157391 4087.0614116191864 647.49041700363159 393.92542934417725 530.25734521448612 366.64418797194958 946.6640869230032 957.07858243584633 728.64514335989952 748.36195474863052 1342.6172948628664 341.14839695394039 850.12638628482819 6730.750079870224 317.2178541123867 21.570460259914398 315.55834923684597 386.65410324931145 67.08493834733963 216.43689730763435 224.57841068506241 4745.4982428103685
leaf_count=10019 4755 2666 21569 6559 12098 22448 2833 12635 731 16429 2614 1576 2123 1479 3791 3865 2915 3028 5376 1375 3490 26928 1291 87 1265 1568 271 873 904 19010
internal_value=0 -0.02049 -0.0523042 -0.0323032 0.0609204 -0.0441643 -0.107229 0.166933 0.0304167 -0.119938 0.0525279 -0.0966987 0.0257201 -0.0226455 -0.019466 0.119505 -0.0894773 0.048731 -0.0238785 0.0394102 0.191768 -0.0247107 -0.10688 -0.0535601 -0.159947 -0.0985099 0.0173093 0.0967103 0.102131 0.0330259
internal_weight=0 43552.4 31314.9 22955.6 12237.5 20139.7 8359.37 5354.82 8047.39 7585.27 2815.92 4798.2 2168.43 13655 13288.4 4190.1 6484.65 6017.6 2029.79 5269.24 3955.82 12341.7 4404.28 1364.19 2787.06 5756 774.107 1399 3233.02 4928.09
internal_count=196571 174818 125678 91994 49140 80698 33684 21753 32273 30580 11296 19296 8682 54646 53167 16867 26052 24144 8129 21116 16125 49376 17720 5463 11284 23137 3104 5628 13002 19741
is_linear=0
shrinkage=0.3


Tree=2
num_leaves=31
num_cat=0
split_feature=4 12 0 1 7 2 16 1 14 16 0 1 0 10 13 7 6 0 0 0 6 14 2 14 0 0 13 1 13 1
split_gain=947.47 621.365 198.271 192.209 139.539 114.446 66.0028 57.8043 47.4634 47.0488 36.1021 35.6977 34.5001 29.9844 28.5503 28.267 28.1241 25.6346 25.5518 24.0772 23.9443 22.4433 22.3777 22.301 22.2669 20.8997 19.9618 19.6464 18.7898 18.5712
threshold=1.0000000180025095e-35 1.0000000180025095e-35 62.500000000000007 1.0000000180025095e-35 1.0000000180025095e-35 1.0000000180025095e-35 1.0000000180025095e-35 1.0000000180025095e-35 1.0000000180025095e-35 1.0000000180025095e-35 82.500000000000014 1.0000000180025095e-35 36.500000000000007 1.0000000180025095e-35 4.5000000000000009 1.0000000180025095e-35 1.0000000180025095e-35 63.500000000000007 63.500000000000007 79.500000000000014 1.0000000180025095e-35 1.0000000180025095e-35 1.0000000180025095e-35 1.0000000180025095e-35 44.500000000000007 41.500000000000007 3.5000000000000004 1.0000000180025095e-35 3.5000000000000004 1.0000000180025095e-35
decision_type=2 2 2 2 2 2 2 2 2 2 2 2 2 2 2 2 2 2 2 2 2 2 2 2 2 2 2 2 2 2
left_child=1 2 3 8 9 13 19 23 20 12 -8 -6 21 26 16 -9 24 29 27 -4 22 -3 -1 -2 -7 -24 -5 -14 -26 -11
right_child=7 4 6 5 11 14 10 15 -10 17 -12 -13 18 -15 -16 -17 -18 -19 -20 -21 -22 -23 25 -25 28 -27 -28 -29 -30 -31
leaf_value=-0.11517600966674266 0.078955028357699464 0.052601936516083518 -0.037468334791787371 -0.0662308572129887 0.042044028743654697 -0.0097173791919473382 0.034033057358435696 0.12990320900325683 -0.16368103582534363 -0.0015347451284572517 0.13363108928792508 0.11305305758433931 -0.071268030123934678 0.017535664209574489 -0.10118924847919901 0.20563219427319521 0.037920823432923523 0.1024670649336825 0.04983648731002692 0.048705599605388214 -0.018109283178349946 -0.19523019101374109 -0.057400747263539824 -0.070400775877605973 -0.064039191030319617 -0.10431455569874748 -0.13424365738622068 -0.012262269786232223 -0.019299164508425871 0.046532057801097815
leaf_weight=1824.0867522060871 1288.6450581550598 1079.4102587103844 1737.3815594017506 5420.1071435511112 854.07616345584393 8513.8505003601313 2544.6022810339928 3305.8363807052374 724.89917358756065 941.35297463834286 375.93856430053711 2508.8884415328503 694.74885137379169 364.92954836785793 348.63596583902836 512.35854612290859 869.29025267064571 587.04580134153366 443.16149991750717 350.71334262192249 479.57551556825638 33.919575721025467 2338.2113106995821 96.729077205061913 1466.1629397422075 1346.9632959365845 418.36223243176937 1887.8063193708658 1993.592019751668 3124.8360207676888
leaf_count=7609 5236 4332 6973 21936 3452 34075 10217 13924 3028 3779 1550 10331 2792 1465 1429 2201 3489 2393 1803 1431 1925 136 9478 392 5871 5483 1736 7578 7983 12544
internal_value=0 -0.0144721 -0.0369403 -0.0474289 0.0430464 -0.0322844 0.0177339 0.121019 -0.0911789 0.0231673 0.0468535 0.0950192 -0.00010138 -0.0658899 -0.0164812 0.140065 -0.0141817 0.0438648 -0.0167156 -0.0229947 -0.0824031 0.0450513 -0.0879998 0.0685268 -0.0179644 -0.0745482 -0.0711044 -0.0281358 -0.0382589 0.0354042
internal_weight=0 43272.5 31117.3 26108.7 12155.2 19394.9 5008.64 5203.57 6713.74 8792.28 2920.54 3362.96 4139.05 6203.4 13191.5 3818.19 12842.9 4653.23 3025.72 2088.09 5988.84 1113.33 5509.26 1385.37 11973.6 3685.17 5838.47 2582.56 3459.75 4066.19
internal_count=196571 174818 125678 105507 49140 77984 20171 21753 27523 35357 11767 13783 16641 25137 52847 16125 51418 18716 12173 8404 24495 4468 22570 5628 47929 14961 23672 10370 13854 16323
is_linear=0
shrinkage=0.3


Tree=3
num_leaves=31
num_cat=0
split_feature=4 12 1 12 0 2 6 1 14 1 10 6 2 7 7 5 0 6 13 12 0 8 6 0 0 0 0 14 0 0
split_gain=483.417 308.37 109.266 91.4452 79.6339 59.2464 47.7105 32.3549 31.748 23.9548 23.7326 19.5629 18.3742 17.8736 17.1231 16.0826 18.79 17.1759 16.5255 15.819 15.6886 16.5014 26.0586 17.09 15.248 14.6896 14.3452 13.65 13.5974 13.475
threshold=1.0000000180025095e-35 1.0000000180025095e-35 1.0000000180025095e-35 1.5000000000000002 70.500000000000014 1.0000000180025095e-35 1.0000000180025095e-35 1.0000000180025095e-35 1.0000000180025095e-35 1.0000000180025095e-35 1.0000000180025095e-35 1.0000000180025095e-35 1.0000000180025095e-35 1.0000000180025095e-35 1.0000000180025095e-35 1.0000000180025095e-35 28.500000000000004 1.0000000180025095e-35 4.5000000000000009 2.5000000000000004 39.500000000000007 1.0000000180025095e-35 1.0000000180025095e-35 61.500000000000007 70.500000000000014 20.500000000000004 84.500000000000014 1.0000000180025095e-35 74.500000000000014 58.500000000000007
decision_type=2 2 2 2 2 2 2 2 2 2 2 2 2 2 2 2 2 2 2 2 2 2 2 2 2 2 2 2 2 2
left_child=1 2 6 9 5 11 8 13 10 20 28 -4 -6 -2 27 17 -17 18 -7 29 -3 23 -23 -22 -8 -13 -14 -9 -1 -5
right_child=7 3 4 19 12 15 24 14 -10 -11 -12 25 26 -15 -16 16 -18 -19 -20 -21 21 22 -24 -25 -26 -27 -28 -29 -30 -31
leaf_value=-0.063764509473485401 0.033155265526802279 0.017107084888017085 -0.049979461058300229 0.049407150317870747 0.0056955166814447386 -0.0082217546260633639 -0.012416114755211686 0.098378991762673562 -0.12472767612870178 0.021319031868149072 0.063994004560794848 0.20187301331557542 0.053480792640269038 0.12468269228644595 0.15532042796089598 0.15783006643944295 -0.054162924223334706 0.032687305530139488 -0.080812782332944019 0.1016856804193027 -0.0365565554930058 -0.093677378122445254 0.10020731488499586 0.070122547459849222 0.079856390217082684 -0.0082523173960231556 0.14788006602921752 -0.0070753350414646688 -0.005438943090053867 0.10787781144490628
leaf_weight=5998.4299505650997 1141.1285372525454 773.38958564400673 5896.737851023674 2766.5135845541954 697.5332192927599 12010.008478015661 692.20630751550198 3084.2988801300526 701.75134991109371 5962.2557716518641 141.39657521247864 31.148219183087349 986.0327232927084 230.87284870445728 480.83776301145554 39.127697989344597 982.61340722441673 914.50132851302624 289.04052251577377 914.55448947846889 427.43861031532288 553.05057328939438 70.321588277816772 197.64796274900436 210.10225774347782 773.822867795825 169.83582070469856 114.57439589500427 382.68387594819069 406.90027429163456
leaf_count=24876 4657 3104 24124 11324 2841 48105 2783 13427 3045 24144 588 125 3983 971 2201 157 3946 3679 1210 3865 1719 2225 283 798 847 3104 720 497 1545 1678
internal_value=0 -0.0102287 -0.0261057 0.0304331 -0.0154559 -0.0207321 -0.0559725 0.0878759 -0.0640962 0.0117499 -0.0575729 -0.0439908 0.0441469 0.048557 0.102536 -0.00978235 -0.0460446 -0.00697836 -0.00992772 0.0669228 -0.0164687 -0.0372681 -0.0718056 -0.00282538 0.00906951 -0.000121553 0.0673512 0.0946019 -0.0602666 0.0569044
internal_weight=0 42989 30917 12072.1 22790.4 20937 8126.57 5051.71 7224.26 7984.1 6522.51 6701.71 1853.4 1372 3679.71 14235.3 1021.74 13213.6 12299 4087.97 2021.85 1248.46 623.372 625.087 902.309 804.971 1155.87 3198.87 6381.11 3173.41
internal_count=196571 174818 125678 49140 91994 84450 33684 21753 30054 32273 27009 27353 7544 5628 16125 57097 4103 52994 49315 16867 8129 5025 2508 2517 3630 3229 4703 13924 26421 13002
is_linear=0
shrinkage=0.3


Tree=4
num_leaves=31
num_cat=0
split_feature=4 12 0 2 7 16 10 1 1 16 0 2 8 6 6 1 1 0 16 0 13 13 0 5 13 0 0 6 12 6
split_gain=245.816 152.672 66.2151 56.6081 47.2887 44.4407 29.3588 23.9228 23.9001 22.3772 22.8448 20.3766 19.9639 21.291 16.938 16.6558 16.6208 15.1562 14.8454 14.064 27.4929 10.3955 11.0505 10.3319 10.856 17.5733 10.8081 10.3793 10.1426 10.1083
threshold=1.0000000180025095e-35 1.0000000180025095e-35 60.500000000000007 1.0000000180025095e-35 1.0000000180025095e-35 1.0000000180025095e-35 1.0000000180025095e-35 1.0000000180025095e-35 1.0000000180025095e-35 1.0000000180025095e-35 21.500000000000004 1.0000000180025095e-35 1.0000000180025095e-35 1.0000000180025095e-35 1.0000000180025095e-35 1.0000000180025095e-35 1.0000000180025095e-35 79.500000000000014 1.0000000180025095e-35 30.500000000000004 2.5000000000000004 1.5000000000000002 77.500000000000014 1.0000000180025095e-35 2.5000000000000004 22.500000000000004 35.500000000000007 1.0000000180025095e-35 1.5000000000000002 1.0000000180025095e-35
decision_type=2 2 2 2 2 2 2 2 2 2 2 2 2 2 2 2 2 2 2 2 2 2 2 2 2 2 2 2 2 2
left_child=1 2 3 6 9 21 8 19 -1 10 -3 -6 13 15 -7 -2 -13 -11 -17 20 -5 -4 -23 24 25 -9 -25 -26 -18 -8
right_child=12 4 5 7 11 14 29 23 -10 17 -12 16 -14 -15 -16 18 28 -19 -20 -21 -22 22 -24 26 27 -27 -28 -29 -30 -31
leaf_value=-0.076002609271652866 0.012710317452062051 0.1184252452651279 -0.048271131618293134 0.043926072228748461 0.11691858879165258 0.022041165662958981 0.016934548710167537 0.075095955187440791 -0.039172749968554736 0.022192360235806785 -0.010115017903723149 0.005110246851984461 0.10176681651314237 0.1154215630724884 0.074288079262843573 0.028884309150317134 0.024756331604223056 0.16403404175567746 0.076645135823672148 -0.050269068984351066 -0.039602244669187638 -0.017861344480761609 0.04794737224457165 0.051527993541915361 -0.0055391024941995031 -0.039688831540352812 -0.055961140126107312 0.033938018520003319 0.070360429621595402 0.17746497382008802
leaf_weight=2215.8004606813192 970.44783972203732 128.44271147251129 800.78999334573746 508.63497361540794 387.00612887740135 2599.5097844302654 380.63571289181709 131.10071681439877 5577.1875098794699 4550.0336775332689 3990.7719173431396 747.49846798181534 985.9193102568388 450.18215209245682 711.24391937255859 929.44018277525902 618.71647641062737 68.824841991066933 1583.8202913105488 2346.8380470573902 1171.4269681870937 1315.6095915138721 278.20798154175282 96.25219164788723 9842.7992000728846 1422.8190868496895 671.84529633820057 638.27179232239723 1510.3841310143471 38.911533638834953
leaf_count=9642 3985 521 3251 2089 1634 10560 1544 525 23007 18424 16120 3059 4547 1999 2888 4146 2610 292 7076 9814 4866 5310 1150 387 39499 5709 2706 2575 6480 156
internal_value=0 -0.00721848 -0.0184193 -0.0250643 0.0214775 0.0107476 -0.0454828 -0.0151006 -0.0496447 0.00996899 -0.00610696 0.0522908 0.0635934 0.0540264 0.0332653 0.0460926 0.043596 0.0243059 0.0589825 -0.0352684 -0.0143142 -0.0203851 -0.00637414 -0.00875734 -0.00660437 -0.0300047 -0.0424914 -0.00313504 0.0571079 0.0318232
internal_weight=0 42749.6 30747.9 25042.5 12001.7 5705.36 8212.54 16830 7792.99 8738.07 4119.21 3263.61 4919.81 3933.89 3310.75 3483.71 2876.6 4618.86 2513.26 4026.9 1680.06 2394.61 1593.82 12803.1 12035 1553.92 768.097 10481.1 2129.1 419.547
internal_count=196571 174818 125678 102519 49140 23159 34349 68170 32649 35357 16641 13783 21753 17206 13448 15207 12149 18716 11222 16769 6955 9711 6460 51401 48308 6234 3093 42074 9090 1700
is_linear=0
shrinkage=0.3


Tree=5
num_leaves=31
num_cat=0
split_feature=4 12 14 6 9 12 1 2 0 0 14 13 0 7 2 5 6 0 0 16 10 13 0 1 16 1 0 15 0 0
split_gain=124.26 85.2972 63.021 48.6281 42.7149 37.3463 31.3847 18.0621 20.9976 17.9325 16.2367 14.0475 14.6678 12.3058 13.6391 12.6105 12.9258 11.3273 11.8457 13.4794 12.3014 13.0307 10.4906 9.26672 9.36737 9.13474 9.02611 8.78057 9.24872 8.73205
threshold=1.0000000180025095e-35 1.5000000000000002 1.0000000180025095e-35 1.0000000180025095e-35 1.0000000180025095e-35 1.0000000180025095e-35 1.0000000180025095e-35 1.0000000180025095e-35 64.500000000000014 60.500000000000007 1.0000000180025095e-35 2.5000000000000004 71.500000000000014 1.0000000180025095e-35 1.0000000180025095e-35 1.0000000180025095e-35 1.0000000180025095e-35 87.500000000000014 29.500000000000004 1.0000000180025095e-35 1.0000000180025095e-35 2.5000000000000004 27.500000000000004 1.0000000180025095e-35 1.0000000180025095e-35 1.0000000180025095e-35 84.500000000000014 1.0000000180025095e-35 21.500000000000004 38.500000000000007
decision_type=2 2 2 2 2 2 2 2 2 2 2 2 2 2 2 2 2 2 2 2 2 2 2 2 2 2 2 2 2 2
left_child=1 2 3 6 5 11 17 -8 -9 -6 13 22 27 15 -15 16 25 18 19 -1 21 -20 -5 24 -3 -2 -10 -13 -29 -4
right_child=10 23 29 4 9 -7 7 8 26 -11 -12 12 -14 14 -16 -17 -18 -19 20 -21 -22 -23 -24 -25 -26 -27 -28 28 -30 -31
leaf_value=0.023003175035518138 0.01427805486328533 -0.016943957444386343 -0.084592839740418355 0.096036983286013441 -0.066341152740115275 0.095784003490666889 -0.018938864501465962 -0.0040665968137433388 0.023976525123823908 0.032844419434589933 -0.034939111588397687 0.033564738515588215 0.095270533389195527 0.16340467839404757 0.062697472535269666 -0.05013522751208304 0.09656753861342135 0.12130308730058427 -0.050482513054584156 -0.025660515830355671 0.050675623430135701 -0.020118385499125469 -0.015450772734158114 0.044892473951777354 0.041639087469551486 0.049533628969713049 0.1036938562761426 0.19340407690620387 -0.046182206322193303 -0.040896356669011862
leaf_weight=739.84869122505188 896.37307234108448 508.50509086251259 973.45395796000957 82.331791117787361 604.23572084307671 748.23873120546341 6643.5214535146952 15971.856356918812 1662.0676885992289 225.19562332332134 214.38798321783543 1377.9073209613562 315.58282825350761 161.65997000038624 481.61470358073711 125.95397178828716 411.55298894643784 45.863012865185738 3176.0300317257643 1665.4199882745743 143.56691621243954 2121.7691299915314 981.64503814280033 3012.357821688056 475.2198564261198 2523.5265892744064 138.4822581410408 15.558933377265928 213.27977193892002 713.09987737238407
leaf_count=3062 3687 2087 4322 333 2429 3071 27383 64214 6751 925 911 5555 1312 785 2338 567 1892 196 13427 7033 587 8781 3964 12820 1960 11573 615 63 861 3067
internal_value=0 -0.00508454 -0.00940836 -0.00681447 0.0221723 0.03585 -0.0109092 -0.00559313 -0.000604349 -0.0394117 0.045762 0.0208331 0.0361407 0.0495226 0.088006 0.0432672 0.0463377 -0.0273549 -0.0282238 -0.0106918 -0.0359735 -0.0383217 -0.00682372 0.0366368 0.0113565 0.040293 0.0301077 0.0245269 -0.0298925 -0.0661173
internal_weight=0 42555 38559 36872.4 4563.98 3734.54 32308.4 24415.9 17772.4 829.431 4815.07 2986.31 1922.33 4600.68 643.275 3957.41 3831.45 7892.5 7846.63 2405.27 5441.37 5297.8 1063.98 3996.08 983.725 3419.9 1800.55 1606.75 228.839 1686.55
internal_count=196571 174818 157951 150562 18513 15159 132049 98963 71580 3354 21753 12088 7791 20842 3123 17719 17152 33086 32890 10095 22795 22208 4297 16867 4047 15260 7366 6479 924 7389
is_linear=0
shrinkage=0.3


Tree=6
num_leaves=31
num_cat=0
split_feature=4 12 0 2 16 0 13 14 10 5 0 0 12 0 12 0 12 0 16 0 0 6 10 11 0 15 13 0 0 1
split_gain=62.5716 46.3597 24.356 20.4086 18.3458 15.1214 18.2639 14.2962 12.3142 11.9597 11.2052 10.6697 8.83354 8.83324 8.51582 8.35847 8.09298 7.97779 7.27349 14.9615 6.95078 10.8787 6.94004 6.79491 6.14355 17.9394 10.1811 8.88265 7.79834 5.96135
threshold=1.0000000180025095e-35 1.0000000180025095e-35 57.500000000000007 1.0000000180025095e-35 1.0000000180025095e-35 36.500000000000007 3.5000000000000004 1.0000000180025095e-35 1.0000000180025095e-35 1.0000000180025095e-35 82.500000000000014 20.500000000000004 2.5000000000000004 85.500000000000014 2.5000000000000004 34.500000000000007 1.5000000000000002 53.500000000000007 1.0000000180025095e-35 31.500000000000004 58.500000000000007 1.0000000180025095e-35 1.0000000180025095e-35 1.0000000180025095e-35 28.500000000000004 1.0000000180025095e-35 2.5000000000000004 45.500000000000007 53.500000000000007 1.0000000180025095e-35
decision_type=2 2 2 2 2 2 2 2 2 2 2 2 2 2 2 2 2 2 2 2 2 2 2 2 2 2 2 2 2 2
left_child=1 2 3 8 -4 7 10 22 11 24 16 -1 18 -6 17 -11 -7 -8 19 -2 21 -18 29 -15 25 -5 27 -26 -28 -3
right_child=12 5 4 9 13 6 14 -9 -10 15 -12 -13 -14 23 -16 -17 20 -19 -20 -21 -22 -23 -24 -25 26 -27 28 -29 -30 -31
leaf_value=0.0051282855703639971 0.060263428208875675 0.010152885271042912 -0.012049546886988737 -0.0085376906908226392 0.016011062391693004 -0.016483675431186104 0.0062030852220557545 -0.12493215186224435 0.023948174912712748 0.033648072800627309 0.15474519287613203 -0.033615382416842282 0.097017174544992632 0.043929599917038431 0.10441462882081333 -0.052806251481138572 0.019227212683868924 0.041066992053208934 0.039992917268197627 -0.00099517297593990995 0.056165396643411081 -0.047107126867522248 -0.03020063039166837 0.16234320635229754 -0.013605889339251309 0.028723218797699672 -0.0093737921210838224 -0.055542762173413467 0.02294219937548855 0.036175505469903661
leaf_weight=708.60929460823536 491.17057168483734 1039.4164189398289 2913.7252787649632 4435.9199053645134 3723.5359472036362 3338.4169369339943 1440.050078868866 55.97100043296814 404.16704662144184 115.39834663271904 38.131371781229973 6581.015534684062 185.2102088779211 144.36580500006676 113.93165051937103 787.28165948390961 800.56940725445747 1001.5395688861609 2724.5230893045664 1331.7152192592621 250.01340121030807 308.15338684618473 179.49070701003075 62.49324657022953 1108.8700651228428 1576.0772482156754 6416.7416555285454 770.35492143034935 750.68677212297916 3332.4061774462461
leaf_count=3023 2239 4226 11919 18023 15151 13507 5880 230 1637 469 167 28101 949 643 517 3229 3353 4150 12530 6035 1058 1273 755 283 4549 6336 26079 3176 3060 14024
internal_value=0 -0.00357496 -0.00977103 -0.0143311 0.00598996 0.0123079 0.00380602 0.0257616 -0.0270231 -0.00821326 -0.00722452 -0.0298492 0.0327946 0.0193632 0.0242452 -0.041754 -0.00853938 0.0205043 0.0301789 0.0155108 0.0109798 0.000790547 0.0276148 0.079703 -0.00620269 0.00123046 -0.0111424 -0.0307972 -0.00598915 0.0299885
internal_weight=0 42397.3 30499.2 23655.1 6844.12 11898.1 7290.81 4607.28 7693.79 15961.3 4735.28 7289.62 4732.62 3930.39 2555.52 902.68 4697.15 2441.59 4547.41 1822.89 1358.74 1108.72 4551.31 206.859 15058.7 6012 9046.65 1879.22 7167.43 4371.82
internal_count=196571 174818 125678 97682 27996 49140 29905 19235 32761 64921 19358 31124 21753 16077 10547 3698 19191 10030 20804 8274 5684 4626 19005 926 61223 24359 36864 7725 29139 18250
is_linear=0
shrinkage=0.3


Tree=7
num_leaves=31
num_cat=0
split_feature=14 4 12 6 9 12 1 5 9 0 0 15 0 10 8 10 8 13 6 0 0 9 0 0 15 0 0 13 0 15
split_gain=35.9644 32.0454 21.091 21.1333 22.8498 15.4636 12.7433 10.4358 10.3859 7.81507 7.00571 8.55121 10.546 7.7999 6.82701 6.76919 6.76449 6.59667 6.1876 5.95686 5.66748 5.64831 5.55979 6.13584 7.43666 5.43051 5.42832 5.70608 5.3745 5.21105
threshold=1.0000000180025095e-35 1.0000000180025095e-35 1.5000000000000002 1.0000000180025095e-35 1.0000000180025095e-35 1.0000000180025095e-35 1.0000000180025095e-35 1.0000000180025095e-35 1.0000000180025095e-35 85.500000000000014 41.500000000000007 1.0000000180025095e-35 81.500000000000014 1.0000000180025095e-35 1.0000000180025095e-35 1.0000000180025095e-35 1.0000000180025095e-35 1.5000000000000002 1.0000000180025095e-35 83.500000000000014 36.500000000000007 1.0000000180025095e-35 66.500000000000014 59.500000000000007 1.0000000180025095e-35 82.500000000000014 58.500000000000007 1.5000000000000002 21.500000000000004 1.0000000180025095e-35
decision_type=2 2 2 2 2 2 2 2 2 2 2 2 2 2 2 2 2 2 2 2 2 2 2 2 2 2 2 2 2 2
left_child=1 2 3 6 5 -5 8 15 10 17 -1 13 -13 14 -12 25 18 -8 -3 28 -2 22 23 -20 -25 -6 -4 -28 -10 -7
right_child=20 16 26 4 7 29 9 -9 19 -11 11 12 -14 -15 -16 -17 -18 -19 21 -21 -22 -23 -24 24 -26 -27 27 -29 -30 -31
leaf_value=-0.010472489549365253 -0.055677195992133437 0.015654344731035306 0.01631635341014254 0.01649236107394737 -0.049525236739313333 0.081533735880715705 -0.027344293776909445 0.064838638280284924 0.13741575369232897 0.059694667874926596 -0.017053369311400338 -0.060999233260550206 0.14235795778319571 0.084064782826063209 -0.062486349777583716 0.12992858460301698 0.049292180250622 -0.0018862944352516931 0.072577356147188313 0.35999944277109364 -0.022908131130594405 -0.02562700184481256 0.26929627696716374 0.014145297949915678 -0.45642639633894816 0.14662802316608226 -0.06710500617937934 0.063693494484745816 0.013081212785742586 0.026277592810712746
leaf_weight=3819.8156710714102 1011.4638753533363 3174.0418283492327 3486.0344376564026 2972.5348239690065 699.79665260016918 516.23337607085705 953.69192670285702 94.462975040078163 33.367326691746712 180.91037881374359 2204.6299241781235 822.4190444201231 23.610357508063316 62.523277163505554 344.13117024302483 20.251081913709641 890.8338149189949 23208.397459998727 305.57606245577335 4.7011633962392798 895.61988033354282 64.816702008247375 12.278370082378386 9.9793979972600919 4.3356922268867484 12.937411591410635 32.665203303098679 370.33573694527149 502.44049130380154 218.67122754454613
leaf_count=16260 4604 14453 14922 12088 2829 2157 3937 384 134 817 9368 3522 96 255 1400 82 4466 94209 1481 23 3895 318 57 47 20 59 138 1608 2028 914
internal_value=0 0.00177277 -0.000880323 -0.00310672 0.0160657 0.026126 -0.00581018 -0.0290104 -0.016348 -0.00242602 -0.019328 -0.0291121 -0.0553241 -0.0206197 -0.0231877 -0.0411051 0.0259049 -0.00289114 0.0200707 0.0237742 -0.0402879 0.0553813 0.0711885 0.0635846 -0.128379 -0.0459647 0.0201272 0.0530916 0.0208241 0.0650922
internal_weight=0 45046.4 40584.6 36695.5 4534.89 3707.44 32160.6 827.448 7817.64 24343 7277.13 3457.31 846.029 2611.28 2548.76 732.985 4461.86 24162.1 3571.03 540.509 1907.08 396.986 332.17 319.891 14.3151 712.734 3889.04 403.001 535.808 734.905
internal_count=196571 188072 167230 150562 18513 15159 132049 3354 33086 98963 30901 14641 3618 11023 10768 2970 20842 98146 16376 2185 8499 1923 1605 1548 67 2888 16668 1746 2162 3071
is_linear=0
shrinkage=0.3


Tree=8
num_leaves=31
num_cat=0
split_feature=7 2 14 10 0 4 13 0 13 0 16 9 12 0 5 13 0 0 2 0 15 13 11 0 13 13 11 12 0 11
split_gain=18.2454 21.483 15.9585 13.6969 13.6597 12.0704 10.2867 10.1281 8.13052 17.3493 29.6843 7.20488 7.13503 6.90414 6.77632 6.61603 8.78045 8.65769 8.08129 8.05876 8.95313 7.8658 12.5484 6.26372 6.17119 5.61817 5.59797 5.30866 5.19933 4.95715
threshold=1.0000000180025095e-35 1.0000000180025095e-35 1.0000000180025095e-35 1.0000000180025095e-35 74.500000000000014 1.0000000180025095e-35 2.5000000000000004 40.500000000000007 3.5000000000000004 23.500000000000004 1.0000000180025095e-35 1.0000000180025095e-35 1.0000000180025095e-35 53.500000000000007 1.0000000180025095e-35 1.5000000000000002 56.500000000000007 41.500000000000007 1.0000000180025095e-35 35.500000000000007 1.0000000180025095e-35 2.5000000000000004 1.5000000000000002 69.500000000000014 2.5000000000000004 1.5000000000000002 1.0000000180025095e-35 2.5000000000000004 51.500000000000007 1.0000000180025095e-35
decision_type=2 2 2 2 2 2 2 2 2 2 2 2 2 2 2 2 2 2 2 2 2 2 2 2 2 2 2 2 2 2
left_child=2 3 4 7 5 8 -6 -2 9 10 -1 -5 -12 -10 -7 23 17 18 19 20 -17 -19 28 -11 -21 -9 -8 -3 -23 -25
right_child=1 27 -4 11 6 14 26 25 13 15 12 -13 -14 -15 -16 16 -18 21 -20 24 -22 22 -24 29 -26 -27 -28 -29 -30 -31
leaf_value=0.042698541688105308 0.11543555085859666 0.0036034603925218533 -0.029052038332135842 0.083310001010464874 -0.0028056175087646808 0.016681114781864608 0.026460113241689051 -0.11131907624385645 -0.00092234284918138259 -0.019791201840629716 -0.019262616529699659 -0.16631474228230458 0.06410001829016429 0.01643140750952575 -0.055087364870669765 -0.035653160327545286 0.0044324908968772052 -0.033156658563012434 0.0024575551344683702 -0.022703144172755093 0.012571209657168148 -0.01587922518565011 -0.12051804997537537 -0.11278071715832216 0.02862814431619189 0.05025938878868149 0.069780722571847975 0.030792186832326793 0.0096330622809583429 -0.015776623411794741
leaf_weight=1613.3953288197517 367.97929708659649 2351.8429983705282 1837.4079660177231 15.967285692691801 777.1033611446619 3678.4630066603422 765.43934492766857 26.297623440623283 8869.625742867589 2337.2066159248352 1571.6228244006634 29.879153162240982 98.177483946084976 2688.8020632565022 122.34269884228706 1821.9569359123707 4093.3856115937233 2441.0993898957968 5000.2261951118708 358.10774630308151 427.84968882799149 2291.5071086585522 91.443855687975883 122.21431206166744 512.39107373356819 73.49153858423233 413.48445515334606 891.2532039731741 1047.6177105605602 77.465054675936699
leaf_count=6569 1736 10356 8287 73 3203 17064 3237 123 35700 9888 6640 139 396 10942 552 7758 16712 10166 20353 1540 1778 9419 368 500 2129 355 1792 4173 4309 314
internal_value=0 0.0201036 -0.00169651 0.0771103 -0.00047715 -0.00169605 0.0239908 0.0924477 -0.00341801 -0.00657653 0.0136785 -0.079376 -0.0143612 0.00311461 0.014371 -0.00980123 -0.00778874 -0.011364 -0.00501851 -0.0169988 -0.0264822 -0.0201399 -0.0108776 -0.0241484 0.00751136 0.00767832 0.041654 0.0110753 -0.00787499 -0.0751482
internal_weight=0 3756.71 43058.3 513.615 41220.9 39264.9 1956.03 467.768 35464.1 23905.7 3283.2 45.8464 1669.8 11558.4 3800.81 20622.5 18085.6 13992.2 8120.53 3120.31 2249.81 5871.67 3430.57 2536.89 870.499 99.7892 1178.92 3243.1 3339.12 199.679
internal_count=196571 16955 179616 2426 171329 163097 8232 2214 145481 98839 13605 212 7036 46642 17616 85234 74532 57820 33558 13205 9536 24262 14096 10702 3669 478 5029 14529 13728 814
is_linear=0
shrinkage=0.3


Tree=9
num_leaves=31
num_cat=0
split_feature=12 6 1 0 16 4 4 0 4 0 0 1 13 0 4 11 0 10 2 17 0 0 10 0 16 0 13 15 13 1
split_gain=12.3023 11.3193 8.34664 6.95064 7.41741 5.49917 5.35546 5.48516 4.91584 4.32111 4.76034 6.41137 8.99392 6.98517 6.91744 4.55466 4.11355 4.07725 8.20665 3.87624 6.50314 5.86058 5.27012 3.81464 3.71363 6.97798 6.96982 5.84157 5.53664 4.8631
threshold=1.0000000180025095e-35 1.0000000180025095e-35 1.0000000180025095e-35 22.500000000000004 1.0000000180025095e-35 1.0000000180025095e-35 1.0000000180025095e-35 47.500000000000007 1.0000000180025095e-35 74.500000000000014 36.500000000000007 1.0000000180025095e-35 2.5000000000000004 25.500000000000004 1.0000000180025095e-35 1.5000000000000002 77.500000000000014 1.0000000180025095e-35 1.0000000180025095e-35 1.0000000180025095e-35 24.500000000000004 53.500000000000007 1.0000000180025095e-35 80.500000000000014 1.0000000180025095e-35 26.500000000000004 3.5000000000000004 1.0000000180025095e-35 2.5000000000000004 1.0000000180025095e-35
decision_type=2 2 2 2 2 2 2 2 2 2 2 2 2 2 2 2 2 2 2 2 2 2 2 2 2 2 2 2 2 2
left_child=1 2 -1 -2 9 19 -6 -8 24 10 11 15 13 14 -13 -5 -7 -10 -19 21 22 -4 -21 -22 25 26 27 29 -26 -3
right_child=3 8 5 4 6 16 7 -9 17 -11 -12 12 -14 -15 -16 -17 -18 18 -20 20 23 -23 -24 -25 28 -27 -28 -29 -30 -31
leaf_value=-0.013367362797008052 0.032123261832047383 0.4706565116024376 -0.0047037354775739133 -0.014576169281591694 0.0098439957505773341 0.011810577677807516 0.023087258496583118 0.08566667149210741 0.060294065648327629 0.061158746223736363 -0.0093327351243542266 -0.04442457542177275 -0.0011620813474715703 0.060286445868472635 0.20509680554868423 -0.14488201131177933 0.26833202172832565 0.18945815800114504 -0.37382345485839763 0.024169391236288244 -0.02025810463651035 0.0086021448579377529 0.25832561540033189 0.04203589153587424 -0.026396200992849561 -0.0090255498103345086 -0.085734969903609237 0.056432664635309493 0.024614498567223437 0.15610270060544509
leaf_weight=7727.3040037155151 980.06204468011856 5.6012888103723553 13544.015766471624 452.93096785247326 5649.7282654047012 2147.222269281745 550.33228641748428 163.51076726615429 250.72784738242626 96.218374088406563 3702.2454885095358 105.83609721064568 894.34773132205009 522.00597274303436 11.042667612433432 25.501084327697754 5.6409321725368491 3.9903360605239868 5.5874332338571531 240.77260190248489 2530.6359407007694 3819.2668723911047 8.9730977863073331 91.676556766033173 216.73188017308712 1191.281225413084 21.58689072728157 67.773749873042107 1644.8159054964781 21.03711248934269
leaf_count=33516 4236 24 55361 1870 23563 10101 2834 816 1222 412 15465 454 3899 2303 61 121 27 20 27 973 10322 15598 36 394 888 4828 89 277 6748 86
internal_value=0 -0.00300663 -0.00486622 0.0078184 0.0058617 -0.00193204 0.0129375 0.0374215 0.0133247 -0.00188816 -0.00294983 0.00879721 0.0182579 0.0454432 -0.0208499 -0.0215216 0.0124827 0.0529558 -0.139146 -0.00346564 -0.0136748 -0.00177694 0.0325824 -0.0180803 0.0100692 -0.00218609 0.0680534 0.103216 0.0186755 0.222244
internal_weight=0 33544.6 30115.5 13153.8 12173.7 22388.2 6363.57 713.843 3429.13 5810.13 5713.91 2011.66 1533.23 638.885 116.879 478.432 2152.86 260.306 9.57777 20235.3 2872.06 17363.3 249.746 2622.31 3168.83 1307.28 115.999 94.4122 1861.55 26.6384
internal_count=196571 140537 126328 56034 51798 92812 27213 3650 14209 24585 24173 8708 6717 2818 515 1991 10128 1269 47 82684 11725 70959 1009 10716 12940 5304 476 387 7636 110
is_linear=0
shrinkage=0.3


Tree=10
num_leaves=31
num_cat=0
split_feature=14 12 0 6 9 8 0 15 11 2 5 13 0 0 0 0 13 13 17 0 4 0 0 10 10 9 0 0 0 13
split_gain=7.48861 6.71463 6.9408 5.82443 12.4066 6.98431 5.80601 5.33656 5.37656 4.70712 6.25884 6.36489 4.42515 4.40087 4.24004 16.6388 4.031 4.798 3.75595 5.15997 5.4869 7.28433 4.60395 7.16528 6.43508 4.665 4.20339 8.00695 6.55421 4.07863
threshold=1.0000000180025095e-35 1.5000000000000002 87.500000000000014 1.0000000180025095e-35 1.0000000180025095e-35 1.0000000180025095e-35 60.500000000000007 1.0000000180025095e-35 1.5000000000000002 1.0000000180025095e-35 1.0000000180025095e-35 2.5000000000000004 22.500000000000004 70.500000000000014 32.500000000000007 35.500000000000007 3.5000000000000004 2.5000000000000004 1.0000000180025095e-35 53.500000000000007 1.0000000180025095e-35 50.500000000000007 48.500000000000007 1.0000000180025095e-35 1.0000000180025095e-35 1.0000000180025095e-35 37.500000000000007 35.500000000000007 32.500000000000007 1.0000000180025095e-35
decision_type=2 2 2 2 2 2 2 2 2 2 2 2 2 2 2 2 2 2 2 2 2 2 2 2 2 2 2 2 2 2
left_child=1 2 3 -1 5 -5 12 8 -7 -8 -11 -12 -6 -2 -10 -16 17 -17 19 20 22 -22 23 -3 -24 -25 27 28 -27 -20
right_child=13 18 -4 4 6 7 9 -9 14 10 11 -13 -14 -15 15 16 -18 -19 29 -21 21 -23 24 25 -26 26 -28 -29 -30 -31
leaf_value=-0.00201737195633719 -0.021649491530893638 0.013916801775405283 0.055428647726270402 0.011380262460644549 0.054747149043137669 0.08938320814618339 -0.049394665425275937 -0.0018673337548526158 0.19506630505387457 0.018559974586071587 -0.065183256257086902 0.25949690920533419 -0.044476336630635813 0.050242300634517394 -0.53212964271704766 0.055035766164493058 0.093692135535526883 -0.15299260613970533 0.14836008437241077 0.041957984134059975 0.033857816618576717 0.22287768964171176 -0.041662247079313243 0.12156800669189526 0.16004149110287305 -0.038578893527093379 -0.17747016866216572 0.23465840671515303 -0.30355764060696327 -0.01046889043930677
leaf_weight=35275.325150281191 1788.5038691163063 2227.7410695850849 199.45547696948051 3520.2227012813091 43.35846833884716 271.7319612801075 64.65450955927372 133.10442234575748 9.3960200697183591 126.95116803050041 7.3509756475687054 20.838052541017532 603.50151553750038 80.064719557762146 5.2894735485315314 20.477197274565697 34.47314889729023 19.461915031075478 14.844156071543692 577.78322486579418 417.91855065524578 19.191845059394836 262.16096049547195 11.060914069414137 15.052724897861479 53.665449902415276 30.194637596607208 8.2148719727992994 9.9604798853397352 737.15182268619537
leaf_count=147141 8172 9723 935 14780 177 1130 269 561 48 528 30 88 2466 327 26 92 163 86 64 2541 2239 101 1098 48 64 231 128 35 43 3237
internal_value=0 0.000815325 -0.000396142 -0.000673424 0.00903976 0.0160677 -0.0235121 0.0494746 0.0684138 0.0186122 0.046954 0.174829 -0.0378255 -0.0185691 0.00446109 -0.0180093 0.0185361 -0.0463343 0.0119647 0.0159594 0.0110426 0.042157 0.00584772 0.010177 -0.0307097 -0.0634878 -0.0835483 -0.0440731 -0.0800607 -0.00733366
internal_weight=0 44740.5 40355.6 40156.1 4880.81 4014.16 866.655 493.934 360.83 219.795 155.14 28.189 646.86 1868.57 89.0978 79.7017 74.4123 39.9391 4384.94 3632.94 3055.16 437.11 2618.05 2340.84 277.214 113.096 102.035 71.8408 63.6259 751.996
internal_count=196571 188072 168520 167585 20444 16886 3558 2106 1545 915 646 118 2643 8499 415 367 341 178 19552 16251 13710 2340 11370 10208 1162 485 437 309 274 3301
is_linear=0
shrinkage=0.3


Tree=11
num_leaves=31
num_cat=0
split_feature=1 8 0 17 0 0 0 5 9 11 0 0 0 0 4 0 10 0 0 16 11 0 16 13 9 15 7 5 0 0
split_gain=5.35047 6.52117 3.65358 3.71016 7.23777 5.26637 5.59752 4.43329 3.5582 3.32891 7.15223 7.97548 4.00603 3.9017 3.25757 6.14223 3.90938 3.40099 5.36112 3.84007 3.2383 3.75291 7.9029 4.40971 3.19357 5.39362 4.03775 3.40832 3.40345 4
threshold=1.0000000180025095e-35 1.0000000180025095e-35 79.500000000000014 1.0000000180025095e-35 31.500000000000004 34.500000000000007 36.500000000000007 1.0000000180025095e-35 1.0000000180025095e-35 1.5000000000000002 70.500000000000014 72.500000000000014 76.500000000000014 40.500000000000007 1.0000000180025095e-35 60.500000000000007 1.0000000180025095e-35 23.500000000000004 25.500000000000004 1.0000000180025095e-35 1.5000000000000002 39.500000000000007 1.0000000180025095e-35 2.5000000000000004 1.0000000180025095e-35 1.0000000180025095e-35 1.0000000180025095e-35 1.0000000180025095e-35 45.500000000000007 52.500000000000007
decision_type=2 2 2 2 2 2 2 2 2 2 2 2 2 2 2 2 2 2 2 2 2 2 2 2 2 2 2 2 2 2
left_child=-1 2 3 14 7 -6 -7 -5 -4 -8 13 -12 -13 -11 16 24 -2 -18 19 -19 21 -20 23 -23 27 -26 -27 -16 -29 -30
right_child=1 -3 8 4 5 6 9 -9 -10 10 11 12 -14 -15 15 -17 17 18 20 -21 -22 22 -24 -25 25 26 -28 28 29 -31
leaf_value=-0.00541301333554593 -0.0010945441411391778 0.010583058942519281 0.016470260557659395 0.013681113773796966 -0.06158624318931321 0.044916714378690034 -0.017739980300680334 0.20678378508832276 0.10647200206955722 -0.21720230904725901 0.48767717582163972 -0.094464101904383091 0.25545726106575561 0.018490899376449699 0.013458221349773045 0.091936976690850811 0.062835492445906388 -0.21627162099854161 -0.0053349426912141645 -0.024465978117194771 -0.091489646257563756 0.049897222671998247 0.015133078590604598 0.18356280758016433 0.0087481294502364092 -0.17836973862206471 -0.012174591084032073 0.0071042045714286815 -0.26822802681191882 -0.023895479932302087
leaf_weight=12020.015204489231 20535.895748496056 6395.4524358212948 591.91225193440914 785.22954803705215 210.5094487965107 145.44659800827503 2589.7406370341778 10.848026141524313 42.3635463565588 6.7816720008850089 6.0772738456726101 6.4577725976705533 5.412401095032692 93.104635402560234 2063.9290020316839 82.362797513604164 140.96721564233303 14.75465753674507 239.0587072968483 25.857414439320564 23.102857068181038 42.201408892869949 231.84762036800385 46.899672672152519 97.090352088212967 31.700177922844887 22.491343095898628 27.862276762723923 12.135733112692835 11.986423000693319
leaf_count=51488 84168 27697 2642 3269 883 609 10660 45 195 32 25 26 22 392 9915 396 572 60 968 105 94 170 940 190 500 152 120 127 55 54
internal_value=0 0.0019357 -2.9331e-05 -0.00054835 -0.00917256 -0.015795 -0.0124163 0.0163125 0.0224815 -0.0154962 0.0338184 0.208183 0.0650883 0.00248877 0.000859086 0.0114603 -0.000310275 0.0207514 0.01124 -0.0941503 0.0185802 0.0231211 0.0443165 0.120254 0.0085367 -0.0335719 -0.109393 0.0115473 -0.0643198 -0.146818
internal_weight=0 34539.5 28144 27509.8 3859.61 3063.53 2853.02 796.078 634.276 2707.57 117.834 17.9474 11.8702 99.8863 23650.1 2349.56 21300.6 764.69 623.722 40.6121 583.11 560.007 320.949 89.1011 2267.2 151.282 54.1915 2115.91 51.9844 24.1222
internal_count=196571 145083 117386 114549 15963 12649 11766 3314 2837 11157 497 73 48 424 98586 11319 87267 3099 2527 165 2362 2268 1300 360 10923 772 272 10151 236 109
is_linear=0
shrinkage=0.3


Tree=12
num_leaves=31
num_cat=0
split_feature=12 10 0 0 0 2 5 8 9 0 0 15 11 1 6 5 0 10 0 15 0 11 0 14 0 0 9 6 13 0
split_gain=3.73054 5.66834 3.97438 4.28011 3.3467 7.36175 6.11858 4.46359 3.73173 3.70189 4.68426 9.13806 10.5507 7.76732 5.47094 4.6851 7.56367 4.8603 6.74059 4.05836 5.23483 4.441 3.96772 3.85635 4.10895 5.25082 3.85521 4.14927 3.82604 3.80119
threshold=2.5000000000000004 1.0000000180025095e-35 50.500000000000007 44.500000000000007 74.500000000000014 1.0000000180025095e-35 1.0000000180025095e-35 1.0000000180025095e-35 1.0000000180025095e-35 72.500000000000014 70.500000000000014 1.0000000180025095e-35 1.5000000000000002 1.0000000180025095e-35 1.0000000180025095e-35 1.0000000180025095e-35 36.500000000000007 1.0000000180025095e-35 55.500000000000007 1.0000000180025095e-35 62.500000000000007 2.5000000000000004 38.500000000000007 1.0000000180025095e-35 66.500000000000014 63.500000000000007 1.0000000180025095e-35 1.0000000180025095e-35 4.5000000000000009 57.500000000000007
decision_type=2 2 2 2 2 2 2 2 2 2 2 2 2 2 2 2 2 2 2 2 2 2 2 2 2 2 2 2 2 2
left_child=4 -2 3 -3 9 7 -7 -6 -8 10 15 12 -12 -13 -15 23 28 19 -19 21 22 -18 -21 -1 25 26 -25 -28 -17 -24
right_child=1 2 -4 -5 5 6 8 -9 -10 -11 11 13 -14 14 -16 16 17 18 -20 20 -22 -23 29 24 -26 -27 27 -29 -30 -31
leaf_value=0.00055127632704969067 0.023917612553968754 -0.069062731288656559 0.13746038641851605 -0.33618383243130123 -0.009197035162343787 0.01748104967916677 0.062912041040697059 -0.21115847490650944 0.20308272656910578 -0.025886997574766143 0.0010458472482675655 -0.0025514838929501073 0.19945456138882517 0.24910487199754414 0.023256471403424104 0.02613691279121871 -0.012130223832064562 0.10913392293022559 -0.029788861228696277 -0.18551330534853525 0.021277264125156011 -0.15537808023972052 -0.035172995788920386 -0.011508755459165756 -0.12087159075938762 0.099526374826951994 -0.034918644166324307 -0.18857732880463382 0.29254468749905388 -0.10154730778616129
leaf_weight=37568.568679600954 935.56892751157284 46.295666202902794 7.2024434953927985 6.1112440675497046 733.2923953384161 1069.5707977563143 149.50380280613899 9.9830373972654325 19.300568610429764 527.73684979975224 475.7261878401041 29.359856516122818 25.409760043025017 37.742884546518326 12.970545113086699 341.52247285842896 2119.6298524737358 63.792840838432312 61.967819720506668 19.657658562064171 101.28178940713406 19.658769309520721 399.14925016462803 1488.9083928465843 31.947844296693802 36.973916456103325 52.600166201591492 22.616644144058228 4.92165982723236 96.410132750868797
leaf_count=157753 4537 213 35 29 3074 4606 638 44 90 2170 1961 122 110 154 53 1440 8814 261 252 82 415 93 1669 6936 134 155 217 93 21 400
internal_value=0 0.0182026 -0.0714948 -0.100212 -0.0003649 0.0116924 0.0258584 -0.0119096 0.0789387 -0.000913688 -0.000607269 0.0261426 0.011106 0.120248 0.191342 -0.000973693 -0.0119595 -0.0169948 0.0406805 -0.0196268 -0.0410726 -0.0134466 -0.0533294 -6.90849e-05 -0.0143406 -0.0122149 -0.0148564 -0.0811217 0.0299216 -0.048086
internal_weight=0 995.178 59.6094 52.4069 45520.2 1981.65 1238.38 743.275 168.804 43538.6 43010.8 581.209 501.136 80.0733 50.7134 42429.6 3227.99 2881.55 125.761 2755.79 616.499 2139.29 515.217 39201.6 1633.05 1601.1 1564.13 75.2168 346.444 495.559
internal_count=196571 4814 277 242 191757 8452 5334 3118 728 183305 181135 2400 2071 329 207 178735 13447 11986 513 11473 2566 8907 2151 165288 7535 7401 7246 310 1461 2069
is_linear=0
shrinkage=0.3


Tree=13
num_leaves=31
num_cat=0
split_feature=4 2 0 13 0 0 0 13 0 0 2 7 0 15 0 9 0 15 11 0 13 6 9 13 17 0 0 0 15 5
split_gain=2.64555 3.91017 7.38236 5.12969 7.19776 6.68598 4.11727 3.31053 3.76188 3.20889 3.06608 7.66395 5.91302 5.50701 5.12306 6.60499 4.44946 4.75129 3.73805 3.59977 3.57704 6.50432 3.42373 4.85921 3.93746 3.38114 3.22989 4.90233 11.1027 4.34237
threshold=1.0000000180025095e-35 1.0000000180025095e-35 26.500000000000004 3.5000000000000004 31.500000000000004 24.500000000000004 53.500000000000007 1.5000000000000002 43.500000000000007 60.500000000000007 1.0000000180025095e-35 1.0000000180025095e-35 48.500000000000007 1.0000000180025095e-35 63.500000000000007 1.0000000180025095e-35 42.500000000000007 1.0000000180025095e-35 1.0000000180025095e-35 19.500000000000004 2.5000000000000004 1.0000000180025095e-35 1.0000000180025095e-35 2.5000000000000004 1.0000000180025095e-35 66.500000000000014 20.500000000000004 35.500000000000007 1.0000000180025095e-35 1.0000000180025095e-35
decision_type=2 2 2 2 2 2 2 2 2 2 2 2 2 2 2 2 2 2 2 2 2 2 2 2 2 2 2 2 2 2
left_child=10 2 -2 4 -3 -5 -6 8 -4 -7 11 26 -13 -14 16 20 19 -18 -19 22 21 -16 24 -24 -12 -23 -1 28 29 -28
right_child=1 3 7 5 6 9 -8 -9 -10 -11 14 12 13 -15 15 -17 17 18 -20 -21 -22 25 23 -25 -26 -27 27 -29 -30 -31
leaf_value=0.012421068468990036 0.082791247649849992 0.022817064050849701 0.075567419430582747 -0.047064850515432521 -0.029009578761939613 0.016759806513348734 0.018562905122873317 0.0038871821931383858 -0.002548864284037868 0.086811972225445996 -0.025035918517252832 0.050494670888139401 -0.022692729350832719 -0.33709043375517717 -0.021003613445126881 0.043447917621378604 -0.0019052452969572256 -0.010355451299973305 -0.03769264597583865 0.0036136944158437884 0.012827118753792289 0.13841709563893731 -0.10529945432974371 0.070039943154900738 0.057678486403279217 0.024852904349972706 -0.026085300826152721 -0.002791763286026427 0.017303407120932656 0.047801067403555116
leaf_weight=778.33837552368641 153.86312031745911 443.7886398434639 138.93525668978691 148.70891320705414 1058.1455624550581 1416.8188840299845 193.70828019082546 849.09330062568188 92.372437983751297 61.401502057909966 884.76007097959518 323.99170131981373 24.483533635735515 6.3055361807346335 770.07296197116375 498.75405506789684 7743.3788431733847 1806.4773298799992 599.59039857983589 15421.925343617797 2251.0432203114033 28.161576211452484 17.29698845744133 80.091809868812561 55.016842141747475 145.513521656394 2946.2093746811152 6764.710934355855 714.21016353368759 73.370797827839851
leaf_count=3330 753 2078 639 731 4857 6982 876 4108 415 314 3613 1495 111 28 3172 2191 31857 7450 2466 63595 9379 114 74 349 225 594 12898 28542 3019 316
internal_value=0 0.00689186 0.0213104 0.00153568 -0.0100107 0.0135698 -0.0216483 0.0125547 0.0443718 0.0196696 -0.000719255 -0.0048597 0.0385554 -0.0870807 0.000870079 0.0113399 -0.000583241 -0.00552346 -0.0171679 0.00246313 0.00632735 -0.00917601 -0.0146449 0.0388983 -0.0201936 0.0432674 -0.00622559 -0.00760802 -0.0163339 -0.02429
internal_weight=0 4556.84 1234.26 3322.57 1695.64 1626.93 1251.85 1080.4 231.308 1478.22 41933.7 11631.6 354.781 30.7891 30302.1 3693.55 26608.5 10149.4 2406.07 16459.1 3194.79 943.748 1037.17 97.3888 939.777 173.675 11276.8 10498.5 3733.79 3019.58
internal_count=196571 21753 5915 15838 7811 8027 5733 5162 1054 7296 174818 49739 1634 139 125079 15450 109629 41773 9916 67856 13259 3880 4261 423 3838 708 48105 44775 16233 13214
is_linear=0
shrinkage=0.3


Tree=14
num_leaves=31
num_cat=0
split_feature=0 16 10 0 6 12 2 0 16 0 0 0 4 11 0 0 9 4 13 0 0 1 1 0 0 0 5 2 0 0
split_gain=1.97162 8.80332 4.66411 7.72462 7.52024 3.24285 3.67183 3.08528 2.9917 7.80535 4.18526 3.46731 3.31583 3.07046 5.2649 10.3997 5.43103 4.52056 4.48408 4.35016 4.24117 4.17607 3.85774 5.15914 4.84446 4.22187 3.57848 7.75704 8.45825 3.42378
threshold=23.500000000000004 1.0000000180025095e-35 1.0000000180025095e-35 18.500000000000004 1.0000000180025095e-35 1.0000000180025095e-35 1.0000000180025095e-35 22.500000000000004 1.0000000180025095e-35 34.500000000000007 31.500000000000004 62.500000000000007 1.0000000180025095e-35 1.5000000000000002 45.500000000000007 47.500000000000007 1.0000000180025095e-35 1.0000000180025095e-35 3.5000000000000004 50.500000000000007 50.500000000000007 1.0000000180025095e-35 1.0000000180025095e-35 58.500000000000007 63.500000000000007 61.500000000000007 1.0000000180025095e-35 1.0000000180025095e-35 74.500000000000014 87.500000000000014
decision_type=2 2 2 2 2 2 2 2 2 2 2 2 2 2 2 2 2 2 2 2 2 2 2 2 2 2 2 2 2 2
left_child=1 -1 -3 -4 5 6 7 -5 10 -10 12 -12 -2 26 -15 16 -16 -18 20 -20 21 -17 -22 -24 25 -25 -11 -28 -29 -30
right_child=8 2 3 4 -6 -7 -8 -9 9 13 11 -13 -14 14 15 18 17 -19 19 -21 22 -23 23 24 -26 -27 27 28 29 -31
leaf_value=0.019586589268804116 0.0022561381098105239 -0.0056072431971625428 -0.10738985208723956 0.074855510111813572 0.38914324285315688 -0.037637619654689466 0.16775439386283267 -0.12816512780930364 -0.0067196711585186929 0.0058393436509072468 -0.0084326358573293958 0.0037412197682563037 0.032081848202091909 0.068405314062115599 -0.19570554523434519 -0.22828656733126096 -0.14149125146479677 0.24914347158765568 0.16232823721712811 0.037386936874780272 0.046960820788717855 0.0079837616025474033 -0.11288002375948497 0.038477208118614707 -0.031986597432373462 0.30244434565537176 0.020651057064009697 -0.033795257744770428 0.058405938714159548 0.3274244574463247
leaf_weight=2329.7235946431756 3276.1269887685776 3790.4696763604879 22.468400999903679 35.55447244644165 6.8967922627925864 21.603698045015335 33.984917372465134 8.311745345592497 7134.3771760910749 13573.781177133322 11095.981861323118 2598.7700858861208 373.740139760077 182.80375635623932 31.65055450797081 14.229097992181778 5.3876316696405393 5.2783015966415405 29.106266275048256 181.32981432974339 120.65058745443821 12.779634416103363 42.660390436649323 16.080205112695698 56.809799745678902 8.2513832449913007 490.25656308233738 872.49104377627373 62.559800833463669 4.5687318816781035
leaf_count=9901 13853 15898 91 145 29 93 137 34 30359 57224 47084 10760 1813 896 142 62 22 27 134 818 511 57 182 68 245 34 2062 3594 270 26
internal_value=0 0.00498197 -0.00369938 0.0524386 0.0862048 0.0651972 0.0937339 0.0363873 -0.000746115 0.00150921 -0.00371666 -0.00612248 0.00531024 0.00524603 0.0245661 0.00927849 -0.133315 0.051824 0.0218 0.0546681 -0.00367929 -0.116491 0.00878493 -0.0284192 0.0159863 0.127994 0.00433561 -0.0099393 -0.0259001 0.0767152
internal_weight=0 6249.01 3919.29 128.82 106.352 99.4548 77.8511 43.8662 40189.7 22845.1 17344.6 13694.8 3649.87 15710.7 707.017 524.214 42.3165 10.6659 481.897 210.436 271.461 27.0087 244.452 123.802 81.1414 24.3316 15003.7 1429.88 939.62 67.1285
internal_count=196571 26328 16427 529 438 409 316 179 170243 96733 73510 57844 15666 66374 3198 2302 191 49 2111 952 1159 119 1040 529 347 102 63176 5952 3890 296
is_linear=0
shrinkage=0.3


Tree=15
num_leaves=31
num_cat=0
split_feature=1 8 11 0 0 0 17 0 11 4 0 0 0 0 14 15 0 0 11 13 0 12 17 0 7 0 0 0 6 0
split_gain=1.95311 2.62327 2.79939 3.42526 4.154 5.51828 4.14934 5.90684 4.67762 3.38831 3.29891 5.82873 4.81798 5.79445 3.57886 3.14234 7.22042 3.36431 3.09176 3.63707 3.89015 3.36544 2.75214 8.89512 5.73567 4.70136 2.92073 4.10714 2.89324 3.43441
threshold=1.0000000180025095e-35 1.0000000180025095e-35 1.0000000180025095e-35 35.500000000000007 45.500000000000007 49.500000000000007 1.0000000180025095e-35 18.500000000000004 1.5000000000000002 1.0000000180025095e-35 21.500000000000004 30.500000000000004 42.500000000000007 45.500000000000007 1.0000000180025095e-35 1.0000000180025095e-35 20.500000000000004 20.500000000000004 1.5000000000000002 2.5000000000000004 39.500000000000007 2.5000000000000004 1.0000000180025095e-35 58.500000000000007 1.0000000180025095e-35 73.500000000000014 57.500000000000007 51.500000000000007 1.0000000180025095e-35 55.500000000000007
decision_type=2 2 2 2 2 2 2 2 2 2 2 2 2 2 2 2 2 2 2 2 2 2 2 2 2 2 2 2 2 2
left_child=-1 -2 10 6 18 -6 7 -4 -9 -10 15 14 -13 -14 -12 17 -17 -3 -5 20 -20 -21 26 24 -24 -25 27 -7 29 -29
right_child=1 2 3 4 5 22 -8 8 9 -11 11 12 13 -15 -16 16 -18 -19 19 21 -22 -23 23 25 -26 -27 -28 28 -30 -31
leaf_value=-0.0032756406640228894 -7.5978345668059995e-05 0.053437796366933618 -0.27293935415282106 -0.021549764776332043 0.063127304959621502 -0.018238505400894209 0.092879270724840785 0.039096479726802594 -0.23461549557495942 -0.023452000594690454 -0.020876092265946264 0.020229493042917497 -0.037015927649044066 0.0043470817422005797 -0.22677906226404118 0.016047310841972254 0.23683756672878342 -0.056603060079691112 -0.27037874276822216 0.051314313437645621 0.042905777106107039 0.26713221208101678 -0.077588794302186195 0.084410523077280947 -0.41146956905387538 -0.14133137458229342 -0.0065758119388203999 0.15282379373819963 0.032096921074743663 0.021544191138411488
leaf_weight=11984.243919618428 28065.619517982006 70.458076953887939 5.943715587258338 464.49095284938812 211.51518730819225 80.357240349054337 95.413733698427677 406.30654490739107 8.0276584327220899 46.183967545628548 752.42129755020142 1330.336469322443 367.98665195703506 1775.4607472866774 7.6748458445072165 34.354941412806511 21.782593220472336 38.761374339461327 6.1229798495769492 49.572129860520363 8.5462189614772779 7.4848128855228415 71.387252882122993 56.299440085887909 4.9518814086914054 9.7395231127738935 239.36614869534969 51.094639644026756 114.98354698717594 27.635379686951637
leaf_count=51488 117386 310 29 2163 962 359 463 1973 36 265 3252 5590 1516 7368 32 156 101 170 32 260 43 45 300 244 24 45 1092 244 496 127
internal_value=0 0.00117104 0.00666989 0.0160829 0.00815882 0.0209915 0.0358768 0.0242171 0.0280524 -0.0547211 0.00246451 0.000840984 0.0060478 -0.00275411 -0.0229551 0.0440341 0.101719 0.0143849 -0.0125981 0.0453719 -0.0878604 0.0796256 0.00740181 -0.0295034 -0.0992466 0.0511178 0.0176358 0.0387815 0.0624348 0.106743
internal_weight=0 34430.3 6364.66 1965.42 1403.55 867.33 561.876 466.462 460.518 54.2116 4399.24 4233.88 3473.78 2143.45 760.096 165.357 56.1375 109.219 536.217 71.7261 14.6692 57.0569 655.815 142.378 76.3391 66.039 513.437 274.071 193.714 78.73
internal_count=196571 145083 27697 9202 6436 3893 2766 2303 2274 301 18495 17758 14474 8884 3284 737 257 480 2543 380 75 305 2931 613 324 289 2318 1226 867 371
is_linear=0
shrinkage=0.3


Tree=16
num_leaves=31
num_cat=0
split_feature=0 0 0 11 13 0 1 6 0 16 14 0 0 0 0 2 0 0 0 11 0 0 1 11 0 6 0 0 0 0
split_gain=1.49759 2.02075 3.23676 1.9147 1.62846 1.55183 1.53899 1.49989 1.95567 1.79711 1.34461 3.42871 2.49135 6.49012 3.04642 2.45224 3.70705 12.2366 2.96839 2.7293 2.50827 3.49215 3.62971 2.30022 2.27933 3.76624 2.1552 2.02742 5.00937 1.72093
threshold=89.500000000000014 93.500000000000014 92.500000000000014 1.0000000180025095e-35 3.5000000000000004 96.500000000000014 1.0000000180025095e-35 1.0000000180025095e-35 90.500000000000014 1.0000000180025095e-35 1.0000000180025095e-35 20.500000000000004 83.500000000000014 78.500000000000014 80.500000000000014 1.0000000180025095e-35 52.500000000000007 51.500000000000007 54.500000000000007 1.5000000000000002 36.500000000000007 47.500000000000007 1.0000000180025095e-35 1.0000000180025095e-35 60.500000000000007 1.0000000180025095e-35 57.500000000000007 23.500000000000004 24.500000000000004 21.500000000000004
decision_type=2 2 2 2 2 2 2 2 2 2 2 2 2 2 2 2 2 2 2 2 2 2 2 2 2 2 2 2 2 2
left_child=10 2 6 5 -4 -3 -2 9 -9 -8 -1 -12 13 15 -15 16 17 19 -18 20 27 -22 -23 -19 25 26 -20 29 -29 -13
right_child=1 3 4 -5 -6 -7 7 8 -10 -11 11 12 -14 14 -16 -17 18 23 24 -21 21 22 -24 -25 -26 -27 -28 28 -30 -31
leaf_value=0.00026999350656940622 0.099988394603775968 -0.12347363165674906 0.12167486291236371 0.08001724263239518 0.35220544839276119 0.024523240238202276 0.13580525175355815 -0.25887825860040248 0.0017987563820872723 -0.012106635459688179 -0.063336609388193951 -0.049854582793085439 -0.17025254968458089 0.37735119109399257 0.094199327411563186 0.0044049306252303957 -0.17937715641172056 0.42403240322136887 -0.12741540547847766 -0.17295077246037646 0.03538739439558948 0.028682881619517271 -0.15970247825232839 0.13976220183975144 -0.085579060251665798 0.14196698698416724 0.018863205214986294 -0.15162712852259988 -0.023758958565610375 0.044529554629013181
leaf_weight=44434.109504438937 22.371907636523247 16.550717845559124 7.629707604646681 11.447287902235983 4.318890318274498 10.372830510139464 10.882912665605543 4.0179741978645307 7.2892228960990906 23.052544072270393 95.552232474088669 24.50509312748909 8.1697613745927793 5.1950537711381903 10.007092699408529 940.45903253555298 17.624540418386459 6.3682555854320508 16.630192890763283 9.6348095834255201 159.2450166195631 18.100957676768303 18.729443565011024 4.2860006392002106 60.913311123847961 12.698080733418463 19.927209794521332 30.139374360442162 323.96363605558872 59.849554747343063
leaf_count=187508 103 78 36 58 22 50 51 21 38 116 450 121 34 21 41 4209 82 31 79 41 751 86 85 19 256 54 93 150 1594 293
internal_value=0 0.0337901 0.0610612 -0.0227574 0.205001 -0.0664549 0.0356246 0.0037976 -0.0908319 0.0353279 -5.92581e-05 -0.00800172 -0.00497421 -0.00419742 0.190961 -0.00591924 -0.0183257 -0.00920443 -0.0650635 -0.0144786 -0.0120723 0.0161332 -0.0671171 0.309676 -0.0467759 0.00121117 -0.0476799 -0.0246856 -0.0346424 0.0171109
internal_weight=0 117.934 79.5632 38.3708 11.9486 26.9235 67.6146 45.2427 11.3072 33.9355 46276.1 1842 1746.45 1738.28 15.2021 1723.07 782.615 654.822 127.793 644.168 634.533 196.075 36.8304 10.6543 110.169 49.2555 36.5574 438.458 354.103 84.3546
internal_count=196571 573 387 186 58 128 329 226 59 167 195998 8490 8040 8006 62 7944 3735 3171 564 3121 3080 922 171 50 482 226 172 2158 1744 414
is_linear=0
shrinkage=0.3


Tree=17
num_leaves=31
num_cat=0
split_feature=0 15 7 1 2 0 10 5 1 4 12 6 9 4 12 16 0 8 5 1 0 0 8 0 11 0 12 10 0 10
split_gain=1.1798 4.60364 2.86872 7.69303 4.30294 3.5057 3.02267 2.78125 4.81733 4.7037 3.70924 4.19215 2.50198 3.26575 2.01284 1.99569 5.20932 4.10909 2.30012 3.09851 2.30546 1.91463 1.8351 4.39545 3.60493 1.81367 1.79717 2.05459 1.87592 4.31698
threshold=28.500000000000004 1.0000000180025095e-35 1.0000000180025095e-35 1.0000000180025095e-35 1.0000000180025095e-35 18.500000000000004 1.0000000180025095e-35 1.0000000180025095e-35 1.0000000180025095e-35 1.0000000180025095e-35 1.5000000000000002 1.0000000180025095e-35 1.0000000180025095e-35 1.0000000180025095e-35 1.5000000000000002 1.0000000180025095e-35 34.500000000000007 1.0000000180025095e-35 1.0000000180025095e-35 1.0000000180025095e-35 33.500000000000007 95.500000000000014 1.0000000180025095e-35 23.500000000000004 1.0000000180025095e-35 32.500000000000007 2.5000000000000004 1.0000000180025095e-35 35.500000000000007 1.0000000180025095e-35
decision_type=2 2 2 2 2 2 2 2 2 2 2 2 2 2 2 2 2 2 2 2 2 2 2 2 2 2 2 2 2 2
left_child=1 7 -3 6 -5 14 12 -1 -9 10 11 -10 22 -14 -6 21 17 18 -17 -20 -21 -2 -4 24 -24 -19 28 -28 29 -18
right_child=15 2 3 4 5 -7 -8 8 9 -11 -12 -13 13 -15 -16 16 26 25 19 20 -22 -23 23 -25 -26 -27 27 -29 -30 -31
leaf_value=-0.0015364645922801453 -0.0034159727268789431 0.016594180511967659 -0.064877201992081648 0.098251951649000593 0.2602192477413891 -0.0022824584584167891 -0.27202565748001561 -0.051122714832632803 0.11068954865361849 -0.13951347626176375 -0.065299821801957689 0.36734449923264084 -0.031619911093485643 0.22836320748221134 0.024514271104490511 -0.014804604857629394 0.025317355213932257 0.026928878917901269 0.14949154059822725 -0.024000738281805885 0.12496138653942594 -0.19526261165059397 -0.4738194743254171 -0.034240829910041196 -0.1131755008464647 -0.0081956056869641695 0.037203956957926596 -0.081024282195463052 0.002490647235094855 -0.13589914791454574
leaf_weight=8766.5890431404114 15006.090542584658 2605.7014933526516 57.876894250512123 48.587247431278229 7.3152317553758603 358.14772787690163 6.0316997170448294 32.276313617825508 54.898231819272041 7.4835830181837073 9.3594201505184156 6.3948880136013022 66.254045024514198 4.6539094597101203 5.8830906301736832 2977.5535482019186 515.32727482914925 365.28970992565155 17.315261408686638 47.642747640609741 11.6342516541481 4.6833256334066382 5.5230631232261675 10.61029130220413 4.5490924268960953 207.43977922201157 214.46690278500319 14.098601579666136 14930.965519800782 15.395280063152311
leaf_count=37275 63567 10728 241 249 32 1651 25 138 227 38 43 27 278 23 28 12667 2205 1617 75 196 48 22 23 45 20 914 1095 67 62943 64
internal_value=0 0.00256853 0.0123606 -0.00681019 0.0142978 0.00331315 -0.0638134 -0.000940526 0.0463762 0.0866508 0.110606 0.137467 -0.0554111 -0.0145564 0.155155 -0.000880968 0.00113542 -0.0091114 -0.0134842 0.0378479 0.00523594 -0.00347583 -0.0922866 -0.168988 -0.310935 0.014207 0.00350402 0.0299113 0.00311365 0.0206408
internal_weight=0 12058.1 3181.13 575.432 419.933 371.346 155.499 8877 110.412 78.1361 70.6525 61.2931 149.467 70.908 13.1983 34327.9 19317.1 3626.88 3054.15 76.5923 59.277 15010.8 78.5593 20.6824 10.0722 572.729 15690.3 228.566 15461.7 530.723
internal_count=196571 51091 13343 2615 1960 1711 655 37748 473 335 297 254 630 301 60 145480 81891 15517 12986 319 244 63589 329 88 43 2531 66374 1162 65212 2269
is_linear=0
shrinkage=0.3


Tree=18
num_leaves=31
num_cat=0
split_feature=0 15 11 0 13 12 6 0 0 0 17 0 2 0 11 13 6 1 0 11 1 10 15 0 0 11 0 0 0 8
split_gain=0.991695 2.10368 2.62967 1.3056 0.888715 1.57214 7.98444 1.4275 2.05856 1.40472 1.28669 3.81577 2.24709 1.565 1.54412 1.19149 1.78867 2.0433 1.14214 0.87769 0.85561 1.68523 6.14957 7.88274 4.7763 3.61725 2.66263 5.14834 2.84408 2.48556
threshold=87.500000000000014 1.0000000180025095e-35 1.0000000180025095e-35 89.500000000000014 3.5000000000000004 1.0000000180025095e-35 1.0000000180025095e-35 90.500000000000014 94.500000000000014 92.500000000000014 1.0000000180025095e-35 88.500000000000014 1.0000000180025095e-35 89.500000000000014 1.0000000180025095e-35 1.5000000000000002 1.0000000180025095e-35 1.0000000180025095e-35 93.500000000000014 1.0000000180025095e-35 1.0000000180025095e-35 1.0000000180025095e-35 1.0000000180025095e-35 69.500000000000014 83.500000000000014 1.5000000000000002 20.500000000000004 32.500000000000007 29.500000000000004 1.0000000180025095e-35
decision_type=2 2 2 2 2 2 2 2 2 2 2 2 2 2 2 2 2 2 2 2 2 2 2 2 2 2 2 2 2 2
left_child=20 4 3 -3 5 10 -7 -6 9 -9 11 12 19 14 -13 16 17 -12 -11 -2 21 -1 24 29 25 26 -23 28 -28 -24
right_child=1 2 -4 -5 7 6 -8 8 -10 18 15 13 -14 -15 -16 -17 -18 -19 -20 -21 -22 22 23 -25 -26 -27 27 -29 -30 -31
leaf_value=-0.0028461534913104061 0.031499803144703527 0.32421265219309325 -0.03020440555496751 0.11956119126156016 -0.060338141327124513 0.41019617100524036 -0.15769174163623145 0.018291011352172828 -0.10251144010429768 0.30395420073557905 -0.1085183347376302 -0.015637780691768931 0.3505570154048569 0.028653740234561804 -0.24233336129896149 -0.089380124110597425 0.1769986671511041 0.10493173084559905 0.075909838098382754 0.19320311742059662 0.00068498309022260284 0.21112263836858267 -0.10804428368127032 0.25419187805436472 -0.2512644890294552 -0.14186279487058048 0.016103802158004627 0.082173568840351111 -0.13832055371520463 0.01452109159389961
leaf_weight=11604.685414671898 7.0963877290487307 4.8259764462709445 6.7809033244848242 6.7014444172382355 33.070990175008774 4.8113413006067258 4.1503661870956421 12.527720317244535 7.5254053026437751 3.6178804486989966 10.716522336006168 7.8547414839267713 4.3733752071857444 43.904266953468323 4.1239917725324631 16.298240393400192 4.9212275743484488 6.4750592708587655 4.3571001887321472 5.2602978944778442 34264.055535338819 10.033939719200133 57.791000813245773 7.0789351910352698 4.7574912309646598 8.278000205755232 38.687797695398331 144.41269142925739 14.855343073606489 20.060314670205116
leaf_count=49922 32 22 31 32 173 27 21 67 39 22 46 36 22 210 21 79 21 28 22 26 144406 42 238 29 20 35 163 594 62 83
internal_value=0 0.0211263 0.118037 0.205239 0.0113282 0.0263256 0.147195 -0.0181234 0.0316868 0.0809436 0.0165692 0.0400585 0.165747 0.00243026 -0.0936837 -0.0278354 0.0175261 -0.0281242 0.179363 0.100338 -7.64035e-05 -0.00226673 0.0197104 -0.0489023 0.0460752 0.0526162 0.0603564 0.0527144 -0.0267407 -0.0764623
internal_weight=0 199.393 18.3083 11.5274 181.085 119.986 8.96171 61.0991 28.0281 20.5027 111.024 72.6131 16.7301 55.883 11.9787 38.411 22.1128 17.1916 7.97498 12.3567 46174.7 11910.6 305.956 84.9303 221.025 216.268 207.99 197.956 53.5431 77.8513
internal_count=196571 977 85 54 892 569 48 323 150 111 521 347 80 267 57 174 95 74 44 58 195594 51188 1266 350 916 896 861 819 225 321
is_linear=0
shrinkage=0.3


Tree=19
num_leaves=31
num_cat=0
split_feature=0 12 0 14 16 1 8 10 15 2 13 0 11 15 10 1 13 10 4 12 7 6 13 6 12 1 9 2 11 17
split_gain=0.787366 2.96015 2.55472 3.32444 2.51174 2.11651 2.0924 4.12524 3.80321 4.69318 1.94338 3.35634 2.90419 1.97954 1.87828 1.79968 3.27538 2.01649 1.57795 1.34043 2.7671 2.31306 1.75046 2.52856 1.47687 1.46151 1.29874 3.32458 2.54652 1.27296
threshold=19.500000000000004 1.0000000180025095e-35 20.500000000000004 1.0000000180025095e-35 1.0000000180025095e-35 1.0000000180025095e-35 1.0000000180025095e-35 1.0000000180025095e-35 1.0000000180025095e-35 1.0000000180025095e-35 2.5000000000000004 18.500000000000004 1.0000000180025095e-35 1.0000000180025095e-35 1.0000000180025095e-35 1.0000000180025095e-35 1.5000000000000002 1.0000000180025095e-35 1.0000000180025095e-35 1.5000000000000002 1.0000000180025095e-35 1.0000000180025095e-35 3.5000000000000004 1.0000000180025095e-35 1.0000000180025095e-35 1.0000000180025095e-35 1.0000000180025095e-35 1.0000000180025095e-35 1.0000000180025095e-35 1.0000000180025095e-35
decision_type=2 2 2 2 2 2 2 2 2 2 2 2 2 2 2 2 2 2 2 2 2 2 2 2 2 2 2 2 2 2
left_child=1 10 3 4 14 -5 26 8 -8 -10 11 -1 15 -14 -2 16 -13 -17 -12 20 22 -21 23 24 -6 -25 27 28 -3 -28
right_child=2 6 -4 5 19 -7 7 -9 9 -11 18 12 13 -15 -16 17 -18 -19 -20 21 -22 -23 -24 25 -26 -27 29 -29 -30 -31
leaf_value=0.043696665488887725 0.035881781522712035 0.10531324844108386 -9.8356265686800622e-05 -0.14914970032112373 0.023087133068846331 -0.010023252080135943 0.04873320577346861 -0.28851747907703773 0.13030356515055275 -0.14293640405407981 -0.01612798420055743 0.14986859253618928 -0.26604337325541116 -0.031998058744117555 0.16935686005525205 -0.028857351691286434 -0.0062491994149682095 -0.22257384606507349 -0.088248303585997778 0.089759011250555437 -0.095092949668881779 -0.1263897530986049 -0.0078516798651245643 0.028864333300470078 -0.075656622936327536 0.21424566303495482 0.034399014965180823 0.047751494065929968 0.40482760995903061 -0.084467710453844894
leaf_weight=138.06678406894207 319.75058035552502 5.9792380630969983 43729.74750367552 17.201828643679619 268.52217955887318 22.998240396380424 57.926032066345215 4.5955864340066901 7.3447238057851818 24.627026602625847 1030.8171237707138 14.817546635866163 6.8921599388122541 6.1587646305561066 9.7787802517414075 64.281270325183868 65.822447776794434 5.2296666353940955 28.046584069728851 34.130460426211357 24.188769206404686 5.12483887374401 298.22388286888599 6.3449868559837332 14.36122092604637 9.6466100364923459 80.315333470702171 51.912880927324295 4.4607526063919067 9.0189641267061216
leaf_count=589 1340 27 185483 87 1144 106 257 20 34 111 4249 63 30 27 41 262 288 21 133 157 106 23 1207 26 59 39 351 228 24 39
internal_value=0 -0.00651053 0.000249528 0.0150154 0.0184493 -0.0695562 0.0237605 -0.0112816 0.00289069 -0.0801662 -0.0119895 0.00926996 -0.0198546 -0.155597 0.0398427 -0.00805607 0.0224373 -0.0434316 -0.0180383 0.00777667 0.00437967 0.0615405 0.00840935 0.024635 0.0180742 0.140692 0.0455899 0.0788167 0.233288 0.0223985
internal_weight=0 1606.31 44760 1030.27 990.072 40.2001 246.181 94.4934 89.8978 31.9718 1360.13 301.269 163.202 13.0509 329.529 150.151 80.64 69.5109 1058.86 660.543 621.288 39.2553 597.099 298.875 282.883 15.9916 151.687 62.3529 10.44 89.3343
internal_count=196571 6753 189818 4335 4142 193 1091 422 402 145 5662 1280 691 57 1381 634 351 283 4382 2761 2581 180 2475 1268 1203 65 669 279 51 390
is_linear=0
shrinkage=0.3


Tree=20
num_leaves=31
num_cat=0
split_feature=4 10 0 0 0 0 17 2 6 7 13 0 1 0 9 7 0 11 2 0 13 12 1 15 0 9 9 12 8 0
split_gain=0.836887 3.56922 6.21308 5.30217 4.03513 4.10649 5.12651 4.37861 5.24352 4.17339 4.00299 4.73485 3.7761 6.01604 6.638 3.60194 6.03887 3.16905 4.39552 3.10718 4.52847 3.11632 3.07239 3.27102 2.76964 2.49052 2.40216 2.32552 3.46126 2.76682
threshold=1.0000000180025095e-35 1.0000000180025095e-35 57.500000000000007 64.500000000000014 53.500000000000007 49.500000000000007 1.0000000180025095e-35 1.0000000180025095e-35 1.0000000180025095e-35 1.0000000180025095e-35 1.5000000000000002 44.500000000000007 1.0000000180025095e-35 43.500000000000007 1.0000000180025095e-35 1.0000000180025095e-35 50.500000000000007 1.5000000000000002 1.0000000180025095e-35 51.500000000000007 1.5000000000000002 1.0000000180025095e-35 1.0000000180025095e-35 1.0000000180025095e-35 31.500000000000004 1.0000000180025095e-35 1.0000000180025095e-35 2.5000000000000004 1.0000000180025095e-35 41.500000000000007
decision_type=2 2 2 2 2 2 2 2 2 2 2 2 2 2 2 2 2 2 2 2 2 2 2 2 2 2 2 2 2 2
left_child=-1 4 27 -4 5 7 15 8 9 22 11 25 13 14 -10 17 -17 -7 -19 20 -8 -21 23 -2 26 -9 -11 28 -3 -30
right_child=1 2 3 -5 -6 6 19 10 12 24 -12 -13 -14 -15 -16 16 -18 18 -20 21 -22 -23 -24 -25 -26 -27 -28 -29 29 -31
leaf_value=-0.00040587894957117183 0.013610870574299395 -0.033361873551632948 -0.4353100659866399 -0.037012835689517631 0.031605664240869809 -0.011055354119076355 0.12542487300751029 -0.0010327393534185761 0.13734918431074095 0.062170037015683681 0.00052124587433614801 -0.22336730316979736 0.11097153737091447 -0.27229262098111578 -0.20117247234378152 -0.16009796320564451 0.24658394480127535 -0.2447409356770863 -0.027906840197665046 -0.14452212666966122 -0.1655496917326261 -0.41690358376701964 -0.0048945577467971119 0.095353877356002842 0.036571265531387405 -0.1854218264706001 0.23763126363349846 -0.16228844771860934 0.24605127398207643 -0.013225861714942614
leaf_weight=41833.236252710223 149.94635887444019 88.236545875668526 6.4805557280778867 5.6136850714683533 469.15199479460716 205.65586018562317 7.8869441002607354 41.331213086843491 21.070643603801731 13.217349529266357 2614.2826415598392 14.924089968204497 91.960407301783562 6.2333225309848777 6.9271101951599112 4.7137724161148062 10.850394077599047 13.268442109227179 22.996996149420738 13.266981959342958 12.353855237364769 5.2867430597543708 546.47586567699909 62.389494448900223 47.218577928841114 7.8438269793987265 14.982473805546761 10.006138056516646 7.8149186670780164 7.0421066582202911
leaf_count=174818 624 417 31 28 2250 963 35 176 106 83 12542 63 517 29 33 25 67 62 113 59 57 25 2648 262 274 35 96 53 43 37
internal_value=0 0.00388708 -0.0460622 -0.250436 0.00530693 0.00217151 -0.0317916 0.00493687 0.0223155 0.0136942 -0.0012948 -0.0753623 0.0793096 -0.00574904 0.0535933 -0.0164741 0.123416 -0.025474 -0.10724 -0.133457 -0.0521698 -0.222135 0.00700467 0.037629 0.0809997 -0.0304443 0.155392 -0.0242077 -0.0108058 0.123156
internal_weight=0 4529.43 125.194 12.0942 4404.24 3935.08 296.28 3638.8 960.422 834.23 2678.38 64.0991 126.191 34.2311 27.9978 257.485 15.5642 241.921 36.2654 38.7945 20.2408 18.5537 758.812 212.336 75.4184 49.175 28.1998 113.1 103.094 14.857
internal_count=196571 21753 609 59 21144 18894 1406 17488 4672 3987 12816 274 685 168 139 1230 92 1138 175 176 92 84 3534 886 453 211 179 550 497 80
is_linear=0
shrinkage=0.3


Tree=21
num_leaves=31
num_cat=0
split_feature=11 0 0 0 16 0 2 7 0 9 10 13 0 11 0 12 12 1 0 0 0 0 0 17 0 12 0 0 1 9
split_gain=0.749034 3.56388 4.27477 1.53605 1.18195 2.49415 0.728155 4.8598 4.17445 4.54095 3.94003 2.60903 2.5368 2.25126 3.56908 3.39267 2.19692 5.78121 3.74304 7.79321 3.26801 2.17057 4.57885 4.14657 2.75489 2.35534 4.12921 3.32758 4.12752 3.29682
threshold=2.5000000000000004 40.500000000000007 45.500000000000007 36.500000000000007 1.0000000180025095e-35 50.500000000000007 1.0000000180025095e-35 1.0000000180025095e-35 56.500000000000007 1.0000000180025095e-35 1.0000000180025095e-35 2.5000000000000004 75.500000000000014 1.0000000180025095e-35 23.500000000000004 1.5000000000000002 1.5000000000000002 1.0000000180025095e-35 37.500000000000007 31.500000000000004 21.500000000000004 36.500000000000007 35.500000000000007 1.0000000180025095e-35 25.500000000000004 1.5000000000000002 23.500000000000004 25.500000000000004 1.0000000180025095e-35 1.0000000180025095e-35
decision_type=2 2 2 2 2 2 2 2 2 2 2 2 2 2 2 2 2 2 2 2 2 2 2 2 2 2 2 2 2 2
left_child=6 3 -3 -2 -4 -6 7 16 10 -10 13 -12 -8 21 15 -15 -1 -18 19 20 -19 22 23 25 -25 26 -9 29 -29 -27
right_child=1 2 4 -5 5 -7 12 8 9 -11 11 -13 -14 14 -16 -17 17 18 -20 -21 -22 -23 -24 24 -26 27 -28 28 -30 -31
leaf_value=-0.0035341221047592432 -0.093144664992414014 0.26178245862271726 0.045919560933927323 -0.33517249832257595 -0.2607379681971056 0.011727502705212871 0.00031595204064744324 -0.061145007723099269 -0.35666677071466046 -0.0021829592923120989 0.0014262460828360891 -0.15047660320356238 0.0151465855444566 0.25327366210235047 0.048572778992661686 0.041193282171781712 0.13432001370998259 -0.19688868887819994 0.032627786123619967 -0.21187500769245488 0.079984381533175497 -0.029235149293277689 0.26778570877539254 0.018536476068966034 0.28684253756414474 -0.1440209052737691 0.13489027583538674 -0.20825711045699763 -0.015170646744150586 0.10037269744252526
leaf_weight=12110.675287604332 5.3577076122164708 5.0587002635002163 7.6348060220479974 4.2180414497852325 5.2626073956489563 7.1074047386646271 32458.865436606109 14.870957419276236 5.1724233478307697 8.7613335251808167 29.138511151075363 15.637522369623182 1072.3215301781893 16.111499674618248 181.81340859085321 11.731957137584685 37.490717053413391 4.5892792642116573 117.18657496571541 19.656863152980804 23.398512557148933 58.406154617667198 7.4829825758934012 5.7411656081676474 8.6084637343883497 6.1328484416007987 27.651899144053459 13.930250003933905 34.993923276662827 26.148574769496918
leaf_count=52305 28 25 34 20 24 36 136101 69 25 43 131 72 4706 91 1026 70 156 21 504 86 103 268 36 27 42 29 124 62 177 130
internal_value=0 -0.0440759 0.0154031 -0.199756 -0.0468998 -0.104188 5.57248e-05 -0.00187062 0.0279923 -0.133773 0.0329094 -0.0516241 0.000790233 0.0420604 0.0638905 0.163913 -0.00301618 0.0279872 0.00380194 -0.067098 0.0345843 0.0196213 0.0392248 0.0268382 0.179496 0.00913353 0.0663334 -0.0208189 -0.0701484 0.0539426
internal_weight=0 34.6393 25.0635 9.57575 20.0048 12.37 46316.5 12785.3 472.334 13.9338 458.4 44.776 33531.2 413.624 209.657 27.8435 12313 202.322 164.831 47.6447 27.9878 203.967 145.561 138.078 14.3496 123.728 42.5229 81.2056 48.9242 32.2814
internal_count=196571 167 119 48 94 60 196404 55597 2422 68 2354 203 140807 2151 1187 161 53175 870 714 210 124 964 696 660 69 591 193 398 239 159
is_linear=0
shrinkage=0.3


Tree=22
num_leaves=31
num_cat=0
split_feature=13 8 0 0 0 11 0 4 0 11 0 0 4 11 0 10 0 0 9 11 0 0 0 9 11 0 0 0 0 0
split_gain=0.678875 2.71019 2.87411 2.0962 4.8571 3.60371 3.29049 2.7822 2.25786 4.97597 2.20382 1.56818 1.49012 1.49365 2.34655 1.53353 3.41063 1.08262 2.19557 1.06336 1.01149 3.65029 3.25749 2.25087 1.51824 1.77872 1.4015 1.7296 1.41975 1.12373
threshold=1.0000000180025095e-35 1.0000000180025095e-35 21.500000000000004 45.500000000000007 37.500000000000007 1.0000000180025095e-35 46.500000000000007 1.0000000180025095e-35 29.500000000000004 1.0000000180025095e-35 42.500000000000007 40.500000000000007 1.0000000180025095e-35 1.5000000000000002 63.500000000000007 1.0000000180025095e-35 67.500000000000014 54.500000000000007 1.0000000180025095e-35 1.0000000180025095e-35 63.500000000000007 56.500000000000007 55.500000000000007 1.0000000180025095e-35 1.0000000180025095e-35 59.500000000000007 77.500000000000014 74.500000000000014 71.500000000000014 78.500000000000014
decision_type=2 2 2 2 2 2 2 2 2 2 2 2 2 2 2 2 2 2 2 2 2 2 2 2 2 2 2 2 2 2
left_child=1 2 -1 4 8 10 -5 -7 9 -4 11 -6 13 15 -15 20 -17 18 -3 -10 21 22 23 -8 -23 -26 27 28 -22 -28
right_child=-2 17 3 6 5 7 12 -9 19 -11 -12 -13 -14 14 -16 16 -18 -19 -20 -21 26 24 -24 -25 25 -27 29 -29 -30 -31
leaf_value=0.13926907181809611 0.00012885059889473438 -0.044722434539741479 -0.17460724196406549 0.19791041846205568 -0.065406488699116652 -0.37965032981803654 0.019114951913009798 -0.12957501978238062 0.076178884106350431 0.14582202605772154 0.036589668823171037 -0.27647528772415791 0.11395748090185692 0.019192921284314417 -0.21011186874606652 0.26412438715369152 -0.080186693455340186 0.20484977662306156 0.17324759354451352 -0.04153284486585701 0.030109943412102352 -0.14751903294083113 0.26377576833948907 -0.16684987151307401 -0.16321788145993343 0.062863134144701696 -0.16354742638593942 0.12468780614352205 -0.073956271187689854 -0.02384384012031732
leaf_weight=10.002542629837988 45961.29139739275 9.4655155241489464 14.997872173786165 6.7151703536510459 8.0821872800588626 7.8242608457803735 36.638945236802101 8.2003771066665649 24.678090900182724 6.1503624618053427 10.328297629952429 5.210396781563758 7.7949389219284049 7.2902734428644207 8.9441216588020307 5.4232219606637937 4.9549287110567093 5.4485210329294196 7.4188396185636512 9.591339096426962 46.253585040569305 27.970922127366066 4.2756221890449515 6.9724988788366309 5.0924170613288871 8.1357280761003476 6.1481550633907309 12.797081008553503 15.839005604386328 32.972247689962387
leaf_count=44 194948 41 68 30 37 34 171 35 115 27 47 24 33 30 36 22 20 23 35 42 196 128 20 29 23 35 25 52 66 135
internal_value=0 -0.0127452 -0.0192235 -0.0238961 -0.0616916 -0.141865 -0.00918401 -0.251678 -0.00433589 -0.0814195 -0.0673669 -0.148141 -0.0150394 -0.0194168 -0.107139 -0.0127456 0.099737 0.0885736 0.0510517 0.0432337 -0.0184934 -0.0424441 0.0138826 -0.0106167 -0.107915 -0.0241709 0.000221376 0.0242615 0.00356402 -0.0457996
internal_weight=0 371.617 349.285 339.282 95.0632 39.6455 244.219 16.0246 55.4177 21.1482 23.6209 13.2926 237.504 229.709 16.2344 213.474 10.3782 22.3329 16.8844 34.2694 203.096 89.0861 47.8871 43.6114 41.1991 13.2281 114.01 74.8897 62.0926 39.1204
internal_count=196571 1623 1524 1480 429 177 1051 69 252 95 108 61 1021 988 66 922 42 99 76 157 880 406 220 200 186 58 474 314 262 160
is_linear=0
shrinkage=0.3


Tree=23
num_leaves=31
num_cat=0
split_feature=0 0 1 11 13 0 13 0 0 9 10 13 16 11 13 10 1 17 8 10 6 7 12 13 7 0 13 15 13 0
split_gain=0.592003 0.711248 1.31623 1.00646 0.968951 0.965776 0.735103 0.581102 3.29637 3.04147 3.39935 2.69921 3.36343 2.47006 2.08867 1.78523 3.08329 1.785 2.20413 1.61754 2.07013 1.85619 1.82588 2.59699 2.81949 1.87075 2.80911 1.6315 2.0148 1.57322
threshold=89.500000000000014 93.500000000000014 1.0000000180025095e-35 1.0000000180025095e-35 2.5000000000000004 96.500000000000014 2.5000000000000004 23.500000000000004 22.500000000000004 1.0000000180025095e-35 1.0000000180025095e-35 4.5000000000000009 1.0000000180025095e-35 1.0000000180025095e-35 4.5000000000000009 1.0000000180025095e-35 1.0000000180025095e-35 1.0000000180025095e-35 1.0000000180025095e-35 1.0000000180025095e-35 1.0000000180025095e-35 1.0000000180025095e-35 1.5000000000000002 3.5000000000000004 1.0000000180025095e-35 20.500000000000004 2.5000000000000004 1.0000000180025095e-35 1.5000000000000002 18.500000000000004
decision_type=2 2 2 2 2 2 2 2 2 2 2 2 2 2 2 2 2 2 2 2 2 2 2 2 2 2 2 2 2 2
left_child=7 2 -2 5 -5 6 -3 8 9 10 11 12 -1 17 15 -10 -17 18 29 20 21 -11 25 -24 -25 26 -22 28 -23 -12
right_child=1 3 -4 4 -6 -7 -8 -9 14 19 13 -13 -14 -15 -16 16 -18 -19 -20 -21 22 27 23 24 -26 -27 -28 -29 -30 -31
leaf_value=0.0076308308098581839 0.094987780745958608 -0.18429578368364161 0.010967314107748965 0.17143517664609559 -0.0090818853715516519 0.029724416459383077 -0.046834205410853834 -0.00045905511985318612 0.01290491656713179 0.057966019105294662 -0.037347658867303839 -0.072126297558746763 -0.01004956911130349 0.1641260551797657 0.11574838418565764 -0.10496416465607483 0.11951168169532835 0.16679033125728385 -0.15616514250035804 -0.053206151302634931 0.11612022250711583 -0.18431823038116182 -0.14302792857501753 -0.099077210702863336 0.18052391562227274 0.076647906147085026 -0.1307470944339898 0.045218155392253372 0.0026142790326320968 0.048310257641059402
leaf_weight=1478.8472461178899 24.84833125770092 4.9029189199209275 51.682244621217251 4.5259880125522596 6.5476235002279282 10.404006801545618 12.247591644525526 39983.416951298714 1190.0673070997 166.0486164689064 24.624653369188309 52.905173718929291 2805.3516201600432 13.580924123525618 18.7791927754879 6.7059821188449851 30.801927641034126 7.9972420483827582 6.0419570803642264 24.962976157665253 6.1621543616056469 5.4025807827711096 19.5967827886343 7.0505610257387143 6.0151176303625107 23.61521615087986 12.69458547234535 103.0186438113451 131.41731575131416 89.197673544287682
leaf_count=6249 121 21 266 22 36 50 57 169670 5034 696 100 239 11727 62 83 28 128 33 25 108 26 24 90 30 29 97 53 488 618 361
internal_value=0 0.0214974 0.0382475 -0.0116882 0.0646987 -0.0423865 -0.0861312 -3.91086e-05 0.00265568 -0.000794752 -0.00328562 -0.00477821 -0.00394654 0.0424822 0.0164549 0.014936 0.079378 0.0295617 0.020406 0.0212523 0.0251164 0.0335839 -0.0206262 -0.0739554 0.0296443 0.0203859 -0.0500738 0.0167032 -0.00476709 0.0297788
internal_weight=0 115.159 76.5306 38.6281 11.0736 27.5545 17.1505 46214.3 6230.89 4984.53 4478.55 4337.1 4284.2 141.442 1246.35 1227.58 37.5079 127.862 119.864 505.985 481.022 405.887 75.1344 32.6625 13.0657 42.472 18.8567 239.839 136.82 113.822
internal_count=196571 573 387 186 58 128 78 195998 26328 21055 18796 18215 17976 581 5273 5190 156 519 486 2259 2151 1826 325 149 59 176 79 1130 642 461
is_linear=0
shrinkage=0.3


Tree=24
num_leaves=31
num_cat=0
split_feature=1 9 0 6 0 0 0 0 12 6 10 5 0 0 0 0 8 0 0 5 0 0 0 4 7 15 14 7 2 16
split_gain=0.465422 0.981769 3.48348 4.53432 3.83318 5.42483 3.95349 3.16063 2.96026 2.86424 2.69409 2.96717 4.02958 4.85995 2.84596 8.76671 4.62594 6.36755 5.14985 3.83359 3.42946 3.13866 8.58042 9.11271 7.2835 4.3882 2.97168 4.90688 2.70812 3.53711
threshold=1.0000000180025095e-35 1.0000000180025095e-35 53.500000000000007 1.0000000180025095e-35 32.500000000000007 25.500000000000004 49.500000000000007 23.500000000000004 1.5000000000000002 1.0000000180025095e-35 1.0000000180025095e-35 1.0000000180025095e-35 63.500000000000007 46.500000000000007 41.500000000000007 39.500000000000007 1.0000000180025095e-35 44.500000000000007 69.500000000000014 1.0000000180025095e-35 72.500000000000014 36.500000000000007 37.500000000000007 1.0000000180025095e-35 1.0000000180025095e-35 1.0000000180025095e-35 1.0000000180025095e-35 1.0000000180025095e-35 1.0000000180025095e-35 1.0000000180025095e-35
decision_type=2 2 2 2 2 2 2 2 2 2 2 2 2 2 2 2 2 2 2 2 2 2 2 2 2 2 2 2 2 2
left_child=1 9 3 -3 5 7 -6 -5 -7 10 14 -12 13 -13 15 21 17 -16 -18 28 -20 26 23 24 -23 -25 -1 -28 29 -17
right_child=-2 2 -4 4 6 8 -8 -9 -10 -11 11 12 -14 -15 16 19 18 -19 20 -21 -22 22 -24 25 -26 -27 27 -29 -30 -31
leaf_value=0.0016292554187687038 0.00057335075423383059 0.0058239189236448646 0.024397498461647227 -0.061477815279938564 0.0048349601164776592 -0.09337381859087264 -0.097090320478979739 0.14501122608331785 -0.24653285320822341 0.01059098441413168 0.018485839088101207 0.23901456504038854 0.32652556120397708 -0.14767138191244458 -0.044492805376959717 0.15469000987233197 -0.029596570238319336 -0.0026085555612468444 -0.27758689332649572 0.18648562664611074 -0.073291076795009347 -0.029299958660945889 0.0016877847354315524 -0.15792758865032019 -0.38515781402763566 -0.40372591093735349 -0.021385397728126067 -0.27182879917335617 0.022254600909216011 0.029030616459485618
leaf_weight=3570.555312409997 34369.015991911292 972.69907895475626 564.21685983985662 21.429522514343265 167.30611918866634 26.455534011125565 43.066092893481255 9.6873819231986982 19.901543036103249 1266.439837642014 164.91437616944313 5.6180495768785494 6.9087282568216315 6.1028477549552917 366.50413121283054 37.425320237874985 537.3610377907753 3005.8525168299675 12.418252900242807 17.18354457616806 18.282669514417648 117.41525796055794 315.93302325904369 27.228140473365784 5.4151520729064933 8.6020508855581266 380.79651156067848 7.1735500842332831 205.23701159656048 43.702191069722176
leaf_count=15345 145083 4080 2365 89 701 108 179 40 86 5297 686 23 28 25 1636 175 2242 13062 51 77 76 520 1376 113 22 36 1950 29 870 201
internal_value=0 -0.00160001 0.0048054 -0.00396397 -0.0370395 -0.0940871 -0.0160306 0.0028068 -0.159126 -0.00275418 -0.00466159 0.031306 0.144794 0.0376746 -0.00542241 -0.000466955 -0.0113792 -0.00716049 -0.0364241 0.0488554 -0.155927 -0.0038442 -0.0268981 -0.0838198 -0.0449885 -0.216938 -0.00108023 -0.0260161 0.0405968 0.0869992
internal_weight=0 11951.8 1824.76 1260.55 287.846 77.474 210.372 31.1169 46.3571 10127.1 8860.63 183.544 18.6296 11.7209 8677.09 4736.67 3940.42 3372.36 568.062 303.548 30.7009 4433.12 474.594 158.661 122.83 35.8302 3958.53 387.97 286.365 81.1275
internal_count=196571 51488 7648 5283 1203 323 880 129 194 43840 38543 762 76 48 37781 20714 17067 14698 2369 1323 127 19391 2067 691 542 149 17324 1979 1246 376
is_linear=0
shrinkage=0.3


Tree=25
num_leaves=31
num_cat=0
split_feature=4 10 0 0 0 12 0 0 0 12 17 9 13 2 5 6 0 0 1 1 0 0 15 0 6 15 9 8 0 13
split_gain=0.580592 1.83499 2.72508 2.17915 4.28811 2.41388 1.83397 1.81014 1.99355 3.45578 2.45733 2.74306 1.96365 1.93989 3.56588 3.37739 2.28706 2.22515 2.16122 2.15591 2.71789 3.6452 4.85712 3.49426 2.89604 4.77351 5.08491 3.82212 2.85751 3.01541
threshold=1.0000000180025095e-35 1.0000000180025095e-35 57.500000000000007 35.500000000000007 32.500000000000007 1.0000000180025095e-35 64.500000000000014 53.500000000000007 49.500000000000007 2.5000000000000004 1.0000000180025095e-35 1.0000000180025095e-35 4.5000000000000009 1.0000000180025095e-35 1.0000000180025095e-35 1.0000000180025095e-35 26.500000000000004 27.500000000000004 1.0000000180025095e-35 1.0000000180025095e-35 41.500000000000007 39.500000000000007 1.0000000180025095e-35 40.500000000000007 1.0000000180025095e-35 1.0000000180025095e-35 1.0000000180025095e-35 1.0000000180025095e-35 42.500000000000007 2.5000000000000004
decision_type=2 2 2 2 2 2 2 2 2 2 2 2 2 2 2 2 2 2 2 2 2 2 2 2 2 2 2 2 2 2
left_child=-1 7 3 4 5 -3 -4 8 13 10 12 -12 -10 14 15 16 -2 -18 -16 -15 21 24 -23 -24 -21 -26 -27 -28 -22 -30
right_child=1 2 6 -5 -6 -7 -8 -9 9 -11 11 -13 -14 19 18 -17 17 -19 -20 20 28 22 23 -25 25 26 27 -29 29 -31
leaf_value=-0.00034124746069726569 0.050457610292147563 -0.07714624109264788 -0.26214965992431155 0.016073170002858874 -0.21981787823514642 0.089930514668543973 -0.034521471912101379 0.022000487597849987 -0.010673254852634663 0.21417127726252011 -0.066791235772932833 -0.31430005497106711 -0.17988179769296225 -0.01340003050483381 -0.27981672595112178 0.067690980901194658 -0.082479640734516954 0.0087051826530903983 -0.053706257683528574 0.0090876686358087322 0.08501210595064923 -0.011413319687981838 -0.21711597247401257 -0.043590030785102436 -0.069662070029455334 0.10915356902097867 -0.35074205840327555 0.047157779461454226 0.085747817438464782 0.0062138716034036241
leaf_weight=41794.180070288479 118.87171429395676 19.976873114705086 7.2945828884839994 68.799497179687023 12.301587924361227 12.749644838273523 5.6551283299922943 463.3670052960515 246.85337350517511 5.5018753036856642 35.358243808150291 4.5483034402132025 6.3308049589395514 771.0976983755827 4.7594966441392925 111.48216468840837 24.9851288869977 668.95215731859207 18.961546786129475 1159.4807040840387 62.798277102410793 105.61152634769678 21.35145628452301 20.444460660219193 104.47222000360489 31.092602729797363 4.3154613524675351 4.3757413923740387 48.996505841612816 344.95321504771709
leaf_count=174818 603 94 31 330 59 67 28 2250 1166 39 154 20 27 3289 20 647 122 3191 89 5725 314 532 103 100 570 168 22 25 237 1731
internal_value=0 0.00323948 -0.0323428 -0.0175075 -0.0688163 -0.0120562 -0.162745 0.00426729 0.00217411 -0.0213881 -0.02581 -0.0950008 -0.0149043 0.00411387 0.015777 0.0187245 0.0120084 0.00542208 -0.0990741 -1.33428e-05 0.00539705 -0.000955429 -0.0456713 -0.132236 0.00410039 -0.0359856 0.0524486 -0.150412 0.0255796 0.0161057
internal_weight=0 4515.74 126.777 113.828 45.0281 32.7265 12.9497 4388.96 3925.59 298.593 293.091 39.9065 253.184 3627 948.012 924.291 812.809 693.937 23.721 2678.99 1907.89 1451.14 147.407 41.7959 1303.74 144.256 39.7838 8.6912 456.748 393.95
internal_count=196571 21753 609 550 220 161 59 21144 18894 1406 1367 174 1193 17488 4672 4563 3916 3313 109 12816 9527 7245 735 203 6510 785 215 47 2282 1968
is_linear=0
shrinkage=0.3


Tree=26
num_leaves=31
num_cat=0
split_feature=2 0 0 16 7 0 6 13 0 0 13 0 1 11 0 13 0 0 0 16 0 7 6 0 1 0 0 0 0 9
split_gain=0.538369 2.35429 4.6696 5.55758 2.78508 3.41254 2.25407 4.35913 4.07498 3.70776 5.3827 7.22726 4.79265 3.01137 2.96261 4.02854 2.47226 2.29165 3.60122 2.46385 2.9659 2.23375 2.17106 2.81553 2.57498 2.6336 2.25438 2.17843 3.36303 2.29262
threshold=1.0000000180025095e-35 64.500000000000014 51.500000000000007 1.0000000180025095e-35 1.0000000180025095e-35 50.500000000000007 1.0000000180025095e-35 2.5000000000000004 70.500000000000014 75.500000000000014 1.5000000000000002 71.500000000000014 1.0000000180025095e-35 1.0000000180025095e-35 90.500000000000014 1.5000000000000002 70.500000000000014 72.500000000000014 74.500000000000014 1.0000000180025095e-35 73.500000000000014 1.0000000180025095e-35 1.0000000180025095e-35 56.500000000000007 1.0000000180025095e-35 52.500000000000007 62.500000000000007 59.500000000000007 58.500000000000007 1.0000000180025095e-35
decision_type=2 2 2 2 2 2 2 2 2 2 2 2 2 2 2 2 2 2 2 2 2 2 2 2 2 2 2 2 2 2
left_child=1 2 4 -4 -1 -6 7 9 -8 10 13 12 -12 -3 15 -11 -14 -10 19 -19 -21 22 26 24 -24 -26 -5 28 -25 -29
right_child=-2 6 3 21 5 -7 8 -9 17 14 11 -13 16 -15 -16 -17 -18 18 -20 20 -22 -23 23 27 25 -27 -28 29 -30 -31
leaf_value=-0.0042657195741560242 0.00064601839305627659 -0.025598927806222509 -0.0044097345318031365 0.037245711186819526 0.023172472678600047 -0.23057668113864488 -0.066075813161410799 -0.024393916552524677 0.0515362222551781 0.010846215323079948 -0.014689714664769621 0.14538186915336407 0.071904322582113142 0.053541326439115119 0.11932751594826888 -0.064633583931189773 0.27116179888158426 -0.010166365675549406 -0.0018174676785954655 -0.056402269477128134 -0.25018739977603521 0.15673025623670778 0.038031015908314016 0.021100551978183352 0.051823595646906175 -0.088593392526496673 -0.01057078712678701 0.019340956642370392 0.16837109731800601 -0.10649336216713215
leaf_weight=8401.5498861521482 33530.401384986937 170.36751842498779 962.42472818493843 807.19129830598831 429.9883017539978 4.823420748114585 173.77720536291599 596.65686441957951 48.493808820843697 134.52218379080296 99.139233514666557 63.757654532790184 54.06046961247921 58.005593314766884 13.503127425909041 120.77674130350351 6.2522549331188193 18.923308715224266 193.96028713881969 14.742855176329613 13.726168558001518 11.694259561598299 31.395026281476021 41.386447131633759 14.67974206805229 66.381953671574593 99.699459239840508 78.819635152816772 21.055036142468452 15.612044245004652
leaf_count=36820 140917 712 4143 3447 2267 24 709 2470 201 551 407 258 219 243 63 497 26 77 832 61 57 60 131 169 60 270 408 321 86 65
internal_value=0 -0.00164312 -3.06455e-06 0.0125344 -0.00305408 0.0203576 -0.0117622 -0.00542942 -0.0297522 0.0102779 0.026883 0.0600128 0.0258776 -0.00549771 -0.0176185 -0.0248617 0.0925601 -0.00797441 -0.0199316 -0.0940664 -0.149835 0.0262622 0.0249651 0.00131416 -0.0349135 -0.0631648 0.031989 0.0272845 0.0707596 -0.00146277
internal_weight=0 12767.4 10986.7 2150.34 8836.36 434.812 1780.67 1317.04 463.624 720.385 451.583 223.21 159.452 228.373 268.802 255.299 60.3127 289.846 241.353 47.3923 28.469 1187.91 1176.22 269.33 112.457 81.0617 906.891 156.873 62.4415 94.4317
internal_count=196571 55654 48271 9160 39111 2291 7383 5446 1937 2976 1865 910 652 955 1111 1048 245 1228 1027 195 118 5017 4957 1102 461 330 3855 641 255 386
is_linear=0
shrinkage=0.3


Tree=27
num_leaves=31
num_cat=0
split_feature=13 0 8 0 0 0 11 7 4 0 6 0 4 11 0 0 0 11 0 9 0 0 0 6 0 0 0 0 5 0
split_gain=0.450347 1.44346 1.24403 1.44567 1.57927 3.77978 2.57783 2.38252 1.76356 1.45759 1.348 1.19519 1.14519 1.03679 0.910171 0.951775 0.876144 2.79277 0.82826 1.62332 1.3414 2.4409 2.66729 1.86854 0.788777 0.763084 0.537074 0.5357 0.911172 0.825937
