tree
version=v3
num_class=1
num_tree_per_iteration=1
label_index=0
max_feature_idx=14
objective=binary sigmoid:1
feature_names=idade cs_raca cs_sexo hiv diabetes other_dishx drug_yn alcohol_yn tobacco_yn n_of_morb n_sub_abuse educ_cat_12+_years educ_cat_5-9_years educ_cat_9-12_years educ_cat_under_5
feature_infos=[18:100] [0:1] [0:1] [0:1] [0:1] [0:1] [0:1] [0:1] [0:1] [0:3] [0:3] [0:1] [0:1] [0:1] [0:1]
tree_sizes=3510 3493 3547 3520 3535 3528 3526 3538 3505 3493 3526 3473 3452 3453 3472 3446 3441 3492 3404 3471 3416 3443

Tree=0
num_leaves=31
num_cat=0
split_feature=3 10 1 0 6 2 0 1 1 2 5 11 0 1 5 0 10 5 0 0 11 5 10 5 11 6 0 7 0 0
split_gain=3727.29 2543.52 766.823 508.705 477.171 448.019 284.143 198.418 158.137 133.434 110.905 100.879 94.6095 89.1039 88.4222 86.345 85.1439 77.2763 63.7617 55.343 53.8041 51.1191 50.4984 48.0206 45.0465 40.4892 38.5266 37.9367 37.6008 35.2117
threshold=1.0000000180025095e-35 1.0000000180025095e-35 1.0000000180025095e-35 70.500000000000014 1.0000000180025095e-35 1.0000000180025095e-35 62.500000000000007 1.0000000180025095e-35 1.0000000180025095e-35 1.0000000180025095e-35 1.0000000180025095e-35 1.0000000180025095e-35 82.500000000000014 1.0000000180025095e-35 1.0000000180025095e-35 63.500000000000007 1.5000000000000002 1.0000000180025095e-35 85.500000000000014 58.500000000000007 1.0000000180025095e-35 1.0000000180025095e-35 1.0000000180025095e-35 1.0000000180025095e-35 1.0000000180025095e-35 1.0000000180025095e-35 28.500000000000004 1.0000000180025095e-35 74.500000000000014 39.500000000000007
decision_type=2 2 2 2 2 2 2 2 2 2 2 2 2 2 2 2 2 2 2 2 2 2 2 2 2 2 2 2 2 2
left_child=1 2 6 5 8 14 9 25 16 23 11 -7 -5 -6 19 27 28 20 21 24 26 -8 -9 -1 -4 -2 -11 -10 29 -3
right_child=7 4 3 12 13 10 18 22 15 17 -12 -13 -14 -15 -16 -17 -18 -19 -20 -21 -22 -23 -24 -25 -26 -27 -28 -29 -30 -31
leaf_value=-0.24074976156479491 0.11926515573874662 0.010070565985454784 -0.13250310945146687 0.072502328170208255 0.10311770664736764 -0.027255745729411751 -0.077151404708680621 0.25066767001074303 0.025597167425265938 -0.10160052683631857 0.067724137851747829 -0.19450319280684319 0.23386426349994074 0.21446157824693349 -0.023990395771772602 0.17443257488320002 0.10433551077389967 0.0046767865782920918 0.19880777269099775 -0.050263143140482358 -0.27555406538744714 0.057578041880024189 0.32304962377361546 -0.1014715190819004 -0.24004288674347068 0.25395559935726558 -0.1649486786728217 0.080175600435601416 0.18442053947451179 -0.082765955080966319
leaf_weight=2294.9839952588081 1164.2418808192015 541.24622546136379 4955.9654381275177 1464.9897834658623 862.99398165941238 12842.410439699888 1109.4922626316547 2767.7306984215975 1554.7391575723886 1354.7405523210764 1098.7423375993967 332.99767774343491 420.9970640540123 2582.7319885641336 807.24437044560909 741.49482896924019 430.74699606001377 305.99786603450775 102.24928693473339 697.74513407051563 292.74795843660831 328.49770912528038 1263.4911886751652 246.7482792288065 377.24736915528774 242.74830712378025 2385.4833641350269 4361.9695805311203 62.24956588447094 1146.7420028597116
leaf_count=9180 4657 2165 19824 5860 3452 51370 4438 11071 6219 5419 4395 1332 1684 10331 3229 2966 1723 1224 409 2791 1171 1314 5054 987 1509 971 9542 17448 249 4587
internal_value=0.00528055 -0.0238639 -0.0691188 -0.040759 0.0918777 -0.0540944 -0.146572 0.2395 0.0549624 -0.172645 -0.0238464 -0.0314828 0.108522 0.186575 -0.117235 0.0779281 -0.0151483 -0.14067 -0.0300971 -0.129715 -0.151698 -0.0463735 0.273354 -0.227229 -0.14011 0.142503 -0.142003 0.065834 -0.0445542 -0.0529983
internal_weight=0 43704.2 31419.3 22998.3 12284.9 21112.4 8420.94 5438.21 8839.19 6880.7 14274.2 13175.4 1885.99 3445.73 6838.2 6658.2 2180.98 4338.97 1540.24 6030.96 4032.97 1437.99 4031.22 2541.73 5333.21 1406.99 3740.22 5916.71 1750.24 1687.99
internal_count=196571 174818 125678 91994 49140 84450 33684 21753 35357 27523 57097 52702 7544 13783 27353 26633 8724 17356 6161 24124 16132 5752 16125 10167 21333 5628 14961 23667 7001 6752
is_linear=0
shrinkage=1


Tree=1
num_leaves=31
num_cat=0
split_feature=3 10 1 0 10 2 0 1 1 2 0 5 14 11 5 10 5 6 0 7 0 11 5 11 0 0 0 5 0 0
split_gain=1861.17 1253.31 382.259 256.624 242.971 218.11 147.016 103.762 88.9215 78.3633 75.3026 61.7929 58.2362 55.5926 52.9495 47.4741 46.416 40.8995 34.472 31.5634 31.4292 29.3878 26.282 25.667 25.5312 27.0647 25.0848 24.9412 24.4805 23.1503
threshold=1.0000000180025095e-35 1.0000000180025095e-35 1.0000000180025095e-35 65.500000000000014 1.5000000000000002 1.0000000180025095e-35 71.500000000000014 1.0000000180025095e-35 1.0000000180025095e-35 1.0000000180025095e-35 79.500000000000014 1.0000000180025095e-35 1.0000000180025095e-35 1.0000000180025095e-35 1.0000000180025095e-35 2.5000000000000004 1.0000000180025095e-35 1.0000000180025095e-35 68.500000000000014 1.0000000180025095e-35 32.500000000000007 1.0000000180025095e-35 1.0000000180025095e-35 1.0000000180025095e-35 36.500000000000007 80.500000000000014 87.500000000000014 1.0000000180025095e-35 63.500000000000007 21.500000000000004
decision_type=2 2 2 2 2 2 2 2 2 2 2 2 2 2 2 2 2 2 2 2 2 2 2 2 2 2 2 2 2 2
left_child=1 2 6 5 8 16 9 27 24 22 12 21 -5 14 20 28 23 18 29 -9 -7 -11 -1 -4 -3 -26 -8 -2 -6 -10
right_child=7 4 3 10 15 13 26 19 17 11 -12 -13 -14 -15 -16 -17 -18 -19 -20 -21 -22 -23 -24 -25 25 -27 -28 -29 -30 -31
leaf_value=-0.17035689546330945 0.079573636939827816 0.024254686591175641 -0.093115224384066705 0.053691239234308179 0.094998211778471869 -0.0081296258569917585 0.00067429911353950728 0.17774745159896277 0.13785053466153099 -0.10005323236869836 0.1423063732665909 0.017137833073856971 -0.060693284081495769 -0.13788394677552696 0.048910377473854572 0.17819548773348562 -0.018123171671292553 0.11435857100778468 0.13163511359275931 0.24298688331651314 -0.038533240313989726 -0.19484218403040432 -0.078417121083144234 -0.17314815467852898 -0.052774126504866167 0.28595826187180434 0.19262875721946429 0.19034086991670221 0.19767699680798254 0.028992665191751203
leaf_weight=2471.5020699054003 1182.5605400651693 665.90489754080772 5370.2847907543182 1638.167858093977 3008.4420620203018 5610.9580285549164 707.02230234444141 3105.6975211203098 182.58996789157391 4087.0614116191864 647.49041700363159 393.92542934417725 530.25734521448612 366.64418797194958 946.6640869230032 957.07858243584633 728.64514335989952 748.36195474863052 341.14839695394039 850.12638628482819 6730.750079870224 317.2178541123867 315.55834923684597 386.60811448097229 1341.5246855169535 21.570460259914398 67.08493834733963 216.43689730763435 224.57841068506241 4745.4982428103685
leaf_count=10019 4755 2666 21569 6559 12098 22448 2833 12635 731 16429 2614 1576 2123 1479 3791 3865 2915 3028 1375 3490 26928 1291 1265 1568 5376 87 271 873 904 19010
internal_value=0 -0.0204896 -0.0523018 -0.0323008 0.0609235 -0.044161 -0.107229 0.166933 0.0304185 -0.119938 0.0525279 -0.0966987 0.0257201 -0.0226455 -0.019466 0.119505 -0.0894608 0.048731 0.0394102 0.191768 -0.0247107 -0.10688 -0.159947 -0.0984899 -0.0238927 -0.0474138 0.0173093 0.0967103 0.102131 0.0330259
internal_weight=0 43552.5 31315.8 22956.5 12236.7 20140.6 8359.37 5354.82 8046.6 7585.27 2815.92 4798.2 2168.43 13655 13288.4 4190.1 6485.54 6017.6 5269.24 3955.82 12341.7 4404.28 2787.06 5756.89 2029 1363.1 774.107 1399 3233.02 4928.09
internal_count=196571 174818 125678 91994 49140 80698 33684 21753 32273 30580 11296 19296 8682 54646 53167 16867 26052 24144 21116 16125 49376 17720 11284 23137 8129 5463 3104 5628 13002 19741
is_linear=0
shrinkage=0.3


Tree=2
num_leaves=31
num_cat=0
split_feature=3 10 0 1 6 2 13 1 11 13 0 1 0 11 6 5 0 0 0 5 11 2 11 0 11 5 0 1 13 6
split_gain=947.467 621.359 198.258 192.227 140.657 114.4 66.0039 57.8043 47.4634 46.5723 36.1018 34.8694 30.451 28.5503 28.267 28.1241 26.6869 25.843 24.0774 23.9443 23.0687 22.3777 22.301 22.2669 21.4282 21.0802 20.8997 19.7833 18.7898 17.5269
threshold=1.0000000180025095e-35 1.0000000180025095e-35 62.500000000000007 1.0000000180025095e-35 1.0000000180025095e-35 1.0000000180025095e-35 1.0000000180025095e-35 1.0000000180025095e-35 1.0000000180025095e-35 1.0000000180025095e-35 82.500000000000014 1.0000000180025095e-35 36.500000000000007 1.0000000180025095e-35 1.0000000180025095e-35 1.0000000180025095e-35 63.500000000000007 63.500000000000007 79.500000000000014 1.0000000180025095e-35 1.0000000180025095e-35 1.0000000180025095e-35 1.0000000180025095e-35 44.500000000000007 1.0000000180025095e-35 1.0000000180025095e-35 41.500000000000007 1.0000000180025095e-35 1.0000000180025095e-35 1.0000000180025095e-35
decision_type=2 2 2 2 2 2 2 2 2 2 2 2 2 2 2 2 2 2 2 2 2 2 2 2 2 2 2 2 2 2
left_child=1 2 3 8 9 24 18 22 19 12 -8 -6 20 15 -9 23 27 -14 -4 21 -3 -1 29 -7 25 -5 -23 -11 -25 -2
right_child=7 4 6 5 11 13 10 14 -10 16 -12 -13 17 -15 -16 -17 -18 -19 -20 -21 -22 26 -24 28 -26 -27 -28 -29 -30 -31
leaf_value=-0.11517600966674266 0.062738390922247103 0.050010832424144828 -0.037468669230661743 -0.067340634000912239 0.042878069107859122 -0.0097173791919473382 0.034033427291633063 0.12990320900325683 -0.16368103582534363 -0.0030907727831513921 0.13363108928792508 0.11305305758433931 -0.027162160049917016 -0.10118924847919901 0.20563219427319521 0.037920823432923523 0.10348285833381718 0.051265442096015218 0.048705599605388214 -0.018109283178349946 -0.20126213140693297 -0.057400747263539824 -0.070400775877605973 -0.064039191030319617 -0.13075203135579258 -0.0085824912245558976 -0.10431455569874748 0.046532057801097815 -0.019299164508425871 0.15443892756386204
leaf_weight=1824.0867522060871 1060.7566459774971 1079.3676154315472 1737.3818764984608 5162.5761829316616 854.25285263359547 8513.8505003601313 2544.6020587086678 3305.8363807052374 724.89917358756065 940.7471949160099 375.93856430053711 2508.8884415328503 2581.9609021395445 348.63596583902836 512.35854612290859 869.29025267064571 586.90902823209763 443.01709544658661 350.71334262192249 479.57551556825638 33.916468113660812 2338.2113106995821 96.729077205061913 1466.1629397422075 426.71231493353844 614.97727213799953 1346.9632959365845 3124.8360207676888 1993.592019751668 227.88841217756271
leaf_count=7609 4292 4332 6973 20906 3452 34075 10217 13924 3028 3779 1550 10331 10370 1429 2201 3489 2393 1803 1431 1925 136 9478 392 5871 1770 2461 5483 12544 7983 944
internal_value=0 -0.014472 -0.0369387 -0.0474266 0.0430506 -0.032282 0.017734 0.121019 -0.0911789 0.0230886 0.0468539 0.0952283 -6.43255e-05 -0.0164812 0.140065 -0.0141817 0.0436825 -0.0156762 -0.022995 -0.0824031 0.0423557 -0.0879998 0.0685268 -0.0179644 -0.0658777 -0.0610863 -0.0745482 0.0350497 -0.0382589 0.078955
internal_weight=0 43272.1 31118.2 26109.5 12153.9 19395.8 5008.64 5203.57 6713.74 8790.75 2920.54 3363.14 4138.26 13191.5 3818.19 12842.9 4652.49 3024.98 2088.1 5988.84 1113.28 5509.26 1385.37 11973.6 6204.27 5777.55 3685.17 4065.58 3459.75 1288.65
internal_count=196571 174818 125678 105507 49140 77984 20171 21753 27523 35357 11767 13783 16641 52847 16125 51418 18716 12173 8404 24495 4468 22570 5628 47929 25137 23367 14961 16323 13854 5236
is_linear=0
shrinkage=0.3


Tree=3
num_leaves=31
num_cat=0
split_feature=3 10 1 10 0 2 5 1 11 1 2 6 0 1 4 0 5 11 0 0 10 0 11 7 5 0 0 0 13 13
split_gain=483.709 308.38 109.265 91.3182 79.6342 59.2514 47.7105 32.1872 31.748 29.9716 18.3742 17.1231 16.8823 16.8807 16.0826 18.79 17.1759 16.5255 15.6553 15.248 14.382 14.3452 13.65 12.5633 20.3417 24.5003 14.0445 12.1833 26.3849 12.179
threshold=1.0000000180025095e-35 1.0000000180025095e-35 1.0000000180025095e-35 1.5000000000000002 70.500000000000014 1.0000000180025095e-35 1.0000000180025095e-35 1.0000000180025095e-35 1.0000000180025095e-35 1.0000000180025095e-35 1.0000000180025095e-35 1.0000000180025095e-35 74.500000000000014 1.0000000180025095e-35 1.0000000180025095e-35 28.500000000000004 1.0000000180025095e-35 1.0000000180025095e-35 57.500000000000007 70.500000000000014 2.5000000000000004 84.500000000000014 1.0000000180025095e-35 1.0000000180025095e-35 1.0000000180025095e-35 41.500000000000007 61.500000000000007 29.500000000000004 1.0000000180025095e-35 1.0000000180025095e-35
decision_type=2 2 2 2 2 2 2 2 2 2 2 2 2 2 2 2 2 2 2 2 2 2 2 2 2 2 2 2 2 2
left_child=1 2 6 9 5 18 8 -2 12 23 -6 22 27 29 16 -16 17 -7 -4 -8 -15 -12 -9 26 25 -25 -3 28 -1 -5
right_child=7 3 4 13 10 14 19 11 -10 -11 21 -13 -14 20 15 -17 -18 -19 -20 -21 -22 -23 -24 24 -26 -27 -28 -29 -30 -31
leaf_value=0.0096386159820389169 0.048673845654247781 -0.014174390851320908 -0.050052171141971191 0.00077204982040800436 0.0056954795104258394 -0.008221756494600661 -0.012416119973369095 0.098378991762673562 -0.12472766722367869 0.022467308346987212 0.053480752834634139 0.15532042796089598 0.0022757296877117142 0.066684188358764787 0.15783006643944295 -0.054162929785534865 0.032687302742984217 -0.080812777639679076 -0.009292128083091997 0.079856375748714209 0.11537148475972514 0.14788006602921752 -0.0070753350414646688 0.0087970881704723409 0.09250632039374343 -0.10019359864688725 0.07388812945888687 -0.071216733518618514 -0.06429798727787589 0.067175526582165218
leaf_weight=608.93420907855034 1370.3819496631622 931.57179580628872 5705.0821055173874 513.52317799627781 697.5332192927599 12010.008478015661 692.20630751550198 3084.2988801300526 701.7513460367918 5963.060292378068 986.0327232927084 480.83776301145554 398.29257297515869 2384.3351263999939 39.127697989344597 982.6134058535099 914.5013258010149 289.04052171111107 996.16022382676601 210.10225774347782 708.24457821249962 169.83582070469856 114.57439589500427 289.27034172415733 85.788833528757095 518.06972137093544 197.55826149880886 3999.8399532884359 1515.4436496794224 481.81838703155518
leaf_count=2509 5628 3743 23342 2087 2841 48105 2783 13427 3045 24144 3983 2201 1608 9802 157 3946 3679 1210 4011 847 3018 720 497 1159 345 2084 798 16606 6286 1960
internal_value=0 -0.0102279 -0.026106 0.0304319 -0.015456 -0.0207323 -0.0559725 0.0879202 -0.0640962 0.0117641 0.0441469 0.102536 -0.0575729 0.0668975 -0.00978235 -0.0460446 -0.00697836 -0.00992772 -0.0439931 0.0090695 0.0778343 0.0673512 0.0946019 -0.0197966 -0.0463836 -0.0611422 0.00123347 -0.0614652 -0.0431047 0.0329162
internal_weight=0 42989.7 30916.5 12073.2 22789.9 20936.5 8126.57 5050.09 7224.26 7985.32 1853.4 3679.71 6522.51 4087.92 14235.3 1021.74 13213.6 12299 6701.24 902.309 3092.58 1155.87 3198.87 2022.26 893.129 807.34 1129.13 6124.22 2124.38 995.342
internal_count=196571 174818 125678 49140 91994 84450 33684 21753 30054 32273 7544 16125 27009 16867 57097 4103 52994 49315 27353 3630 12820 4703 13924 8129 3588 3243 4541 25401 8795 4047
is_linear=0
shrinkage=0.3


Tree=4
num_leaves=31
num_cat=0
split_feature=3 10 0 1 6 13 2 0 2 2 13 0 7 5 5 1 13 1 4 14 0 0 5 0 0 10 11 5 0 0
split_gain=245.779 152.733 62.3511 54.8947 47.9359 44.4463 28.4964 21.3876 20.7774 20.2972 20.0538 22.4119 20.0485 21.3472 17.313 16.75 14.8454 14.569 10.3319 10.856 17.5733 10.8081 10.3793 10.0617 9.60915 23.3192 9.4672 10.2959 16.8176 9.39131
threshold=1.0000000180025095e-35 1.0000000180025095e-35 60.500000000000007 1.0000000180025095e-35 1.0000000180025095e-35 1.0000000180025095e-35 1.0000000180025095e-35 82.500000000000014 1.0000000180025095e-35 1.0000000180025095e-35 1.0000000180025095e-35 21.500000000000004 1.0000000180025095e-35 1.0000000180025095e-35 1.0000000180025095e-35 1.0000000180025095e-35 1.0000000180025095e-35 1.0000000180025095e-35 1.0000000180025095e-35 1.0000000180025095e-35 22.500000000000004 35.500000000000007 1.0000000180025095e-35 81.500000000000014 53.500000000000007 1.5000000000000002 1.0000000180025095e-35 1.0000000180025095e-35 20.500000000000004 31.500000000000004
decision_type=2 2 2 2 2 2 2 2 2 2 2 2 2 2 2 2 2 2 2 2 2 2 2 2 2 2 2 2 2 2
left_child=1 2 3 8 7 -4 26 10 -1 -6 11 -3 13 15 -7 -2 29 -13 19 22 -21 -20 -8 -16 -12 -26 27 -5 -29 -17
right_child=12 4 5 6 9 14 18 -9 -10 -11 24 17 -14 -15 23 16 -18 -19 21 20 -22 -23 -24 -25 25 -27 -28 28 -30 -31
leaf_value=-0.071976861605745318 0.012580066419872282 0.11676275723568783 -0.021251384739770552 -0.035081945854190888 0.11705310821213896 0.021052010102885748 -0.0055391024941995031 0.18476558341921823 -0.036129431781132877 0.043842385152321001 0.01282137400209807 -0.041187682972716709 0.10184081327152628 0.11547441306667751 0.059124367708054168 0.075630933796726307 0.076645135823672148 0.00020395551124608227 0.051527993541915361 0.075095955187440791 -0.039688831540352812 -0.055961140126107312 0.033938018520003319 0.16019510256253916 0.021923794144762192 0.11232255760045438 -0.078124549147745068 0.23436407673253729 -0.0042825440189615104 0.0094308500647459336
leaf_weight=2278.3844955563545 970.47509923577309 128.41796052455902 2394.94341622293 4949.0867277085781 386.67281995713711 2599.4865209013224 9842.7992000728846 62.501645594835281 4027.5280748009682 2874.3727920949459 3102.2738248109818 1034.7671975493431 985.97603459656239 450.2136951982975 607.50032164156437 273.12392294406891 1583.8202913105488 2939.1823148429394 96.25219164788723 131.10071681439877 1422.8190868496895 671.84529633820057 638.27179232239723 103.79242680966854 1142.7151490747929 331.27478042244911 406.02279996871948 27.929068803787231 548.69495117664337 656.31625983119011
leaf_count=9911 3985 521 9711 20373 1634 10560 39499 265 16769 12149 12523 4177 4547 1999 2445 1220 7076 11855 387 525 5709 2706 2575 443 4643 1373 1753 112 2200 2926
internal_value=0 -0.00721796 -0.0184216 -0.0248704 0.0214828 0.0098802 -0.0167212 0.00990262 -0.0490814 0.0525232 0.00864329 -0.00658785 0.0635879 0.0540005 0.0324001 0.046056 0.0589825 -0.0105739 -0.00875734 -0.00660437 -0.0300047 -0.0424914 -0.00313504 0.0738727 0.0222972 0.0422406 -0.0339105 -0.0306617 0.00727642 0.0288843
internal_weight=0 42748.6 30746.5 25040.7 12002.2 5705.72 18734.8 8741.13 6305.91 3261.05 8678.63 4102.37 4919.93 3933.95 3310.78 3483.74 2513.26 3973.95 12803.1 12035 1553.92 768.097 10481.1 711.293 4576.26 1473.99 5931.73 5525.71 576.624 929.44
internal_count=196571 174818 125678 102519 49140 23159 75839 35357 26680 13783 35092 16553 21753 17206 13448 15207 11222 16032 51401 48308 6234 3093 42074 2888 18539 6016 24438 22685 2312 4146
is_linear=0
shrinkage=0.3


Tree=5
num_leaves=31
num_cat=0
split_feature=3 10 11 5 8 10 1 0 2 0 11 13 0 6 2 4 5 0 8 0 0 13 13 0 1 0 10 4 0 0
split_gain=124.27 84.0878 56.4876 43.2753 39.5168 38.7788 31.4134 18.837 18.3205 18.2814 16.9611 12.964 19.5961 12.1349 13.6443 12.4161 12.8873 11.7993 11.1352 10.3372 9.49352 11.253 11.0587 9.56663 9.05206 8.90269 9.17962 8.44137 9.78641 8.37154
threshold=1.0000000180025095e-35 1.5000000000000002 1.0000000180025095e-35 1.0000000180025095e-35 1.0000000180025095e-35 1.0000000180025095e-35 1.0000000180025095e-35 79.500000000000014 1.0000000180025095e-35 60.500000000000007 1.0000000180025095e-35 1.0000000180025095e-35 27.500000000000004 1.0000000180025095e-35 1.0000000180025095e-35 1.0000000180025095e-35 1.0000000180025095e-35 64.500000000000014 1.0000000180025095e-35 71.500000000000014 30.500000000000004 1.0000000180025095e-35 1.0000000180025095e-35 87.500000000000014 1.0000000180025095e-35 58.500000000000007 2.5000000000000004 1.0000000180025095e-35 28.500000000000004 38.500000000000007
decision_type=2 2 2 2 2 2 2 2 2 2 2 2 2 2 2 2 2 2 2 2 2 2 2 2 2 2 2 2 2 2
left_child=1 2 3 6 5 11 18 8 -8 -6 13 12 -5 15 -15 16 24 27 20 -13 21 -1 -22 -24 -2 26 -3 -10 -29 -4
right_child=10 25 29 4 9 -7 7 -9 17 -11 -12 19 -14 14 -16 -17 -18 -19 -20 -21 22 -23 23 -25 -26 -27 -28 28 -30 -31
leaf_value=0.015546476800390183 0.014517734517038069 0.022968742746317855 -0.081243528908139337 0.11841437393365581 -0.065987314464170499 0.094700172133595203 -0.020341381662608311 0.051360459665031659 -0.0022814818614590488 0.03418145802668919 -0.036745430137429896 0.02313605394115258 -0.020170910396923654 0.16325853166195034 0.062515619145779924 -0.049236758893756886 0.096602461802148099 0.024004004469673709 0.014247949187349639 0.081433633307897935 -0.054739179276308891 -0.028543978733535591 -0.027605757633748961 0.14488616750953609 0.049611540407809067 0.077626221310815258 0.058613065610969239 0.10653004018270798 -0.038310455605348938 -0.038422553282570451
leaf_weight=750.08287885785103 896.49143356084824 2721.6090525686741 970.75461554527283 101.07061876356602 604.37998899817467 747.31158623099327 6455.4447850584984 513.95681540668011 15027.725820675492 225.03434860706329 214.2277854681015 1549.4315220117569 1004.2196071147919 161.60787028074265 481.45880770683289 126.06721183657646 411.56411649286747 1478.5353628247976 542.30364833772182 332.48481810092926 2049.0530988574028 1705.6950990855694 2815.7772520780563 29.238173216581345 2523.604795396328 420.61117109656334 854.39510077238083 44.041444927453995 898.79704986512661 712.47233954071999
leaf_count=3105 3687 11324 4322 408 2429 3071 26584 2183 60408 925 911 6245 4044 785 2338 567 1892 5982 2185 1391 8600 7225 11845 126 11573 1782 3761 178 3628 3067
internal_value=0 -0.00508044 -0.00937388 -0.00692059 0.0204246 0.0335802 -0.0107831 -0.0054652 -0.00668697 -0.0388098 0.0457686 0.0182898 -0.00749831 0.0496107 0.0878331 0.0434001 0.046448 -0.0016354 -0.027237 0.0334357 -0.0302979 -0.0150772 -0.0379355 -0.0258331 0.0404126 0.036341 0.031485 -0.00400907 -0.0315447 -0.0631184
internal_weight=0 42554.4 38557.8 36874.6 4563.93 3734.52 32310.7 24418.5 23904.5 829.414 4815.02 2987.21 1105.29 4600.79 643.067 3957.73 3831.66 17449.1 7892.15 1881.92 7349.85 2455.78 4894.07 2845.02 3420.1 3996.62 3576 15970.6 942.838 1683.23
internal_count=196571 174818 157951 150562 18513 15159 132049 98963 96780 3354 21753 12088 4452 20842 3123 17719 17152 70196 33086 7636 30901 10330 20571 11971 15260 16867 15085 64214 3806 7389
is_linear=0
shrinkage=0.3


Tree=6
num_leaves=31
num_cat=0
split_feature=3 10 2 0 1 0 13 11 1 5 4 10 10 11 0 0 14 0 0 0 0 9 0 4 0 4 0 0 14 2
split_gain=62.5774 44.1759 25.6229 28.7106 15.1259 13.7916 15.3825 14.0193 11.9306 11.1798 10.3893 9.25278 8.91558 7.43363 7.11479 7.06105 6.87126 9.14471 8.56717 6.40937 6.40908 6.63738 6.25417 6.22836 6.11485 6.07734 5.96433 5.9007 7.50579 5.82716
threshold=1.0000000180025095e-35 1.0000000180025095e-35 1.0000000180025095e-35 75.500000000000014 1.0000000180025095e-35 36.500000000000007 1.0000000180025095e-35 1.0000000180025095e-35 1.0000000180025095e-35 1.0000000180025095e-35 1.0000000180025095e-35 2.5000000000000004 2.5000000000000004 1.0000000180025095e-35 65.500000000000014 83.500000000000014 1.0000000180025095e-35 60.500000000000007 24.500000000000004 34.500000000000007 20.500000000000004 1.0000000180025095e-35 56.500000000000007 1.0000000180025095e-35 22.500000000000004 1.0000000180025095e-35 48.500000000000007 57.500000000000007 1.0000000180025095e-35 1.0000000180025095e-35
decision_type=2 2 2 2 2 2 2 2 2 2 2 2 2 2 2 2 2 2 2 2 2 2 2 2 2 2 2 2 2 2
left_child=1 2 8 9 15 7 14 24 26 10 16 -8 13 25 -7 -3 17 -4 -18 -12 21 -10 23 -11 -6 29 -1 -22 -29 -2
right_child=12 4 3 -5 5 6 11 -9 20 22 19 -13 -14 -15 -16 -17 18 -19 -20 -21 27 -23 -24 -25 -26 -27 -28 28 -30 -31
leaf_value=-0.049256304655954132 0.052875907625097605 -0.0075513542070214769 -0.0062462133607949196 0.047645943255314363 0.059636562455194886 -0.013635697215733909 0.01993587479529001 -0.16885693385503775 0.0070515641231641462 0.011646218111996004 0.036284322890560251 0.1036257228356456 0.097309962943619169 -0.024603060102392025 0.041860219107880008 0.20477659522776279 0.032716147070853123 0.019247197468982975 -0.028194601026278077 -0.041074218079821499 -0.023199821134681012 0.14259152738954872 0.040845755312723282 -0.062139374232139284 0.028241885196381492 -0.029576351338537584 -0.02098383237861479 0.008182844178356222 -0.039574983423733168 0.027938268269909215
leaf_weight=1755.0164465755224 1168.4937899857759 2971.7426598519087 12972.205395311117 942.43343141674995 698.48075777292252 2280.4458710998297 2762.7100317776203 30.768214777112007 516.14529955387115 847.94009867310524 105.2814629226923 124.24350899457932 185.26214697957039 212.56923553347588 228.77107778191566 14.163223147392271 232.36549951136112 1403.3554091155529 1967.5660406798124 1141.6115720421076 5045.5797494202852 34.702777042984962 644.83781442046165 117.19101992249489 2783.3949018269777 135.92053608596325 1087.7801679223776 1300.6943883448839 383.50156290829182 3030.3366458117962
leaf_count=7904 5368 12110 52794 3938 2970 9306 11358 127 2158 3429 430 567 949 896 961 66 933 5681 7985 4689 21043 141 2604 470 11675 607 4627 5298 1554 13933
internal_value=0 -0.00357225 -0.00962019 -0.00349082 0.0119347 0.0181282 0.00860477 0.0327582 -0.0219564 -0.00597086 -0.00813358 0.0235376 0.0327993 0.0301711 -0.00857601 -0.00654421 -0.00614698 -0.00375752 -0.021761 -0.0345424 -0.015521 0.0155904 0.0179705 0.0026868 0.0345398 0.0328571 -0.038438 -0.0180675 -0.0026919 0.0348782
internal_weight=0 42392.9 30498.2 20374.8 11894.7 8908.81 5396.17 3512.64 10123.4 19432.4 17822.4 2886.95 4732.58 4547.32 2509.22 2985.91 16575.5 14375.6 2199.93 1246.89 7280.62 550.848 1609.97 965.131 3481.88 4334.75 2842.8 6729.78 1684.2 4198.83
internal_count=196571 174818 125678 82953 49140 36964 22192 14772 42725 79015 72512 11925 21753 20804 10267 12176 67393 58475 8918 5119 30194 2299 6503 3899 14645 19908 12531 27895 6852 19301
is_linear=0
shrinkage=0.3


Tree=7
num_leaves=31
num_cat=0
split_feature=10 11 3 0 5 7 8 12 4 1 0 12 0 0 0 13 2 6 0 7 0 13 0 14 0 0 10 5 2 1
split_gain=35.0403 25.9018 23.6965 18.7965 12.0173 22.3759 13.8232 11.8443 11.1973 9.88777 7.34894 10.839 8.50718 6.6903 5.52334 7.38179 6.51724 12.9956 5.41834 5.49736 5.60527 5.30936 9.16113 5.29572 17.6957 9.08846 7.54404 5.22585 5.22559 6.25947
threshold=1.5000000000000002 1.0000000180025095e-35 1.0000000180025095e-35 85.500000000000014 1.0000000180025095e-35 1.0000000180025095e-35 1.0000000180025095e-35 1.0000000180025095e-35 1.0000000180025095e-35 1.0000000180025095e-35 41.500000000000007 1.0000000180025095e-35 81.500000000000014 63.500000000000007 26.500000000000004 1.0000000180025095e-35 1.0000000180025095e-35 1.0000000180025095e-35 84.500000000000014 1.0000000180025095e-35 57.500000000000007 1.0000000180025095e-35 23.500000000000004 1.0000000180025095e-35 42.500000000000007 51.500000000000007 1.0000000180025095e-35 1.0000000180025095e-35 1.0000000180025095e-35 1.0000000180025095e-35
decision_type=2 2 2 2 2 2 2 2 2 2 2 2 2 2 2 2 2 2 2 2 2 2 2 2 2 2 2 2 2 2
left_child=1 2 3 4 9 6 14 -7 -8 10 21 18 -13 27 16 -16 17 -6 19 -12 -21 22 -1 25 26 -11 -25 -4 -2 -30
right_child=28 -3 13 -5 5 7 8 -9 -10 23 11 12 -14 -15 15 -17 -18 -19 -20 20 -22 -23 -24 24 -26 -27 -28 -29 29 -31
leaf_value=0.049498497444399027 0.052799101470528013 -0.03733106084310317 0.015104734383481231 0.067993219520022075 0.059445688573030175 0.10468416263858406 -0.04384483272656426 -0.0079107120996220106 0.066413130537555418 -0.0048133751921898794 -0.009701672858536738 -0.056922260384991298 0.16018299708084424 0.093169770029566085 -0.011723809944339546 0.019919699568448284 0.017724537670240813 0.31703523699222386 -0.21287722439597803 -0.02467042729231762 -0.10717973498982478 -0.014234564757215773 -0.0062411477184074029 -0.00063879058055886387 -0.030308566265410626 0.0098494621727700845 0.048119851982802553 0.050420884760274003 0.0012573518630783478 0.028455547003915782
leaf_weight=364.08522841334343 542.92267189919949 1849.2064050585032 3359.0932667255402 329.028728723526 117.83719870448112 321.03692921996117 724.73800294101238 113.92244167625904 93.602960854768753 15330.796184763312 2421.3137290477753 913.90153752267361 16.537732094526291 112.93256637454033 1079.746722817421 1721.0616522878408 265.69232977926731 20.727882206439972 12.481345281004904 241.22272075712681 106.96025516092777 2684.1066962778568 978.84352351725101 1137.5546754002571 2249.5029423981905 5060.2474399954081 381.32388785481453 424.7834754139185 1027.3072422146797 2943.8711837083101
leaf_count=1503 2472 8258 15380 1471 477 1314 2933 463 380 62288 10237 3886 67 513 4374 7025 1105 92 51 986 435 11493 4124 4616 9136 20556 1550 2065 4301 13020
internal_value=0 -0.00260803 -0.00102584 -0.00338846 -0.00403446 0.0105547 0.00356673 0.0751939 -0.0312334 -0.00607352 -0.0154054 -0.0250336 -0.0530634 0.0212169 0.0124521 0.00772073 0.0452327 0.0979784 -0.0156589 -0.0147701 -0.0500169 -0.0065295 0.00887059 -0.00308405 -0.013416 -0.00117464 0.0116024 0.0190694 0.0251937 0.0214196
internal_weight=0 42432.3 40583.1 36686.3 36357.2 4458.37 4023.41 434.959 818.341 31898.9 7739.45 3712.42 930.439 3896.81 3205.07 2800.81 404.257 138.565 2781.98 2769.5 348.183 4027.04 1342.93 24159.4 3768.38 20391 1518.88 3783.88 4514.1 3971.18
internal_count=196571 176778 168520 150562 149091 18163 16386 1777 3313 130928 32782 15662 3953 17958 13073 11399 1674 569 11709 11658 1421 17120 5627 98146 15302 82844 6166 17445 19793 17321
is_linear=0
shrinkage=0.3


Tree=8
num_leaves=31
num_cat=0
split_feature=6 2 0 2 0 3 4 1 3 0 4 0 7 8 13 1 5 0 14 8 0 10 0 0 4 0 0 0 0 13
split_gain=18.5178 16.4596 17.9078 14.7904 11.8693 11.521 7.08196 6.67747 9.72909 6.59557 6.43188 6.23541 6.11866 8.201 9.6666 5.93765 5.92845 12.7789 9.01236 8.7529 8.71649 5.84511 5.83562 5.74175 6.4276 5.20294 5.0223 4.99181 6.12563 12.2435
threshold=1.0000000180025095e-35 1.0000000180025095e-35 75.500000000000014 1.0000000180025095e-35 40.500000000000007 1.0000000180025095e-35 1.0000000180025095e-35 1.0000000180025095e-35 1.0000000180025095e-35 20.500000000000004 1.0000000180025095e-35 26.500000000000004 1.0000000180025095e-35 1.0000000180025095e-35 1.0000000180025095e-35 1.0000000180025095e-35 1.0000000180025095e-35 70.500000000000014 1.0000000180025095e-35 1.0000000180025095e-35 41.500000000000007 1.0000000180025095e-35 71.500000000000014 51.500000000000007 1.0000000180025095e-35 53.500000000000007 41.500000000000007 58.500000000000007 42.500000000000007 1.0000000180025095e-35
decision_type=2 2 2 2 2 2 2 2 2 2 2 2 2 2 2 2 2 2 2 2 2 2 2 2 2 2 2 2 2 2
left_child=1 5 7 4 -2 9 -4 16 27 -1 11 -7 13 -10 -15 23 19 21 -19 20 -3 -18 -22 24 -11 -23 -26 28 -9 -30
right_child=3 2 6 -5 -6 10 -8 8 12 15 -12 -13 -14 14 -16 -17 17 18 -20 -21 22 25 -24 -25 26 -27 -28 -29 29 -31
leaf_value=0.012898378806005367 0.091913167078887123 -0.0036028939263631045 0.030263633885144192 0.012819050385601202 -0.019941157486114584 0.083584832164948247 0.10161545059272285 0.0033420174952747926 0.0197605716690471 -0.04206533640273942 -0.094767530048040352 0.014241791860107361 0.057963269695728528 -0.20599810097998975 0.0055245865736768505 -0.011316688283462179 0.029825004541424338 0.20124960522963367 -0.07893875501876628 0.020913239843916204 -0.02380447667229087 -0.048749090275126535 -0.086985447688870954 -0.010094670022277732 0.10887589540096712 0.021392108377045409 -0.021212030773620286 0.012118532875704699 -0.023774406162697194 0.0035974465271942108
leaf_weight=778.93737564980984 398.06539539992809 3088.6552768200636 957.26447401940823 3250.51314689219 108.69545228779316 133.45943477749825 144.0318206101656 10968.314764142036 1666.4964886903763 1711.5607859045267 43.485035315155983 929.83206082880497 364.158312946558 32.063006222248077 49.409192711114883 7660.3273978382349 431.61908681690693 51.178176909685135 12.94534085690975 712.01542001962662 2455.6547017842531 237.46067741513252 139.01828454434872 1099.6405156850815 45.633298620581627 158.85123239457607 64.409900441765785 3164.5400596708059 2654.9636996388435 3297.3968241512775
leaf_count=3330 1898 12965 4078 14529 528 623 611 44206 7810 7788 193 4307 1848 153 244 31829 1755 210 52 2892 10419 973 564 4666 205 649 287 12897 10734 13328
internal_value=0 -0.00170982 0.00203518 0.020251 0.0679215 -0.0108974 0.0395953 0.000632256 0.00321906 -0.013744 0.0183205 0.0229454 0.0225871 0.0152171 -0.0777192 -0.0157052 -0.00724714 0.0156637 0.144685 -0.0104429 -0.0143712 0.00567102 -0.0271896 -0.027213 -0.0375467 -0.0206348 0.0327335 0.00118236 -0.000862949 -0.00861137
internal_weight=0 43053.3 30586 3757.27 506.761 12467.3 1101.3 29484.7 22197.3 11360.5 1106.78 1063.29 2112.13 1747.97 81.4722 10581.6 7287.4 892.055 64.1235 6395.34 5683.33 827.931 2594.67 2921.24 1821.6 396.312 110.043 20085.2 16920.7 5952.36
internal_count=196571 179616 126388 16955 2426 53228 4689 121699 91220 48105 5123 4930 10055 8207 397 44775 30479 3639 262 26840 23948 3377 10983 12946 8280 1622 492 81165 68268 24062
is_linear=0
shrinkage=0.3


Tree=9
num_leaves=31
num_cat=0
split_feature=11 7 0 14 0 0 0 12 0 3 0 12 0 4 0 9 0 10 0 8 14 0 10 6 1 0 0 0 1 0
split_gain=13.4125 11.2476 7.07057 5.88472 9.05459 7.29869 6.53755 24.6398 6.14819 5.17636 5.13163 5.01604 8.40146 4.7802 8.63904 4.70127 5.09353 4.59593 4.42663 6.39511 11.791 6.30151 4.33884 4.28072 4.23968 4.19656 4.165 4.07113 3.92884 4.69158
threshold=1.0000000180025095e-35 1.0000000180025095e-35 87.500000000000014 1.0000000180025095e-35 31.500000000000004 53.500000000000007 28.500000000000004 1.0000000180025095e-35 23.500000000000004 1.0000000180025095e-35 36.500000000000007 1.0000000180025095e-35 62.500000000000007 1.0000000180025095e-35 41.500000000000007 1.5000000000000002 29.500000000000004 1.0000000180025095e-35 32.500000000000007 1.0000000180025095e-35 1.0000000180025095e-35 54.500000000000007 1.5000000000000002 1.0000000180025095e-35 1.0000000180025095e-35 44.500000000000007 36.500000000000007 45.500000000000007 1.0000000180025095e-35 38.500000000000007
decision_type=2 2 2 2 2 2 2 2 2 2 2 2 2 2 2 2 2 2 2 2 2 2 2 2 2 2 2 2 2 2
left_child=1 2 3 5 -5 6 7 17 -9 -3 -2 -7 -13 15 28 24 -17 -1 22 21 25 -20 -11 -10 -8 -21 -22 -28 29 -15
right_child=10 9 -4 4 -6 11 13 8 23 18 -12 12 -14 14 -16 16 -18 -19 19 20 26 -23 -24 -25 -26 -27 27 -29 -30 -31
leaf_value=-0.008863978965893431 -0.039574411175968147 0.0085318651245400653 0.055310072321430315 0.015015509778759447 -0.01706122700908046 0.012759744458411553 -0.015225472818094842 0.040657643844857101 0.01908611800711706 0.1192459923325839 -0.0081782498643118533 -0.024372036545375876 0.016380710971604234 0.018961289097173262 -0.044538412939939778 -0.150564303382448 0.049045472027635581 0.015861090857831557 -0.015236365536513384 0.049507073973895963 -0.35909775282823875 0.10001457893158446 0.034499415192166885 -0.03179539122072346 -0.0026700025380915846 0.13804674683238741 0.062885124029752992 -0.17508416317279407 -0.0036412490178835909 0.17523588860555764
leaf_weight=6066.4254792332649 994.11014205217361 7349.657418474555 198.43218319118023 979.87113264203072 4131.0782008767128 5582.3635520637035 3212.4166031628847 1478.1382333189249 1117.2968728840351 92.235638782382011 886.23071970045567 974.99830165505409 854.12997268140316 48.221425771713257 712.79969325661659 12.169113636016844 210.91454613208771 761.55289113521576 366.29557347297668 110.71076898276806 5.089775979518893 48.330725997686386 132.44750806689262 171.67806981503963 9819.2299567908049 85.300385862588882 12.299938887357714 13.651085212826727 238.96459877490997 26.953729853034019
leaf_count=25236 4604 30680 921 4075 17145 23056 13824 6114 4604 466 3895 4062 3494 206 2973 61 1054 3265 1849 588 27 242 719 755 40980 439 66 70 986 115
internal_value=0 0.00108627 -0.00116564 -0.00147352 -0.0109115 6.81769e-05 -0.00248463 0.00357165 0.0274524 0.0111172 -0.024777 0.00829227 -0.00534213 -0.00655352 -0.0262717 -0.00502581 0.0381568 -0.00610629 0.0330496 0.0203604 0.0608322 -0.00180219 0.0692891 0.0123092 -0.00576504 0.0880379 -0.110961 -0.0622945 0.0151763 0.0749929
internal_weight=0 44813.7 36597.6 36399.2 5110.95 31288.3 23876.8 9595.09 2767.11 8216.02 1880.34 7411.49 1829.13 14281.7 1026.94 13254.7 223.084 6827.98 866.361 641.678 227.052 414.626 224.683 1288.97 13031.6 196.011 31.0408 25.951 314.14 75.1752
internal_count=196571 188072 152926 152005 21220 130785 100173 39974 11473 35146 8499 30612 7556 60199 4280 55919 1115 28501 4466 3281 1190 2091 1185 5359 54804 1027 163 136 1307 321
is_linear=0
shrinkage=0.3


Tree=10
num_leaves=31
num_cat=0
split_feature=3 2 6 0 8 0 12 13 0 0 5 14 1 6 0 10 0 0 12 0 12 7 6 1 0 0 5 8 10 0
split_gain=7.85744 6.72421 7.26067 6.76275 11.1669 5.40751 5.62124 4.78258 9.23267 4.77861 4.46287 4.63018 4.49894 4.38442 4.67045 4.33069 4.0628 3.81895 7.50457 4.75757 3.61119 6.57008 4.94661 7.59374 5.64231 4.22764 5.18763 4.93617 3.50224 4.59745
threshold=1.0000000180025095e-35 1.0000000180025095e-35 1.0000000180025095e-35 63.500000000000007 1.0000000180025095e-35 48.500000000000007 1.0000000180025095e-35 1.0000000180025095e-35 31.500000000000004 79.500000000000014 1.0000000180025095e-35 1.0000000180025095e-35 1.0000000180025095e-35 1.0000000180025095e-35 55.500000000000007 1.0000000180025095e-35 65.500000000000014 36.500000000000007 1.0000000180025095e-35 34.500000000000007 1.0000000180025095e-35 1.0000000180025095e-35 1.0000000180025095e-35 1.0000000180025095e-35 31.500000000000004 21.500000000000004 1.0000000180025095e-35 1.0000000180025095e-35 1.5000000000000002 36.500000000000007
decision_type=2 2 2 2 2 2 2 2 2 2 2 2 2 2 2 2 2 2 2 2 2 2 2 2 2 2 2 2 2 2
left_child=1 2 -1 17 10 28 -7 8 -2 16 11 -5 15 14 -9 -13 -6 19 -19 20 21 -3 24 -24 -22 -25 27 -27 29 -4
right_child=7 3 5 4 9 6 -8 13 -10 -11 -12 12 -14 -15 -16 -17 -18 18 -20 -21 22 -23 23 25 -26 26 -28 -29 -30 -31
leaf_value=-0.0086982324112497462 0.035209930477387491 -0.0053699128658984971 0.11826307144250714 0.0082990672760446544 0.099819672247995872 -0.019877911090504945 -0.33658865040630831 0.011242589855847232 -0.012670604378703454 0.13807700021591468 0.029182346114641058 -0.045899123392420207 -0.0055137992207972414 0.052783800958386758 0.057049622643898693 -0.20004085867328095 0.029757112706785504 -8.7305346192168823e-05 -0.016569729126670891 0.021278283025042043 0.020760064117513931 0.0183601413894443 -0.063904960534001187 0.059854544145996079 -0.017568885610228437 -0.071874376296487213 0.066777095067429543 0.0052169718453740667 0.023170649870991631 -0.032057420909177195
leaf_weight=11305.274959072471 493.82174523174763 7405.3845829814672 92.232647359371185 1935.4981590807438 94.038679629564285 24.563364788889889 6.3469434380531302 2195.1419543474913 1362.4813235253096 54.861320897936821 629.90800020098686 158.89109501242638 457.83023481070995 320.16496066749096 220.44331404566765 18.292991042137146 358.32726985216141 10123.334762141109 3295.4612862616777 1173.8692271560431 2356.2231498509645 1223.5619884580374 192.32781063020229 104.83164280653 405.0828053355217 121.15039312839508 68.453261852264404 195.18267847597599 207.59036003053188 22.847510322928429
leaf_count=48105 2372 30350 423 8004 401 111 28 10283 6331 255 2647 658 1874 1718 1049 76 1535 41599 13530 4843 9500 5181 791 474 1646 525 304 886 973 99
internal_value=0 -0.00124979 -0.00737424 0.00110116 0.0131062 0.0349587 -0.0849095 0.0118202 6.67819e-05 0.0544623 0.00655174 0.00100608 -0.0212227 0.0197952 0.0154229 -0.0618132 0.0443218 -0.000568092 -0.00413515 0.00304548 0.00127257 -0.00200505 0.00948644 -0.0133944 0.0151372 0.00644669 -0.00810381 -0.0243078 0.0464415 0.0884191
internal_weight=0 42031.4 11658.9 30372.5 3707.65 353.581 30.9103 4592.05 1856.3 507.227 3200.42 2570.51 635.014 2735.75 2415.59 177.184 452.366 26664.9 13418.8 13246.1 12072.2 8628.95 3443.25 681.946 2761.31 489.618 384.786 316.333 322.671 115.08
internal_count=196571 174818 49739 125079 15450 1634 139 21753 8703 2191 13259 10612 2608 13050 11332 734 1936 109629 55129 54500 49657 35531 14126 2980 11146 2189 1715 1411 1495 522
is_linear=0
shrinkage=0.3


Tree=11
num_leaves=31
num_cat=0
split_feature=11 10 0 0 0 1 9 8 4 7 0 4 0 0 10 3 0 0 8 0 0 0 0 13 13 0 12 14 0 2
split_gain=6.07518 5.38194 3.86084 3.06448 5.90471 3.04269 3.68934 9.83042 5.84818 8.31841 5.67525 4.76819 5.33828 4.51514 4.39336 4.17844 4.1439 4.03291 3.95497 3.8827 5.5592 3.76475 3.73986 4.2927 3.73286 5.5387 3.6648 3.65481 3.554 3.80878
threshold=1.0000000180025095e-35 2.5000000000000004 87.500000000000014 77.500000000000014 83.500000000000014 1.0000000180025095e-35 1.0000000180025095e-35 1.0000000180025095e-35 1.0000000180025095e-35 1.0000000180025095e-35 53.500000000000007 1.0000000180025095e-35 78.500000000000014 28.500000000000004 1.5000000000000002 1.0000000180025095e-35 44.500000000000007 69.500000000000014 1.0000000180025095e-35 30.500000000000004 26.500000000000004 30.500000000000004 72.500000000000014 1.0000000180025095e-35 1.0000000180025095e-35 31.500000000000004 1.0000000180025095e-35 1.0000000180025095e-35 32.500000000000007 1.0000000180025095e-35
decision_type=2 2 2 2 2 2 2 2 2 2 2 2 2 2 2 2 2 2 2 2 2 2 2 2 2 2 2 2 2 2
left_child=1 2 5 -2 -5 -1 18 8 9 24 21 19 -13 15 17 27 -16 -15 -7 20 -9 -11 23 -19 25 -8 -22 -10 29 -26
right_child=3 -3 -4 4 -6 6 7 11 13 10 -12 12 -14 14 16 -17 -18 22 -20 -21 26 -23 -24 -25 28 -27 -28 -29 -30 -31
leaf_value=-0.0043131696319200835 -0.018334689637172726 0.022622603008555651 0.041777629157110807 0.16814774058137957 -0.10903180944990705 -0.0017375875042438128 0.030297472562851747 -0.024555475426113995 0.067033002371644321 0.071633658877961789 0.10047259204681429 0.012138689238390904 0.27556907704701533 -0.0080413962182470655 -0.00090054901528823915 -0.13805613158729277 -0.32947141594986146 0.14374318653939328 0.011156930458593034 -0.032075907951391709 0.029570768189363293 0.021040417277694724 0.0051794038153114199 0.023124997177706851 0.032973541621585764 -0.011073617866723522 0.16314544392032912 0.27554080274615433 0.025569642050899535 -0.011368164617938407
leaf_weight=10815.957616820931 1832.5335295200348 988.71177932620049 200.46634094417095 20.90216284990311 10.338154241442679 21455.043845236301 392.58502998948097 144.6102302968502 62.164866536855698 175.03822575509548 134.73031538724899 295.72986274957657 7.0892462879419318 1884.7595635801554 6.6238865405321103 7.8671080023050299 7.2200435698032379 45.525418385863304 2378.0839653760195 974.82607537508011 58.16115203499794 543.04612316191196 214.19789916276932 63.727262258529663 249.02201747894287 1128.2454255372286 27.099381297826767 8.6143621802329999 1841.8835263252258 581.35542200505733
leaf_count=45943 8371 4762 955 85 43 87459 1841 637 258 871 620 1229 33 7754 30 38 32 184 9932 4250 263 2601 897 260 1141 4940 119 36 8309 2678
internal_value=0 0.000735011 0.000239846 -0.0167464 0.0764225 4.84364e-05 0.00149166 0.00672072 0.0112489 0.0169643 0.0439735 -0.0153465 0.0183058 -0.00128621 -0.00378649 0.0693561 -0.172261 -0.00273027 -0.000450965 -0.0238055 0.0112674 0.0333729 0.0282178 0.0733864 0.011471 -0.000394143 0.0720264 0.09241 0.0182237 0.00192948
internal_weight=0 44692.4 43703.7 1863.77 31.2403 43503.2 32687.3 8854.12 7346.61 5045.91 852.815 1507.52 302.819 2300.7 2222.05 78.6463 13.8439 2208.21 23833.1 1204.7 229.871 718.084 323.451 109.253 4193.09 1520.83 85.2605 70.7792 2672.26 830.377
internal_count=196571 188072 183310 8499 128 182355 136412 39021 32490 23001 4092 6531 1262 9489 9157 332 62 9095 97391 5269 1019 3472 1341 444 18909 6781 382 294 12128 3819
is_linear=0
shrinkage=0.3


Tree=12
num_leaves=31
num_cat=0
split_feature=11 10 0 5 0 1 2 0 13 0 12 10 7 0 0 5 8 10 3 0 0 12 0 0 2 4 0 0 0 0
split_gain=3.00018 3.07562 3.04917 3.8738 4.21321 3.11541 3.40063 6.46063 3.17118 4.73368 4.51475 4.24297 2.99448 5.71929 3.3438 2.9813 7.71784 4.12127 3.99254 4.82529 7.14847 6.82287 3.93114 5.07165 3.47733 4.77824 2.91372 2.82409 2.81685 2.91941
threshold=1.0000000180025095e-35 1.5000000000000002 58.500000000000007 1.0000000180025095e-35 57.500000000000007 1.0000000180025095e-35 1.0000000180025095e-35 47.500000000000007 1.0000000180025095e-35 52.500000000000007 1.0000000180025095e-35 2.5000000000000004 1.0000000180025095e-35 40.500000000000007 21.500000000000004 1.0000000180025095e-35 1.0000000180025095e-35 1.0000000180025095e-35 1.0000000180025095e-35 66.500000000000014 59.500000000000007 1.0000000180025095e-35 60.500000000000007 22.500000000000004 1.0000000180025095e-35 1.0000000180025095e-35 30.500000000000004 93.500000000000014 66.500000000000014 69.500000000000014
decision_type=2 2 2 2 2 2 2 2 2 2 2 2 2 2 2 2 2 2 2 2 2 2 2 2 2 2 2 2 2 2
left_child=1 15 3 -3 5 6 7 26 9 -7 -11 12 13 -10 -14 -1 17 18 27 20 -20 -22 23 -18 -24 -26 -5 -17 -4 -30
right_child=-2 2 28 4 -6 8 -8 -9 11 10 -12 -13 14 -15 -16 16 22 -19 19 -21 21 -23 24 -25 25 -27 -28 -29 29 -31
leaf_value=-0.0012570764234532265 -0.01178918114197813 0.010806585672724753 0.050328295442362593 -0.13437525108502218 -0.13893570600510291 -0.0074507982966917187 -0.050133910286678809 0.38287643082578965 0.031293819190573197 -0.24503147107143797 -0.013690748678561184 0.11844043633468682 -0.17937765582052539 0.38824686072504228 0.0084198703195076264 0.0037531444181494724 0.068203781428484059 0.030736258675697486 0.047776380327283895 0.23453074139715777 -0.033439066572706955 -0.49413634894052888 -0.042100014224696919 -0.038027725875270063 0.015076731347828311 0.151149370637262 0.088180589157332095 0.21322195086461807 -0.061117985296484115 0.029868833633732401
leaf_weight=35365.589523926377 1854.77364115417 3000.9814753085375 273.30713318288326 9.1073647588491493 22.684224620461464 301.23446477949619 212.90138423442841 4.6999126374721518 16.755030021071438 15.497463658452034 14.884039968252182 36.794539779424667 8.796069994568823 5.3233414441347113 285.33739833533764 2948.6166149228811 43.358282059431076 847.87963223457336 219.21808165311813 11.413778707385061 9.2577163428068143 4.2083975523710242 67.08986160159111 602.36682106554508 129.8995395898819 28.282556027173996 12.645453885197638 5.8041238188743582 48.92271476984024 90.354674369096756
leaf_count=147843 8499 13506 1197 42 95 1354 900 20 79 64 62 191 39 25 1271 12059 177 3788 1091 57 46 20 279 2466 544 121 58 29 224 425
internal_value=0 0.000524516 0.00809313 0.00552838 -0.0112039 -0.008068 -0.0375294 0.0639165 0.00223213 -0.0188338 -0.131697 0.0220215 0.0108022 0.117359 0.00280378 -0.00029471 0.00662657 0.0121407 0.00721127 0.0440857 0.0347439 -0.177415 -0.0189904 -0.0308946 0.0151322 0.0394062 -0.00499801 0.00416466 0.0326329 -0.00209129
internal_weight=0 44643.2 4360.23 3947.64 946.661 923.976 239.354 26.4527 684.622 331.616 30.3815 353.006 316.212 22.0784 294.133 40283 4917.4 4046.4 3198.52 244.098 232.684 13.4661 870.997 645.725 225.272 158.182 21.7528 2954.42 412.585 139.277
internal_count=196571 188072 19552 17706 4200 4105 1020 120 3085 1480 126 1605 1414 104 1310 168520 20677 17090 13302 1214 1157 66 3587 2643 944 665 100 12088 1846 649
is_linear=0
shrinkage=0.3


Tree=13
num_leaves=31
num_cat=0
split_feature=1 3 0 0 10 5 13 0 0 13 4 2 0 8 2 0 0 14 0 0 10 0 8 10 0 0 12 0 14 0
split_gain=2.23061 2.58202 2.87113 2.11873 2.1522 2.85604 3.24758 2.10318 2.10243 9.83296 4.57246 3.13884 2.89069 2.79482 2.25054 3.54212 2.09193 3.06982 7.49307 6.16978 3.16205 3.08442 3.8535 3.15981 3.0908 2.84417 7.60234 3.71102 2.39459 2.17458
threshold=1.0000000180025095e-35 1.0000000180025095e-35 75.500000000000014 22.500000000000004 1.0000000180025095e-35 1.0000000180025095e-35 1.0000000180025095e-35 28.500000000000004 23.500000000000004 1.0000000180025095e-35 1.0000000180025095e-35 1.0000000180025095e-35 21.500000000000004 1.0000000180025095e-35 1.0000000180025095e-35 21.500000000000004 40.500000000000007 1.0000000180025095e-35 49.500000000000007 53.500000000000007 1.0000000180025095e-35 59.500000000000007 1.0000000180025095e-35 1.0000000180025095e-35 63.500000000000007 39.500000000000007 1.0000000180025095e-35 38.500000000000007 1.0000000180025095e-35 52.500000000000007
decision_type=2 2 2 2 2 2 2 2 2 2 2 2 2 2 2 2 2 2 2 2 2 2 2 2 2 2 2 2 2 2
left_child=-1 8 3 4 -3 -6 -7 -5 9 11 12 -2 13 -11 -12 -16 25 -18 -19 20 29 22 -21 24 -23 27 28 -9 -27 -20
right_child=1 2 -4 7 5 6 -8 16 -10 10 14 -13 -14 -15 15 -17 17 18 19 21 -22 23 -24 -25 -26 26 -28 -29 -30 -31
leaf_value=-0.0034915750919741273 0.048325507613584888 -0.044191524728429583 0.1684465738904552 0.029321153643464298 0.082253043573623494 -0.29335646401949284 0.08147247899432368 -0.0019829550669204004 -0.00058186820290817847 -0.016317844102039326 0.26914733778070576 0.017535670438341186 0.007154236757138996 0.028919387422244813 -0.058064977694031558 0.21889655634305133 0.021814316962454363 0.037987127467652114 -0.063917505232974944 0.095250344404419013 -0.32271745255127066 -0.27096285074388465 -0.18799383787764748 0.1098350758174604 -0.029598670839089652 -0.020779070601686104 -0.17864299975918702 0.057381457289773952 0.1278779085435745 -0.27211134553888766
leaf_weight=11992.686119750142 389.55790947377682 122.06301651895046 10.173726305365561 458.31365767121315 29.166821733117104 4.4151696264743787 3.9339661151170731 1105.7359934896231 26771.701426580548 1621.9360203146935 7.0223051905632046 1267.6792160123587 1026.2391180247068 132.99337874352932 9.2121853232383746 7.5718109607696524 1106.0333128422499 94.468783587217331 15.940730869770052 23.940459132194523 10.487480208277701 10.06404428184033 5.2755060344934455 5.073269471526145 9.0857154875993711 70.143766269087791 29.145793795585632 103.6572891920805 11.327035591006277 6.2996277511119834
leaf_count=51488 1687 596 54 2319 166 26 23 5509 110459 6627 29 5275 4227 583 39 32 5504 457 73 114 52 46 25 27 43 351 141 513 57 29
internal_value=0 0.00125859 0.00932689 0.00882486 -0.0248767 0.0379665 -0.116744 0.0105795 0.000422992 0.0064518 -0.0043729 0.0247733 -0.00549354 -0.0128896 0.126545 0.0668815 0.00728433 0.0158924 -0.0203675 -0.0843445 -0.186923 -0.0215219 0.0441051 -0.100676 -0.156446 -0.00110632 -0.0471515 0.00310518 -0.000111017 -0.122889
internal_weight=0 34468.7 3234.75 3224.57 159.579 37.516 8.34914 3064.99 31233.9 4462.21 2804.97 1657.24 2781.17 1754.93 23.8063 16.784 2606.68 1286.67 180.636 86.1668 32.7278 53.439 29.216 24.223 19.1498 1320.01 110.617 1209.39 81.4708 22.2404
internal_count=196571 145083 16125 16071 811 215 49 15260 128958 18499 11537 6962 11437 7210 100 71 12941 6370 866 409 154 255 139 116 89 6571 549 6022 408 102
is_linear=0
shrinkage=0.3


Tree=14
num_leaves=31
num_cat=0
split_feature=0 4 10 13 1 0 12 5 13 0 0 11 0 6 2 0 12 9 4 0 7 9 2 9 0 0 9 9 10 10
split_gain=1.71818 3.39009 3.08624 2.96506 2.61596 3.43414 2.57214 5.06734 1.64007 10.1335 8.22892 8.00076 5.16468 5.25015 4.73175 4.69967 4.66596 4.14044 3.88822 3.8022 11.1185 3.51481 3.48504 9.10004 6.91048 4.57979 3.43318 3.25238 3.16487 2.78215
threshold=85.500000000000014 1.0000000180025095e-35 1.5000000000000002 1.0000000180025095e-35 1.0000000180025095e-35 88.500000000000014 1.0000000180025095e-35 1.0000000180025095e-35 1.0000000180025095e-35 36.500000000000007 34.500000000000007 1.0000000180025095e-35 38.500000000000007 1.0000000180025095e-35 1.0000000180025095e-35 34.500000000000007 1.0000000180025095e-35 1.5000000000000002 1.0000000180025095e-35 33.500000000000007 1.0000000180025095e-35 1.0000000180025095e-35 1.0000000180025095e-35 1.0000000180025095e-35 20.500000000000004 24.500000000000004 1.0000000180025095e-35 1.5000000000000002 1.0000000180025095e-35 1.5000000000000002
decision_type=2 2 2 2 2 2 2 2 2 2 2 2 2 2 2 2 2 2 2 2 2 2 2 2 2 2 2 2 2 2
left_child=8 2 6 -3 -5 -6 -2 -8 9 11 22 14 13 16 15 19 -11 -16 27 -1 26 -17 23 24 -10 28 -21 -18 -25 -13
right_child=1 3 -4 4 5 -7 7 -9 10 12 -12 29 -14 -15 17 21 18 -19 -20 20 -22 -23 -24 25 -26 -27 -28 -29 -30 -31
leaf_value=0.022404711258255321 0.0051362492371103399 -0.013930354497871014 -0.2156509402545268 0.30981758149075639 0.2170768183409596 -0.048540844097143473 0.16530584854075339 -0.13245586111469965 0.01014987662091125 0.0078601754747088456 0.0058760139581723707 -0.017270777210088854 -0.0061815678978192146 -0.093426317741599749 0.0063785254333482118 0.040559695409908773 -0.039301500160254785 -0.059990805552928995 -0.17183859033967352 -0.036759477592865852 0.23614460374535926 0.13022593419348855 -0.0014660845810834659 0.044231351718481367 -0.028321626272862513 0.0042611518772135764 -0.16873696188687484 0.15418205009220956 0.15182906616378367 -0.129974511621536
leaf_weight=1267.7664668560028 254.9519175440073 12.49296687543392 5.3256121277809134 7.7553172558546093 10.029718786478044 7.7779600620269767 22.955765634775165 6.6292607337236396 525.81116928160191 285.89054141938686 15489.479308888316 951.13451246917248 10673.851920545101 105.55152554810047 5484.8613467216492 120.34829926490784 390.70542407035828 85.922102138400078 19.737453296780586 53.861393049359322 11.419072464108465 58.455119058489799 7893.9481110274792 130.0305018723011 2092.4633091837168 385.40551081299782 26.451153114438057 7.9787531048059455 30.344811126589775 20.129949152469635
leaf_count=5536 1209 56 28 39 49 40 102 30 2260 1217 65328 4519 44807 484 22876 520 1632 435 82 233 53 265 32946 567 9093 1767 120 40 153 85
internal_value=0 0.0216701 0.0106177 0.105854 0.164394 0.101061 0.0148527 0.0985849 -0.000122626 -0.00220678 0.00141328 0.00593273 -0.00793402 -0.0310311 0.00942199 0.0241506 -0.0216802 0.00535486 -0.041864 0.0181371 -0.0408436 0.0698737 -0.00483788 -0.0132501 -0.0205956 0.0219885 -0.0802266 -0.0354294 0.06459 -0.0196066
internal_weight=0 327.919 289.863 38.056 25.563 17.8077 284.537 29.585 46111.5 19564.1 26547.5 8080.35 11483.7 809.864 7109.08 1538.3 704.312 5570.78 418.422 1359.5 91.7316 178.803 11058 3164.06 2618.27 545.781 80.3125 398.684 160.375 971.264
internal_count=196571 1553 1369 184 128 89 1341 132 195018 82904 112114 34642 48262 3455 30038 6727 2971 23311 1754 5942 406 785 46786 13840 11353 2487 353 1672 720 4604
is_linear=0
shrinkage=0.3


Tree=15
num_leaves=31
num_cat=0
split_feature=10 0 0 9 0 14 10 0 9 0 9 0 6 1 0 12 12 9 2 0 0 6 2 8 7 0 0 8 0 2
split_gain=1.52208 2.22929 2.34281 1.59072 1.40128 3.64385 3.94027 3.25923 3.18367 2.99933 3.19708 3.15815 2.86909 3.09167 10.5412 5.0463 4.94362 5.68564 3.20932 2.65123 4.31692 4.92116 2.69028 2.68266 3.30063 2.58214 5.41562 2.23241 2.16525 7.1547
threshold=2.5000000000000004 60.500000000000007 66.500000000000014 1.0000000180025095e-35 53.500000000000007 1.0000000180025095e-35 1.5000000000000002 42.500000000000007 1.5000000000000002 40.500000000000007 2.5000000000000004 34.500000000000007 1.0000000180025095e-35 1.0000000180025095e-35 41.500000000000007 1.0000000180025095e-35 1.0000000180025095e-35 1.5000000000000002 1.0000000180025095e-35 57.500000000000007 59.500000000000007 1.0000000180025095e-35 1.0000000180025095e-35 1.0000000180025095e-35 1.0000000180025095e-35 70.500000000000014 72.500000000000014 1.0000000180025095e-35 55.500000000000007 1.0000000180025095e-35
decision_type=2 2 2 2 2 2 2 2 2 2 2 2 2 2 2 2 2 2 2 2 2 2 2 2 2 2 2 2 2 2
left_child=4 -2 3 -3 7 6 -6 9 19 10 -1 -12 13 14 15 -11 17 -15 -17 27 21 22 -21 24 -24 -10 -27 -7 -29 -30
right_child=1 2 -4 -5 5 8 -8 -9 25 12 11 -13 -14 16 -16 18 -18 -19 -20 20 -22 -23 23 -25 -26 26 -28 28 29 -31
leaf_value=-0.00026519065282007502 0.0096901534125510991 0.093897853601627848 -0.04655136549029168 0.30392323715089425 0.0038239989430768648 -0.019648762974997985 0.030351201077017574 -0.0061498405495951473 0.012646168574876578 0.0077552132449697983 -0.008144286095535129 -0.35683678150380477 0.063117246861624898 0.024105063785744677 -0.063952198345942554 0.2556768090992429 -0.016193622066371548 0.17024763675105292 0.076078279079112132 -0.013595890060072459 -0.0101220703885509 -0.26674799906197183 0.065669239197964399 0.12992948556114153 -0.047205874252431404 0.32526413885907179 0.043905109995263439 -0.025429124534505115 0.16053755353359953 -0.16518166713124952
leaf_weight=23080.18824210763 965.62876039743423 7.6978086680173892 5.7611583471298209 5.6115387380123138 8706.8247891962528 416.43252930045128 534.90833382308483 8862.1367686390877 98.137103363871574 132.57638503611088 4.8683808594942075 4.4971732646226883 96.130809471011162 888.27969117462635 188.2719387114048 12.056756466627119 302.70248584449291 24.623118177056313 34.803834870457649 62.109719187021255 1674.779343560338 4.8152497410774222 98.638028427958488 37.718373373150826 30.532473117113113 7.9468073993921271 27.337345153093338 47.594391733407974 7.1480994969606391 40.220401376485825
leaf_count=97922 4719 36 29 30 36333 1744 2356 37397 407 572 24 21 436 3718 821 53 1258 118 146 266 6923 21 411 153 125 33 114 193 29 163
internal_value=0 0.0116961 0.113269 0.18245 -0.000225745 0.00258777 0.00535938 -0.0012125 -0.00744374 0.000554034 -0.000336302 -0.17558 0.0127947 0.00973933 -0.0143641 0.0376656 0.0170304 0.0280469 0.122287 -0.00993105 -0.00479108 0.0333941 0.0397053 0.059542 0.0389886 0.0376711 0.107274 -0.0291141 -0.0706215 -0.116029
internal_weight=0 984.699 19.0705 13.3093 45426.3 11795.1 9241.73 33631.1 2553.41 24769 23089.6 9.36555 1679.45 1583.31 367.709 179.437 1215.61 912.903 46.8606 2419.99 1908.59 233.814 228.999 166.889 129.171 133.421 35.2842 511.395 94.9629 47.3685
internal_count=196571 4814 95 66 191757 49271 38689 142486 10582 105089 97967 45 7122 6686 1592 771 5094 3836 199 10028 7899 976 955 689 536 554 147 2129 385 192
is_linear=0
shrinkage=0.3


Tree=16
num_leaves=31
num_cat=0
split_feature=2 6 0 0 0 5 4 12 9 10 1 3 0 0 10 0 0 0 9 12 1 0 0 10 7 12 8 1 0 14
split_gain=1.37005 5.16176 4.16069 2.97683 3.91394 4.56265 3.47672 3.59495 4.38198 4.35402 3.26723 2.9312 2.76059 3.36194 2.63157 3.29735 2.67059 2.61209 5.8612 4.97126 4.65717 3.21461 2.48389 2.26379 2.41364 8.23161 2.2444 6.47576 5.1141 3.1486
threshold=1.0000000180025095e-35 1.0000000180025095e-35 40.500000000000007 74.500000000000014 72.500000000000014 1.0000000180025095e-35 1.0000000180025095e-35 1.0000000180025095e-35 1.5000000000000002 1.0000000180025095e-35 1.0000000180025095e-35 1.0000000180025095e-35 79.500000000000014 78.500000000000014 1.5000000000000002 35.500000000000007 36.500000000000007 70.500000000000014 1.5000000000000002 1.0000000180025095e-35 1.0000000180025095e-35 71.500000000000014 19.500000000000004 1.0000000180025095e-35 1.0000000180025095e-35 1.0000000180025095e-35 1.0000000180025095e-35 1.0000000180025095e-35 71.500000000000014 1.0000000180025095e-35
decision_type=2 2 2 2 2 2 2 2 2 2 2 2 2 2 2 2 2 2 2 2 2 2 2 2 2 2 2 2 2 2
left_child=1 -1 11 4 17 -6 -5 9 -9 12 -7 14 13 -8 -3 -16 -17 22 19 26 -21 -22 23 -2 -25 -26 -19 -28 29 -29
right_child=3 2 -4 6 5 10 7 8 -10 -11 -12 -13 -14 -15 15 16 -18 18 -20 20 21 -23 -24 24 25 -27 27 28 -30 -31
leaf_value=-0.0038018005621264696 -0.020332241735553334 0.066386754447829155 -0.024021196519439805 0.0092232239957827974 -0.049072481491404682 0.12341422077829943 0.062177392408524559 -0.14438722548794677 0.14311756631690167 0.18782873873965297 -0.010929286264052448 0.088102787239674463 -0.0020356949154908119 0.25333702826030829 -0.015387625975061089 0.22804748950969678 0.038006068785048426 -0.0068873396441286143 0.1955356315538278 -0.0087710778830771656 0.10058881540677959 0.30087092024157402 0.0010175493980271108 0.041007375005717939 0.042784121328171013 -0.16310249127619089 0.24080275575519877 -0.24007858744592278 0.1010075989930487 0.036630775406489957
leaf_weight=12327.574543327093 868.97033090889454 98.571422934532166 107.03645589947701 1066.1448559165001 272.37345567345619 25.037124156951904 56.448242664337158 15.492235496640207 6.894421160221099 24.764468744397163 46.648265838623047 96.461438789963722 52.251600861549377 9.7035698443651182 139.60178919136524 9.0850314944982511 24.881725028157234 272.57559037208557 17.387422204017639 19.501689180731773 18.363398760557175 11.877617642283441 30555.358527578413 123.74707099795341 52.110468253493309 26.296743720769882 13.364345148205755 9.5045231878757459 18.501478284597397 6.0610348284244528
leaf_count=53228 3542 474 528 4613 1127 106 233 65 30 120 198 587 242 40 675 44 118 1126 78 81 76 49 128095 541 229 118 56 43 83 26
internal_value=0 -0.0026186 0.0280477 0.00102855 0.000477535 -0.0313491 0.015504 0.0559515 -0.0558443 0.0734326 0.0359921 0.0431678 0.0495063 0.0902179 0.0272403 0.0050086 0.0888361 0.000819585 0.0253125 0.0173078 0.105538 0.179253 0.000519769 -0.0136801 0.0149142 -0.0262675 0.00359314 0.0638216 -0.00560724 -0.132331
internal_weight=0 12803.2 475.638 33589.4 32357.7 344.059 1231.7 165.555 22.3867 143.168 71.6854 368.601 118.403 66.1518 272.14 173.569 33.9668 32013.6 387.137 369.75 49.7427 30.241 31626.5 1071.12 202.154 78.4072 320.007 47.4314 34.067 15.5656
internal_count=196571 55654 2426 140917 135574 1431 5343 730 95 635 304 1898 515 273 1311 837 162 134143 1618 1540 206 125 132525 4430 888 347 1334 208 152 69
is_linear=0
shrinkage=0.3


Tree=17
num_leaves=31
num_cat=0
split_feature=0 13 13 0 0 2 0 9 8 9 1 6 0 0 9 1 10 10 8 0 5 0 6 2 1 7 9 0 7 11
split_gain=1.52953 3.32132 2.05996 3.66683 2.2308 2.22988 3.03461 3.35397 2.38641 2.72685 3.05851 2.37452 2.63315 2.2868 2.22544 3.31597 4.7519 2.17769 1.89806 2.81177 2.30649 1.82266 1.73165 3.81082 3.65508 3.4427 3.24897 2.34904 2.94344 2.13675
threshold=23.500000000000004 1.0000000180025095e-35 1.0000000180025095e-35 34.500000000000007 95.500000000000014 1.0000000180025095e-35 27.500000000000004 1.5000000000000002 1.0000000180025095e-35 1.0000000180025095e-35 1.0000000180025095e-35 1.0000000180025095e-35 33.500000000000007 32.500000000000007 1.5000000000000002 1.0000000180025095e-35 1.0000000180025095e-35 2.5000000000000004 1.0000000180025095e-35 22.500000000000004 1.0000000180025095e-35 89.500000000000014 1.0000000180025095e-35 1.0000000180025095e-35 1.0000000180025095e-35 1.0000000180025095e-35 1.5000000000000002 18.500000000000004 1.0000000180025095e-35 1.0000000180025095e-35
decision_type=2 2 2 2 2 2 2 2 2 2 2 2 2 2 2 2 2 2 2 2 2 2 2 2 2 2 2 2 2 2
left_child=1 22 4 5 21 6 -4 8 11 10 -10 -8 -13 -9 -7 16 -16 -11 19 -3 -21 -2 26 -24 25 -25 29 -26 -29 -1
right_child=2 18 3 -5 -6 14 7 13 9 17 -12 12 -14 -15 15 -17 -18 -19 -20 20 -22 -23 23 24 27 -27 -28 28 -30 -31
leaf_value=0.019877301280204124 -0.0031963626231729107 -0.007027537919265219 0.0020062933354762827 0.0037822114409736683 -0.21200000618015608 -0.00032333215365922419 -0.023095444922290494 0.034209036829553958 -0.22686371017362356 -0.036692056278377606 -0.067794499334101338 0.098029951948350472 -0.14448954113106627 0.25012577948893266 0.21111450748692057 -0.086367145777858131 -0.052066591094270961 0.18629846327444954 0.020632905141278801 0.018469862946975349 -0.063084373972222774 0.069289404522610953 0.084006635207951597 -0.029223784515485792 0.10893754472394908 -0.15876926434904864 0.17266136127282458 -0.030175469715364136 0.041285350164469055 -0.0095030243813868549
leaf_weight=1683.3458525538445 17292.824912272394 2898.3803548514843 748.52036506682634 15683.057391688228 4.6004364788532248 5073.1250807493925 1079.8759974390268 16.171296261250976 15.635687217116354 27.590746477246284 35.757846355438232 26.361432418227199 4.7562391310930243 6.0723870620131484 9.4487399756908435 62.106255263090134 17.818084761500359 4.5984740555286399 335.4074768871069 640.37646026909351 32.809595704078674 31.277228310704231 38.460634276270866 61.15861102938652 17.511982917785645 26.446615353226662 11.986113563179968 147.74529366195202 79.945534452795982 256.76554872095585
leaf_count=6895 73345 12121 3313 66374 22 21204 4740 88 65 125 155 131 24 32 43 325 85 29 1474 2687 145 143 205 252 83 110 58 679 387 1232
internal_value=0 0.00439695 -0.000655195 0.00121797 -0.00312096 -0.00442401 -0.0130239 -0.0222697 -0.0244189 -0.0733049 -0.116189 -0.0207411 0.0609616 0.093153 -0.00115006 -0.0480782 0.0391332 -0.00483617 -0.000944505 -0.00297085 0.0144951 -0.0030655 0.0133791 -0.00540105 -0.0157334 -0.0683315 0.0169509 0.00305873 -0.00508454 0.0159889
internal_weight=0 6230.34 40139.6 22810.9 17328.7 7127.84 1965.34 1216.82 1194.58 83.5828 51.3935 1110.99 31.1177 22.2437 5162.5 89.3731 27.2668 32.1892 3906.97 3571.57 673.186 17324.1 2323.37 371.269 332.808 87.6052 1952.1 245.203 227.691 1940.11
internal_count=196571 26328 170243 96733 73510 30359 8702 5389 5269 374 220 4895 155 120 21657 453 128 154 16427 14953 2832 73488 9901 1716 1511 362 8185 1149 1066 8127
is_linear=0
shrinkage=0.3


Tree=18
num_leaves=31
num_cat=0
split_feature=0 0 0 9 0 7 1 0 0 0 0 14 10 0 0 0 12 8 0 14 0 0 2 8 0 3 0 0 0 14
split_gain=0.823726 2.58139 2.72953 1.40431 1.9037 0.813575 1.4136 2.76697 3.97892 2.50109 2.48136 5.3856 3.98523 3.51401 2.10401 2.03051 1.79791 1.58457 3.45955 3.00521 1.43068 1.88133 1.41553 7.41321 6.21027 5.77891 5.05599 4.92113 3.68198 3.91884
threshold=90.500000000000014 93.500000000000014 92.500000000000014 1.0000000180025095e-35 96.500000000000014 1.0000000180025095e-35 1.0000000180025095e-35 80.500000000000014 67.500000000000014 63.500000000000007 61.500000000000007 1.0000000180025095e-35 1.5000000000000002 62.500000000000007 80.500000000000014 83.500000000000014 1.0000000180025095e-35 1.0000000180025095e-35 68.500000000000014 1.0000000180025095e-35 72.500000000000014 69.500000000000014 1.0000000180025095e-35 1.0000000180025095e-35 56.500000000000007 1.0000000180025095e-35 40.500000000000007 52.500000000000007 26.500000000000004 1.0000000180025095e-35
decision_type=2 2 2 2 2 2 2 2 2 2 2 2 2 2 2 2 2 2 2 2 2 2 2 2 2 2 2 2 2 2
left_child=5 2 -2 4 -3 -1 7 8 9 10 22 12 16 -14 -8 -16 -12 19 -19 -10 21 -20 23 24 25 -7 -27 28 -25 -30
right_child=1 3 -4 -5 -6 6 14 -9 17 -11 11 -13 13 -15 15 -17 -18 18 20 -21 -22 -23 -24 27 -26 26 -28 -29 29 -31
leaf_value=-0.00061951351980995661 0.034817171447714831 -0.13149248516714801 0.19891134068478414 0.059680602516581395 0.032177901551852878 -0.094069592815469533 0.0051460674802843781 0.19439026815883098 -0.15325359954794557 0.056701466369000794 -0.060825504810009305 -0.28732991663216645 0.21246052156560843 -0.071006628319907353 -0.18746686624361691 -0.0081373202039846295 -0.26737180991262405 -0.25583747430808595 -0.054050858550688356 0.015047770502822565 -0.057635917125388243 0.17529468362523307 -0.0053649668705374239 0.25188120493895422 0.26213325378935987 0.2221218785490478 -0.075935927231100195 0.30057329359598639 -0.0068562492452865836 0.2334169395294089
leaf_weight=38038.429821550846 39.959187299013138 16.407394051551822 11.822308897972105 10.968161694705485 10.481924101710318 64.955219686031342 6318.4677324146032 6.2719717100262633 34.112010776996613 62.271516129374504 15.88986273109913 8.6060562133789045 9.0260861963033694 6.9791642576456061 9.985906660556795 13.18635608255863 4.9822121709585181 4.5611469447612789 5.0710664987564114 13.260544762015341 9.921195909380911 8.8140778392553312 1543.3958414494991 8.2821342647075635 6.1451012492179862 11.380443021655084 9.3142507672309858 9.7757543921470624 36.222090661525726 7.348716363310813
leaf_count=160534 196 78 58 58 50 269 27573 31 141 269 66 36 39 30 47 65 21 20 22 57 45 41 6421 38 26 57 41 43 166 33
internal_value=0 0.0287518 0.0722818 -0.0307885 -0.0676909 -3.44167e-05 0.00267044 -0.00453886 -0.00520241 -0.00237516 -0.00448661 -0.0736372 -0.0237678 0.0888533 0.00481515 -0.085418 -0.110129 -0.0725641 -0.0164894 -0.106143 0.0293682 0.0915342 -0.00263303 0.0248495 -0.0291837 -0.0500847 0.0879723 0.105331 0.0685223 0.0336686
internal_weight=0 89.639 51.7815 37.8575 26.8893 46266.7 8228.23 1886.59 1880.31 1804.57 1742.3 45.4834 36.8773 16.0053 6341.64 23.1723 20.8721 75.74 28.3675 47.3726 23.8063 13.8851 1696.82 153.424 91.795 85.6499 20.6947 61.6287 51.8529 43.5708
internal_count=196571 440 254 186 128 196131 35597 7912 7881 7555 7286 192 156 69 27685 112 87 326 128 198 108 63 7094 673 393 367 98 280 237 199
is_linear=0
shrinkage=0.3


Tree=19
num_leaves=31
num_cat=0
split_feature=0 0 6 8 12 2 0 11 1 9 2 0 0 12 13 7 9 1 10 0 7 7 10 13 9 1 2 3 2 2
split_gain=0.794359 1.84929 1.89488 2.44264 2.8249 3.39559 2.23732 4.54061 2.77143 2.18963 4.79927 3.04821 2.04792 3.99003 1.88855 1.79265 1.65312 3.25724 1.53317 1.51395 1.87615 1.37122 1.32494 2.36491 1.93636 2.18756 1.57014 1.41375 1.35796 1.31162
threshold=23.500000000000004 19.500000000000004 1.0000000180025095e-35 1.0000000180025095e-35 1.0000000180025095e-35 1.0000000180025095e-35 20.500000000000004 1.0000000180025095e-35 1.0000000180025095e-35 1.0000000180025095e-35 1.0000000180025095e-35 20.500000000000004 21.500000000000004 1.0000000180025095e-35 1.0000000180025095e-35 1.0000000180025095e-35 1.0000000180025095e-35 1.0000000180025095e-35 1.0000000180025095e-35 22.500000000000004 1.0000000180025095e-35 1.0000000180025095e-35 1.5000000000000002 1.0000000180025095e-35 1.0000000180025095e-35 1.0000000180025095e-35 1.0000000180025095e-35 1.0000000180025095e-35 1.0000000180025095e-35 1.0000000180025095e-35
decision_type=2 2 2 2 2 2 2 2 2 2 2 2 2 2 2 2 2 2 2 2 2 2 2 2 2 2 2 2 2 2
left_child=1 18 6 9 16 -6 7 14 -9 10 -4 -11 -12 19 -3 -15 -5 -18 -1 20 -14 -19 27 -24 25 -25 -27 28 -20 -16
right_child=-2 2 3 4 5 -7 -8 8 -10 11 12 -13 13 15 29 -17 17 21 22 -21 -22 -23 23 24 -26 26 -28 -29 -30 -31
leaf_value=-0.0095255249271724209 -0.00046962283671974384 0.046759007415236781 -0.21043131224368425 -0.028058803996134297 0.21459846287080458 0.02945376526986869 0.0047035914334418128 -0.17062508306213933 -0.0095235541894794877 -0.097809422947534461 -0.067856413774164931 0.033615445727311725 0.13218816416913184 -0.12054138393855932 0.036512874071746061 0.045855555161913808 -0.10462765347870119 0.044043934853681861 0.089602278760569212 -0.0022135195881674385 -0.058689824341457614 0.23121944666141814 -0.059734123925623578 0.217536254942364 -0.084745892453346058 -0.13811904478728618 0.060401910174357337 0.16061857069018284 0.013395838557766937 0.0067865737971484078
leaf_weight=1360.4076951444149 40118.965032413602 272.89670817553997 15.028991296887396 140.62319286167622 9.6638607606291753 115.09249413013458 3126.6524976789951 16.748237892985344 22.55063234269619 19.872635096311569 84.533954203128815 79.114177875220776 22.708268746733669 27.126568123698235 200.14440701901913 7.4211891293525687 7.0672335624694833 6.5499380379915237 25.61358542740345 31.437085628509521 5.8228191435337058 7.6210562288761139 46.369759686291218 7.0921378731727591 9.3889173120260221 4.1939359009265926 24.722280353307724 7.4974286109209052 117.98292982578278 401.71895262598991
leaf_count=5662 170243 1121 73 647 53 531 13098 85 103 96 364 386 97 114 860 32 34 35 116 135 26 45 216 31 44 20 116 42 506 1640
internal_value=0 0.00317307 0.00621931 -0.00982073 0.0098711 0.0437954 0.00852043 0.0215764 -0.0781812 -0.0290793 -0.0475986 0.00723053 -0.0339308 -0.00358811 0.026058 -0.0847977 -0.0162764 0.0617374 -0.00560578 0.0431969 0.0932325 0.144706 0.016351 -0.0120819 0.0365911 0.0682288 0.0316089 0.0336198 0.0269889 0.0166718
internal_weight=0 6223.66 4620.39 579.683 286.618 124.756 4040.71 914.059 39.2989 293.066 194.079 98.9868 179.05 94.5159 874.76 34.5478 161.861 21.2382 1603.27 59.9682 28.5311 14.171 242.861 91.767 45.3973 36.0084 28.9162 151.094 143.597 601.863
internal_count=196571 26328 19575 2668 1345 584 16907 3809 188 1323 841 482 768 404 3621 146 761 114 6753 258 123 80 1091 427 211 167 136 664 622 2500
is_linear=0
shrinkage=0.3


Tree=20
num_leaves=31
num_cat=0
split_feature=3 0 0 10 9 2 13 14 10 1 0 0 0 5 11 0 1 2 4 14 8 0 12 0 0 0 0 0 0 0
split_gain=0.578536 1.70312 1.71944 6.17467 3.48243 4.39497 2.90819 2.54655 2.32152 2.15865 1.91795 1.8475 1.79129 1.28212 1.25797 2.27607 1.23535 2.90543 5.0637 2.539 4.44756 2.72124 2.25053 2.07579 1.81519 1.65524 2.70536 1.95168 1.66991 1.61909
threshold=1.0000000180025095e-35 53.500000000000007 49.500000000000007 2.5000000000000004 1.5000000000000002 1.0000000180025095e-35 1.0000000180025095e-35 1.0000000180025095e-35 1.5000000000000002 1.0000000180025095e-35 51.500000000000007 52.500000000000007 52.500000000000007 1.0000000180025095e-35 1.0000000180025095e-35 51.500000000000007 1.0000000180025095e-35 1.0000000180025095e-35 1.0000000180025095e-35 1.0000000180025095e-35 1.0000000180025095e-35 44.500000000000007 1.0000000180025095e-35 22.500000000000004 24.500000000000004 26.500000000000004 31.500000000000004 33.500000000000007 29.500000000000004 47.500000000000007
decision_type=2 2 2 2 2 2 2 2 2 2 2 2 2 2 2 2 2 2 2 2 2 2 2 2 2 2 2 2 2 2
left_child=-1 2 16 4 7 10 13 8 14 -10 -6 -9 -8 -7 -4 -16 17 18 22 -19 21 -21 24 -18 -2 -24 28 -28 -27 -26
right_child=1 -3 3 -5 5 6 12 11 9 -11 -12 -13 -14 -15 15 -17 23 19 -20 20 -22 -23 25 -25 29 26 27 -29 -30 -31
leaf_value=-0.00033046918666816038 0.096090979428536741 0.020102331095398794 -0.003418464778198192 0.26006738352057762 -0.33899711755148559 -0.0078388594769906016 0.10676785107481103 -0.044238349864361926 -0.04883198108706692 0.19971727296996303 -0.13032636072645581 -0.19730945568880387 -0.10398491361164612 -0.19755821773376944 -0.24737676562417937 0.029672339378748861 -0.026880299056037244 -0.0098614598211581965 -0.28545466278453624 0.00030141833383926273 -0.24780073692682225 -0.15863855186437295 0.18647577478108643 0.0085652120492501569 -0.0096642440860844198 0.028987438645366646 0.22841458430795547 0.062505296057260101 -0.15726603890744065 0.10955307315966779
leaf_weight=41821.676332950592 18.877199798822403 481.76004365086555 196.65126819908619 6.9175059646368018 7.5713312327861777 4.7517923265695545 12.447651326656343 24.611851394176483 4.7203339487314215 9.422373101115225 8.3208746314048749 9.9715643525123578 5.1236115396022788 9.8542012870311737 5.3494771569967252 5.3257197588682175 158.06851818412542 717.16201494634151 4.7785136550664893 41.54332435131073 10.777970045804976 12.646107733249663 9.2547206431627256 2508.1393889263272 158.87325176596642 10.150977328419687 7.3105155229568473 50.203793346881866 7.55819147825241 10.959884375333784
leaf_count=174818 86 2331 917 41 36 20 63 108 21 53 40 42 26 47 22 22 811 3062 20 177 47 53 44 12588 698 45 33 220 33 47
internal_value=0 0.0032426 0.00123079 -0.020198 -0.0265729 -0.100664 -0.0369142 -0.0126635 -0.000840965 0.11676 -0.229741 -0.0883739 0.0453144 -0.135837 -0.0088631 -0.10916 0.00301949 -0.00564316 0.0207017 -0.0150061 -0.0717964 -0.0367902 0.0260569 0.00646379 0.00783862 0.0667535 0.0520241 0.0835937 -0.0505047 -0.00197076
internal_weight=0 4519.1 4037.34 311.04 304.122 48.0695 32.1773 256.053 221.469 14.1427 15.8922 34.5834 17.5713 14.606 207.326 10.6752 3726.3 1060.1 277.967 782.129 64.9674 54.1894 273.189 2666.21 188.71 84.4782 75.2235 57.5143 17.7092 169.833
internal_count=196571 21753 19422 1458 1417 232 156 1185 1035 74 76 150 89 67 961 44 17964 4565 1226 3339 277 230 1206 13399 831 375 331 253 78 745
is_linear=0
shrinkage=0.3


Tree=21
num_leaves=31
num_cat=0
split_feature=2 0 0 13 6 0 0 0 8 9 12 9 10 4 11 12 9 1 0 8 5 0 9 1 13 0 1 9 0 3
split_gain=0.542583 2.70553 1.95713 4.73643 2.71857 6.21171 2.55669 2.7419 7.12051 8.86972 6.02549 4.41653 7.8606 3.57574 3.20336 2.75914 2.73551 2.6467 4.23201 2.93248 2.51071 4.63339 2.4716 2.4664 3.77588 2.40946 2.40722 3.52738 3.81231 2.3995
threshold=1.0000000180025095e-35 64.500000000000014 51.500000000000007 1.0000000180025095e-35 1.0000000180025095e-35 54.500000000000007 46.500000000000007 45.500000000000007 1.0000000180025095e-35 1.5000000000000002 1.0000000180025095e-35 1.5000000000000002 2.5000000000000004 1.0000000180025095e-35 1.0000000180025095e-35 1.0000000180025095e-35 1.5000000000000002 1.0000000180025095e-35 39.500000000000007 1.0000000180025095e-35 1.0000000180025095e-35 56.500000000000007 1.0000000180025095e-35 1.0000000180025095e-35 1.0000000180025095e-35 35.500000000000007 1.0000000180025095e-35 1.5000000000000002 52.500000000000007 1.0000000180025095e-35
decision_type=2 2 2 2 2 2 2 2 2 2 2 2 2 2 2 2 2 2 2 2 2 2 2 2 2 2 2 2 2 2
left_child=1 2 6 4 -4 -6 7 11 9 10 22 15 14 -12 17 -1 -8 18 19 25 -5 26 -9 29 -25 -13 -22 28 -28 -24
right_child=-2 -3 3 20 5 -7 16 8 -10 -11 13 12 -14 -15 -16 -17 -18 -19 -20 -21 21 -23 23 24 -26 -27 27 -29 -30 -31
leaf_value=-0.0051103002799443471 0.00065239878469132808 -0.012476359914415794 -0.0058017213447136449 0.028418247246961219 0.059371626468074819 -0.42763042977143717 -0.012140855451295967 0.027989909241854575 0.16786766048247262 -0.31542571550911086 -0.036186173270666117 0.05446189964521015 -0.3167834866486442 -0.27778408484225631 -0.12370703987366433 0.0089851613249340764 -0.078922657110683817 0.091225710787996114 -0.14627948636372928 -0.12151938059538764 0.019966362901596684 0.028885466255436115 0.36372486944541427 -0.099282550100252345 0.13048542325486659 0.28023217786396726 0.14328952035480108 -0.17200823977615268 -0.06954293377638647 0.079765004385877927
leaf_weight=5817.0703103691339 33559.344169482589 1785.4168962463737 956.5538070499897 916.32092417031527 5.0643895417451841 4.4095729887485504 964.98749701678753 98.97287529706955 30.265183478593826 7.1907464861869803 41.548350796103477 14.33160068839789 5.174045927822589 6.3570077419280997 8.2125877290964109 1591.8793926611543 58.552773982286453 115.58490595966578 12.126290038228033 5.724951744079589 31.760436177253723 158.52985693514347 6.0190587043762189 8.5689840912818891 25.871557682752609 6.0503263026475897 8.9509939104318601 24.756405636668205 49.255496144294739 4.8252940326929092
leaf_count=25845 140917 7383 4099 3898 23 21 4188 433 129 32 182 76 35 28 35 6949 253 614 54 28 132 648 27 38 115 30 36 104 199 20
internal_value=0 -0.00164521 0.000115215 0.00821944 -0.00738555 -0.167299 -0.00186336 -1.47713e-05 0.032282 0.0116979 0.0239389 -0.000993627 0.0472224 -0.068246 0.058846 -0.00208176 -0.0159612 0.0685928 0.000170068 0.0681939 0.0208919 -0.00434668 0.0545518 0.112604 0.073318 0.121481 -0.0502684 -0.0771561 -0.0368136 0.237374
internal_weight=0 12770.3 10984.9 2155.6 966.028 9.47396 8829.31 7805.77 229.619 199.354 192.163 7576.15 167.205 47.9054 162.031 7408.95 1023.54 153.818 38.2332 26.1069 1189.57 273.253 144.258 45.2849 34.4405 20.3819 114.723 82.9629 58.2065 10.8444
internal_count=196571 55654 48271 9160 4143 44 39111 34670 1004 875 843 33666 872 210 837 32794 4441 802 188 134 5017 1119 633 200 153 106 471 339 235 47
is_linear=0
shrinkage=0.3


end of trees

feature_importances:
idade=245
cs_raca=50
n_sub_abuse=49
cs_sexo=42
other_dishx=36
educ_cat_9-12_years=31
n_of_morb=28
educ_cat_12+_years=28
tobacco_yn=24
educ_cat_5-9_years=24
drug_yn=23
diabetes=21
hiv=20
alcohol_yn=20
educ_cat_under_5=19

parameters:
[boosting: gbdt]
[objective: binary]
[metric: auc]
[tree_learner: serial]
[device_type: cpu]
[data: ]
[valid: ]
[num_iterations: 1000]
[learning_rate: 0.3]
[num_leaves: 31]
[num_threads: -1]
[deterministic: 0]
[force_col_wise: 0]
[force_row_wise: 0]
[histogram_pool_size: -1]
[max_depth: 12]
[min_data_in_leaf: 20]
[min_sum_hessian_in_leaf: 0.001]
[bagging_fraction: 1]
[pos_bagging_fraction: 1]
[neg_bagging_fraction: 1]
[bagging_freq: 0]
[bagging_seed: 400]
[feature_fraction: 1]
[feature_fraction_bynode: 1]
[feature_fraction_seed: 30056]
[extra_trees: 0]
[extra_seed: 12879]
[early_stopping_round: 10]
[first_metric_only: 0]
[max_delta_step: 0]
[lambda_l1: 0]
[lambda_l2: 0]
[linear_lambda: 0]
[min_gain_to_split: 0]
[drop_rate: 0.1]
[max_drop: 50]
[skip_drop: 0.5]
[xgboost_dart_mode: 0]
[uniform_drop: 0]
[drop_seed: 17869]
[top_rate: 0.2]
[other_rate: 0.1]
[min_data_per_group: 100]
[max_cat_threshold: 32]
[cat_l2: 10]
[cat_smooth: 10]
[max_cat_to_onehot: 4]
[top_k: 20]
[monotone_constraints: ]
[monotone_constraints_method: basic]
[monotone_penalty: 0]
[feature_contri: ]
[forcedsplits_filename: ]
[refit_decay_rate: 0.9]
[cegb_tradeoff: 1]
[cegb_penalty_split: 0]
[cegb_penalty_feature_lazy: ]
[cegb_penalty_feature_coupled: ]
[path_smooth: 0]
[interaction_constraints: ]
[verbosity: -1]
[saved_feature_importance_type: 0]
[linear_tree: 0]
[max_bin: 255]
[max_bin_by_feature: ]
[min_data_in_bin: 3]
[bin_construct_sample_cnt: 200000]
[data_random_seed: 175]
[is_enable_sparse: 1]
[enable_bundle: 1]
[use_missing: 1]
[zero_as_missing: 0]
[feature_pre_filter: 1]
[pre_partition: 0]
[two_round: 0]
[header: 0]
[label_column: ]
[weight_column: ]
[group_column: ]
[ignore_column: ]
[categorical_feature: ]
[forcedbins_filename: ]
[precise_float_parser: 0]
[objective_seed: 16083]
[num_class: 1]
[is_unbalance: 0]
[scale_pos_weight: 1]
[sigmoid: 1]
[boost_from_average: 1]
[reg_sqrt: 0]
[alpha: 0.9]
[fair_c: 1]
[poisson_max_delta_step: 0.7]
[tweedie_variance_power: 1.5]
[lambdarank_truncation_level: 30]
[lambdarank_norm: 1]
[label_gain: ]
[eval_at: ]
[multi_error_top_k: 1]
[auc_mu_weights: ]
[num_machines: 1]
[local_listen_port: 12400]
[time_out: 120]
[machine_list_filename: ]
[machines: ]
[gpu_platform_id: -1]
[gpu_device_id: -1]
[gpu_use_dp: 0]
[num_gpu: 1]

end of parameters

pandas_categorical:[]
