{"learner":{"attributes":{"best_iteration":"99","best_ntree_limit":"100","scikit_learn":"{\"use_label_encoder\": false, \"n_estimators\": 100, \"objective\": \"binary:logistic\", \"max_depth\": 4, \"max_leaves\": null, \"max_bin\": null, \"grow_policy\": null, \"learning_rate\": 0.1, \"verbosity\": 0, \"booster\": null, \"tree_method\": null, \"gamma\": null, \"min_child_weight\": 5, \"max_delta_step\": null, \"subsample\": null, \"sampling_method\": null, \"colsample_bytree\": 0.7, \"colsample_bylevel\": null, \"colsample_bynode\": null, \"reg_alpha\": null, \"reg_lambda\": null, \"scale_pos_weight\": null, \"base_score\": null, \"missing\": NaN, \"num_parallel_tree\": null, \"random_state\": 42, \"n_jobs\": 1, \"monotone_constraints\": null, \"interaction_constraints\": null, \"importance_type\": null, \"gpu_id\": null, \"validate_parameters\": null, \"predictor\": null, \"enable_categorical\": false, \"max_cat_to_onehot\": null, \"eval_metric\": \"logloss\", \"early_stopping_rounds\": null, \"callbacks\": null, \"classes_\": [0, 1], \"n_classes_\": 2, \"_estimator_type\": \"classifier\"}"},"feature_names":["idade","cs_raca","cs_sexo","prior_tb","hiv","diabetes","other_dishx","drug_yn","alcohol_yn","tobacco_yn","benef_gov","educ_cat_12+ years","educ_cat_5-9 years","educ_cat_9-12 years","educ_cat_under_5"],"feature_types":["float","float","float","float","float","float","float","float","float","float","float","int","int","int","int"],"gradient_booster":{"model":{"gbtree_model_param":{"num_parallel_tree":"1","num_trees":"100","size_leaf_vector":"0"},"tree_info":[0,0,0,0,0,0,0,0,0,0,0,0,0,0,0,0,0,0,0,0,0,0,0,0,0,0,0,0,0,0,0,0,0,0,0,0,0,0,0,0,0,0,0,0,0,0,0,0,0,0,0,0,0,0,0,0,0,0,0,0,0,0,0,0,0,0,0,0,0,0,0,0,0,0,0,0,0,0,0,0,0,0,0,0,0,0,0,0,0,0,0,0,0,0,0,0,0,0,0,0],"trees":[{"base_weights":[-7.1874005E-1,-8.995798E-1,6.324379E-2,-9.725497E-1,-6.4029075E-2,-1.1083683E-1,7.0617735E-1,-1.0401144E0,-3.2805866E-1,-1.8855932E-1,4.0857333E-1,-1.7785895E-1,3.7322515E-1,6.0240966E-1,1.0252101E0,-1.0981231E0,-7.054851E-1,-4.634787E-1,-2.8396323E-1,-2.4255402E-1,3.3521658E-1,4.1955194E-1,-3.3333334E-1,-2.5390312E-1,1.0359617E-1,3.0972943E-1,8.284519E-1,5.146036E-1,6.257198E-1,9.3607306E-1,1.3969849E0],"categories":[],"categories_nodes":[],"categories_segments":[],"categories_sizes":[],"default_left":[1,1,1,1,1,1,1,1,1,1,1,1,1,1,1,0,0,0,0,0,0,0,0,0,0,0,0,0,0,0,0],"id":0,"left_children":[1,3,5,7,9,11,13,15,17,19,21,23,25,27,29,-1,-1,-1,-1,-1,-1,-1,-1,-1,-1,-1,-1,-1,-1,-1,-1],"loss_changes":[3.8744053E3,1.3566133E3,5.761142E2,8.907715E2,1.0532144E2,1.3149242E2,3.5690674E1,3.5876367E2,1.1472321E1,4.0127377E1,3.1800003E0,7.6199646E1,1.3993546E1,1.3768005E0,7.5652466E0,0E0,0E0,0E0,0E0,0E0,0E0,0E0,0E0,0E0,0E0,0E0,0E0,0E0,0E0,0E0,0E0],"parents":[2147483647,0,0,1,1,2,2,3,3,4,4,5,5,6,6,7,7,8,8,9,9,10,10,11,11,12,12,13,13,14,14],"right_children":[2,4,6,8,10,12,14,16,18,20,22,24,26,28,30,-1,-1,-1,-1,-1,-1,-1,-1,-1,-1,-1,-1,-1,-1,-1,-1],"split_conditions":[5E-1,5E-1,5E-1,5E-1,5E-1,5E-1,5E-1,5E-1,5E-1,5E-1,5E-1,5E-1,5E-1,5E-1,5E-1,-1.0981231E-1,-7.054851E-2,-4.634787E-2,-2.8396323E-2,-2.4255402E-2,3.352166E-2,4.1955195E-2,-3.3333335E-2,-2.5390312E-2,1.0359618E-2,3.0972943E-2,8.284519E-2,5.1460363E-2,6.257198E-2,9.360731E-2,1.3969849E-1],"split_indices":[3,4,7,7,7,4,4,8,1,6,11,8,6,1,6,0,0,0,0,0,0,0,0,0,0,0,0,0,0,0,0],"split_type":[0,0,0,0,0,0,0,0,0,0,0,0,0,0,0,0,0,0,0,0,0,0,0,0,0,0,0,0,0,0,0],"sum_hessian":[2.739625E4,2.22505E4,5.14575E3,2.046325E4,1.78725E3,4.05E3,1.09575E3,1.8521E4,1.94225E3,1.415E3,3.7225E2,3.558E3,4.92E2,8.29E2,2.6675E2,1.578275E4,2.73825E3,4.7475E2,1.4675E3,1.28325E3,1.3175E2,3.6725E2,5E0,2.80125E3,7.5675E2,4.3325E2,5.875E1,1.7875E2,6.5025E2,2.18E2,4.875E1],"tree_param":{"num_deleted":"0","num_feature":"15","num_nodes":"31","size_leaf_vector":"0"}},{"base_weights":[-6.4820045E-1,-8.116049E-1,5.703787E-2,-8.776024E-1,-5.7628155E-2,-9.974539E-2,6.3676625E-1,-9.3879026E-1,-2.9537842E-1,-1.697248E-1,3.6790574E-1,-1.6009955E-1,3.362808E-1,5.428177E-1,9.261267E-1,-9.843803E-1,-5.447456E-1,-2.6613614E-1,-7.106029E-1,-1.3475001E-1,-8.916731E-1,2.4539956E-1,4.2860162E-1,-2.2259131E-1,6.273112E-2,2.788969E-1,7.483009E-1,5.6888336E-1,9.138326E-2,8.4480065E-1,1.2663512E0],"categories":[],"categories_nodes":[],"categories_segments":[],"categories_sizes":[],"default_left":[1,1,1,1,1,1,1,1,1,1,1,1,1,1,1,0,0,0,0,0,0,0,0,0,0,0,0,0,0,0,0],"id":1,"left_children":[1,3,5,7,9,11,13,15,17,19,21,23,25,27,29,-1,-1,-1,-1,-1,-1,-1,-1,-1,-1,-1,-1,-1,-1,-1,-1],"loss_changes":[3.1510605E3,1.1046172E3,4.676655E2,7.2693066E2,8.5345085E1,1.06642105E2,2.9272522E1,3.3128906E2,2.3399338E1,3.5628136E1,2.668953E0,4.9566772E1,1.1442619E1,9.705704E0,6.3188477E0,0E0,0E0,0E0,0E0,0E0,0E0,0E0,0E0,0E0,0E0,0E0,0E0,0E0,0E0,0E0,0E0],"parents":[2147483647,0,0,1,1,2,2,3,3,4,4,5,5,6,6,7,7,8,8,9,9,10,10,11,11,12,12,13,13,14,14],"right_children":[2,4,6,8,10,12,14,16,18,20,22,24,26,28,30,-1,-1,-1,-1,-1,-1,-1,-1,-1,-1,-1,-1,-1,-1,-1,-1],"split_conditions":[5E-1,5E-1,5E-1,5E-1,5E-1,5E-1,5E-1,5E-1,5E-1,5E-1,5E-1,5E-1,5E-1,5E-1,5E-1,-9.843803E-2,-5.4474562E-2,-2.6613614E-2,-7.106029E-2,-1.3475001E-2,-8.916731E-2,2.4539957E-2,4.286016E-2,-2.2259131E-2,6.273112E-3,2.788969E-2,7.483009E-2,5.688834E-2,9.138326E-3,8.448007E-2,1.2663512E-1],"split_indices":[3,4,7,7,7,4,4,6,10,11,1,9,6,10,6,0,0,0,0,0,0,0,0,0,0,0,0,0,0,0,0],"split_type":[0,0,0,0,0,0,0,0,0,0,0,0,0,0,0,0,0,0,0,0,0,0,0,0,0,0,0,0,0,0,0],"sum_hessian":[2.7342277E4,2.2198672E4,5.1436055E3,2.041181E4,1.7868613E3,4.0493237E3,1.0942817E3,1.8470111E4,1.9416993E3,1.4147743E3,3.7208704E2,3.5575283E3,4.917954E2,8.2824567E2,2.6603607E2,1.655342E4,1.9166906E3,1.8154844E3,1.2621491E2,1.3505343E3,6.424002E1,1.24945335E2,2.4714171E2,2.7783538E3,7.7917456E2,4.3314612E2,5.864931E1,7.8278754E2,4.5458103E1,2.1752315E2,4.8512924E1],"tree_param":{"num_deleted":"0","num_feature":"15","num_nodes":"31","size_leaf_vector":"0"}},{"base_weights":[-5.865504E-1,-6.5831965E-1,1.0988095E-1,-7.519441E-1,-2.8024977E-1,-1.0782269E-2,4.5816153E-1,-7.870274E-1,-4.496733E-1,-3.1592494E-1,6.1677314E-2,-6.4689994E-2,4.4022387E-1,3.9401817E-1,8.429365E-1,-8.035111E-1,-2.4903753E-1,-3.9161992E-1,-6.435204E-1,-1.8833984E-1,-4.346047E-1,-1.3549319E-1,2.120762E-1,-2.076799E-1,-5.725964E-3,-4.868547E-1,4.8969674E-1,4.935637E-1,2.7868968E-1,6.1102325E-1,1.3008759E0],"categories":[],"categories_nodes":[],"categories_segments":[],"categories_sizes":[],"default_left":[1,1,1,1,1,1,1,1,1,1,1,1,1,1,1,0,0,0,0,0,0,0,0,0,0,0,0,0,0,0,0],"id":2,"left_children":[1,3,5,7,9,11,13,15,17,19,21,23,25,27,29,-1,-1,-1,-1,-1,-1,-1,-1,-1,-1,-1,-1,-1,-1,-1,-1],"loss_changes":[1.359832E3,8.727871E2,1.0685129E2,2.0927246E2,5.975345E1,4.5961193E1,1.581456E1,1.5685645E2,2.2908295E1,6.706305E1,1.3773091E1,1.4234245E1,9.495655E0,6.321594E0,9.039482E0,0E0,0E0,0E0,0E0,0E0,0E0,0E0,0E0,0E0,0E0,0E0,0E0,0E0,0E0,0E0,0E0],"parents":[2147483647,0,0,1,1,2,2,3,3,4,4,5,5,6,6,7,7,8,8,9,9,10,10,11,11,12,12,13,13,14,14],"right_children":[2,4,6,8,10,12,14,16,18,20,22,24,26,28,30,-1,-1,-1,-1,-1,-1,-1,-1,-1,-1,-1,-1,-1,-1,-1,-1],"split_conditions":[5E-1,5E-1,5E-1,5E-1,5E-1,5E-1,5E-1,7.75E1,5E-1,4.25E1,5E-1,5E-1,2.35E1,3.95E1,5E-1,-8.035111E-2,-2.4903754E-2,-3.916199E-2,-6.435204E-2,-1.8833986E-2,-4.346047E-2,-1.35493195E-2,2.1207621E-2,-2.076799E-2,-5.725964E-4,-4.8685472E-2,4.8969675E-2,4.935637E-2,2.786897E-2,6.1102327E-2,1.300876E-1],"split_indices":[4,8,8,6,6,6,6,0,5,0,9,1,0,0,12,0,0,0,0,0,0,0,0,0,0,0,0,0,0,0,0],"split_type":[0,0,0,0,0,0,0,0,0,0,0,0,0,0,0,0,0,0,0,0,0,0,0,0,0,0,0,0,0,0,0],"sum_hessian":[2.7203785E4,2.4662318E4,2.5414683E3,1.9766414E4,4.895903E3,1.8882467E3,6.532217E2,1.770936E4,2.0570544E3,4.4334155E3,4.6248734E2,1.6874109E3,2.0083575E2,5.616214E2,9.160025E1,1.7182408E4,5.269525E2,1.5853066E3,4.7174774E2,2.1377947E3,2.2956208E3,2.0016862E2,2.6231873E2,4.919331E2,1.1954778E3,9.726613E0,1.9110915E2,2.9967657E2,2.6194482E2,6.2355816E1,2.9244432E1],"tree_param":{"num_deleted":"0","num_feature":"15","num_nodes":"31","size_leaf_vector":"0"}},{"base_weights":[-5.313014E-1,-6.225802E-1,1.0380934E-1,-6.735757E-1,-4.0635042E-2,8.552685E-3,5.181252E-1,-7.3027676E-1,-3.7478596E-1,-9.460844E-2,2.4768527E-1,5.2834604E-2,-2.5629827E-1,7.458116E-1,4.2521632E-1,-8.8244385E-1,-6.408778E-1,-4.5971847E-1,-2.8597495E-1,-1.6616008E-1,-5.105679E-2,5.028776E-1,1.8609741E-1,2.2618972E-1,2.3030529E-2,-4.2829823E-1,-1.5203026E-1,9.6960163E-1,6.728504E-1,6.4735764E-1,3.9137235E-1],"categories":[],"categories_nodes":[],"categories_segments":[],"categories_sizes":[],"default_left":[1,1,1,1,1,1,1,1,1,1,1,1,1,1,1,0,0,0,0,0,0,0,0,0,0,0,0,0,0,0,0],"id":3,"left_children":[1,3,5,7,9,11,13,15,17,19,21,23,25,27,29,-1,-1,-1,-1,-1,-1,-1,-1,-1,-1,-1,-1,-1,-1,-1,-1],"loss_changes":[1.5677002E3,7.01626E2,1.3413686E2,3.6800977E2,2.9683674E1,3.243622E1,1.3123138E1,2.4797168E2,2.6037506E1,4.9966507E0,4.6342525E0,1.2236487E1,7.0399666E0,2.332344E0,3.1565094E0,0E0,0E0,0E0,0E0,0E0,0E0,0E0,0E0,0E0,0E0,0E0,0E0,0E0,0E0,0E0,0E0],"parents":[2147483647,0,0,1,1,2,2,3,3,4,4,5,5,6,6,7,7,8,8,9,9,10,10,11,11,12,12,13,13,14,14],"right_children":[2,4,6,8,10,12,14,16,18,20,22,24,26,28,30,-1,-1,-1,-1,-1,-1,-1,-1,-1,-1,-1,-1,-1,-1,-1,-1],"split_conditions":[5E-1,5E-1,5E-1,5E-1,5E-1,4.65E1,5E-1,5E-1,5E-1,5E-1,5E-1,5E-1,5E-1,2.95E1,2.55E1,-8.8244386E-2,-6.408778E-2,-4.5971848E-2,-2.8597495E-2,-1.6616007E-2,-5.1056794E-3,5.028776E-2,1.8609742E-2,2.2618972E-2,2.303053E-3,-4.2829823E-2,-1.5203026E-2,9.6960165E-2,6.728504E-2,6.473576E-2,3.9137237E-2],"split_indices":[7,4,4,8,8,0,2,2,9,13,2,2,8,0,0,0,0,0,0,0,0,0,0,0,0,0,0,0,0,0,0],"split_type":[0,0,0,0,0,0,0,0,0,0,0,0,0,0,0,0,0,0,0,0,0,0,0,0,0,0,0,0,0,0,0],"sum_hessian":[2.704018E4,2.3642303E4,3.3978782E3,2.1737316E4,1.9049856E3,2.7635273E3,6.343506E2,1.8268984E4,3.4683333E3,1.6051704E3,2.9981516E2,2.36835E3,3.9517725E2,1.8179901E2,4.525516E2,6.75772E3,1.1511264E4,1.7707439E3,1.6975894E3,6.0628345E2,9.9888696E2,5.6896492E1,2.4291866E2,3.4647757E2,2.0218727E3,1.4797342E2,2.4720381E2,4.167675E1,1.4012225E2,5.743542E1,3.9511618E2],"tree_param":{"num_deleted":"0","num_feature":"15","num_nodes":"31","size_leaf_vector":"0"}},{"base_weights":[-4.8212013E-1,-6.2973595E-1,1.4518996E-1,-6.8765825E-1,-1.4185278E-1,2.4167966E-2,5.916414E-1,-7.2960705E-1,-1.5334848E-1,-2.1806507E-1,2.5646263E-1,1.6019921E-1,-1.2080931E-1,6.765322E-1,3.2516778E-1,-7.703216E-1,-3.4480906E-1,-1.9712596E-1,2.7154922E-1,-1.13184854E-1,-3.20998E-1,6.333017E-1,2.2993767E-1,1.3075726E-1,5.692867E-1,-2.0624736E-1,1.2917514E-1,6.278264E-1,8.335693E-1,3.6567566E-1,-3.0254605E-1],"categories":[],"categories_nodes":[],"categories_segments":[],"categories_sizes":[],"default_left":[1,1,1,1,1,1,1,1,1,1,1,1,1,1,1,0,0,0,0,0,0,0,0,0,0,0,0,0,0,0,0],"id":4,"left_children":[1,3,5,7,9,11,13,15,17,19,21,23,25,27,29,-1,-1,-1,-1,-1,-1,-1,-1,-1,-1,-1,-1,-1,-1,-1,-1],"loss_changes":[2.4849653E3,6.1377344E2,2.7621484E2,4.3509863E2,7.007439E1,7.936276E1,2.4443115E1,2.8179297E2,2.636911E1,2.0870827E1,3.5618076E0,2.4930477E1,4.1635216E1,5.7938538E0,6.857462E0,0E0,0E0,0E0,0E0,0E0,0E0,0E0,0E0,0E0,0E0,0E0,0E0,0E0,0E0,0E0,0E0],"parents":[2147483647,0,0,1,1,2,2,3,3,4,4,5,5,6,6,7,7,8,8,9,9,10,10,11,11,12,12,13,13,14,14],"right_children":[2,4,6,8,10,12,14,16,18,20,22,24,26,28,30,-1,-1,-1,-1,-1,-1,-1,-1,-1,-1,-1,-1,-1,-1,-1,-1],"split_conditions":[5E-1,5E-1,5E-1,5E-1,5E-1,4.35E1,4.25E1,6.85E1,5E-1,3.15E1,2.25E1,5E-1,5E-1,5E-1,5E-1,-7.7032164E-2,-3.4480907E-2,-1.9712595E-2,2.7154922E-2,-1.1318485E-2,-3.2099802E-2,6.3330166E-2,2.2993768E-2,1.3075726E-2,5.6928672E-2,-2.0624736E-2,1.2917514E-2,6.278264E-2,8.335693E-2,3.6567565E-2,-3.0254606E-2],"split_indices":[3,7,7,4,4,0,0,0,6,0,0,6,8,4,10,0,0,0,0,0,0,0,0,0,0,0,0,0,0,0,0],"split_type":[0,0,0,0,0,0,0,0,0,0,0,0,0,0,0,0,0,0,0,0,0,0,0,0,0,0,0,0,0,0,0],"sum_hessian":[2.6833232E4,2.1721762E4,5.111472E3,1.9416225E4,2.3055369E3,4.0222056E3,1.0892667E3,1.800248E4,1.4137441E3,1.9356322E3,3.6990466E2,2.075073E3,1.9471326E3,8.249292E2,2.6433746E2,1.6279033E4,1.7234464E3,1.2821768E3,1.315674E2,9.5978723E2,9.75845E2,2.2820402E1,3.4708426E2,1.9369879E3,1.3808505E2,1.4512938E3,4.9583875E2,6.334572E2,1.9147202E2,2.4870535E2,1.5632099E1],"tree_param":{"num_deleted":"0","num_feature":"15","num_nodes":"31","size_leaf_vector":"0"}},{"base_weights":[-4.3830392E-1,-5.7361275E-1,1.3088374E-1,-6.271193E-1,-1.2784807E-1,2.1759007E-2,5.352865E-1,-6.6661936E-1,-2.8764772E-1,-1.0219975E-1,-4.9056044E-1,1.4407785E-1,-1.0888213E-1,5.934506E-1,2.0203702E-1,-7.09235E-1,-4.2760548E-1,-3.5568905E-1,1.1935573E-1,-5.306959E-2,-2.2175957E-1,-5.858185E-1,-3.2527864E-1,1.17580436E-1,5.121746E-1,-1.8598548E-1,1.1624607E-1,6.771354E-1,4.9696395E-1,2.5783777E-1,-5.0958276E-1],"categories":[],"categories_nodes":[],"categories_segments":[],"categories_sizes":[],"default_left":[1,1,1,1,1,1,1,1,1,1,1,1,1,1,1,0,0,0,0,0,0,0,0,0,0,0,0,0,0,0,0],"id":5,"left_children":[1,3,5,7,9,11,13,15,17,19,21,23,25,27,29,-1,-1,-1,-1,-1,-1,-1,-1,-1,-1,-1,-1,-1,-1,-1,-1],"loss_changes":[2.0475093E3,5.122158E2,2.253511E2,2.5695068E2,2.137569E1,6.429647E1,2.0913605E1,1.7465771E2,5.5443237E1,1.2630695E1,2.2000885E0,2.0206871E1,3.3795395E1,7.1192627E0,6.5947585E0,0E0,0E0,0E0,0E0,0E0,0E0,0E0,0E0,0E0,0E0,0E0,0E0,0E0,0E0,0E0,0E0],"parents":[2147483647,0,0,1,1,2,2,3,3,4,4,5,5,6,6,7,7,8,8,9,9,10,10,11,11,12,12,13,13,14,14],"right_children":[2,4,6,8,10,12,14,16,18,20,22,24,26,28,30,-1,-1,-1,-1,-1,-1,-1,-1,-1,-1,-1,-1,-1,-1,-1,-1],"split_conditions":[5E-1,5E-1,5E-1,5E-1,5E-1,4.35E1,4.65E1,5E-1,5E-1,3.95E1,3.55E1,5E-1,5E-1,3.35E1,5E-1,-7.09235E-2,-4.2760547E-2,-3.5568904E-2,1.1935573E-2,-5.306959E-3,-2.2175958E-2,-5.8581855E-2,-3.2527864E-2,1.1758043E-2,5.1217463E-2,-1.8598547E-2,1.1624607E-2,6.7713544E-2,4.9696397E-2,2.5783777E-2,-5.0958276E-2],"split_indices":[3,7,7,6,10,0,0,8,8,0,0,6,8,0,10,0,0,0,0,0,0,0,0,0,0,0,0,0,0,0,0],"split_type":[0,0,0,0,0,0,0,0,0,0,0,0,0,0,0,0,0,0,0,0,0,0,0,0,0,0,0,0,0,0,0],"sum_hessian":[2.658349E4,2.1477736E4,5.105753E3,1.917562E4,2.3021182E3,4.0216086E3,1.084144E3,1.7176088E4,1.9995309E3,2.1512776E3,1.5084059E2,2.076906E3,1.9447028E3,9.2237524E2,1.6176874E2,1.4575364E4,2.6007234E3,1.7132434E3,2.862875E2,1.5257516E3,6.25526E2,9.407645E1,5.6764145E1,1.9386704E3,1.3823561E2,1.4487123E3,4.9599045E2,4.9073413E2,4.316411E2,1.505975E2,1.1171232E1],"tree_param":{"num_deleted":"0","num_feature":"15","num_nodes":"31","size_leaf_vector":"0"}},{"base_weights":[-3.9865747E-1,-5.227604E-1,1.1801827E-1,-5.697568E-1,-8.694029E-3,1.9594744E-2,4.8470405E-1,-6.1224496E-1,-1.8421842E-1,1.9272108E-2,-6.9717103E-1,-1.7762914E-2,2.8806326E-1,4.2885685E-1,6.614844E-1,-7.7222943E-1,-5.319015E-1,-3.0442595E-1,-1.4521329E-1,-4.477593E-2,2.5508204E-1,-7.5515556E-1,-1.15759335E-1,-1.7560086E-1,4.6955522E-2,2.2869167E-1,5.6041664E-1,4.3991968E-1,1.8543932E-1,5.886784E-1,9.7630745E-1],"categories":[],"categories_nodes":[],"categories_segments":[],"categories_sizes":[],"default_left":[1,1,1,1,1,1,1,1,1,1,1,1,1,1,1,0,0,0,0,0,0,0,0,0,0,0,0,0,0,0,0],"id":6,"left_children":[1,3,5,7,9,11,13,15,17,19,21,23,25,27,29,-1,-1,-1,-1,-1,-1,-1,-1,-1,-1,-1,-1,-1,-1,-1,-1],"loss_changes":[1.6881196E3,5.128384E2,1.8403539E2,3.1848633E2,3.426847E1,4.0337635E1,1.0369827E1,2.2476562E2,9.014816E0,2.584742E1,2.2547455E0,3.607909E1,7.81604E0,2.1343384E0,5.3208923E0,0E0,0E0,0E0,0E0,0E0,0E0,0E0,0E0,0E0,0E0,0E0,0E0,0E0,0E0,0E0,0E0],"parents":[2147483647,0,0,1,1,2,2,3,3,4,4,5,5,6,6,7,7,8,8,9,9,10,10,11,11,12,12,13,13,14,14],"right_children":[2,4,6,8,10,12,14,16,18,20,22,24,26,28,30,-1,-1,-1,-1,-1,-1,-1,-1,-1,-1,-1,-1,-1,-1,-1,-1],"split_conditions":[5E-1,5E-1,5E-1,5E-1,5E-1,5E-1,5E-1,5E-1,5E-1,5E-1,5E-1,5E-1,5E-1,5E-1,5E-1,-7.722294E-2,-5.319015E-2,-3.0442595E-2,-1.452133E-2,-4.477593E-3,2.5508204E-2,-7.551556E-2,-1.1575934E-2,-1.7560085E-2,4.6955524E-3,2.2869168E-2,5.6041665E-2,4.3991968E-2,1.8543933E-2,5.8867842E-2,9.763075E-2],"split_indices":[3,4,7,7,11,4,4,2,1,7,8,2,8,5,6,0,0,0,0,0,0,0,0,0,0,0,0,0,0,0,0],"split_type":[0,0,0,0,0,0,0,0,0,0,0,0,0,0,0,0,0,0,0,0,0,0,0,0,0,0,0,0,0,0,0],"sum_hessian":[2.6325148E4,2.1226611E4,5.098537E3,1.9448502E4,1.7781088E3,4.020447E3,1.07809E3,1.7517412E4,1.9310912E3,1.7096349E3,6.847386E1,3.530156E3,4.902909E2,8.2187494E2,2.5621503E2,5.8533276E3,1.1664084E4,4.7142624E2,1.4596649E3,1.3451033E3,3.6453168E2,6.1992485E1,6.4813757E0,1.0260559E3,2.5041E3,4.0404987E2,8.624102E1,7.853741E2,3.650087E1,2.1042256E2,4.5792465E1],"tree_param":{"num_deleted":"0","num_feature":"15","num_nodes":"31","size_leaf_vector":"0"}},{"base_weights":[-3.6289927E-1,-4.364387E-1,-1.3844146E-1,-4.102005E-1,-9.497091E-1,-1.7986923E-1,1.7284581E-1,-5.515002E-1,-3.4209463E-1,-9.913709E-1,-6.2206054E-1,-3.102113E-2,-2.9928163E-1,1.420531E-1,8.3969706E-1,-5.750964E-1,-1.8825844E-1,-3.7034497E-1,-5.6660537E-2,-1.0211513E0,-7.187968E-1,-2.5091124E-1,-6.5953696E-1,6.571952E-2,-1.1646031E-1,-3.1541908E-1,4.468704E-1,1.5364109E-1,-3.649115E-1,4.5261455E-1,1.0902078E0],"categories":[],"categories_nodes":[],"categories_segments":[],"categories_sizes":[],"default_left":[1,1,1,1,1,1,1,1,1,1,1,1,1,1,1,0,0,0,0,0,0,0,0,0,0,0,0,0,0,0,0],"id":7,"left_children":[1,3,5,7,9,11,13,15,17,19,21,23,25,27,29,-1,-1,-1,-1,-1,-1,-1,-1,-1,-1,-1,-1,-1,-1,-1,-1],"loss_changes":[4.2993872E2,2.6385425E2,8.2953606E1,1.7946631E2,1.2398865E1,1.0086653E2,1.5399487E1,5.1918945E1,1.01577515E2,6.1190186E0,1.3679771E0,2.0897966E1,3.8057373E1,4.3069954E0,2.7214394E0,0E0,0E0,0E0,0E0,0E0,0E0,0E0,0E0,0E0,0E0,0E0,0E0,0E0,0E0,0E0,0E0],"parents":[2147483647,0,0,1,1,2,2,3,3,4,4,5,5,6,6,7,7,8,8,9,9,10,10,11,11,12,12,13,13,14,14],"right_children":[2,4,6,8,10,12,14,16,18,20,22,24,26,28,30,-1,-1,-1,-1,-1,-1,-1,-1,-1,-1,-1,-1,-1,-1,-1,-1],"split_conditions":[5E-1,5E-1,5E-1,5E-1,5E-1,3.95E1,7.55E1,7.35E1,5E-1,5.85E1,2.55E1,2.95E1,7.75E1,5E-1,5E-1,-5.7509642E-2,-1.8825844E-2,-3.7034497E-2,-5.666054E-3,-1.0211513E-1,-7.187968E-2,-2.5091125E-2,-6.5953694E-2,6.5719523E-3,-1.1646031E-2,-3.154191E-2,4.468704E-2,1.536411E-2,-3.6491152E-2,4.5261454E-2,1.09020784E-1],"split_indices":[9,11,6,2,6,0,0,0,6,0,0,0,0,11,1,0,0,0,0,0,0,0,0,0,0,0,0,0,0,0,0],"split_type":[0,0,0,0,0,0,0,0,0,0,0,0,0,0,0,0,0,0,0,0,0,0,0,0,0,0,0,0,0,0,0],"sum_hessian":[2.6049295E4,1.9620168E4,6.429127E3,1.8667682E4,9.52486E2,5.674373E3,7.5475366E2,6.0690605E3,1.2598621E4,8.4323914E2,1.0924688E2,2.5264285E3,3.1479448E3,7.225997E2,3.2153954E1,5.698315E3,3.7074557E2,1.1463722E4,1.1348995E3,7.577086E2,8.5530525E1,1.0725143E1,9.8521736E1,1.1849592E3,1.3414691E3,3.0818687E3,6.6076035E1,7.0713324E2,1.546642E1,1.3736089E1,1.8417866E1],"tree_param":{"num_deleted":"0","num_feature":"15","num_nodes":"31","size_leaf_vector":"0"}},{"base_weights":[-3.2941476E-1,-4.4431558E-1,1.4025408E-1,-4.8836714E-1,2.775313E-2,5.4489218E-2,4.599275E-1,-5.442458E-1,-2.4752936E-1,-2.8773407E-2,2.4200344E-1,1.6606297E-1,-6.498527E-2,5.120286E-1,1.6330765E-1,-5.802232E-1,-1.458721E-1,-2.810786E-1,6.635185E-2,-6.230883E-2,2.933949E-1,4.2306975E-1,1.7384978E-1,1.4338581E-1,4.8060167E-1,-1.3132963E-1,1.2761249E-1,4.6484914E-1,6.611878E-1,2.1080573E-1,-2.647031E-1],"categories":[],"categories_nodes":[],"categories_segments":[],"categories_sizes":[],"default_left":[1,1,1,1,1,1,1,1,1,1,1,1,1,1,1,0,0,0,0,0,0,0,0,0,0,0,0,0,0,0,0],"id":8,"left_children":[1,3,5,7,9,11,13,15,17,19,21,23,25,27,29,-1,-1,-1,-1,-1,-1,-1,-1,-1,-1,-1,-1,-1,-1,-1,-1],"loss_changes":[1.3947993E3,4.3183545E2,1.3927306E2,2.554668E2,2.1482986E1,5.342678E1,1.6523972E1,2.2085498E2,3.770366E1,1.5187145E1,4.495987E0,1.4712906E1,2.4751648E1,6.1219177E0,3.349718E0,0E0,0E0,0E0,0E0,0E0,0E0,0E0,0E0,0E0,0E0,0E0,0E0,0E0,0E0,0E0,0E0],"parents":[2147483647,0,0,1,1,2,2,3,3,4,4,5,5,6,6,7,7,8,8,9,9,10,10,11,11,12,12,13,13,14,14],"right_children":[2,4,6,8,10,12,14,16,18,20,22,24,26,28,30,-1,-1,-1,-1,-1,-1,-1,-1,-1,-1,-1,-1,-1,-1,-1,-1],"split_conditions":[5E-1,5E-1,5E-1,5E-1,5E-1,4.35E1,4.65E1,7.05E1,5E-1,5E-1,5E-1,5E-1,5E-1,5E-1,5E-1,-5.802232E-2,-1.45872105E-2,-2.8107861E-2,6.6351853E-3,-6.230883E-3,2.933949E-2,4.2306975E-2,1.7384978E-2,1.4338582E-2,4.8060168E-2,-1.3132962E-2,1.2761249E-2,4.6484914E-2,6.6118784E-2,2.1080574E-2,-2.647031E-2],"split_indices":[3,4,7,8,7,0,0,0,6,6,2,6,8,4,5,0,0,0,0,0,0,0,0,0,0,0,0,0,0,0,0],"split_type":[0,0,0,0,0,0,0,0,0,0,0,0,0,0,0,0,0,0,0,0,0,0,0,0,0,0,0,0,0,0,0],"sum_hessian":[2.5844053E4,2.0764287E4,5.079767E3,1.8991996E4,1.772291E3,4.0061357E3,1.0736317E3,1.5414336E4,3.5776597E3,1.402998E3,3.6929303E2,2.0713616E3,1.9347742E3,9.126066E2,1.61025E2,1.4137145E4,1.2771917E3,3.2322812E3,3.453784E2,1.2714552E3,1.3154283E2,9.956568E1,2.6972733E2,1.9334242E3,1.379373E2,1.4392963E3,4.9547784E2,6.9643805E2,2.1616861E2,1.4539717E2,1.56278305E1],"tree_param":{"num_deleted":"0","num_feature":"15","num_nodes":"31","size_leaf_vector":"0"}},{"base_weights":[-2.9985446E-1,-4.0532315E-1,1.264886E-1,-4.493582E-1,-5.408846E-2,4.905261E-2,4.1710973E-1,-4.8465952E-1,-1.5302207E-1,-3.0558567E-2,-3.8893345E-1,1.4934771E-1,-5.8560494E-2,5.099E-1,2.7279684E-1,-6.1720765E-1,-4.2211038E-1,-2.2140846E-1,8.453332E-2,2.1348095E-1,-7.05929E-2,-1.5441258E-1,-5.064404E-1,1.7448546E-1,-2.0122814E-1,-1.2297672E-1,1.148765E-1,6.1418563E-1,4.5656165E-1,3.1143108E-1,-3.2295766E-1],"categories":[],"categories_nodes":[],"categories_segments":[],"categories_sizes":[],"default_left":[1,1,1,1,1,1,1,1,1,1,1,1,1,1,1,0,0,0,0,0,0,0,0,0,0,0,0,0,0,0,0],"id":9,"left_children":[1,3,5,7,9,11,13,15,17,19,21,23,25,27,29,-1,-1,-1,-1,-1,-1,-1,-1,-1,-1,-1,-1,-1,-1,-1,-1],"loss_changes":[1.1501042E3,3.171057E2,1.1414533E2,1.9052368E2,1.7994488E1,4.3254723E1,1.4151367E1,1.3471216E2,3.1549244E1,2.0887943E1,4.0545845E0,1.8314499E1,2.1616789E1,3.3262024E0,9.762749E0,0E0,0E0,0E0,0E0,0E0,0E0,0E0,0E0,0E0,0E0,0E0,0E0,0E0,0E0,0E0,0E0],"parents":[2147483647,0,0,1,1,2,2,3,3,4,4,5,5,6,6,7,7,8,8,9,9,10,10,11,11,12,12,13,13,14,14],"right_children":[2,4,6,8,10,12,14,16,18,20,22,24,26,28,30,-1,-1,-1,-1,-1,-1,-1,-1,-1,-1,-1,-1,-1,-1,-1,-1],"split_conditions":[5E-1,5E-1,5E-1,5E-1,5E-1,4.35E1,3.75E1,5E-1,5E-1,5E-1,5E-1,5E-1,5E-1,2.65E1,5E-1,-6.1720766E-2,-4.2211037E-2,-2.2140846E-2,8.453332E-3,2.1348095E-2,-7.0592905E-3,-1.5441258E-2,-5.064404E-2,1.7448546E-2,-2.0122815E-2,-1.2297672E-2,1.1487651E-2,6.1418563E-2,4.5656167E-2,3.1143108E-2,-3.2295767E-2],"split_indices":[3,7,7,6,10,0,0,2,9,2,9,10,9,0,10,0,0,0,0,0,0,0,0,0,0,0,0,0,0,0,0],"split_type":[0,0,0,0,0,0,0,0,0,0,0,0,0,0,0,0,0,0,0,0,0,0,0,0,0,0,0,0,0,0,0],"sum_hessian":[2.5575148E4,2.0503135E4,5.072013E3,1.8218732E4,2.2844016E3,4.005829E3,1.0661841E3,1.6278862E4,1.9398712E3,2.1354338E3,1.4896779E2,2.073213E3,1.9326162E3,6.4739136E2,4.187927E2,5.216242E3,1.106262E4,1.5063094E3,4.3356177E2,3.003347E2,1.8350991E3,5.0497902E1,9.846988E1,1.9349698E3,1.3824309E2,1.4094307E3,5.231856E2,2.1551234E2,4.3187903E2,3.9373645E2,2.5056263E1],"tree_param":{"num_deleted":"0","num_feature":"15","num_nodes":"31","size_leaf_vector":"0"}},{"base_weights":[-2.728176E-1,-3.6954847E-1,1.14051394E-1,-4.1029176E-1,-4.8742514E-2,4.4138E-2,3.7825438E-1,-4.3670776E-1,-5.1619984E-2,-2.750979E-2,-3.520672E-1,1.2681466E-1,-6.1683226E-2,4.2395586E-1,1.210198E-1,-4.1490474E-1,-8.530482E-1,-1.4548753E-1,3.7845242E-1,1.590741E-2,-1.3355349E-1,-1.3956915E-1,-4.5889205E-1,1.4576344E-1,-5.1414466E-1,-1.843177E-1,3.834548E-2,5.591226E-1,3.811348E-1,1.6821706E-1,-4.72003E-1],"categories":[],"categories_nodes":[],"categories_segments":[],"categories_sizes":[],"default_left":[1,1,1,1,1,1,1,1,1,1,1,1,1,1,1,0,0,0,0,0,0,0,0,0,0,0,0,0,0,0,0],"id":10,"left_children":[1,3,5,7,9,11,13,15,17,19,21,23,25,27,29,-1,-1,-1,-1,-1,-1,-1,-1,-1,-1,-1,-1,-1,-1,-1,-1],"loss_changes":[9.4764075E2,2.6475488E2,9.3553566E1,1.7027759E2,1.4699754E1,3.5063484E1,1.24084015E1,1.5161304E2,4.987624E1,9.834676E0,3.3257809E0,2.73989E1,2.15737E1,4.993576E0,4.5938034E0,0E0,0E0,0E0,0E0,0E0,0E0,0E0,0E0,0E0,0E0,0E0,0E0,0E0,0E0,0E0,0E0],"parents":[2147483647,0,0,1,1,2,2,3,3,4,4,5,5,6,6,7,7,8,8,9,9,10,10,11,11,12,12,13,13,14,14],"right_children":[2,4,6,8,10,12,14,16,18,20,22,24,26,28,30,-1,-1,-1,-1,-1,-1,-1,-1,-1,-1,-1,-1,-1,-1,-1,-1],"split_conditions":[5E-1,5E-1,5E-1,7.15E1,5E-1,4.55E1,4.65E1,5E-1,8.35E1,3.95E1,5E-1,5E-1,5E-1,2.65E1,5E-1,-4.1490477E-2,-8.530482E-2,-1.4548753E-2,3.7845243E-2,1.5907411E-3,-1.3355349E-2,-1.3956915E-2,-4.5889206E-2,1.4576345E-2,-5.1414467E-2,-1.843177E-2,3.834548E-3,5.5912264E-2,3.8113482E-2,1.6821707E-2,-4.7200304E-2],"split_indices":[3,7,7,0,10,0,0,11,0,0,9,11,13,0,10,0,0,0,0,0,0,0,0,0,0,0,0,0,0,0,0],"split_type":[0,0,0,0,0,0,0,0,0,0,0,0,0,0,0,0,0,0,0,0,0,0,0,0,0,0,0,0,0,0,0],"sum_hessian":[2.5320852E4,2.0256146E4,5.0647036E3,1.7973217E4,2.2829294E3,4.0058442E3,1.0588595E3,1.67401E4,1.2331188E3,2.1345984E3,1.4833116E2,2.248738E3,1.7571063E3,8.985676E2,1.6029181E2,1.5908971E4,8.3112854E2,1.01274E3,2.2037877E2,1.5151176E3,6.194807E2,5.0393658E1,9.79375E1,2.1849175E3,6.3820457E1,7.889799E2,9.6812634E2,2.1328035E2,6.852873E2,1.4913858E2,1.1153238E1],"tree_param":{"num_deleted":"0","num_feature":"15","num_nodes":"31","size_leaf_vector":"0"}},{"base_weights":[-2.481064E-1,-3.3674347E-1,1.02822356E-1,-3.784685E-1,9.6944556E-2,3.970077E-2,3.4307486E-1,-4.293518E-1,-1.6430925E-1,1.2096342E-1,-2.3919879E-1,7.0044165E-3,2.743395E-1,3.7413505E-1,1.1717804E-2,-4.5669672E-1,-2.170145E-2,-1.9289665E-1,9.8669715E-2,7.029018E-2,2.852212E-1,-3.1829655E-1,4.2278737E-2,8.3200336E-2,-9.956903E-2,2.239434E-1,5.063685E-1,3.2401592E-1,5.3312916E-1,-2.7798048E-1,1.7020452E-1],"categories":[],"categories_nodes":[],"categories_segments":[],"categories_sizes":[],"default_left":[1,1,1,1,1,1,1,1,1,1,1,1,1,1,1,0,0,0,0,0,0,0,0,0,0,0,0,0,0,0,0],"id":11,"left_children":[1,3,5,7,9,11,13,15,17,19,21,23,25,27,29,-1,-1,-1,-1,-1,-1,-1,-1,-1,-1,-1,-1,-1,-1,-1,-1],"loss_changes":[7.8019666E2,3.6238403E2,7.669665E1,1.9898486E2,1.4224415E1,3.0739128E1,1.0826241E1,1.6451392E2,2.6395561E1,1.3644016E1,2.6315055E0,2.8575697E1,5.6169243E0,7.493988E0,4.235538E0,0E0,0E0,0E0,0E0,0E0,0E0,0E0,0E0,0E0,0E0,0E0,0E0,0E0,0E0,0E0,0E0],"parents":[2147483647,0,0,1,1,2,2,3,3,4,4,5,5,6,6,7,7,8,8,9,9,10,10,11,11,12,12,13,13,14,14],"right_children":[2,4,6,8,10,12,14,16,18,20,22,24,26,28,30,-1,-1,-1,-1,-1,-1,-1,-1,-1,-1,-1,-1,-1,-1,-1,-1],"split_conditions":[5E-1,5E-1,5E-1,5E-1,5E-1,5E-1,5.05E1,7.35E1,5E-1,5E-1,5E-1,4.75E1,5E-1,5E-1,5E-1,-4.566967E-2,-2.170145E-3,-1.9289665E-2,9.8669715E-3,7.029018E-3,2.8522119E-2,-3.1829655E-2,4.227874E-3,8.320034E-3,-9.956903E-3,2.239434E-2,5.0636854E-2,3.240159E-2,5.3312916E-2,-2.7798047E-2,1.7020453E-2],"split_indices":[3,4,7,8,10,4,0,0,6,8,7,0,8,4,8,0,0,0,0,0,0,0,0,0,0,0,0,0,0,0,0],"split_type":[0,0,0,0,0,0,0,0,0,0,0,0,0,0,0,0,0,0,0,0,0,0,0,0,0,0,0,0,0,0,0],"sum_hessian":[2.5080326E4,2.002299E4,5.0573364E3,1.8265771E4,1.7572197E3,4.0060034E3,1.0513328E3,1.4758268E4,3.5075037E3,1.64063E3,1.165898E2,3.516954E3,4.8904938E2,9.611125E2,9.022023E1,1.3830413E4,9.2785455E2,3.1638413E3,3.436622E2,1.2549178E3,3.857121E2,9.091191E1,2.5677885E1,2.050876E3,1.4660781E3,4.0339764E2,8.565174E1,7.3306805E2,2.2804443E2,3.1636969E1,5.8583263E1],"tree_param":{"num_deleted":"0","num_feature":"15","num_nodes":"31","size_leaf_vector":"0"}},{"base_weights":[-2.2567685E-1,-2.7335197E-1,8.368429E-2,-2.531536E-1,-7.2378325E-1,2.6264054E-1,4.6949748E-2,-2.8385428E-1,2.4698328E-3,-7.6454276E-1,-4.2895803E-1,3.183667E-1,-8.926201E-2,6.4462505E-2,-3.0797437E-1,-3.2124048E-1,-1.0535154E-1,-4.2236976E-2,2.2977914E-1,-7.833452E-1,-3.0150625E-1,-3.6131203E-2,-4.6866387E-1,7.113196E-1,3.0149072E-1,6.965869E-2,-8.5678524E-1,1.3586867E-1,-9.460732E-3,-7.608802E-2,-4.2940566E-1],"categories":[],"categories_nodes":[],"categories_segments":[],"categories_sizes":[],"default_left":[1,1,1,1,1,1,1,1,1,1,1,1,1,1,1,0,0,0,0,0,0,0,0,0,0,0,0,0,0,0,0],"id":12,"left_children":[1,3,5,7,9,11,13,15,17,19,21,23,25,27,29,-1,-1,-1,-1,-1,-1,-1,-1,-1,-1,-1,-1,-1,-1,-1,-1],"loss_changes":[3.6635852E2,1.9562231E2,2.1796022E1,1.6166333E2,1.0765259E1,1.1103802E1,1.7135712E1,1.226991E2,2.2465958E1,6.813507E0,1.7674236E0,3.0202904E0,9.572619E0,1.3857516E1,3.6181984E0,0E0,0E0,0E0,0E0,0E0,0E0,0E0,0E0,0E0,0E0,0E0,0E0,0E0,0E0,0E0,0E0],"parents":[2147483647,0,0,1,1,2,2,3,3,4,4,5,5,6,6,7,7,8,8,9,9,10,10,11,11,12,12,13,13,14,14],"right_children":[2,4,6,8,10,12,14,16,18,20,22,24,26,28,30,-1,-1,-1,-1,-1,-1,-1,-1,-1,-1,-1,-1,-1,-1,-1,-1],"split_conditions":[5E-1,5E-1,5E-1,5E-1,5E-1,5E-1,5E-1,5E-1,5E-1,5E-1,2.55E1,1.95E1,4.35E1,3.35E1,5E-1,-3.212405E-2,-1.0535154E-2,-4.223698E-3,2.2977915E-2,-7.8334525E-2,-3.0150626E-2,-3.6131204E-3,-4.6866387E-2,7.113197E-2,3.0149072E-2,6.965869E-3,-8.5678525E-2,1.3586867E-2,-9.4607327E-4,-7.608802E-3,-4.294057E-2],"split_indices":[7,11,2,6,6,10,10,8,8,8,0,0,0,0,9,0,0,0,0,0,0,0,0,0,0,0,0,0,0,0,0],"split_type":[0,0,0,0,0,0,0,0,0,0,0,0,0,0,0,0,0,0,0,0,0,0,0,0,0,0,0,0,0,0,0],"sum_hessian":[2.4837291E4,2.1520865E4,3.316427E3,2.0598732E4,9.221319E2,5.637771E2,2.75265E3,1.8389967E4,2.2087664E3,8.087318E2,1.1340013E2,4.867864E2,7.699067E1,2.6239944E3,1.2865543E2,1.5204653E4,3.1853135E3,1.8464282E3,3.623382E2,7.765085E2,3.222334E1,1.0585292E1,1.0281484E2,1.8350496E1,4.684359E2,6.453709E1,1.2453582E1,1.3342944E3,1.2897001E3,4.4776466E1,8.387897E1],"tree_param":{"num_deleted":"0","num_feature":"15","num_nodes":"31","size_leaf_vector":"0"}},{"base_weights":[-2.0481102E-1,-2.4727651E-1,1.747194E-1,-2.850041E-1,2.3970459E-2,1.9300792E-1,-3.77697E-1,-2.6675314E-1,-6.966562E-1,-8.452523E-2,5.7394795E-2,1.6060519E-1,4.3968436E-1,-4.184174E-1,7.772968E-2,-2.9523328E-1,-3.301632E-2,-7.381484E-1,-4.133537E-1,-1.1159054E-1,1.316341E-1,2.291641E-2,8.0404595E-2,1.1658655E-1,2.8954586E-1,3.3853143E-1,6.7690057E-1,-5.7523733E-1,-2.8695428E-1],"categories":[],"categories_nodes":[],"categories_segments":[],"categories_sizes":[],"default_left":[1,1,1,1,1,1,1,1,1,1,1,1,1,1,0,0,0,0,0,0,0,0,0,0,0,0,0,0,0],"id":13,"left_children":[1,3,5,7,9,11,13,15,17,19,21,23,25,27,-1,-1,-1,-1,-1,-1,-1,-1,-1,-1,-1,-1,-1,-1,-1],"loss_changes":[3.973225E2,2.2688025E2,2.5139137E1,1.460387E2,9.825027E0,1.9130539E1,1.5132828E0,1.2406128E2,9.4002075E0,3.7482696E0,1.6410055E0,1.2026798E1,6.449646E0,1.3491735E0,0E0,0E0,0E0,0E0,0E0,0E0,0E0,0E0,0E0,0E0,0E0,0E0,0E0,0E0,0E0],"parents":[2147483647,0,0,1,1,2,2,3,3,4,4,5,5,6,6,7,7,8,8,9,9,10,10,11,11,12,12,13,13],"right_children":[2,4,6,8,10,12,14,16,18,20,22,24,26,28,-1,-1,-1,-1,-1,-1,-1,-1,-1,-1,-1,-1,-1,-1,-1],"split_conditions":[5E-1,5E-1,5E-1,5E-1,5E-1,5E-1,5E-1,5E-1,5E-1,5E-1,5E-1,5E-1,5E-1,5E-1,7.772968E-3,-2.9523328E-2,-3.3016321E-3,-7.381484E-2,-4.133537E-2,-1.1159054E-2,1.316341E-2,2.291641E-3,8.04046E-3,1.16586555E-2,2.8954586E-2,3.3853143E-2,6.769006E-2,-5.7523735E-2,-2.8695429E-2],"split_indices":[4,7,11,11,1,6,6,6,6,6,9,8,12,1,0,0,0,0,0,0,0,0,0,0,0,0,0,0,0],"split_type":[0,0,0,0,0,0,0,0,0,0,0,0,0,0,0,0,0,0,0,0,0,0,0,0,0,0,0,0,0],"sum_hessian":[2.4648785E4,2.2168688E4,2.480097E3,1.9461717E4,2.7069712E3,2.4012507E3,7.8846214E1,1.8637072E4,8.246444E2,6.371731E2,2.069798E3,2.123911E3,2.773399E2,7.2449646E1,6.396569E0,1.6612611E4,2.024461E3,7.1789655E2,1.0674791E2,5.6670026E2,7.047279E1,8.292411E2,1.240557E3,1.584789E3,5.391218E2,1.9613277E2,8.120715E1,3.1499184E1,4.095046E1],"tree_param":{"num_deleted":"0","num_feature":"15","num_nodes":"29","size_leaf_vector":"0"}},{"base_weights":[-1.8589075E-1,-2.66976E-1,1.2802704E-1,-3.024425E-1,9.1218434E-2,2.1230178E-1,1.5263449E-2,-4.443342E-1,-2.3997173E-1,1.12788446E-1,-2.1129712E-1,1.5525444E-1,3.5357812E-1,-4.779046E-2,1.5932277E-1,-4.9480757E-1,-1.6800979E-1,-2.6147404E-1,7.596633E-2,2.5591317E-1,5.8334496E-2,-1.3244167E-1,-4.884269E-1,1.0268575E-1,2.9180005E-1,4.540747E-1,2.6197585E-1,-8.406509E-2,2.589218E-1,1.434132E-1,5.3636813E-1],"categories":[],"categories_nodes":[],"categories_segments":[],"categories_sizes":[],"default_left":[1,1,1,1,1,1,1,1,1,1,1,1,1,1,1,0,0,0,0,0,0,0,0,0,0,0,0,0,0,0,0],"id":14,"left_children":[1,3,5,7,9,11,13,15,17,19,21,23,25,27,29,-1,-1,-1,-1,-1,-1,-1,-1,-1,-1,-1,-1,-1,-1,-1,-1],"loss_changes":[6.2265216E2,2.4698608E2,4.772003E1,1.5668494E2,1.1457127E1,2.310704E1,1.9527699E1,7.531348E1,8.346643E1,1.2737076E1,2.4913836E0,1.4677849E1,7.483917E0,1.6660463E1,3.8489647E0,0E0,0E0,0E0,0E0,0E0,0E0,0E0,0E0,0E0,0E0,0E0,0E0,0E0,0E0,0E0,0E0],"parents":[2147483647,0,0,1,1,2,2,3,3,4,4,5,5,6,6,7,7,8,8,9,9,10,10,11,11,12,12,13,13,14,14],"right_children":[2,4,6,8,10,12,14,16,18,20,22,24,26,28,30,-1,-1,-1,-1,-1,-1,-1,-1,-1,-1,-1,-1,-1,-1,-1,-1],"split_conditions":[5E-1,5E-1,4.35E1,5E-1,5E-1,5E-1,5E-1,5E-1,7.15E1,5E-1,4.95E1,5E-1,3.25E1,5E-1,7.05E1,-4.948076E-2,-1.680098E-2,-2.6147405E-2,7.596633E-3,2.5591318E-2,5.83345E-3,-1.3244167E-2,-4.884269E-2,1.02685755E-2,2.9180005E-2,4.540747E-2,2.6197586E-2,-8.406509E-3,2.5892181E-2,1.434132E-2,5.3636815E-2],"split_indices":[3,4,0,2,10,9,8,9,0,2,0,12,0,4,0,0,0,0,0,0,0,0,0,0,0,0,0,0,0,0,0],"split_type":[0,0,0,0,0,0,0,0,0,0,0,0,0,0,0,0,0,0,0,0,0,0,0,0,0,0,0,0,0,0,0],"sum_hessian":[2.4459422E4,1.943857E4,5.0208506E3,1.7687412E4,1.7511578E3,2.8728909E3,2.1479597E3,5.4049277E3,1.2282485E4,1.6351923E3,1.159656E2,2.0480056E3,8.248852E2,1.494496E3,6.5346375E2,4.5694775E3,8.3545026E2,1.1499984E4,7.825003E2,4.4964984E2,1.1855425E3,9.142821E1,2.4537388E1,1.4799802E3,5.6802545E2,3.9145935E2,4.3342584E2,1.3370858E3,1.574102E2,6.283314E2,2.5132332E1],"tree_param":{"num_deleted":"0","num_feature":"15","num_nodes":"31","size_leaf_vector":"0"}},{"base_weights":[-1.6884398E-1,-2.4293362E-1,1.1540718E-1,-2.7344015E-1,-1.4349346E-2,1.9137138E-1,1.3787699E-2,-3.0944914E-1,-6.470795E-2,7.211726E-2,-6.485847E-2,2.125243E-1,-1.2067806E-1,4.6304204E-2,-1.1934098E-1,-4.2859846E-1,-2.5275528E-1,-1.10056825E-1,4.0644652E-1,2.4912711E-2,4.6425036E-1,-4.5736574E-2,-3.3962038E-1,1.6585727E-1,3.312939E-1,-4.1232848E-1,-5.0602436E-2,1.6061017E-2,2.1351032E-1,-3.729559E-2,-2.7110338E-1],"categories":[],"categories_nodes":[],"categories_segments":[],"categories_sizes":[],"default_left":[1,1,1,1,1,1,1,1,1,1,1,1,1,1,1,0,0,0,0,0,0,0,0,0,0,0,0,0,0,0,0],"id":15,"left_children":[1,3,5,7,9,11,13,15,17,19,21,23,25,27,29,-1,-1,-1,-1,-1,-1,-1,-1,-1,-1,-1,-1,-1,-1,-1,-1],"loss_changes":[5.1090253E2,1.3418213E2,3.871958E1,1.27582886E2,9.904542E0,1.897219E1,9.298909E0,9.769702E1,5.3441383E1,1.5469488E1,7.5052485E0,1.4846413E1,3.7163289E0,8.725325E0,5.2407417E0,0E0,0E0,0E0,0E0,0E0,0E0,0E0,0E0,0E0,0E0,0E0,0E0,0E0,0E0,0E0,0E0],"parents":[2147483647,0,0,1,1,2,2,3,3,4,4,5,5,6,6,7,7,8,8,9,9,10,10,11,11,12,12,13,13,14,14],"right_children":[2,4,6,8,10,12,14,16,18,20,22,24,26,28,30,-1,-1,-1,-1,-1,-1,-1,-1,-1,-1,-1,-1,-1,-1,-1,-1],"split_conditions":[5E-1,5E-1,4.35E1,6.35E1,2.85E1,5E-1,5E-1,5E-1,8.35E1,5E-1,5E-1,5E-1,5E-1,5E-1,5.95E1,-4.285985E-2,-2.5275528E-2,-1.1005683E-2,4.0644653E-2,2.4912711E-3,4.6425037E-2,-4.5736576E-3,-3.3962037E-2,1.6585728E-2,3.312939E-2,-4.123285E-2,-5.060244E-3,1.6061018E-3,2.1351032E-2,-3.7295592E-3,-2.7110338E-2],"split_indices":[3,7,0,0,0,10,14,2,0,14,10,7,1,6,0,0,0,0,0,0,0,0,0,0,0,0,0,0,0,0,0],"split_type":[0,0,0,0,0,0,0,0,0,0,0,0,0,0,0,0,0,0,0,0,0,0,0,0,0,0,0,0,0,0,0],"sum_hessian":[2.425697E4,1.9241777E4,5.015195E3,1.6975988E4,2.2657888E3,2.869361E3,2.1458335E3,1.4477885E4,2.4981033E3,8.3534064E2,1.4304482E3,2.6875022E3,1.8185887E2,1.725126E3,4.2070758E2,4.6657207E3,9.812164E3,2.2794695E3,2.1863377E2,7.4653687E2,8.880376E1,1.3384651E3,9.19832E1,1.9311215E3,7.563807E2,3.428457E1,1.4757431E2,1.4618177E3,2.633083E2,2.7388586E2,1.4682172E2],"tree_param":{"num_deleted":"0","num_feature":"15","num_nodes":"31","size_leaf_vector":"0"}},{"base_weights":[-1.5324299E-1,-2.0150894E-1,2.0266814E-2,-2.2438598E-1,4.927147E-2,-1.291096E-3,2.0840572E-1,-2.3672763E-1,2.1306293E-1,6.96969E-2,-4.120781E-1,-4.1425243E-2,8.042852E-2,1.5822105E-1,2.9071245E-1,-3.3439606E-1,-1.8299738E-1,1.1652405E-1,5.694856E-1,2.3826797E-1,3.0436385E-2,-4.9963358E-1,2.9136363E-1,-1.09830536E-1,2.0392872E-2,9.659319E-2,-1.6438329E-1,4.6427734E-2,2.0189312E-1,5.800514E-1,2.641504E-1],"categories":[],"categories_nodes":[],"categories_segments":[],"categories_sizes":[],"default_left":[1,1,1,1,1,1,1,1,1,1,1,1,1,1,1,0,0,0,0,0,0,0,0,0,0,0,0,0,0,0,0],"id":16,"left_children":[1,3,5,7,9,11,13,15,17,19,21,23,25,27,29,-1,-1,-1,-1,-1,-1,-1,-1,-1,-1,-1,-1,-1,-1,-1,-1],"loss_changes":[2.0161603E2,1.0806903E2,2.1254177E1,9.3237366E1,1.4873835E1,1.5426458E1,2.1792564E0,8.803497E1,1.6247894E1,9.982468E0,4.268071E0,1.3341011E1,6.1464634E0,1.6352968E0,1.4058876E0,0E0,0E0,0E0,0E0,0E0,0E0,0E0,0E0,0E0,0E0,0E0,0E0,0E0,0E0,0E0,0E0],"parents":[2147483647,0,0,1,1,2,2,3,3,4,4,5,5,6,6,7,7,8,8,9,9,10,10,11,11,12,12,13,13,14,14],"right_children":[2,4,6,8,10,12,14,16,18,20,22,24,26,28,30,-1,-1,-1,-1,-1,-1,-1,-1,-1,-1,-1,-1,-1,-1,-1,-1],"split_conditions":[5E-1,5E-1,5E-1,7.95E1,5.55E1,5E-1,5.35E1,5E-1,8.75E1,5E-1,5E-1,5E-1,5E-1,5E-1,5.45E1,-3.3439606E-2,-1.8299738E-2,1.1652405E-2,5.694856E-2,2.3826798E-2,3.0436385E-3,-4.996336E-2,2.9136363E-2,-1.0983054E-2,2.0392872E-3,9.659319E-3,-1.643833E-2,4.6427734E-3,2.0189313E-2,5.8005143E-2,2.641504E-2],"split_indices":[8,7,6,0,0,7,0,2,0,2,5,13,10,1,0,0,0,0,0,0,0,0,0,0,0,0,0,0,0,0,0],"split_type":[0,0,0,0,0,0,0,0,0,0,0,0,0,0,0,0,0,0,0,0,0,0,0,0,0,0,0,0,0,0,0],"sum_hessian":[2.4073178E4,1.8833908E4,5.239268E3,1.7259541E4,1.5743685E3,4.7015356E3,5.3773267E2,1.6786408E4,4.7313242E2,1.5084342E3,6.593431E1,3.1533533E3,1.5481821E3,3.3586743E2,2.018652E2,5.955515E3,1.0830893E4,3.7333865E2,9.979374E1,2.839939E2,1.2244403E3,5.88937E1,7.040609E0,1.4965538E3,1.6567994E3,1.4528569E3,9.532525E1,9.49287E1,2.4093874E2,1.5221431E1,1.8664378E2],"tree_param":{"num_deleted":"0","num_feature":"15","num_nodes":"31","size_leaf_vector":"0"}},{"base_weights":[-1.3881864E-1,-1.7438172E-1,1.7108531E-1,-2.2284462E-1,-2.979173E-2,1.8721522E-1,-3.219511E-1,-3.442788E-1,-1.6401884E-1,-5.4802146E-2,1.598944E-1,1.59248E-1,4.0119433E-1,-3.588921E-1,8.267964E-2,-3.2175183E-1,-6.237762E-1,-1.508093E-1,-5.854989E-1,-1.6544528E-1,-1.3428627E-2,2.0349933E-1,2.942995E-2,4.595206E-2,2.0242113E-1,6.0969293E-1,2.8824905E-1,-5.052059E-1,-2.3787057E-1],"categories":[],"categories_nodes":[],"categories_segments":[],"categories_sizes":[],"default_left":[1,1,1,1,1,1,1,1,1,1,1,1,1,1,0,0,0,0,0,0,0,0,0,0,0,0,0,0,0],"id":17,"left_children":[1,3,5,7,9,11,13,15,17,19,21,23,25,27,-1,-1,-1,-1,-1,-1,-1,-1,-1,-1,-1,-1,-1,-1,-1],"loss_changes":[2.6377963E2,1.5042664E2,1.9655853E1,1.1480194E2,2.5581596E1,1.4218559E1,1.2019444E0,3.283075E1,6.022827E1,2.180236E1,3.567749E0,1.0323143E1,6.305317E0,1.1556664E0,0E0,0E0,0E0,0E0,0E0,0E0,0E0,0E0,0E0,0E0,0E0,0E0,0E0,0E0,0E0],"parents":[2147483647,0,0,1,1,2,2,3,3,4,4,5,5,6,6,7,7,8,8,9,9,10,10,11,11,12,12,13,13],"right_children":[2,4,6,8,10,12,14,16,18,20,22,24,26,28,-1,-1,-1,-1,-1,-1,-1,-1,-1,-1,-1,-1,-1,-1,-1],"split_conditions":[5E-1,5E-1,5E-1,5E-1,5E-1,5E-1,5E-1,5E-1,5E-1,5E-1,5E-1,5E-1,5E-1,5E-1,8.267964E-3,-3.2175183E-2,-6.237762E-2,-1.5080931E-2,-5.8549892E-2,-1.6544528E-2,-1.3428627E-3,2.0349933E-2,2.942995E-3,4.595206E-3,2.0242114E-2,6.0969293E-2,2.8824905E-2,-5.0520595E-2,-2.3787057E-2],"split_indices":[4,9,11,2,6,6,6,11,11,1,12,1,2,1,0,0,0,0,0,0,0,0,0,0,0,0,0,0,0],"split_type":[0,0,0,0,0,0,0,0,0,0,0,0,0,0,0,0,0,0,0,0,0,0,0,0,0,0,0,0,0],"sum_hessian":[2.3930268E4,2.146723E4,2.463038E3,1.60778125E4,5.389417E3,2.3856118E3,7.742607E1,5.2452275E3,1.0832585E4,4.7622217E3,6.271953E2,2.1113953E3,2.742167E2,7.105234E1,6.3737288E0,4.8559946E3,3.8923294E2,1.0504717E4,3.2786862E2,1.2952908E3,3.4669307E3,4.6966132E2,1.57534E2,5.831483E2,1.528247E3,9.480577E1,1.7941093E2,3.0727997E1,4.032434E1],"tree_param":{"num_deleted":"0","num_feature":"15","num_nodes":"29","size_leaf_vector":"0"}},{"base_weights":[-1.2576127E-1,-1.9316569E-1,1.2822697E-1,-2.3028019E-1,-4.7887962E-2,8.566424E-2,2.2886571E-1,-2.1249513E-1,-5.89994E-1,-1.04213126E-1,3.8937307E-3,1.0192996E-1,-1.3336226E-1,1.5230426E-1,2.913565E-1,-2.2911982E-1,-1.227638E-2,-5.995987E-1,-2.0876446E-1,-1.4612235E-1,-1.6447341E-2,1.5378087E-2,-1.7322668E-1,1.10363886E-1,-2.1108784E-1,-2.1271172E-1,-5.8051165E-2,1.756106E-1,-1.3513604E-1,4.785911E-1,2.58454E-1],"categories":[],"categories_nodes":[],"categories_segments":[],"categories_sizes":[],"default_left":[1,1,1,1,1,1,1,1,1,1,1,1,1,1,1,0,0,0,0,0,0,0,0,0,0,0,0,0,0,0,0],"id":18,"left_children":[1,3,5,7,9,11,13,15,17,19,21,23,25,27,29,-1,-1,-1,-1,-1,-1,-1,-1,-1,-1,-1,-1,-1,-1,-1,-1],"loss_changes":[4.0733493E2,1.0136914E2,2.1356209E1,9.568396E1,1.1163116E1,1.2513697E1,7.0491257E0,4.7502502E1,2.4562378E0,6.7406616E0,4.060788E0,8.647251E0,1.4397206E0,4.501461E0,4.898567E0,0E0,0E0,0E0,0E0,0E0,0E0,0E0,0E0,0E0,0E0,0E0,0E0,0E0,0E0,0E0,0E0],"parents":[2147483647,0,0,1,1,2,2,3,3,4,4,5,5,6,6,7,7,8,8,9,9,10,10,11,11,12,12,13,13,14,14],"right_children":[2,4,6,8,10,12,14,16,18,20,22,24,26,28,30,-1,-1,-1,-1,-1,-1,-1,-1,-1,-1,-1,-1,-1,-1,-1,-1],"split_conditions":[5E-1,5E-1,5E-1,5E-1,5E-1,5E-1,5E-1,5E-1,5E-1,5E-1,5E-1,5E-1,5E-1,5E-1,5E-1,-2.2911983E-2,-1.2276381E-3,-5.995987E-2,-2.0876447E-2,-1.4612235E-2,-1.6447342E-3,1.5378087E-3,-1.7322669E-2,1.1036389E-2,-2.1108784E-2,-2.1271173E-2,-5.8051166E-3,1.7561061E-2,-1.3513604E-2,4.7859114E-2,2.58454E-2],"split_indices":[3,8,9,11,13,10,8,7,10,7,10,11,13,10,2,0,0,0,0,0,0,0,0,0,0,0,0,0,0,0,0],"split_type":[0,0,0,0,0,0,0,0,0,0,0,0,0,0,0,0,0,0,0,0,0,0,0,0,0,0,0,0,0,0,0],"sum_hessian":[2.3790584E4,1.8801268E4,4.989316E3,1.4974981E4,3.8262861E3,3.5076792E3,1.4816366E3,1.4270982E4,7.039988E2,1.8322533E3,1.994033E3,3.2656914E3,2.4198767E2,6.673998E2,8.1423676E2,1.3176739E4,1.094243E3,6.861394E2,1.78594E1,1.2396436E3,5.9260974E2,1.8734716E3,1.2056133E2,3.1806401E3,8.505143E1,1.1694614E2,1.25041534E2,6.17704E2,4.969583E1,1.1967423E2,6.945625E2],"tree_param":{"num_deleted":"0","num_feature":"15","num_nodes":"31","size_leaf_vector":"0"}},{"base_weights":[-1.14002675E-1,-1.7536524E-1,1.1546384E-1,-2.0590895E-1,1.2177272E-1,1.834494E-1,2.4640149E-2,-2.320494E-1,2.6262568E-2,1.3572176E-1,-2.5810242E-1,1.9320774E-1,-2.4628012E-1,-6.405612E-2,9.825852E-2,-2.5881147E-1,-4.2653527E-2,-1.4846253E-1,1.4859796E-1,1.1799409E-1,2.827637E-1,-8.2182574E-1,-1.6128214E-1,2.8013822E-1,1.2586474E-1,-3.361712E-1,1.6804447E-2,-1.0053876E-1,2.3680404E-1,8.1361294E-2,4.350787E-1],"categories":[],"categories_nodes":[],"categories_segments":[],"categories_sizes":[],"default_left":[1,1,1,1,1,1,1,1,1,1,1,1,1,1,1,0,0,0,0,0,0,0,0,0,0,0,0,0,0,0,0],"id":19,"left_children":[1,3,5,7,9,11,13,15,17,19,21,23,25,27,29,-1,-1,-1,-1,-1,-1,-1,-1,-1,-1,-1,-1,-1,-1,-1,-1],"loss_changes":[3.3288348E2,1.6930823E2,3.079734E1,1.0265906E2,9.251093E0,1.2010376E1,1.3958037E1,7.704498E1,3.6628124E1,4.341465E0,3.2485485E0,1.6297554E1,1.5140133E0,1.0667383E1,6.6118946E0,0E0,0E0,0E0,0E0,0E0,0E0,0E0,0E0,0E0,0E0,0E0,0E0,0E0,0E0,0E0,0E0],"parents":[2147483647,0,0,1,1,2,2,3,3,4,4,5,5,6,6,7,7,8,8,9,9,10,10,11,11,12,12,13,13,14,14],"right_children":[2,4,6,8,10,12,14,16,18,20,22,24,26,28,30,-1,-1,-1,-1,-1,-1,-1,-1,-1,-1,-1,-1,-1,-1,-1,-1],"split_conditions":[5E-1,5E-1,4.35E1,6.75E1,5E-1,5E-1,5E-1,5E-1,5E-1,5E-1,2.55E1,5E-1,3.55E1,5E-1,7.75E1,-2.5881147E-2,-4.2653526E-3,-1.4846253E-2,1.4859796E-2,1.1799409E-2,2.8276369E-2,-8.218258E-2,-1.6128214E-2,2.8013824E-2,1.2586474E-2,-3.361712E-2,1.6804448E-3,-1.0053876E-2,2.3680404E-2,8.13613E-3,4.350787E-2],"split_indices":[3,4,0,0,11,11,13,7,13,6,0,13,0,4,0,0,0,0,0,0,0,0,0,0,0,0,0,0,0,0,0],"split_type":[0,0,0,0,0,0,0,0,0,0,0,0,0,0,0,0,0,0,0,0,0,0,0,0,0,0,0,0,0,0,0],"sum_hessian":[2.3638758E4,1.865136E4,4.987399E3,1.6913115E4,1.7382439E3,2.8517317E3,2.1356675E3,1.5201557E4,1.7115593E3,1.6772961E3,6.0947674E1,2.7889502E3,6.2781433E1,9.686983E2,1.1669691E3,1.3319162E4,1.8823945E3,7.0476605E2,1.00679333E3,1.4984434E3,1.7885281E2,7.8359175E0,5.3111755E1,1.2160448E3,1.5729054E3,4.6586044E1,1.6195389E1,8.645302E2,1.0416806E2,1.1124048E3,5.4564342E1],"tree_param":{"num_deleted":"0","num_feature":"15","num_nodes":"31","size_leaf_vector":"0"}},{"base_weights":[-1.0335294E-1,-1.5921363E-1,1.0399992E-1,-1.9307253E-1,-2.8233694E-2,6.567267E-2,1.9509488E-1,-2.7006817E-1,-1.531698E-1,-7.8805774E-2,1.809224E-2,8.03875E-2,-1.3268943E-1,1.24982014E-1,2.526331E-1,-3.0365333E-1,-4.860736E-2,-2.273927E-1,-1.24378E-1,-1.7254184E-1,-4.969841E-2,2.8557394E-2,-1.4417651E-1,-1.3278985E-2,1.0876092E-1,-2.0520966E-1,-6.397342E-2,-4.9868982E-2,2.0538713E-1,4.230019E-1,2.2292624E-1],"categories":[],"categories_nodes":[],"categories_segments":[],"categories_sizes":[],"default_left":[1,1,1,1,1,1,1,1,1,1,1,1,1,1,1,0,0,0,0,0,0,0,0,0,0,0,0,0,0,0,0],"id":20,"left_children":[1,3,5,7,9,11,13,15,17,19,21,23,25,27,29,-1,-1,-1,-1,-1,-1,-1,-1,-1,-1,-1,-1,-1,-1,-1,-1],"loss_changes":[2.7207098E2,8.2053894E1,1.7392914E1,4.512964E1,8.908451E0,1.0257183E1,5.9222183E0,3.730301E1,2.0671158E1,4.951192E0,3.3750658E0,8.688311E0,1.1968389E0,9.390472E0,4.0033493E0,0E0,0E0,0E0,0E0,0E0,0E0,0E0,0E0,0E0,0E0,0E0,0E0,0E0,0E0,0E0,0E0],"parents":[2147483647,0,0,1,1,2,2,3,3,4,4,5,5,6,6,7,7,8,8,9,9,10,10,11,11,12,12,13,13,14,14],"right_children":[2,4,6,8,10,12,14,16,18,20,22,24,26,28,30,-1,-1,-1,-1,-1,-1,-1,-1,-1,-1,-1,-1,-1,-1,-1,-1],"split_conditions":[5E-1,5E-1,5E-1,5E-1,5E-1,5E-1,5E-1,5E-1,5E-1,5E-1,5E-1,5E-1,5E-1,5E-1,5E-1,-3.0365333E-2,-4.860736E-3,-2.273927E-2,-1.2437801E-2,-1.7254185E-2,-4.969841E-3,2.8557393E-3,-1.4417651E-2,-1.3278986E-3,1.0876092E-2,-2.0520967E-2,-6.397342E-3,-4.9868985E-3,2.0538714E-2,4.230019E-2,2.2292625E-2],"split_indices":[3,8,9,2,13,10,8,9,1,1,10,1,13,1,2,0,0,0,0,0,0,0,0,0,0,0,0,0,0,0,0],"split_type":[0,0,0,0,0,0,0,0,0,0,0,0,0,0,0,0,0,0,0,0,0,0,0,0,0,0,0,0,0,0,0],"sum_hessian":[2.3486645E4,1.8502355E4,4.9842876E3,1.4701483E4,3.8008733E3,3.509446E3,1.4748414E3,5.016315E3,9.685168E3,1.8168228E3,1.9840505E3,3.2676418E3,2.4180429E2,6.6620874E2,8.086327E2,4.3554307E3,6.608844E2,2.7049998E3,6.980168E3,4.2932288E2,1.3874999E3,1.8646201E3,1.1943042E2,7.598274E2,2.5078142E3,1.1667922E2,1.2512508E2,2.0997392E2,4.5623483E2,1.1809848E2,6.905342E2],"tree_param":{"num_deleted":"0","num_feature":"15","num_nodes":"31","size_leaf_vector":"0"}},{"base_weights":[-9.35762E-2,-1.4433062E-1,9.3664475E-2,-1.7238306E-1,1.2462963E-1,1.549785E-1,1.1955864E-2,-1.9888684E-1,4.049892E-2,2.5368997E-1,7.177394E-2,1.3787812E-1,3.7134132E-1,-6.7693755E-2,7.790859E-2,-2.1954653E-1,4.0656574E-2,-7.495662E-2,1.1985817E-1,3.1675804E-1,8.6255E-2,5.5571314E-2,3.1514642E-1,2.0731904E-1,8.174256E-2,4.1283113E-1,-7.7629983E-3,-1.3596895E-1,7.015111E-2,6.253663E-2,3.8317809E-1],"categories":[],"categories_nodes":[],"categories_segments":[],"categories_sizes":[],"default_left":[1,1,1,1,1,1,1,1,1,1,1,1,1,1,1,0,0,0,0,0,0,0,0,0,0,0,0,0,0,0,0],"id":21,"left_children":[1,3,5,7,9,11,13,15,17,19,21,23,25,27,29,-1,-1,-1,-1,-1,-1,-1,-1,-1,-1,-1,-1,-1,-1,-1,-1],"loss_changes":[2.2203734E2,1.3870532E2,2.4962017E1,9.3923706E1,1.18283615E1,1.0481087E1,1.1232592E1,7.326514E1,1.6902063E1,5.2967644E0,4.846312E0,1.0273022E1,3.2735252E0,9.125814E0,5.4646206E0,0E0,0E0,0E0,0E0,0E0,0E0,0E0,0E0,0E0,0E0,0E0,0E0,0E0,0E0,0E0,0E0],"parents":[2147483647,0,0,1,1,2,2,3,3,4,4,5,5,6,6,7,7,8,8,9,9,10,10,11,11,12,12,13,13,14,14],"right_children":[2,4,6,8,10,12,14,16,18,20,22,24,26,28,30,-1,-1,-1,-1,-1,-1,-1,-1,-1,-1,-1,-1,-1,-1,-1,-1],"split_conditions":[5E-1,5E-1,4.35E1,5E-1,5E-1,5E-1,5E-1,6.85E1,5E-1,4.65E1,5.95E1,5E-1,4.15E1,5E-1,7.75E1,-2.1954654E-2,4.0656575E-3,-7.4956617E-3,1.1985817E-2,3.1675804E-2,8.6255E-3,5.5571315E-3,3.151464E-2,2.0731904E-2,8.174256E-3,4.1283112E-2,-7.7629986E-4,-1.3596895E-2,7.0151114E-3,6.253663E-3,3.831781E-2],"split_indices":[3,4,0,6,2,6,13,0,13,0,0,13,0,9,0,0,0,0,0,0,0,0,0,0,0,0,0,0,0,0,0],"split_type":[0,0,0,0,0,0,0,0,0,0,0,0,0,0,0,0,0,0,0,0,0,0,0,0,0,0,0,0,0,0,0],"sum_hessian":[2.3361838E4,1.8379914E4,4.981924E3,1.6644281E4,1.7356328E3,2.8456533E3,2.1362708E3,1.4801555E4,1.8427264E3,5.0318402E2,1.2324487E3,2.6387363E3,2.0691698E2,9.676434E2,1.1686274E3,1.3626413E4,1.1751415E3,7.506709E2,1.0920555E3,3.6485974E2,1.3832428E2,1.1566711E3,7.577754E1,1.1783717E3,1.4603646E3,1.8642531E2,2.049167E1,6.471303E2,3.2051303E2,1.113749E3,5.4878403E1],"tree_param":{"num_deleted":"0","num_feature":"15","num_nodes":"31","size_leaf_vector":"0"}},{"base_weights":[-8.472112E-2,-1.11753926E-1,1.4488074E-1,-1.5031776E-1,1.1133595E-3,2.5427672E-1,9.83328E-2,-2.5475222E-1,-1.0084117E-1,-2.9446278E-2,2.563439E-1,2.1427484E-1,5.1766026E-1,1.12220906E-1,-2.715663E-1,-2.820189E-1,-1.0190901E-2,-9.007757E-2,-4.6300593E-1,2.0049447E-1,-7.255577E-2,2.0177548E-1,6.237438E-1,2.4569555E-1,-2.5656516E-2,4.1514745E-1,7.721005E-1,1.2411592E-1,-1.1413075E-1,-8.672713E-1,-1.663713E-1],"categories":[],"categories_nodes":[],"categories_segments":[],"categories_sizes":[],"default_left":[1,1,1,1,1,1,1,1,1,1,1,1,1,1,1,0,0,0,0,0,0,0,0,0,0,0,0,0,0,0,0],"id":22,"left_children":[1,3,5,7,9,11,13,15,17,19,21,23,25,27,29,-1,-1,-1,-1,-1,-1,-1,-1,-1,-1,-1,-1,-1,-1,-1,-1],"loss_changes":[1.4425517E2,9.049762E1,1.2442257E1,8.004709E1,4.1313763E1,7.582073E0,8.862101E0,3.3212128E1,4.095484E1,4.6905724E1,1.1229347E1,4.7980156E0,2.1722145E0,4.477312E0,3.7724957E0,0E0,0E0,0E0,0E0,0E0,0E0,0E0,0E0,0E0,0E0,0E0,0E0,0E0,0E0,0E0,0E0],"parents":[2147483647,0,0,1,1,2,2,3,3,4,4,5,5,6,6,7,7,8,8,9,9,10,10,11,11,12,12,13,13,14,14],"right_children":[2,4,6,8,10,12,14,16,18,20,22,24,26,28,30,-1,-1,-1,-1,-1,-1,-1,-1,-1,-1,-1,-1,-1,-1,-1,-1],"split_conditions":[5E-1,5E-1,5E-1,5E-1,6.35E1,5E-1,5E-1,6.95E1,5E-1,2.65E1,7.85E1,5E-1,5E-1,5E-1,2.55E1,-2.8201891E-2,-1.0190902E-3,-9.0077575E-3,-4.6300594E-2,2.0049447E-2,-7.2555775E-3,2.0177549E-2,6.237438E-2,2.4569554E-2,-2.5656517E-3,4.1514747E-2,7.7210054E-2,1.24115925E-2,-1.1413075E-2,-8.6727135E-2,-1.663713E-2],"split_indices":[4,9,2,2,0,6,11,0,11,0,0,10,12,10,0,0,0,0,0,0,0,0,0,0,0,0,0,0,0,0,0],"split_type":[0,0,0,0,0,0,0,0,0,0,0,0,0,0,0,0,0,0,0,0,0,0,0,0,0,0,0,0,0,0,0],"sum_hessian":[2.3237934E4,2.0790607E4,2.447326E3,1.54957705E4,5.2948364E3,7.291739E2,1.718152E3,4.9799707E3,1.05158E4,4.729448E3,5.6538855E2,6.3460547E2,9.456842E1,1.6566486E3,6.1503357E1,4.480299E3,4.9967163E2,1.0213501E4,3.0229828E2,7.461145E2,3.9833335E3,4.9362207E2,7.1766495E1,5.6110126E2,7.350421E1,6.92853E1,2.5283115E1,1.5743657E3,8.228288E1,8.143486E0,5.335987E1],"tree_param":{"num_deleted":"0","num_feature":"15","num_nodes":"31","size_leaf_vector":"0"}},{"base_weights":[-7.6618E-2,-1.2264942E-1,9.163535E-2,-1.4598261E-1,9.7818814E-2,1.3828713E-1,2.0620443E-3,-1.7027172E-1,4.6968784E-2,1.1579211E-1,-1.5534912E-1,1.5542401E-1,-1.125032E-1,-2.1397864E-2,2.4338019E-1,-1.5670897E-1,-5.2110875E-1,9.139886E-2,-1.0669558E-1,1.2842302E-1,-2.1803807E-1,-8.3810225E-2,-4.0913877E-1,6.1378866E-2,1.8328767E-1,-1.5953757E-1,3.9423242E-1,-6.333824E-2,8.618952E-2,1.4549397E-1,6.4130193E-1],"categories":[],"categories_nodes":[],"categories_segments":[],"categories_sizes":[],"default_left":[1,1,1,1,1,1,1,1,1,1,1,1,1,1,1,0,0,0,0,0,0,0,0,0,0,0,0,0,0,0,0],"id":23,"left_children":[1,3,5,7,9,11,13,15,17,19,21,23,25,27,29,-1,-1,-1,-1,-1,-1,-1,-1,-1,-1,-1,-1,-1,-1,-1,-1],"loss_changes":[1.7924408E2,9.349075E1,2.0775593E1,7.702066E1,7.9339905E0,1.4067425E1,9.650131E0,6.936792E1,1.2558746E1,6.8796635E0,2.067179E0,8.008484E0,5.0603266E0,7.015834E0,5.789419E0,0E0,0E0,0E0,0E0,0E0,0E0,0E0,0E0,0E0,0E0,0E0,0E0,0E0,0E0,0E0,0E0],"parents":[2147483647,0,0,1,1,2,2,3,3,4,4,5,5,6,6,7,7,8,8,9,9,10,10,11,11,12,12,13,13,14,14],"right_children":[2,4,6,8,10,12,14,16,18,20,22,24,26,28,30,-1,-1,-1,-1,-1,-1,-1,-1,-1,-1,-1,-1,-1,-1,-1,-1],"split_conditions":[5E-1,5E-1,4.75E1,5E-1,5E-1,5E-1,5E-1,5E-1,5E-1,5E-1,4.95E1,5E-1,5E-1,5E-1,5E-1,-1.5670897E-2,-5.2110877E-2,9.139886E-3,-1.0669558E-2,1.2842302E-2,-2.1803807E-2,-8.381023E-3,-4.0913876E-2,6.1378866E-3,1.8328767E-2,-1.5953757E-2,3.9423242E-2,-6.3338242E-3,8.618953E-3,1.4549397E-2,6.4130194E-2],"split_indices":[3,4,0,6,10,10,4,11,5,11,0,1,6,8,6,0,0,0,0,0,0,0,0,0,0,0,0,0,0,0,0],"split_type":[0,0,0,0,0,0,0,0,0,0,0,0,0,0,0,0,0,0,0,0,0,0,0,0,0,0,0,0,0,0,0],"sum_hessian":[2.3140924E4,1.8170137E4,4.970787E3,1.6431457E4,1.7386804E3,3.2681284E3,1.7026584E3,1.4594401E4,1.8370559E3,1.6239342E3,1.1474625E2,3.059452E3,2.0867668E2,1.5526298E3,1.5002864E2,1.4052599E4,5.418029E2,1.4253419E3,4.1171408E2,1.5653234E3,5.8610783E1,9.055157E1,2.4194675E1,7.0000464E2,2.359447E3,1.9157973E2,1.709695E1,1.1174354E3,4.351943E2,1.2150485E2,2.8523788E1],"tree_param":{"num_deleted":"0","num_feature":"15","num_nodes":"31","size_leaf_vector":"0"}},{"base_weights":[-6.9337994E-2,-1.1110814E-1,8.257284E-2,-1.3232188E-1,8.796593E-2,1.3303232E-1,1.5350003E-2,-1.590681E-1,2.5227208E-2,1.9349083E-1,4.4635158E-2,1.4134441E-1,-2.3243406E-1,-5.0931387E-3,1.8370987E-1,-1.9582301E-1,-2.837239E-2,-1.6930595E-2,3.6687776E-1,2.5014457E-1,4.3307465E-2,-8.818051E-2,9.832739E-2,5.0361954E-2,1.6744365E-1,-8.180987E-2,-3.7470934E-1,-4.3604452E-2,8.344898E-2,3.198338E-1,1.3476665E-1],"categories":[],"categories_nodes":[],"categories_segments":[],"categories_sizes":[],"default_left":[1,1,1,1,1,1,1,1,1,1,1,1,1,1,1,0,0,0,0,0,0,0,0,0,0,0,0,0,0,0,0],"id":24,"left_children":[1,3,5,7,9,11,13,15,17,19,21,23,25,27,29,-1,-1,-1,-1,-1,-1,-1,-1,-1,-1,-1,-1,-1,-1,-1,-1],"loss_changes":[1.4615073E2,7.630084E1,1.6848267E1,6.879703E1,7.9485426E0,8.652538E0,7.3358727E0,6.703668E1,3.414377E1,4.296734E0,8.815417E0,6.581028E0,1.329689E0,6.487002E0,1.4944377E0,0E0,0E0,0E0,0E0,0E0,0E0,0E0,0E0,0E0,0E0,0E0,0E0,0E0,0E0,0E0,0E0],"parents":[2147483647,0,0,1,1,2,2,3,3,4,4,5,5,6,6,7,7,8,8,9,9,10,10,11,11,12,12,13,13,14,14],"right_children":[2,4,6,8,10,12,14,16,18,20,22,24,26,28,30,-1,-1,-1,-1,-1,-1,-1,-1,-1,-1,-1,-1,-1,-1,-1,-1],"split_conditions":[5E-1,5E-1,4.35E1,6.35E1,5E-1,5E-1,5E-1,5E-1,8.25E1,4.65E1,5E-1,5E-1,5E-1,5E-1,5E-1,-1.9582301E-2,-2.837239E-3,-1.6930596E-3,3.6687776E-2,2.5014458E-2,4.3307464E-3,-8.818052E-3,9.832739E-3,5.0361953E-3,1.6744366E-2,-8.180987E-3,-3.7470933E-2,-4.3604453E-3,8.344898E-3,3.198338E-2,1.3476665E-2],"split_indices":[3,4,0,0,2,11,4,8,0,0,1,1,2,8,2,0,0,0,0,0,0,0,0,0,0,0,0,0,0,0,0],"split_type":[0,0,0,0,0,0,0,0,0,0,0,0,0,0,0,0,0,0,0,0,0,0,0,0,0,0,0,0,0,0,0],"sum_hessian":[2.3030332E4,1.8063713E4,4.9666177E3,1.63244795E4,1.7392345E3,2.8364868E3,2.130131E3,1.3955349E4,2.3691306E3,5.0526935E2,1.2339651E3,2.7740085E3,6.2478203E1,1.9003502E3,2.2978078E2,1.0891802E4,3.0635466E3,2.1097495E3,2.5938107E2,3.6639023E2,1.3887914E2,3.550512E2,8.7891394E2,6.190207E2,2.154988E3,3.1113707E1,3.1364494E1,1.3246865E3,5.756637E2,5.9304535E1,1.7047623E2],"tree_param":{"num_deleted":"0","num_feature":"15","num_nodes":"31","size_leaf_vector":"0"}},{"base_weights":[-6.273149E-2,-1.0061308E-1,7.4388936E-2,-8.9039505E-2,-4.0061325E-1,1.1258232E-1,1.0375634E-3,-1.082127E-1,8.908178E-2,-4.379709E-1,1.6873069E-1,3.157521E-2,1.3629949E-1,-7.38621E-2,6.231259E-2,-1.23205885E-1,1.289926E-1,1.3303121E-2,1.20080054E-1,-4.848509E-1,-1.6273639E-1,2.9033652E-1,-3.1260407E-1,1.5088822E-1,-6.743886E-2,1.4163047E-1,-1.7895125E-1,-9.914436E-2,1.7790234E-1,4.386837E-2,3.5143608E-1],"categories":[],"categories_nodes":[],"categories_segments":[],"categories_sizes":[],"default_left":[1,1,1,1,1,1,1,1,1,1,1,1,1,1,1,0,0,0,0,0,0,0,0,0,0,0,0,0,0,0,0],"id":25,"left_children":[1,3,5,7,9,11,13,15,17,19,21,23,25,27,29,-1,-1,-1,-1,-1,-1,-1,-1,-1,-1,-1,-1,-1,-1,-1,-1],"loss_changes":[1.1909507E2,6.233705E1,1.3904787E1,5.9085358E1,1.4260567E1,6.2663918E0,7.808865E0,5.5559006E1,3.9484682E0,8.001068E0,2.537002E0,8.7578745E0,4.267784E0,4.8909645E0,4.9751225E0,0E0,0E0,0E0,0E0,0E0,0E0,0E0,0E0,0E0,0E0,0E0,0E0,0E0,0E0,0E0,0E0],"parents":[2147483647,0,0,1,1,2,2,3,3,4,4,5,5,6,6,7,7,8,8,9,9,10,10,11,11,12,12,13,13,14,14],"right_children":[2,4,6,8,10,12,14,16,18,20,22,24,26,28,30,-1,-1,-1,-1,-1,-1,-1,-1,-1,-1,-1,-1,-1,-1,-1,-1],"split_conditions":[5E-1,5E-1,4.75E1,5E-1,5E-1,5E-1,5E-1,7.35E1,5E-1,5.85E1,5.95E1,5E-1,5E-1,5E-1,7.75E1,-1.2320588E-2,1.289926E-2,1.3303121E-3,1.2008006E-2,-4.8485093E-2,-1.6273638E-2,2.9033652E-2,-3.126041E-2,1.5088822E-2,-6.7438865E-3,1.4163047E-2,-1.7895125E-2,-9.914436E-3,1.7790234E-2,4.386837E-3,3.514361E-2],"split_indices":[3,11,0,4,8,1,13,0,1,0,0,13,11,4,0,0,0,0,0,0,0,0,0,0,0,0,0,0,0,0,0],"split_type":[0,0,0,0,0,0,0,0,0,0,0,0,0,0,0,0,0,0,0,0,0,0,0,0,0,0,0,0,0,0,0],"sum_hessian":[2.2925418E4,1.7963104E4,4.9623125E3,1.7297104E4,6.660006E2,3.2628447E3,1.6994679E3,1.5616515E4,1.680589E3,6.252081E2,4.0792442E1,7.394728E2,2.5233718E3,7.646234E2,9.3484454E2,1.4688566E4,9.279488E2,4.8830453E2,1.1922845E3,5.335657E2,9.1642494E1,3.2881878E1,7.910565E0,3.351226E2,4.043502E2,2.4819521E3,4.141971E1,6.953976E2,6.922583E1,8.798664E2,5.4978104E1],"tree_param":{"num_deleted":"0","num_feature":"15","num_nodes":"31","size_leaf_vector":"0"}},{"base_weights":[-5.672266E-2,-9.105171E-2,6.7002654E-2,-1.1218258E-1,7.593166E-2,1.132891E-1,1.5597546E-2,-1.0091507E-1,-4.1909918E-1,1.1643424E-1,-7.6784536E-2,9.584796E-2,3.425494E-1,-3.2495176E-3,1.577313E-1,-1.2233888E-1,4.191098E-2,-4.5542306E-1,-1.6434139E-1,1.4338101E-1,-4.935047E-2,-1.5397148E-1,1.872578E-1,5.572533E-2,1.9014376E-1,2.8059444E-1,5.3293526E-1,-1.3796244E-2,2.4310619E-1,1.03341155E-1,2.559795E-1],"categories":[],"categories_nodes":[],"categories_segments":[],"categories_sizes":[],"default_left":[1,1,1,1,1,1,1,1,1,1,1,1,1,1,1,0,0,0,0,0,0,0,0,0,0,0,0,0,0,0,0],"id":26,"left_children":[1,3,5,7,9,11,13,15,17,19,21,23,25,27,29,-1,-1,-1,-1,-1,-1,-1,-1,-1,-1,-1,-1,-1,-1,-1,-1],"loss_changes":[9.699502E1,6.308313E1,1.1800558E1,5.483278E1,1.2432795E1,1.0403172E1,6.299336E0,4.6844406E1,5.1221313E0,7.1009636E0,8.622143E0,9.170988E0,2.0223083E0,5.4000363E0,1.4447231E0,0E0,0E0,0E0,0E0,0E0,0E0,0E0,0E0,0E0,0E0,0E0,0E0,0E0,0E0,0E0,0E0],"parents":[2147483647,0,0,1,1,2,2,3,3,4,4,5,5,6,6,7,7,8,8,9,9,10,10,11,11,12,12,13,13,14,14],"right_children":[2,4,6,8,10,12,14,16,18,20,22,24,26,28,30,-1,-1,-1,-1,-1,-1,-1,-1,-1,-1,-1,-1,-1,-1,-1,-1],"split_conditions":[5E-1,5E-1,4.15E1,5E-1,5E-1,5E-1,5E-1,5E-1,5.85E1,5E-1,5E-1,5E-1,5E-1,7.75E1,5E-1,-1.2233889E-2,4.1910983E-3,-4.5542307E-2,-1.6434139E-2,1.4338101E-2,-4.935047E-3,-1.5397148E-2,1.872578E-2,5.572533E-3,1.9014377E-2,2.8059443E-2,5.3293526E-2,-1.3796244E-3,2.4310619E-2,1.03341155E-2,2.559795E-2],"split_indices":[3,6,0,11,5,6,4,7,0,14,9,12,4,0,9,0,0,0,0,0,0,0,0,0,0,0,0,0,0,0,0],"split_type":[0,0,0,0,0,0,0,0,0,0,0,0,0,0,0,0,0,0,0,0,0,0,0,0,0,0,0,0,0,0,0],"sum_hessian":[2.2834035E4,1.787474E4,4.959295E3,1.5867164E4,2.0075776E3,2.608938E3,2.350357E3,1.5306559E4,5.6060504E2,1.5869364E3,4.2064124E2,2.4258105E3,1.831273E2,2.0760483E3,2.7430872E2,1.3310183E4,1.9963755E3,4.8995813E2,7.064687E1,1.3651749E3,2.2176141E2,3.258137E2,9.482756E1,1.7028453E3,7.229654E2,1.4003212E2,4.3095173E1,1.9917246E3,8.4323654E1,1.7788406E2,9.642466E1],"tree_param":{"num_deleted":"0","num_feature":"15","num_nodes":"31","size_leaf_vector":"0"}},{"base_weights":[-5.127066E-2,-8.069162E-2,5.0298113E-2,-1.0057651E-1,7.48606E-2,3.2644104E-2,1.7981389E-1,-8.9404345E-2,-3.8304463E-1,1.1335747E-1,-6.978204E-2,-4.4730153E-2,5.4501943E-2,1.5235358E-1,3.5913286E-1,-1.0779715E-1,6.804832E-2,-4.0603796E-1,-1.6933142E-1,1.2507589E-1,-1.0733009E-1,-2.266458E-1,4.1977573E-2,-1.4507383E-1,2.1326797E-2,2.0628523E-2,8.6536124E-2,1.5821032E-1,-2.2209094E-1,1.5510383E-1,8.0730516E-1],"categories":[],"categories_nodes":[],"categories_segments":[],"categories_sizes":[],"default_left":[1,1,1,1,1,1,1,1,1,1,1,1,1,1,1,0,0,0,0,0,0,0,0,0,0,0,0,0,0,0,0],"id":27,"left_children":[1,3,5,7,9,11,13,15,17,19,21,23,25,27,29,-1,-1,-1,-1,-1,-1,-1,-1,-1,-1,-1,-1,-1,-1,-1,-1],"loss_changes":[6.798541E1,5.4571327E1,1.1678646E1,4.932614E1,1.1144526E1,7.6104374E0,2.962761E0,4.3584724E1,2.8540802E0,4.0994186E0,7.3906174E0,6.574692E0,3.8048334E0,1.2043447E0,7.2486906E0,0E0,0E0,0E0,0E0,0E0,0E0,0E0,0E0,0E0,0E0,0E0,0E0,0E0,0E0,0E0,0E0],"parents":[2147483647,0,0,1,1,2,2,3,3,4,4,5,5,6,6,7,7,8,8,9,9,10,10,11,11,12,12,13,13,14,14],"right_children":[2,4,6,8,10,12,14,16,18,20,22,24,26,28,30,-1,-1,-1,-1,-1,-1,-1,-1,-1,-1,-1,-1,-1,-1,-1,-1],"split_conditions":[5E-1,5E-1,5E-1,5E-1,5E-1,5E-1,5E-1,5E-1,5E-1,5E-1,5E-1,5E-1,5E-1,5E-1,5E-1,-1.0779715E-2,6.8048323E-3,-4.0603798E-2,-1.6933141E-2,1.25075895E-2,-1.0733009E-2,-2.266458E-2,4.197757E-3,-1.4507383E-2,2.1326798E-3,2.0628523E-3,8.653613E-3,1.5821032E-2,-2.2209095E-2,1.5510383E-2,8.073052E-2],"split_indices":[8,6,4,11,5,1,6,4,4,11,13,9,13,11,12,0,0,0,0,0,0,0,0,0,0,0,0,0,0,0,0],"split_type":[0,0,0,0,0,0,0,0,0,0,0,0,0,0,0,0,0,0,0,0,0,0,0,0,0,0,0,0,0,0,0],"sum_hessian":[2.2748549E4,1.763927E4,5.10928E3,1.5640262E4,1.9990068E3,4.4974893E3,6.117908E2,1.5046462E4,5.9380035E2,1.5789762E3,4.200307E2,9.9043085E2,3.5070583E3,5.3214886E2,7.964189E1,1.3472938E4,1.5735234E3,5.3530695E2,5.849344E1,1.4997721E3,7.920412E1,1.7432431E2,2.457064E2,3.927018E2,5.9772906E2,1.7053936E3,1.8016647E3,5.245222E2,7.6266456E0,5.5652393E1,2.3989494E1],"tree_param":{"num_deleted":"0","num_feature":"15","num_nodes":"31","size_leaf_vector":"0"}},{"base_weights":[-4.630774E-2,-7.712436E-2,6.409635E-2,-8.3334595E-2,3.3404216E-1,1.7118491E-1,4.2570405E-2,-1.1009496E-1,1.5402344E-2,2.1524836E-1,5.520409E-1,-6.0656976E-2,2.1008752E-1,8.786105E-3,1.1985962E-1,-1.2789533E-1,5.627416E-2,1.8526093E-3,1.7780247E-1,2.6188022E-1,5.287751E-2,6.897768E-1,1.7338583E-1,-9.0752676E-2,3.0652347E-1,1.7956722E-1,5.130844E-1,-8.777358E-3,1.4178187E-1,2.6782134E-1,8.97175E-2],"categories":[],"categories_nodes":[],"categories_segments":[],"categories_sizes":[],"default_left":[1,1,1,1,1,1,1,1,1,1,1,1,1,1,1,0,0,0,0,0,0,0,0,0,0,0,0,0,0,0,0],"id":28,"left_children":[1,3,5,7,9,11,13,15,17,19,21,23,25,27,29,-1,-1,-1,-1,-1,-1,-1,-1,-1,-1,-1,-1,-1,-1,-1,-1],"loss_changes":[7.717479E1,4.5307297E1,1.1403545E1,4.6160698E1,6.7192097E0,7.482067E0,1.0764574E1,4.071106E1,8.198688E0,1.2926579E0,4.7044926E0,1.3513565E0,6.4679203E0,6.705107E0,5.568466E0,0E0,0E0,0E0,0E0,0E0,0E0,0E0,0E0,0E0,0E0,0E0,0E0,0E0,0E0,0E0,0E0],"parents":[2147483647,0,0,1,1,2,2,3,3,4,4,5,5,6,6,7,7,8,8,9,9,10,10,11,11,12,12,13,13,14,14],"right_children":[2,4,6,8,10,12,14,16,18,20,22,24,26,28,30,-1,-1,-1,-1,-1,-1,-1,-1,-1,-1,-1,-1,-1,-1,-1,-1],"split_conditions":[5E-1,8.25E1,2.65E1,5E-1,8.75E1,1.95E1,5E-1,5E-1,6.35E1,5E-1,5E-1,5E-1,5E-1,5E-1,3.35E1,-1.2789533E-2,5.627416E-3,1.8526094E-4,1.7780248E-2,2.6188022E-2,5.287751E-3,6.897768E-2,1.7338583E-2,-9.075268E-3,3.0652348E-2,1.7956723E-2,5.1308442E-2,-8.777358E-4,1.4178187E-2,2.6782135E-2,8.97175E-3],"split_indices":[3,0,0,8,0,0,8,4,0,14,6,4,14,6,0,0,0,0,0,0,0,0,0,0,0,0,0,0,0,0,0],"split_type":[0,0,0,0,0,0,0,0,0,0,0,0,0,0,0,0,0,0,0,0,0,0,0,0,0,0,0,0,0,0,0],"sum_hessian":[2.26808E4,1.7731723E4,4.9490786E3,1.7468674E4,2.6304852E2,8.2715326E2,4.1219253E3,1.3743659E4,3.7250154E3,1.7155217E2,9.149635E1,1.1877128E2,7.08382E2,2.8689688E3,1.2529565E3,1.2415514E4,1.3281451E3,3.439089E3,2.8592642E2,1.3280002E2,3.8752163E1,6.6489235E1,2.5007126E1,1.1046955E2,8.301723E0,6.450046E2,6.3377445E1,2.5351147E3,3.3385403E2,2.1071466E2,1.0422418E3],"tree_param":{"num_deleted":"0","num_feature":"15","num_nodes":"31","size_leaf_vector":"0"}},{"base_weights":[-4.1825555E-2,-6.971609E-2,5.776133E-2,-8.747868E-2,6.875954E-2,7.9284914E-2,-3.0628989E-2,-1.802277E-1,-5.4262374E-2,9.012655E-2,-1.5762724E-1,9.293164E-2,-1.15221485E-1,-5.2202635E-2,2.8881726E-1,-1.9595219E-1,1.2665574E-1,3.5112962E-2,-8.172496E-2,1.23904064E-1,-4.161442E-2,7.068324E-1,-2.1251172E-1,2.1338288E-2,1.1515185E-1,-1.7289333E-1,1.2692654E-1,-8.600902E-2,9.417629E-2,3.415355E-1,1.1236205E-2],"categories":[],"categories_nodes":[],"categories_segments":[],"categories_sizes":[],"default_left":[1,1,1,1,1,1,1,1,1,1,1,1,1,1,1,0,0,0,0,0,0,0,0,0,0,0,0,0,0,0,0],"id":29,"left_children":[1,3,5,7,9,11,13,15,17,19,21,23,25,27,29,-1,-1,-1,-1,-1,-1,-1,-1,-1,-1,-1,-1,-1,-1,-1,-1],"loss_changes":[6.279607E1,4.344758E1,9.4134445E0,4.82166E1,9.72961E0,1.0570665E1,6.6958065E0,1.9942062E1,2.8296928E1,8.174663E0,8.385801E0,5.9122887E0,3.6706E0,4.505926E0,8.958254E-1,0E0,0E0,0E0,0E0,0E0,0E0,0E0,0E0,0E0,0E0,0E0,0E0,0E0,0E0,0E0,0E0],"parents":[2147483647,0,0,1,1,2,2,3,3,4,4,5,5,6,6,7,7,8,8,9,9,10,10,11,11,12,12,13,13,14,14],"right_children":[2,4,6,8,10,12,14,16,18,20,22,24,26,28,30,-1,-1,-1,-1,-1,-1,-1,-1,-1,-1,-1,-1,-1,-1,-1,-1],"split_conditions":[5E-1,5E-1,5.55E1,5E-1,5E-1,5E-1,7.95E1,7.55E1,2.75E1,5E-1,2.25E1,5E-1,5E-1,5E-1,5E-1,-1.9595219E-2,1.2665574E-2,3.5112964E-3,-8.172496E-3,1.2390407E-2,-4.161442E-3,7.068324E-2,-2.1251172E-2,2.1338288E-3,1.1515185E-2,-1.7289333E-2,1.26926545E-2,-8.600902E-3,9.41763E-3,3.415355E-2,1.1236205E-3],"split_indices":[3,6,0,1,10,10,0,0,0,5,0,1,4,6,6,0,0,0,0,0,0,0,0,0,0,0,0,0,0,0,0],"split_type":[0,0,0,0,0,0,0,0,0,0,0,0,0,0,0,0,0,0,0,0,0,0,0,0,0,0,0,0,0,0,0],"sum_hessian":[2.2606145E4,1.7660426E4,4.9457188E3,1.5652952E4,2.0074728E3,3.97732E3,9.6839886E2,4.1264233E3,1.1526529E4,1.8348925E3,1.7258035E2,3.7170508E3,2.602691E2,9.0791956E2,6.0479324E1,3.925638E3,2.0078548E2,2.7092283E3,8.817301E3,1.4604916E3,3.7440088E2,9.593833E0,1.6298651E2,8.808662E2,2.8361846E3,2.1043605E2,4.983307E1,7.3791064E2,1.700089E2,5.0632748E1,9.846578E0],"tree_param":{"num_deleted":"0","num_feature":"15","num_nodes":"31","size_leaf_vector":"0"}},{"base_weights":[-3.775705E-2,-6.564805E-2,4.133384E-2,-1.4291294E-1,-2.9923039E-2,2.2087651E-1,1.2478136E-2,-1.4979912E-1,2.7227503E-1,-4.3164816E-2,9.2560485E-2,2.437393E-1,-9.6969485E-2,-1.871087E-2,2.5377005E-1,-1.6921312E-1,-1.900291E-2,3.529299E-1,5.262315E-2,-3.6169138E-2,-2.9601327E-1,1.4660266E-1,-1.2778486E-1,3.142431E-1,1.7923939E-1,1.6409887E-1,-4.0157837E-1,-5.379886E-3,-1.8147264E-1,1.0390883E-1,3.6372536E-1],"categories":[],"categories_nodes":[],"categories_segments":[],"categories_sizes":[],"default_left":[1,1,1,1,1,1,1,1,1,1,1,1,1,1,1,0,0,0,0,0,0,0,0,0,0,0,0,0,0,0,0],"id":30,"left_children":[1,3,5,7,9,11,13,15,17,19,21,23,25,27,29,-1,-1,-1,-1,-1,-1,-1,-1,-1,-1,-1,-1,-1,-1,-1,-1],"loss_changes":[4.9746227E1,4.6013626E1,3.0458263E1,1.5110535E1,1.8496124E1,5.9392014E0,3.813359E1,1.3164291E1,1.5112004E0,1.8190435E1,1.3268533E1,3.3984375E0,4.466823E0,9.735925E0,9.519424E0,0E0,0E0,0E0,0E0,0E0,0E0,0E0,0E0,0E0,0E0,0E0,0E0,0E0,0E0,0E0,0E0],"parents":[2147483647,0,0,1,1,2,2,3,3,4,4,5,5,6,6,7,7,8,8,9,9,10,10,11,11,12,12,13,13,14,14],"right_children":[2,4,6,8,10,12,14,16,18,20,22,24,26,28,30,-1,-1,-1,-1,-1,-1,-1,-1,-1,-1,-1,-1,-1,-1,-1,-1],"split_conditions":[5E-1,5E-1,2.65E1,8.35E1,5E-1,5E-1,6.35E1,5E-1,5E-1,5E-1,5E-1,5E-1,2.35E1,5E-1,5E-1,-1.6921312E-2,-1.9002911E-3,3.529299E-2,5.262315E-3,-3.616914E-3,-2.9601326E-2,1.4660266E-2,-1.2778486E-2,3.142431E-2,1.792394E-2,1.6409887E-2,-4.0157836E-2,-5.379886E-4,-1.8147266E-2,1.0390883E-2,3.637254E-2],"split_indices":[9,2,0,0,6,10,0,6,6,11,5,13,0,10,13,0,0,0,0,0,0,0,0,0,0,0,0,0,0,0,0],"split_type":[0,0,0,0,0,0,0,0,0,0,0,0,0,0,0,0,0,0,0,0,0,0,0,0,0,0,0,0,0,0,0],"sum_hessian":[2.254897E4,1.6670408E4,5.8785635E3,5.26988E3,1.1400527E4,8.130488E2,5.0655146E3,5.1845303E3,8.5349815E1,1.0288841E4,1.1116859E3,7.587078E2,5.434102E1,4.486517E3,5.7899756E2,4.5141973E3,6.703332E2,6.1983185E1,2.336663E1,1.0012951E4,2.7588995E2,8.9300183E2,2.1868408E2,3.6063342E2,3.980744E2,2.9510233E1,2.4830788E1,4.147823E3,3.386939E2,2.4585701E2,3.3314053E2],"tree_param":{"num_deleted":"0","num_feature":"15","num_nodes":"31","size_leaf_vector":"0"}},{"base_weights":[-3.4069158E-2,-5.9333093E-2,5.5756036E-2,-7.451607E-2,7.927219E-2,1.5717465E-1,3.8472634E-2,-1.5824883E-1,-4.0380597E-2,1.8083137E-1,3.755838E-2,2.7685457E-1,7.1606554E-2,9.003497E-3,1.07059E-1,-1.898675E-1,-3.1940616E-3,-4.864371E-2,2.4287893E-1,2.1875943E-1,-1.03531726E-1,-6.770848E-2,7.988973E-2,5.048659E-3,3.2231733E-1,-6.4752E-2,1.2741512E-1,-5.5558786E-2,3.9395288E-2,2.4231055E-1,7.724682E-2],"categories":[],"categories_nodes":[],"categories_segments":[],"categories_sizes":[],"default_left":[1,1,1,1,1,1,1,1,1,1,1,1,1,1,1,0,0,0,0,0,0,0,0,0,0,0,0,0,0,0,0],"id":31,"left_children":[1,3,5,7,9,11,13,15,17,19,21,23,25,27,29,-1,-1,-1,-1,-1,-1,-1,-1,-1,-1,-1,-1,-1,-1,-1,-1],"loss_changes":[5.1076088E1,3.697196E1,8.654576E0,4.5245667E1,7.3420773E0,7.3441277E0,8.534033E0,2.2476608E1,2.6339668E1,5.4669895E0,5.4903975E0,3.6985264E0,3.2093434E0,5.79994E0,5.098077E0,0E0,0E0,0E0,0E0,0E0,0E0,0E0,0E0,0E0,0E0,0E0,0E0,0E0,0E0,0E0,0E0],"parents":[2147483647,0,0,1,1,2,2,3,3,4,4,5,5,6,6,7,7,8,8,9,9,10,10,11,11,12,12,13,13,14,14],"right_children":[2,4,6,8,10,12,14,16,18,20,22,24,26,28,30,-1,-1,-1,-1,-1,-1,-1,-1,-1,-1,-1,-1,-1,-1,-1,-1],"split_conditions":[5E-1,5E-1,2.55E1,5E-1,5E-1,5E-1,5E-1,6.25E1,7.85E1,5E-1,5E-1,1.95E1,2.05E1,5E-1,3.35E1,-1.898675E-2,-3.1940616E-4,-4.864371E-3,2.4287893E-2,2.1875944E-2,-1.0353173E-2,-6.770848E-3,7.9889735E-3,5.0486595E-4,3.2231733E-2,-6.4752E-3,1.2741513E-2,-5.555879E-3,3.939529E-3,2.4231056E-2,7.7246823E-3],"split_indices":[3,4,0,2,2,13,8,0,0,10,1,0,0,2,0,0,0,0,0,0,0,0,0,0,0,0,0,0,0,0,0],"split_type":[0,0,0,0,0,0,0,0,0,0,0,0,0,0,0,0,0,0,0,0,0,0,0,0,0,0,0,0,0,0,0],"sum_hessian":[2.2504588E4,1.756473E4,4.9398574E3,1.5831042E4,1.7336884E3,7.18081E2,4.2217764E3,4.583729E3,1.12473125E4,5.0379083E2,1.2298975E3,2.9843665E2,4.1964432E2,2.953775E3,1.2680015E3,3.8071526E3,7.7657666E2,1.0929315E4,3.1799646E2,4.4470697E2,5.9083874E1,3.5256418E2,8.773333E2,4.292346E1,2.5551318E2,1.2182524E2,2.978191E2,9.451448E2,2.0086302E3,2.277265E2,1.040275E3],"tree_param":{"num_deleted":"0","num_feature":"15","num_nodes":"31","size_leaf_vector":"0"}},{"base_weights":[-3.0761026E-2,-2.3225937E-2,-2.627172E-1,-3.7638456E-2,9.532795E-2,-2.891099E-1,8.5007146E-2,-6.3782424E-2,3.520143E-2,7.971263E-2,2.1937467E-1,-3.1708643E-1,-1.1627139E-1,-4.635902E-2,1.9950466E-1,-7.520487E-2,8.4542215E-2,-9.286189E-3,7.539854E-2,1.314545E-2,1.050792E-1,1.3652018E-1,4.2281285E-1,-3.377205E-1,-1.3301498E-1,-4.406064E-2,-2.0573334E-1,9.1208845E-2,-1.2029285E-1,2.3215957E-1,1.3263431E-1],"categories":[],"categories_nodes":[],"categories_segments":[],"categories_sizes":[],"default_left":[1,1,1,1,1,1,1,1,1,1,1,1,1,1,1,0,0,0,0,0,0,0,0,0,0,0,0,0,0,0,0],"id":32,"left_children":[1,3,5,7,9,11,13,15,17,19,21,23,25,27,29,-1,-1,-1,-1,-1,-1,-1,-1,-1,-1,-1,-1,-1,-1,-1,-1],"loss_changes":[3.922237E1,3.7148643E1,6.504429E0,3.6914974E1,4.5474167E0,3.1375084E0,7.700796E-1,2.417339E1,9.157234E0,3.5357409E0,4.3740225E0,2.0989304E0,5.919653E-1,2.5881582E-1,2.8636694E-2,0E0,0E0,0E0,0E0,0E0,0E0,0E0,0E0,0E0,0E0,0E0,0E0,0E0,0E0,0E0,0E0],"parents":[2147483647,0,0,1,1,2,2,3,3,4,4,5,5,6,6,7,7,8,8,9,9,10,10,11,11,12,12,13,13,14,14],"right_children":[2,4,6,8,10,12,14,16,18,20,22,24,26,28,30,-1,-1,-1,-1,-1,-1,-1,-1,-1,-1,-1,-1,-1,-1,-1,-1],"split_conditions":[5E-1,5E-1,5E-1,5E-1,5E-1,5E-1,5E-1,5E-1,5E-1,5E-1,5E-1,5E-1,5E-1,5E-1,5E-1,-7.520487E-3,8.454221E-3,-9.2861895E-4,7.5398544E-3,1.3145449E-3,1.050792E-2,1.3652018E-2,4.2281285E-2,-3.377205E-2,-1.3301498E-2,-4.4060643E-3,-2.0573335E-2,9.120884E-3,-1.2029286E-2,2.3215957E-2,1.3263431E-2],"split_indices":[11,4,8,9,6,6,9,7,13,1,12,4,1,1,7,0,0,0,0,0,0,0,0,0,0,0,0,0,0,0,0],"split_type":[0,0,0,0,0,0,0,0,0,0,0,0,0,0,0,0,0,0,0,0,0,0,0,0,0,0,0,0,0,0,0],"sum_hessian":[2.244336E4,2.1738291E4,7.050675E2,1.938264E4,2.355652E3,6.554841E2,4.9583454E1,1.4263319E4,5.119321E3,2.0937305E3,2.6192157E2,5.6344696E2,9.203706E1,2.336791E1,2.6215542E1,1.3243902E4,1.0194167E3,2.4303416E3,2.6889792E3,5.781258E2,1.5156047E3,1.8730763E2,7.461392E1,5.0590155E2,5.7545425E1,5.1754795E1,4.0282265E1,8.086952E0,1.5280958E1,1.5953267E1,1.0262276E1],"tree_param":{"num_deleted":"0","num_feature":"15","num_nodes":"31","size_leaf_vector":"0"}},{"base_weights":[-2.7759118E-2,-4.889129E-2,4.4204336E-2,-4.0517543E-2,-2.6512107E-1,3.0670265E-2,1.4410822E-1,-4.5550145E-2,3.0530536E-1,-3.0176204E-1,-5.656899E-2,1.9537827E-2,1.5856525E-1,3.1294784E-1,9.7140215E-2,2.038223E-2,-7.710067E-2,2.0386226E-1,4.4124448E-1,-3.2158828E-1,-1.3411997E-1,8.032388E-2,-5.092592E-1,6.550042E-2,-4.5958045E-3,2.6086671E-2,2.6770374E-1,3.5772833E-1,2.2135291E-2,4.6892917E-1,8.243673E-2],"categories":[],"categories_nodes":[],"categories_segments":[],"categories_sizes":[],"default_left":[1,1,1,1,1,1,1,1,1,1,1,1,1,1,1,0,0,0,0,0,0,0,0,0,0,0,0,0,0,0,0],"id":33,"left_children":[1,3,5,7,9,11,13,15,17,19,21,23,25,27,29,-1,-1,-1,-1,-1,-1,-1,-1,-1,-1,-1,-1,-1,-1,-1,-1],"loss_changes":[3.4059624E1,3.1335552E1,6.86985E0,2.9022512E1,4.9136963E0,6.373761E0,4.777647E0,3.4178593E1,3.208784E0,1.7802582E0,6.0926642E0,4.5718517E0,5.1763153E0,1.7046404E0,2.5623546E0,0E0,0E0,0E0,0E0,0E0,0E0,0E0,0E0,0E0,0E0,0E0,0E0,0E0,0E0,0E0,0E0],"parents":[2147483647,0,0,1,1,2,2,3,3,4,4,5,5,6,6,7,7,8,8,9,9,10,10,11,11,12,12,13,13,14,14],"right_children":[2,4,6,8,10,12,14,16,18,20,22,24,26,28,30,-1,-1,-1,-1,-1,-1,-1,-1,-1,-1,-1,-1,-1,-1,-1,-1],"split_conditions":[5E-1,5E-1,5E-1,8.35E1,5.85E1,6.35E1,5E-1,3.15E1,8.75E1,5E-1,7.35E1,3.65E1,5E-1,5E-1,2.25E1,2.038223E-3,-7.710067E-3,2.0386226E-2,4.412445E-2,-3.215883E-2,-1.3411998E-2,8.032388E-3,-5.092592E-2,6.5500424E-3,-4.5958045E-4,2.6086671E-3,2.6770374E-2,3.5772834E-2,2.213529E-3,4.689292E-2,8.2436735E-3],"split_indices":[8,11,4,0,0,0,2,0,0,4,0,0,13,10,0,0,0,0,0,0,0,0,0,0,0,0,0,0,0,0,0],"split_type":[0,0,0,0,0,0,0,0,0,0,0,0,0,0,0,0,0,0,0,0,0,0,0,0,0,0,0,0,0,0,0],"sum_hessian":[2.2394258E4,1.7311137E4,5.0831206E3,1.6666879E4,6.44257E2,4.477814E3,6.053066E2,1.642867E4,2.3821065E2,5.476009E2,9.665615E1,4.1203193E3,3.574946E2,1.3050539E2,4.748012E2,5.317285E3,1.1111384E4,1.3784497E2,1.00365685E2,4.8886667E2,5.8734226E1,7.4845535E1,2.1810617E1,1.4180065E3,2.702313E3,1.6204008E2,1.9545453E2,1.12891754E2,1.7613625E1,1.68878E1,4.579134E2],"tree_param":{"num_deleted":"0","num_feature":"15","num_nodes":"31","size_leaf_vector":"0"}},{"base_weights":[-2.5033226E-2,-4.7493488E-2,5.442694E-2,-6.519414E-2,5.36918E-2,7.2789E-2,-2.09962E-2,-8.391971E-2,4.3069873E-2,-8.323461E-2,1.5014614E-1,8.448907E-2,-9.409005E-2,-4.3114364E-2,2.0439062E-1,-1.00391045E-1,5.8874052E-2,1.2138476E-1,-4.2246487E-3,-1.1289712E-1,3.6883077E-1,1.6395682E-1,1.179382E-2,1.6166756E-1,7.0117705E-2,2.6643592E-1,-1.2326412E-1,-1.5693652E-2,-1.6942973E-1,2.3834908E-1,-5.099177E-2],"categories":[],"categories_nodes":[],"categories_segments":[],"categories_sizes":[],"default_left":[1,1,1,1,1,1,1,1,1,1,1,1,1,1,1,0,0,0,0,0,0,0,0,0,0,0,0,0,0,0,0],"id":34,"left_children":[1,3,5,7,9,11,13,15,17,19,21,23,25,27,29,-1,-1,-1,-1,-1,-1,-1,-1,-1,-1,-1,-1,-1,-1,-1,-1],"loss_changes":[3.990646E1,3.1225368E1,6.8260384E0,3.008319E1,3.4298096E1,7.745983E0,4.822294E0,2.9758057E1,8.106499E0,1.4437216E1,2.9089699E0,4.0970173E0,2.768881E0,3.0457199E0,7.6198196E-1,0E0,0E0,0E0,0E0,0E0,0E0,0E0,0E0,0E0,0E0,0E0,0E0,0E0,0E0,0E0,0E0],"parents":[2147483647,0,0,1,1,2,2,3,3,4,4,5,5,6,6,7,7,8,8,9,9,10,10,11,11,12,12,13,13,14,14],"right_children":[2,4,6,8,10,12,14,16,18,20,22,24,26,28,30,-1,-1,-1,-1,-1,-1,-1,-1,-1,-1,-1,-1,-1,-1,-1,-1],"split_conditions":[5E-1,6.25E1,5.55E1,5E-1,5E-1,5E-1,7.75E1,5E-1,2.85E1,8.45E1,5E-1,2.45E1,2.25E1,6.95E1,5E-1,-1.0039105E-2,5.8874055E-3,1.2138477E-2,-4.224649E-4,-1.1289712E-2,3.688308E-2,1.6395682E-2,1.1793821E-3,1.6166756E-2,7.0117707E-3,2.6643593E-2,-1.2326412E-2,-1.5693652E-3,-1.6942974E-2,2.3834908E-2,-5.099177E-3],"split_indices":[3,0,0,7,13,10,0,4,0,0,10,0,0,0,12,0,0,0,0,0,0,0,0,0,0,0,0,0,0,0,0],"split_type":[0,0,0,0,0,0,0,0,0,0,0,0,0,0,0,0,0,0,0,0,0,0,0,0,0,0,0,0,0,0,0],"sum_hessian":[2.2357918E4,1.7431205E4,4.9267134E3,1.4836217E4,2.5949885E3,3.9621477E3,9.645654E2,1.2648696E4,2.1875208E3,1.0725441E3,1.5224446E3,3.7030188E3,2.59129E2,8.7910394E2,8.546149E1,1.1340823E4,1.3078732E3,8.230566E2,1.3644641E3,1.00720593E3,6.533809E1,1.3840956E3,1.3834892E2,5.7968585E2,3.1233328E3,1.8790308E1,2.4033868E2,7.232287E2,1.5587524E2,7.549018E1,9.971309E0],"tree_param":{"num_deleted":"0","num_feature":"15","num_nodes":"31","size_leaf_vector":"0"}},{"base_weights":[-2.2597002E-2,-3.6458485E-2,8.6727954E-2,-5.2145943E-2,5.534298E-2,2.3487633E-2,1.3060239E-1,-1.1881306E-1,-2.414571E-2,1.26943E-1,-3.9350498E-3,1.7906006E-1,-3.8591105E-2,1.4366452E-1,-1.968376E-2,-1.4566287E-1,1.2053439E-1,-3.1063445E-2,2.2028352E-1,1.4459594E-1,-1.4013891E-1,-3.1924294E-4,-7.3380566E-1,2.4523014E-1,1.3689811E-2,-8.5442E-2,1.3434799E-1,-1.2105756E-1,1.545705E-1,7.856567E-1,-7.503387E-2],"categories":[],"categories_nodes":[],"categories_segments":[],"categories_sizes":[],"default_left":[1,1,1,1,1,1,1,1,1,1,1,1,1,1,1,0,0,0,0,0,0,0,0,0,0,0,0,0,0,0,0],"id":35,"left_children":[1,3,5,7,9,11,13,15,17,19,21,23,25,27,29,-1,-1,-1,-1,-1,-1,-1,-1,-1,-1,-1,-1,-1,-1,-1,-1],"loss_changes":[3.3806362E1,2.8513252E1,6.9621124E0,3.155975E1,1.2265549E1,9.949035E0,2.911806E0,3.2154846E1,2.0142887E1,6.1913376E0,4.1744747E0,3.2115383E0,5.980069E0,3.955164E0,5.38023E0,0E0,0E0,0E0,0E0,0E0,0E0,0E0,0E0,0E0,0E0,0E0,0E0,0E0,0E0,0E0,0E0],"parents":[2147483647,0,0,1,1,2,2,3,3,4,4,5,5,6,6,7,7,8,8,9,9,10,10,11,11,12,12,13,13,14,14],"right_children":[2,4,6,8,10,12,14,16,18,20,22,24,26,28,30,-1,-1,-1,-1,-1,-1,-1,-1,-1,-1,-1,-1,-1,-1,-1,-1],"split_conditions":[5E-1,5E-1,5E-1,5E-1,3.15E1,4.15E1,5E-1,5E-1,7.75E1,5E-1,7.35E1,5E-1,5E-1,2.15E1,2.25E1,-1.4566287E-2,1.2053439E-2,-3.1063445E-3,2.2028353E-2,1.4459594E-2,-1.4013891E-2,-3.1924294E-5,-7.338057E-2,2.4523014E-2,1.3689812E-3,-8.5442E-3,1.3434799E-2,-1.2105756E-2,1.5457051E-2,7.856567E-2,-7.5033875E-3],"split_indices":[6,7,13,2,0,0,10,4,0,10,0,8,8,0,0,0,0,0,0,0,0,0,0,0,0,0,0,0,0,0,0],"split_type":[0,0,0,0,0,0,0,0,0,0,0,0,0,0,0,0,0,0,0,0,0,0,0,0,0,0,0,0,0,0,0],"sum_hessian":[2.2305363E4,1.9796057E4,2.5093066E3,1.6907293E4,2.8887642E3,1.0284464E3,1.4808604E3,4.999795E3,1.1907498E4,1.3078783E3,1.5808857E3,2.927973E2,7.356491E2,1.362484E3,1.18376274E2,4.4958457E3,5.039492E2,1.1580621E4,3.268771E2,1.2272229E3,8.06554E1,1.5740881E3,6.797655E0,2.0877617E2,8.402114E1,5.792347E2,1.5641441E2,5.351079E1,1.3089733E3,6.764142E0,1.1161214E2],"tree_param":{"num_deleted":"0","num_feature":"15","num_nodes":"31","size_leaf_vector":"0"}},{"base_weights":[-2.0386824E-2,-4.0598094E-2,5.0866812E-2,-5.399992E-2,6.216587E-2,4.054191E-2,1.3954373E-1,-4.6991244E-2,-2.645358E-1,-4.5060506E-3,1.06437355E-1,2.313271E-2,8.348926E-2,1.0422036E-1,3.1185132E-1,-5.8224708E-2,5.283325E-2,-3.3063495E-1,-2.0501697E-1,3.5308186E-2,-1.4713737E-1,8.097205E-2,1.7535354E-1,-3.0011177E-2,4.507101E-2,1.0288388E-1,6.391699E-2,1.17521204E-1,-3.78546E-1,4.8889714E-1,1.5241927E-1],"categories":[],"categories_nodes":[],"categories_segments":[],"categories_sizes":[],"default_left":[1,1,1,1,1,1,1,1,1,1,1,1,1,1,1,0,0,0,0,0,0,0,0,0,0,0,0,0,0,0,0],"id":36,"left_children":[1,3,5,7,9,11,13,15,17,19,21,23,25,27,29,-1,-1,-1,-1,-1,-1,-1,-1,-1,-1,-1,-1,-1,-1,-1,-1],"loss_changes":[3.2068287E1,2.3893482E1,4.4996243E0,2.263158E1,5.9088445E0,3.2945218E0,3.088458E0,1.66585E1,1.8764076E0,4.5466757E0,2.0969868E0,3.6605968E0,4.7601318E-1,2.7865667E0,2.37368E0,0E0,0E0,0E0,0E0,0E0,0E0,0E0,0E0,0E0,0E0,0E0,0E0,0E0,0E0,0E0,0E0],"parents":[2147483647,0,0,1,1,2,2,3,3,4,4,5,5,6,6,7,7,8,8,9,9,10,10,11,11,12,12,13,13,14,14],"right_children":[2,4,6,8,10,12,14,16,18,20,22,24,26,28,30,-1,-1,-1,-1,-1,-1,-1,-1,-1,-1,-1,-1,-1,-1,-1,-1],"split_conditions":[5E-1,5E-1,5E-1,5E-1,5E-1,5E-1,5E-1,5E-1,5E-1,5E-1,5E-1,5E-1,5E-1,5E-1,5E-1,-5.822471E-3,5.2833254E-3,-3.3063497E-2,-2.0501697E-2,3.5308187E-3,-1.4713737E-2,8.097205E-3,1.7535355E-2,-3.0011178E-3,4.507101E-3,1.02883885E-2,6.391699E-3,1.175212E-2,-3.78546E-2,4.8889715E-2,1.52419275E-2],"split_indices":[3,6,6,11,13,9,4,4,2,5,9,2,13,11,13,0,0,0,0,0,0,0,0,0,0,0,0,0,0,0,0],"split_type":[0,0,0,0,0,0,0,0,0,0,0,0,0,0,0,0,0,0,0,0,0,0,0,0,0,0,0,0,0,0,0],"sum_hessian":[2.2265256E4,1.7345572E4,4.9196836E3,1.5344866E4,2.0007057E3,4.407915E3,5.117687E2,1.4851682E4,4.9318466E2,7.987314E2,1.2019744E3,3.137594E3,1.270321E3,4.2603552E2,8.573318E1,1.3349815E4,1.5018667E3,2.3151674E2,2.616679E2,6.2501624E2,1.7371515E2,8.792548E2,3.2271954E2,9.1666754E2,2.2209265E3,6.359182E2,6.344029E2,4.153487E2,1.0686829E1,3.9643475E1,4.6089703E1],"tree_param":{"num_deleted":"0","num_feature":"15","num_nodes":"31","size_leaf_vector":"0"}},{"base_weights":[-1.83934E-2,-8.008035E-2,4.1081035E-3,-8.679318E-2,1.9315778E-1,1.5529511E-2,-1.3029636E-1,-1.1009389E-1,-1.9056166E-2,2.6474574E-1,-5.942056E-1,6.371239E-2,-7.616034E-3,-1.42157E-1,5.725731E-1,-1.4352153E-1,-4.411264E-2,1.5624422E-1,-7.1163446E-2,1.3380059E-2,4.0357703E-1,-2.0437688E-1,-9.333697E-1,1.8332575E-1,-8.409615E-3,-8.7382585E-2,5.1246684E-2,8.1322044E-2,-1.6056015E-1,8.6606705E-1,2.8035712E-1],"categories":[],"categories_nodes":[],"categories_segments":[],"categories_sizes":[],"default_left":[1,1,1,1,1,1,1,1,1,1,1,1,1,1,1,0,0,0,0,0,0,0,0,0,0,0,0,0,0,0,0],"id":37,"left_children":[1,3,5,7,9,11,13,15,17,19,21,23,25,27,29,-1,-1,-1,-1,-1,-1,-1,-1,-1,-1,-1,-1,-1,-1,-1,-1],"loss_changes":[3.0846485E1,1.0911213E1,2.4999472E1,9.148827E0,8.202596E0,1.6739408E1,1.0714655E1,9.50803E0,1.35771475E1,4.5846395E0,1.4228201E0,4.2018936E1,4.7614334E1,5.175106E0,1.5895681E0,0E0,0E0,0E0,0E0,0E0,0E0,0E0,0E0,0E0,0E0,0E0,0E0,0E0,0E0,0E0,0E0],"parents":[2147483647,0,0,1,1,2,2,3,3,4,4,5,5,6,6,7,7,8,8,9,9,10,10,11,11,12,12,13,13,14,14],"right_children":[2,4,6,8,10,12,14,16,18,20,22,24,26,28,30,-1,-1,-1,-1,-1,-1,-1,-1,-1,-1,-1,-1,-1,-1,-1,-1],"split_conditions":[5E-1,8.15E1,5E-1,5E-1,5E-1,3.25E1,8.45E1,5.25E1,2.95E1,5E-1,8.45E1,5E-1,5E-1,2.15E1,5E-1,-1.4352153E-2,-4.4112643E-3,1.5624422E-2,-7.1163448E-3,1.3380059E-3,4.0357705E-2,-2.0437688E-2,-9.333697E-2,1.8332576E-2,-8.4096147E-4,-8.738259E-3,5.1246686E-3,8.132204E-3,-1.6056014E-2,8.66067E-2,2.8035713E-2],"split_indices":[1,0,10,12,10,0,0,0,0,2,0,13,13,0,2,0,0,0,0,0,0,0,0,0,0,0,0,0,0,0,0],"split_type":[0,0,0,0,0,0,0,0,0,0,0,0,0,0,0,0,0,0,0,0,0,0,0,0,0,0,0,0,0,0,0],"sum_hessian":[2.222167E4,5.9386216E3,1.6283049E4,5.7968877E3,1.4173358E2,1.5008539E4,1.2745094E3,4.312734E3,1.4841538E3,1.3052946E2,1.1204125E1,4.869591E3,1.0138948E4,1.2541439E3,2.0365425E1,2.8617366E3,1.4509974E3,3.3961514E2,1.1445387E3,4.683221E1,8.369725E1,5.958328E0,5.245798E0,1.8311356E3,3.038455E3,4.304845E3,5.834103E3,9.515898E1,1.158985E3,9.180743E0,1.1184682E1],"tree_param":{"num_deleted":"0","num_feature":"15","num_nodes":"31","size_leaf_vector":"0"}},{"base_weights":[-1.6582154E-2,-3.4841325E-2,4.763191E-2,-5.27596E-2,3.0897617E-2,3.814005E-2,1.2930182E-1,-6.6602446E-2,4.9928356E-2,-3.265913E-3,6.1882753E-2,4.6657022E-2,-7.873133E-2,1.3950194E-1,-2.7193016E-1,-5.8444954E-2,-2.7389795E-1,6.906754E-2,-1.4591366E-1,-8.590242E-3,2.2143503E-1,8.458753E-2,5.236358E-3,3.4691807E-2,9.408112E-2,-1.5941943E-1,3.9451336E-3,1.6806321E-1,-6.78087E-3,-4.5309022E-1,-4.5841563E-2],"categories":[],"categories_nodes":[],"categories_segments":[],"categories_sizes":[],"default_left":[1,1,1,1,1,1,1,1,1,1,1,1,1,1,1,0,0,0,0,0,0,0,0,0,0,0,0,0,0,0,0],"id":38,"left_children":[1,3,5,7,9,11,13,15,17,19,21,23,25,27,29,-1,-1,-1,-1,-1,-1,-1,-1,-1,-1,-1,-1,-1,-1,-1,-1],"loss_changes":[2.603642E1,2.0367031E1,3.806262E0,1.9316338E1,3.9208422E0,4.3892875E0,2.1312408E0,2.0230297E1,6.0617137E0,2.1104946E0,2.4975934E0,2.3273687E0,1.9995515E0,2.0879078E0,5.1249117E-1,0E0,0E0,0E0,0E0,0E0,0E0,0E0,0E0,0E0,0E0,0E0,0E0,0E0,0E0,0E0,0E0],"parents":[2147483647,0,0,1,1,2,2,3,3,4,4,5,5,6,6,7,7,8,8,9,9,10,10,11,11,12,12,13,13,14,14],"right_children":[2,4,6,8,10,12,14,16,18,20,22,24,26,28,30,-1,-1,-1,-1,-1,-1,-1,-1,-1,-1,-1,-1,-1,-1,-1,-1],"split_conditions":[5E-1,5E-1,5E-1,5E-1,5E-1,5E-1,5E-1,5E-1,5E-1,5E-1,5E-1,5E-1,5E-1,5E-1,5E-1,-5.8444957E-3,-2.7389795E-2,6.906754E-3,-1.4591366E-2,-8.590242E-4,2.2143504E-2,8.458753E-3,5.236358E-4,3.4691808E-3,9.408112E-3,-1.5941944E-2,3.9451336E-4,1.6806321E-2,-6.78087E-4,-4.5309022E-2,-4.5841564E-3],"split_indices":[3,8,6,6,13,10,11,11,10,11,7,7,13,14,2,0,0,0,0,0,0,0,0,0,0,0,0,0,0,0,0],"split_type":[0,0,0,0,0,0,0,0,0,0,0,0,0,0,0,0,0,0,0,0,0,0,0,0,0,0,0,0,0,0,0],"sum_hessian":[2.2203574E4,1.7288168E4,4.9154062E3,1.3585425E4,3.702743E3,4.404923E3,5.10483E2,1.1971904E4,1.6135205E3,1.7614745E3,1.9412684E3,4.10628E3,2.9864334E2,4.9846335E2,1.2019645E1,1.1519856E4,4.520472E2,1.4704629E3,1.4305757E2,1.7216416E3,3.9832836E1,1.3854604E3,5.558079E2,3.2803665E3,8.259132E2,1.5066934E2,1.4797398E2,4.1691342E2,8.154993E1,6.115435E0,5.9042096E0],"tree_param":{"num_deleted":"0","num_feature":"15","num_nodes":"31","size_leaf_vector":"0"}},{"base_weights":[-1.4960386E-2,-7.055928E-2,5.256019E-3,-1.0025204E-1,9.287706E-2,6.6678606E-2,-1.1674135E-2,-1.06854655E-1,2.2129098E-1,7.4753887E-3,1.5295196E-1,1.9639122E-1,-1.1176599E-2,-6.685602E-2,2.8813994E-2,-1.3567261E-1,-3.4700286E-2,-6.1111588E-2,4.3685314E-1,7.380765E-2,-1.5276033E-1,7.222499E-2,2.1730427E-1,1.1337715E-1,2.2718775E-1,-4.9978618E-2,1.9583793E-1,1.4857021E-2,-1.1787917E-1,9.791107E-3,1.681319E-1],"categories":[],"categories_nodes":[],"categories_segments":[],"categories_sizes":[],"default_left":[1,1,1,1,1,1,1,1,1,1,1,1,1,1,1,0,0,0,0,0,0,0,0,0,0,0,0,0,0,0,0],"id":39,"left_children":[1,3,5,7,9,11,13,15,17,19,21,23,25,27,29,-1,-1,-1,-1,-1,-1,-1,-1,-1,-1,-1,-1,-1,-1,-1,-1],"loss_changes":[2.4918344E1,2.8696905E1,1.6907751E1,1.0645309E1,4.6644316E0,3.548123E1,2.8479565E1,1.0190491E1,6.1746526E0,4.013892E0,2.757371E0,3.3432388E0,1.7652544E1,2.2493044E1,1.948446E1,0E0,0E0,0E0,0E0,0E0,0E0,0E0,0E0,0E0,0E0,0E0,0E0,0E0,0E0,0E0,0E0],"parents":[2147483647,0,0,1,1,2,2,3,3,4,4,5,5,6,6,7,7,8,8,9,9,10,10,11,11,12,12,13,13,14,14],"right_children":[2,4,6,8,10,12,14,16,18,20,22,24,26,28,30,-1,-1,-1,-1,-1,-1,-1,-1,-1,-1,-1,-1,-1,-1,-1,-1],"split_conditions":[5E-1,5E-1,2.75E1,8.15E1,5E-1,5E-1,5E-1,5E-1,5E-1,6.55E1,5.15E1,5E-1,5E-1,4.15E1,6.65E1,-1.3567261E-2,-3.4700285E-3,-6.111159E-3,4.3685313E-2,7.380765E-3,-1.52760325E-2,7.222499E-3,2.1730429E-2,1.1337715E-2,2.2718776E-2,-4.997862E-3,1.9583793E-2,1.4857021E-3,-1.17879165E-2,9.791107E-4,1.681319E-2],"split_indices":[1,6,0,0,13,13,13,9,13,0,0,2,9,0,0,0,0,0,0,0,0,0,0,0,0,0,0,0,0,0,0],"split_type":[0,0,0,0,0,0,0,0,0,0,0,0,0,0,0,0,0,0,0,0,0,0,0,0,0,0,0,0,0,0,0],"sum_hessian":[2.2167824E4,5.9104614E3,1.6257363E4,5.0020806E3,9.0838074E2,3.5121926E3,1.2745171E4,4.902088E3,9.999261E1,3.7558234E2,5.327984E2,1.3167935E3,2.1953992E3,5.3935576E3,7.3516133E3,3.5023813E3,1.3997068E3,4.3595604E1,5.6397E1,2.6600464E2,1.09577705E2,2.3727293E2,2.9552545E2,3.5758383E2,9.592096E2,1.8494954E3,3.4590384E2,2.0735298E3,3.3200278E3,6.4693403E3,8.822729E2],"tree_param":{"num_deleted":"0","num_feature":"15","num_nodes":"31","size_leaf_vector":"0"}},{"base_weights":[-1.3489909E-2,-3.173666E-2,3.7585016E-2,-4.5018E-2,7.9584755E-2,4.6597242E-2,-7.135799E-2,-9.916351E-2,-2.6362345E-2,7.354591E-3,1.0654519E-1,-3.9020292E-3,6.757496E-2,-8.117426E-3,-2.2863063E-1,-1.105718E-1,7.953243E-2,-2.0065274E-2,-2.693846E-1,8.001937E-2,-4.2024802E-2,2.2836281E-2,1.5620974E-1,3.4071666E-3,-2.8609118E-1,4.4214997E-2,8.869816E-2,5.0941538E-2,-2.0158976E-1,-2.8423256E-1,2.5117056E-2],"categories":[],"categories_nodes":[],"categories_segments":[],"categories_sizes":[],"default_left":[1,1,1,1,1,1,1,1,1,1,1,1,1,1,1,0,0,0,0,0,0,0,0,0,0,0,0,0,0,0,0],"id":40,"left_children":[1,3,5,7,9,11,13,15,17,19,21,23,25,27,29,-1,-1,-1,-1,-1,-1,-1,-1,-1,-1,-1,-1,-1,-1,-1,-1],"loss_changes":[2.064132E1,2.4129992E1,5.7273436E0,1.4724415E1,3.3870487E0,5.7051105E0,4.432376E0,7.6244545E0,1.6590672E1,1.7039074E0,5.2628765E0,3.2628117E0,1.8734798E0,3.6553452E0,1.8105617E0,0E0,0E0,0E0,0E0,0E0,0E0,0E0,0E0,0E0,0E0,0E0,0E0,0E0,0E0,0E0,0E0],"parents":[2147483647,0,0,1,1,2,2,3,3,4,4,5,5,6,6,7,7,8,8,9,9,10,10,11,11,12,12,13,13,14,14],"right_children":[2,4,6,8,10,12,14,16,18,20,22,24,26,28,30,-1,-1,-1,-1,-1,-1,-1,-1,-1,-1,-1,-1,-1,-1,-1,-1],"split_conditions":[5E-1,5E-1,5E-1,5E-1,5E-1,5E-1,5E-1,5E-1,5E-1,5E-1,5E-1,5E-1,5E-1,5E-1,5E-1,-1.105718E-2,7.953243E-3,-2.0065275E-3,-2.6938459E-2,8.0019375E-3,-4.2024804E-3,2.283628E-3,1.5620974E-2,3.4071665E-4,-2.8609117E-2,4.4215E-3,8.869817E-3,5.094154E-3,-2.0158976E-2,-2.8423255E-2,2.5117057E-3],"split_indices":[9,4,10,1,1,1,7,7,11,13,13,11,13,14,14,0,0,0,0,0,0,0,0,0,0,0,0,0,0,0,0],"split_type":[0,0,0,0,0,0,0,0,0,0,0,0,0,0,0,0,0,0,0,0,0,0,0,0,0,0,0,0,0,0,0],"sum_hessian":[2.214621E4,1.6317195E4,5.8290146E3,1.4578486E4,1.7387086E3,5.3841846E3,4.4483017E2,3.734703E3,1.0843784E4,4.729345E2,1.2657742E3,1.5804386E3,3.8037458E3,3.180082E2,1.2682197E2,3.510939E3,2.2376382E2,1.0570957E4,2.7282678E2,1.9109949E2,2.8183502E2,4.718825E2,7.938916E2,1.541499E3,3.8939613E1,1.8077092E3,1.9960366E3,2.442007E2,7.38075E1,1.0392869E2,2.2893286E1],"tree_param":{"num_deleted":"0","num_feature":"15","num_nodes":"31","size_leaf_vector":"0"}},{"base_weights":[-1.2167648E-2,-4.2635687E-3,-1.1440773E-1,-5.3313315E-2,1.3915584E-2,-1.6567671E-1,-1.118619E-2,-8.225094E-2,1.0583953E-1,1.8252127E-2,-1.80721E-1,-3.6276005E-2,-2.2517054E-1,-1.0425512E-1,2.3085116E-1,-8.916204E-2,2.6131743E-1,3.2283094E-2,1.5587169E-1,6.524724E-2,-4.056384E-3,-2.2402285E-1,1.9397509E-1,-6.741467E-2,4.0248135E-1,-2.6234165E-1,-2.248439E-2,-1.2694557E-1,2.3949015E-1,2.7167872E-1,3.5267347E-3],"categories":[],"categories_nodes":[],"categories_segments":[],"categories_sizes":[],"default_left":[1,1,1,1,1,1,1,1,1,1,1,1,1,1,1,0,0,0,0,0,0,0,0,0,0,0,0,0,0,0,0],"id":41,"left_children":[1,3,5,7,9,11,13,15,17,19,21,23,25,27,29,-1,-1,-1,-1,-1,-1,-1,-1,-1,-1,-1,-1,-1,-1,-1,-1],"loss_changes":[1.7875546E1,1.831084E1,8.398603E0,2.558228E1,1.264927E1,8.15625E0,1.1914592E1,1.1180969E1,3.1405602E0,1.5366386E1,5.34303E0,4.606871E0,5.466137E0,3.0094523E0,1.3625455E0,0E0,0E0,0E0,0E0,0E0,0E0,0E0,0E0,0E0,0E0,0E0,0E0,0E0,0E0,0E0,0E0],"parents":[2147483647,0,0,1,1,2,2,3,3,4,4,5,5,6,6,7,7,8,8,9,9,10,10,11,11,12,12,13,13,14,14],"right_children":[2,4,6,8,10,12,14,16,18,20,22,24,26,28,30,-1,-1,-1,-1,-1,-1,-1,-1,-1,-1,-1,-1,-1,-1,-1,-1],"split_conditions":[5E-1,5E-1,5.15E1,5E-1,5E-1,2.85E1,5E-1,8.15E1,5E-1,3.25E1,5E-1,5E-1,5E-1,8.45E1,7.25E1,-8.916204E-3,2.6131744E-2,3.2283093E-3,1.5587169E-2,6.524724E-3,-4.056384E-4,-2.2402285E-2,1.939751E-2,-6.7414674E-3,4.0248137E-2,-2.6234165E-2,-2.248439E-3,-1.2694557E-2,2.3949016E-2,2.7167872E-2,3.5267347E-4],"split_indices":[10,1,0,6,11,0,9,0,13,0,9,6,4,0,0,0,0,0,0,0,0,0,0,0,0,0,0,0,0,0,0],"split_type":[0,0,0,0,0,0,0,0,0,0,0,0,0,0,0,0,0,0,0,0,0,0,0,0,0,0,0,0,0,0,0],"sum_hessian":[2.2119688E4,2.0533318E4,1.5863688E3,5.5518267E3,1.4981491E4,1.0595146E3,5.2685406E2,4.69809E3,8.537369E2,1.4655862E4,3.2562943E2,3.342095E2,7.253052E2,3.809423E2,1.459118E2,4.6061743E3,9.191558E1,3.4628293E2,5.0745395E2,4.717034E3,9.938828E3,2.922568E2,3.337262E1,3.1285266E2,2.135684E1,6.1265466E2,1.12650536E2,3.579452E2,2.299709E1,1.23530556E2,2.2381254E1],"tree_param":{"num_deleted":"0","num_feature":"15","num_nodes":"31","size_leaf_vector":"0"}},{"base_weights":[-1.0968463E-2,-2.6355414E-2,4.0920734E-2,-7.1579315E-2,-4.1793264E-3,1.216032E-1,2.9308423E-2,-9.517822E-2,1.2863778E-1,4.5621097E-2,-2.9850934E-2,1.6436996E-1,-1.2076416E-1,1.916539E-2,1.5121843E-1,-1.0820008E-1,2.1186258E-1,1.4838971E-1,-2.3680275E-2,-1.2758197E-2,2.0972133E-1,-6.0968786E-3,-1.4754754E-1,1.7893049E-1,-2.1734719E-1,5.099187E-1,-1.624275E-1,2.38794E-2,-8.858452E-2,2.0298879E-1,-2.2531215E-2],"categories":[],"categories_nodes":[],"categories_segments":[],"categories_sizes":[],"default_left":[1,1,1,1,1,1,1,1,1,1,1,1,1,1,1,0,0,0,0,0,0,0,0,0,0,0,0,0,0,0,0],"id":42,"left_children":[1,3,5,7,9,11,13,15,17,19,21,23,25,27,29,-1,-1,-1,-1,-1,-1,-1,-1,-1,-1,-1,-1,-1,-1,-1,-1],"loss_changes":[1.7648804E1,1.709763E1,4.733205E0,2.6515783E1,1.4627349E1,6.609912E0,5.4637747E0,2.0087955E1,1.7841892E0,3.7286316E1,2.1105907E1,3.044918E0,2.6036854E0,2.0757682E0,3.0577703E0,0E0,0E0,0E0,0E0,0E0,0E0,0E0,0E0,0E0,0E0,0E0,0E0,0E0,0E0,0E0,0E0],"parents":[2147483647,0,0,1,1,2,2,3,3,4,4,5,5,6,6,7,7,8,8,9,9,10,10,11,11,12,12,13,13,14,14],"right_children":[2,4,6,8,10,12,14,16,18,20,22,24,26,28,30,-1,-1,-1,-1,-1,-1,-1,-1,-1,-1,-1,-1,-1,-1,-1,-1],"split_conditions":[5E-1,5E-1,5E-1,5E-1,3.25E1,5E-1,6.35E1,5E-1,5E-1,5E-1,5E-1,6.65E1,2.35E1,6.05E1,5E-1,-1.0820008E-2,2.1186259E-2,1.4838971E-2,-2.3680276E-3,-1.2758197E-3,2.0972133E-2,-6.096879E-4,-1.47547545E-2,1.789305E-2,-2.173472E-2,5.099187E-2,-1.624275E-2,2.38794E-3,-8.858453E-3,2.029888E-2,-2.2531215E-3],"split_indices":[8,2,2,4,0,10,0,7,10,12,14,0,0,0,14,0,0,0,0,0,0,0,0,0,0,0,0,0,0,0,0],"split_type":[0,0,0,0,0,0,0,0,0,0,0,0,0,0,0,0,0,0,0,0,0,0,0,0,0,0,0,0,0,0,0],"sum_hessian":[2.2102408E4,1.7047672E4,5.054736E3,5.6083286E3,1.1439344E4,6.347831E2,4.4199526E3,5.0174624E3,5.908665E2,3.8907976E3,7.5485464E3,5.398467E2,9.493645E1,4.0815232E3,3.384296E2,4.8139463E3,2.0351599E2,5.230637E2,6.78028E1,2.870521E3,1.02027673E3,6.281781E3,1.2667654E3,5.2052264E2,1.932399E1,5.186487E0,8.974996E1,3.9111887E3,1.7033438E2,2.6061008E2,7.7819534E1],"tree_param":{"num_deleted":"0","num_feature":"15","num_nodes":"31","size_leaf_vector":"0"}},{"base_weights":[-9.893252E-3,-2.5956538E-2,4.6409965E-2,-4.1656457E-2,6.309077E-2,6.1559293E-2,-1.5736232E-2,-1.8884024E-2,-9.347355E-2,1.0564901E-1,-8.7218545E-2,6.872052E-2,-4.0714104E-2,-3.0922113E-2,2.066108E-1,-8.196559E-3,-1.5929058E-1,-6.0012657E-2,-2.4387571E-1,6.892216E-2,2.4109523E-1,-1.02368206E-1,6.8032414E-1,1.3488886E-1,5.891428E-2,-7.492085E-2,2.0577127E-1,-8.527647E-3,-1.2018715E-1,1.44174E-1,6.3404137E-1],"categories":[],"categories_nodes":[],"categories_segments":[],"categories_sizes":[],"default_left":[1,1,1,1,1,1,1,1,1,1,1,1,1,1,1,0,0,0,0,0,0,0,0,0,0,0,0,0,0,0,0],"id":43,"left_children":[1,3,5,7,9,11,13,15,17,19,21,23,25,27,29,-1,-1,-1,-1,-1,-1,-1,-1,-1,-1,-1,-1,-1,-1,-1,-1],"loss_changes":[1.9967314E1,2.401615E1,4.614807E0,1.7229471E1,1.6480562E1,2.8887367E0,3.252211E0,1.5223255E1,2.2420692E1,9.968075E0,6.6827903E0,2.3817425E0,2.194777E0,1.7995149E0,1.5521832E0,0E0,0E0,0E0,0E0,0E0,0E0,0E0,0E0,0E0,0E0,0E0,0E0,0E0,0E0,0E0,0E0],"parents":[2147483647,0,0,1,1,2,2,3,3,4,4,5,5,6,6,7,7,8,8,9,9,10,10,11,11,12,12,13,13,14,14],"right_children":[2,4,6,8,10,12,14,16,18,20,22,24,26,28,30,-1,-1,-1,-1,-1,-1,-1,-1,-1,-1,-1,-1,-1,-1,-1,-1],"split_conditions":[5E-1,6.25E1,5.55E1,4.65E1,5E-1,5E-1,7.95E1,5E-1,5E-1,5E-1,8.95E1,2.35E1,5.05E1,6.95E1,5E-1,-8.196559E-4,-1.5929058E-2,-6.0012657E-3,-2.4387572E-2,6.8922164E-3,2.4109524E-2,-1.0236821E-2,6.803241E-2,1.3488886E-2,5.8914283E-3,-7.492085E-3,2.0577127E-2,-8.527647E-4,-1.2018715E-2,1.44174E-2,6.3404135E-2],"split_indices":[3,0,0,0,14,10,0,10,14,9,0,0,0,0,9,0,0,0,0,0,0,0,0,0,0,0,0,0,0,0,0],"split_type":[0,0,0,0,0,0,0,0,0,0,0,0,0,0,0,0,0,0,0,0,0,0,0,0,0,0,0,0,0,0,0],"sum_hessian":[2.2075277E4,1.717562E4,4.8996587E3,1.4601724E4,2.5738955E3,3.9393708E3,9.6028784E2,1.0144717E4,4.457007E3,2.0061702E3,5.677253E2,3.681891E3,2.5747952E2,8.997009E2,6.058694E1,9.428125E3,7.1659155E2,3.6470288E3,8.09978E2,1.5794138E3,4.2675626E2,5.5758636E2,1.0138944E1,4.7358502E2,3.2083062E3,2.2671281E2,3.0766706E1,7.2013245E2,1.7956848E2,5.4031593E1,6.5553455E0],"tree_param":{"num_deleted":"0","num_feature":"15","num_nodes":"31","size_leaf_vector":"0"}},{"base_weights":[-8.918395E-3,-2.3403076E-2,4.1803744E-2,-3.7576176E-2,5.6681033E-2,5.54299E-2,-1.4102452E-2,-2.7785173E-2,-1.4301775E-1,2.2189159E-2,1.8456666E-1,-9.092953E-2,5.9959393E-2,-3.079581E-2,1.5525445E-1,-3.8856085E-2,8.9446165E-2,5.21117E-1,-1.7835854E-1,9.114122E-3,3.204563E-1,1.6476415E-1,5.0168294E-1,-1.556917E-1,7.029774E-2,2.1992405E-1,4.741036E-2,-1.1545509E-2,-1.636692E-1,4.326406E-2,8.071485E-1],"categories":[],"categories_nodes":[],"categories_segments":[],"categories_sizes":[],"default_left":[1,1,1,1,1,1,1,1,1,1,1,1,1,1,1,0,0,0,0,0,0,0,0,0,0,0,0,0,0,0,0],"id":44,"left_children":[1,3,5,7,9,11,13,15,17,19,21,23,25,27,29,-1,-1,-1,-1,-1,-1,-1,-1,-1,-1,-1,-1,-1,-1,-1,-1],"loss_changes":[1.6202818E1,1.9473198E1,3.7327566E0,1.50436325E1,1.1375703E1,2.6168404E0,2.7212148E0,1.7314884E1,2.9155104E1,7.925434E0,3.3578053E0,1.2497709E0,7.660839E0,2.2374232E0,6.271119E0,0E0,0E0,0E0,0E0,0E0,0E0,0E0,0E0,0E0,0E0,0E0,0E0,0E0,0E0,0E0,0E0],"parents":[2147483647,0,0,1,1,2,2,3,3,4,4,5,5,6,6,7,7,8,8,9,9,10,10,11,11,12,12,13,13,14,14],"right_children":[2,4,6,8,10,12,14,16,18,20,22,24,26,28,30,-1,-1,-1,-1,-1,-1,-1,-1,-1,-1,-1,-1,-1,-1,-1,-1],"split_conditions":[5E-1,6.25E1,5.55E1,5E-1,5E-1,1.95E1,7.75E1,5E-1,2.85E1,8.75E1,8.25E1,5E-1,2.25E1,7.15E1,5E-1,-3.8856086E-3,8.944617E-3,5.2111696E-2,-1.7835854E-2,9.1141224E-4,3.204563E-2,1.6476415E-2,5.0168294E-2,-1.556917E-2,7.029774E-3,2.1992406E-2,4.7410363E-3,-1.1545509E-3,-1.636692E-2,4.3264064E-3,8.071485E-2],"split_indices":[3,0,0,5,9,0,0,6,0,0,0,12,0,0,9,0,0,0,0,0,0,0,0,0,0,0,0,0,0,0,0],"split_type":[0,0,0,0,0,0,0,0,0,0,0,0,0,0,0,0,0,0,0,0,0,0,0,0,0,0,0,0,0,0,0],"sum_hessian":[2.20515E4,1.7153521E4,4.897979E3,1.4574662E4,2.5788591E3,3.938136E3,9.59843E2,1.3337448E4,1.2372137E3,2.0319878E3,5.4687134E2,1.1764527E2,3.8204907E3,8.744659E2,8.537716E1,1.21872E4,1.1502474E3,6.1815334E1,1.1753983E3,1.9476403E3,8.4347496E1,5.161591E2,3.0712275E1,8.395596E1,3.368931E1,2.7670892E2,3.5437817E3,7.64757E2,1.0970884E2,7.377035E1,1.16068125E1],"tree_param":{"num_deleted":"0","num_feature":"15","num_nodes":"31","size_leaf_vector":"0"}},{"base_weights":[-8.034141E-3,-2.1902982E-2,3.8623024E-2,-2.664735E-2,1.4205505E-1,2.941221E-2,1.06956266E-1,1.5334654E-2,-4.7605697E-2,8.874538E-2,2.7174053E-1,2.5635105E-2,1.8583676E-1,6.647063E-2,1.9072549E-1,-4.227511E-2,1.9272892E-1,-2.8887613E-2,-1.4456037E-1,1.1693153E-1,-8.581054E-2,2.288393E-1,6.3569385E-1,2.6694832E-2,-2.0088668E-1,3.241705E-1,-3.0792242E-1,-2.1511535E-3,2.0695585E-1,2.5458115E-1,-1.6750497E-1],"categories":[],"categories_nodes":[],"categories_segments":[],"categories_sizes":[],"default_left":[1,1,1,1,1,1,1,1,1,1,1,1,1,1,1,0,0,0,0,0,0,0,0,0,0,0,0,0,0,0,0],"id":45,"left_children":[1,3,5,7,9,11,13,15,17,19,21,23,25,27,29,-1,-1,-1,-1,-1,-1,-1,-1,-1,-1,-1,-1,-1,-1,-1,-1],"loss_changes":[1.425494E1,1.3213241E1,3.1740236E0,1.4522768E1,3.2786045E0,2.6242478E0,2.0195417E0,5.6181538E1,1.9975163E1,1.6830397E0,2.0199404E0,1.0486088E0,7.254677E0,3.9097164E0,4.4965687E0,0E0,0E0,0E0,0E0,0E0,0E0,0E0,0E0,0E0,0E0,0E0,0E0,0E0,0E0,0E0,0E0],"parents":[2147483647,0,0,1,1,2,2,3,3,4,4,5,5,6,6,7,7,8,8,9,9,10,10,11,11,12,12,13,13,14,14],"right_children":[2,4,6,8,10,12,14,16,18,20,22,24,26,28,30,-1,-1,-1,-1,-1,-1,-1,-1,-1,-1,-1,-1,-1,-1,-1,-1],"split_conditions":[5E-1,7.95E1,5E-1,3.15E1,8.65E1,7.15E1,4.45E1,5E-1,5E-1,5E-1,5E-1,7.05E1,5E-1,5E-1,5E-1,-4.227511E-3,1.9272892E-2,-2.8887612E-3,-1.44560365E-2,1.1693153E-2,-8.581054E-3,2.288393E-2,6.356939E-2,2.6694832E-3,-2.0088669E-2,3.241705E-2,-3.0792242E-2,-2.1511536E-4,2.0695586E-2,2.5458116E-2,-1.6750498E-2],"split_indices":[8,0,4,0,0,0,0,12,14,12,9,0,14,3,14,0,0,0,0,0,0,0,0,0,0,0,0,0,0,0,0],"split_type":[0,0,0,0,0,0,0,0,0,0,0,0,0,0,0,0,0,0,0,0,0,0,0,0,0,0,0,0,0,0,0],"sum_hessian":[2.2027307E4,1.698041E4,5.046896E3,1.650369E4,4.7672125E2,4.4486777E3,5.982183E2,5.495611E3,1.1008078E4,3.3903766E2,1.3768358E2,4.344927E3,1.0375087E2,4.0451154E2,1.9370677E2,4.148971E3,1.3466395E3,9.227847E3,1.7802317E3,2.921873E2,4.6850372E1,1.2462239E2,1.3061183E1,4.3255728E3,1.9354002E1,8.1313255E1,2.2437614E1,2.724262E2,1.3208533E2,1.6464725E2,2.9059528E1],"tree_param":{"num_deleted":"0","num_feature":"15","num_nodes":"31","size_leaf_vector":"0"}},{"base_weights":[-7.240188E-3,-4.893227E-2,7.806075E-3,-7.244373E-2,7.869173E-2,1.5545945E-2,-8.476001E-2,-8.050347E-2,9.375402E-2,9.903075E-2,-1.5030964E-1,1.9342247E-2,-1.5733366E-1,-9.4140634E-2,4.4945788E-1,-9.44906E-2,1.5030654E-2,1.7555922E-2,5.1336855E-1,3.1451263E-2,1.64966E-1,-3.522507E-1,1.3470891E-1,4.276762E-2,-8.150177E-3,-2.9551965E-1,-7.1356356E-2,9.647965E-2,-1.1007651E-1,1.3605362E0,9.0118535E-2],"categories":[],"categories_nodes":[],"categories_segments":[],"categories_sizes":[],"default_left":[1,1,1,1,1,1,1,1,1,1,1,1,1,1,1,0,0,0,0,0,0,0,0,0,0,0,0,0,0,0,0],"id":46,"left_children":[1,3,5,7,9,11,13,15,17,19,21,23,25,27,29,-1,-1,-1,-1,-1,-1,-1,-1,-1,-1,-1,-1,-1,-1,-1,-1],"loss_changes":[1.380747E1,1.7520052E1,1.1589237E1,6.6105328E0,4.246368E0,9.799621E0,6.2973623E0,6.284382E0,7.2956047E0,3.7154388E0,4.3357096E0,9.407587E0,3.7908812E0,3.7393322E0,6.985801E0,0E0,0E0,0E0,0E0,0E0,0E0,0E0,0E0,0E0,0E0,0E0,0E0,0E0,0E0,0E0,0E0],"parents":[2147483647,0,0,1,1,2,2,3,3,4,4,5,5,6,6,7,7,8,8,9,9,10,10,11,11,12,12,13,13,14,14],"right_children":[2,4,6,8,10,12,14,16,18,20,22,24,26,28,30,-1,-1,-1,-1,-1,-1,-1,-1,-1,-1,-1,-1,-1,-1,-1,-1],"split_conditions":[5E-1,5E-1,5E-1,7.55E1,7.75E1,5E-1,8.45E1,5E-1,5E-1,5.25E1,8.35E1,4.25E1,2.95E1,2.15E1,5E-1,-9.44906E-3,1.5030655E-3,1.7555923E-3,5.1336855E-2,3.1451264E-3,1.64966E-2,-3.522507E-2,1.3470891E-2,4.2767623E-3,-8.1501773E-4,-2.9551966E-2,-7.1356357E-3,9.6479645E-3,-1.1007651E-2,1.3605362E-1,9.0118535E-3],"split_indices":[1,6,10,0,0,11,0,4,5,0,0,0,0,0,13,0,0,0,0,0,0,0,0,0,0,0,0,0,0,0,0],"split_type":[0,0,0,0,0,0,0,0,0,0,0,0,0,0,0,0,0,0,0,0,0,0,0,0,0,0,0,0,0,0,0],